network unknown {
}
variable Age {
    type discrete [ 6 ] { 1, 2, 3, 4, 5, 6 };
    property weight = None ;
}
variable AnyHealthcare {
    type discrete [ 2 ] { 0, 1 };
    property weight = None ;
}
variable BMI {
    type discrete [ 3 ] { 0, 1, 2 };
    property weight = None ;
}
variable CholCheck {
    type discrete [ 2 ] { 0, 1 };
    property weight = None ;
}
variable Diabetes_binary {
    type discrete [ 2 ] { 0, 1 };
    property weight = None ;
}
variable DiffWalk {
    type discrete [ 2 ] { 0, 1 };
    property weight = None ;
}
variable Education {
    type discrete [ 3 ] { 1, 2, 3 };
    property weight = None ;
}
variable Fruits {
    type discrete [ 2 ] { 0, 1 };
    property weight = None ;
}
variable GenHlth {
    type discrete [ 3 ] { 1, 2, 3 };
    property weight = None ;
}
variable HeartDiseaseorAttack {
    type discrete [ 2 ] { 0, 1 };
    property weight = None ;
}
variable HighBP {
    type discrete [ 2 ] { 0, 1 };
    property weight = None ;
}
variable HighChol {
    type discrete [ 2 ] { 0, 1 };
    property weight = None ;
}
variable HvyAlcoholConsump {
    type discrete [ 2 ] { 0, 1 };
    property weight = None ;
}
variable Income {
    type discrete [ 4 ] { 1, 2, 3, 4 };
    property weight = None ;
}
variable MentHlth {
    type discrete [ 3 ] { 0, 1, 2 };
    property weight = None ;
}
variable NoDocbcCost {
    type discrete [ 2 ] { 0, 1 };
    property weight = None ;
}
variable PhysActivity {
    type discrete [ 2 ] { 0, 1 };
    property weight = None ;
}
variable PhysHlth {
    type discrete [ 3 ] { 0, 1, 2 };
    property weight = None ;
}
variable Sex {
    type discrete [ 2 ] { 0, 1 };
    property weight = None ;
}
variable Smoker {
    type discrete [ 2 ] { 0, 1 };
    property weight = None ;
}
variable Stroke {
    type discrete [ 2 ] { 0, 1 };
    property weight = None ;
}
variable Veggies {
    type discrete [ 2 ] { 0, 1 };
    property weight = None ;
}
probability ( Age | HighBP, Income ) {
    ( 0, 1 ) 0.12732784755305326, 0.12440450411433521, 0.14432654828930272, 0.23451710697271547, 0.1996535296665223, 0.16977046340407104;
    ( 0, 2 ) 0.1225973089860644, 0.1293248438250841, 0.13130706391158098, 0.1776790004805382, 0.20422873618452667, 0.23486304661220567;
    ( 0, 3 ) 0.10656365921702075, 0.13121187038229254, 0.12992427726171862, 0.19237254360955272, 0.23044851160366658, 0.2094791379257488;
    ( 0, 4 ) 0.06059202297679159, 0.15239495992958726, 0.2170635104461018, 0.2668156761013573, 0.20738175753925975, 0.0957520730069023;
    ( 1, 1 ) 0.01391810972649296, 0.03584722446997896, 0.09338080595565626, 0.2464800129470788, 0.29252306198413985, 0.3178507849166532;
    ( 1, 2 ) 0.014629639135567989, 0.032185206098249576, 0.07037626405215339, 0.16970381397258869, 0.2822750372157487, 0.4308300395256917;
    ( 1, 3 ) 0.011367458128741507, 0.033328849128943294, 0.06279007197148045, 0.1567565749646869, 0.3239389251362077, 0.4118181206699401;
    ( 1, 4 ) 0.012231251058066701, 0.04536990011850347, 0.10758422210936178, 0.24748180125275096, 0.33908921618418825, 0.24824360927712882;

}
probability ( AnyHealthcare ) {
    table 0.04894749290444655, 0.9510525070955534 ;
}
probability ( BMI ) {
    table 0.28413749605802585, 0.6617116051718701, 0.05415089877010407 ;
}
probability ( CholCheck | AnyHealthcare ) {
    ( 0 ) 0.1356205202544898, 0.8643794797455102;
    ( 1 ) 0.032271836129037605, 0.9677281638709624;

}
probability ( Diabetes_binary | HighBP ) {
    ( 0 ) 0.9396483282821658, 0.06035167171783419;
    ( 1 ) 0.755543099725257, 0.24445690027474296;

}
probability ( DiffWalk | PhysHlth ) {
    ( 0 ) 0.9045382020316397, 0.09546179796836032;
    ( 1 ) 0.5876920907937403, 0.4123079092062597;
    ( 2 ) 0.3627934044616877, 0.6372065955383123;

}
probability ( Education | Fruits, HeartDiseaseorAttack, PhysHlth, Sex ) {
    ( 0, 0, 0, 0 ) 0.013420519117101168, 0.31495388481196995, 0.6716255960709289;
    ( 0, 0, 0, 1 ) 0.013043478260869565, 0.3055335968379447, 0.6814229249011857;
    ( 0, 0, 1, 0 ) 0.025844245348035838, 0.4062715368711234, 0.5678842177808407;
    ( 0, 0, 1, 1 ) 0.0378317334839074, 0.409373235460192, 0.5527950310559007;
    ( 0, 0, 2, 0 ) 0.03471933471933472, 0.4559251559251559, 0.5093555093555093;
    ( 0, 0, 2, 1 ) 0.043949604453559915, 0.44037503662467037, 0.5156753589217697;
    ( 0, 1, 0, 0 ) 0.034569138276553106, 0.46743486973947895, 0.49799599198396793;
    ( 0, 1, 0, 1 ) 0.03385483457296743, 0.3657348037958451, 0.6004103616311874;
    ( 0, 1, 1, 0 ) 0.0425531914893617, 0.4808510638297872, 0.4765957446808511;
    ( 0, 1, 1, 1 ) 0.035416666666666666, 0.4791666666666667, 0.48541666666666666;
    ( 0, 1, 2, 0 ) 0.06934001670843776, 0.49707602339181284, 0.43358395989974935;
    ( 0, 1, 2, 1 ) 0.05203136136849608, 0.47327156094084105, 0.4746970776906629;
    ( 1, 0, 0, 0 ) 0.01112956593385036, 0.2305297987261813, 0.7583406353399683;
    ( 1, 0, 0, 1 ) 0.012939181947502777, 0.22850127638014692, 0.7585595416723503;
    ( 1, 0, 1, 0 ) 0.021686746987951807, 0.3220883534136546, 0.6562248995983936;
    ( 1, 0, 1, 1 ) 0.022716516800757217, 0.301940369143398, 0.6753431140558448;
    ( 1, 0, 2, 0 ) 0.029369155801396023, 0.35743447912551035, 0.6131963650730936;
    ( 1, 0, 2, 1 ) 0.03137550200803213, 0.3468875502008032, 0.6217369477911646;
    ( 1, 1, 0, 0 ) 0.02779883750315896, 0.37503158958807176, 0.5971695729087693;
    ( 1, 1, 0, 1 ) 0.020014169323414807, 0.28533475026567484, 0.6946510804109104;
    ( 1, 1, 1, 0 ) 0.03282828282828283, 0.41035353535353536, 0.5568181818181818;
    ( 1, 1, 1, 1 ) 0.022123893805309734, 0.36578171091445427, 0.612094395280236;
    ( 1, 1, 2, 0 ) 0.04517568321249303, 0.4026770775237033, 0.5521472392638037;
    ( 1, 1, 2, 1 ) 0.04298356510745891, 0.3925410872313527, 0.5644753476611883;

}
probability ( Fruits | HeartDiseaseorAttack, Smoker ) {
    ( 0, 0 ) 0.331986531986532, 0.6680134680134681;
    ( 0, 1 ) 0.4042121652906107, 0.5957878347093892;
    ( 1, 0 ) 0.33798944126704794, 0.662010558732952;
    ( 1, 1 ) 0.4305114519289237, 0.5694885480710763;

}
probability ( GenHlth | BMI, DiffWalk, Education ) {
    ( 0, 0, 1 ) 0.28683385579937304, 0.6489028213166145, 0.06426332288401254;
    ( 0, 0, 2 ) 0.5412520290775636, 0.4302350201143341, 0.028512950808102195;
    ( 0, 0, 3 ) 0.7593525543753161, 0.23129994941831059, 0.009347496206373294;
    ( 0, 1, 1 ) 0.050335570469798654, 0.5671140939597316, 0.3825503355704698;
    ( 0, 1, 2 ) 0.12730109204368176, 0.5906396255850234, 0.28205928237129485;
    ( 0, 1, 3 ) 0.19401611047180667, 0.5912543153049482, 0.2147295742232451;
    ( 1, 0, 1 ) 0.2291220556745182, 0.69593147751606, 0.07494646680942184;
    ( 1, 0, 2 ) 0.46253469010175763, 0.5159244086163605, 0.021540901281881856;
    ( 1, 0, 3 ) 0.627906976744186, 0.36242328811369506, 0.009669735142118862;
    ( 1, 1, 1 ) 0.07473309608540925, 0.5604982206405694, 0.36476868327402134;
    ( 1, 1, 2 ) 0.12523656710277298, 0.6518555089278367, 0.22290792396939027;
    ( 1, 1, 3 ) 0.17753462779077858, 0.655935740939852, 0.16652963126936943;
    ( 2, 0, 1 ) 0.19444444444444445, 0.7407407407407407, 0.06481481481481481;
    ( 2, 0, 2 ) 0.279050736497545, 0.6861702127659575, 0.03477905073649754;
    ( 2, 0, 3 ) 0.36595666544252664, 0.6142122658832171, 0.019831068674256335;
    ( 2, 1, 1 ) 0.027624309392265192, 0.585635359116022, 0.3867403314917127;
    ( 2, 1, 2 ) 0.08092485549132948, 0.6564822460776218, 0.2625928984310487;
    ( 2, 1, 3 ) 0.09183673469387756, 0.7002551020408163, 0.20790816326530612;

}
probability ( HeartDiseaseorAttack | DiffWalk, NoDocbcCost ) {
    ( 0, 0 ) 0.9339593815567008, 0.06604061844329918;
    ( 0, 1 ) 0.9310156410081278, 0.06898435899187214;
    ( 1, 0 ) 0.7698681942049942, 0.23013180579500583;
    ( 1, 1 ) 0.7558468642931625, 0.24415313570683747;

}
probability ( HighBP | HighChol, Stroke ) {
    ( 0, 0 ) 0.7051939938084842, 0.2948060061915158;
    ( 0, 1 ) 0.40236523652365236, 0.5976347634763476;
    ( 1, 0 ) 0.4134046663694457, 0.5865953336305543;
    ( 1, 1 ) 0.18088942307692307, 0.8191105769230769;

}
probability ( HighChol | BMI, CholCheck, DiffWalk, HeartDiseaseorAttack, Stroke ) {
    ( 0, 0, 0, 0, 0 ) 0.8593204191806922, 0.1406795808193077;
    ( 0, 0, 0, 0, 1 ) 0.8148148148148148, 0.18518518518518517;
    ( 0, 0, 0, 1, 0 ) 0.6666666666666666, 0.3333333333333333;
    ( 0, 0, 0, 1, 1 ) 0.5454545454545454, 0.45454545454545453;
    ( 0, 0, 1, 0, 0 ) 0.7172774869109948, 0.28272251308900526;
    ( 0, 0, 1, 0, 1 ) 0.5294117647058824, 0.47058823529411764;
    ( 0, 0, 1, 1, 0 ) 0.3333333333333333, 0.6666666666666666;
    ( 0, 0, 1, 1, 1 ) 0.3, 0.7;
    ( 0, 1, 0, 0, 0 ) 0.7103815501798434, 0.28961844982015655;
    ( 0, 1, 0, 0, 1 ) 0.46875, 0.53125;
    ( 0, 1, 0, 1, 0 ) 0.37980085348506404, 0.620199146514936;
    ( 0, 1, 0, 1, 1 ) 0.4004914004914005, 0.5995085995085995;
    ( 0, 1, 1, 0, 0 ) 0.5665850442644565, 0.4334149557355434;
    ( 0, 1, 1, 0, 1 ) 0.4283185840707965, 0.5716814159292035;
    ( 0, 1, 1, 1, 0 ) 0.351288056206089, 0.6487119437939111;
    ( 0, 1, 1, 1, 1 ) 0.34573304157549234, 0.6542669584245077;
    ( 1, 0, 0, 0, 0 ) 0.7907117008443908, 0.20928829915560918;
    ( 1, 0, 0, 0, 1 ) 0.7222222222222222, 0.2777777777777778;
    ( 1, 0, 0, 1, 0 ) 0.4186046511627907, 0.5813953488372093;
    ( 1, 0, 0, 1, 1 ) 0.35714285714285715, 0.6428571428571429;
    ( 1, 0, 1, 0, 0 ) 0.6244444444444445, 0.37555555555555553;
    ( 1, 0, 1, 0, 1 ) 0.4, 0.6;
    ( 1, 0, 1, 1, 0 ) 0.48, 0.52;
    ( 1, 0, 1, 1, 1 ) 0.18181818181818182, 0.8181818181818182;
    ( 1, 1, 0, 0, 0 ) 0.5851628617429716, 0.41483713825702845;
    ( 1, 1, 0, 0, 1 ) 0.40383830134748877, 0.5961616986525112;
    ( 1, 1, 0, 1, 0 ) 0.2878535773710483, 0.7121464226289518;
    ( 1, 1, 0, 1, 1 ) 0.285451197053407, 0.714548802946593;
    ( 1, 1, 1, 0, 0 ) 0.43834858694558987, 0.5616514130544101;
    ( 1, 1, 1, 0, 1 ) 0.33258173618940245, 0.6674182638105975;
    ( 1, 1, 1, 1, 0 ) 0.27052771956563154, 0.7294722804343684;
    ( 1, 1, 1, 1, 1 ) 0.2287621359223301, 0.7712378640776699;
    ( 2, 0, 0, 0, 0 ) 0.748, 0.252;
    ( 2, 0, 0, 0, 1 ) 0.5, 0.5;
    ( 2, 0, 0, 1, 0 ) 0.5, 0.5;
    ( 2, 0, 0, 1, 1 ) 0.5, 0.5;
    ( 2, 0, 1, 0, 0 ) 0.6419753086419753, 0.35802469135802467;
    ( 2, 0, 1, 0, 1 ) 0.0, 1.0;
    ( 2, 0, 1, 1, 0 ) 0.625, 0.375;
    ( 2, 0, 1, 1, 1 ) 0.4, 0.6;
    ( 2, 1, 0, 0, 0 ) 0.6080493619408217, 0.39195063805917824;
    ( 2, 1, 0, 0, 1 ) 0.45901639344262296, 0.5409836065573771;
    ( 2, 1, 0, 1, 0 ) 0.3355855855855856, 0.6644144144144144;
    ( 2, 1, 0, 1, 1 ) 0.3333333333333333, 0.6666666666666666;
    ( 2, 1, 1, 0, 0 ) 0.45382775119617225, 0.5461722488038278;
    ( 2, 1, 1, 0, 1 ) 0.3333333333333333, 0.6666666666666666;
    ( 2, 1, 1, 1, 0 ) 0.2631016042780749, 0.7368983957219252;
    ( 2, 1, 1, 1, 1 ) 0.2551440329218107, 0.7448559670781894;

}
probability ( HvyAlcoholConsump ) {
    table 0.9438032166508987, 0.05619678334910123 ;
}
probability ( Income | Education, GenHlth, HighChol, PhysActivity, Stroke, Veggies ) {
    ( 1, 1, 0, 0, 0, 0 ) 0.37142857142857144, 0.3142857142857143, 0.2571428571428571, 0.05714285714285714;
    ( 1, 1, 0, 0, 0, 1 ) 0.22826086956521738, 0.33695652173913043, 0.25, 0.18478260869565216;
    ( 1, 1, 0, 0, 1, 0 ) 1.0, 0.0, 0.0, 0.0;
    ( 1, 1, 0, 0, 1, 1 ) 0.3333333333333333, 0.6666666666666666, 0.0, 0.0;
    ( 1, 1, 0, 1, 0, 0 ) 0.1935483870967742, 0.5, 0.1935483870967742, 0.11290322580645161;
    ( 1, 1, 0, 1, 0, 1 ) 0.20161290322580644, 0.29838709677419356, 0.2701612903225806, 0.22983870967741934;
    ( 1, 1, 0, 1, 1, 0 ) 1.0, 0.0, 0.0, 0.0;
    ( 1, 1, 0, 1, 1, 1 ) 0.375, 0.25, 0.375, 0.0;
    ( 1, 1, 1, 0, 0, 0 ) 0.3170731707317073, 0.24390243902439024, 0.34146341463414637, 0.0975609756097561;
    ( 1, 1, 1, 0, 0, 1 ) 0.2631578947368421, 0.3157894736842105, 0.3333333333333333, 0.08771929824561403;
    ( 1, 1, 1, 0, 1, 0 ) 0.25, 0.5, 0.25, 0.0;
    ( 1, 1, 1, 0, 1, 1 ) 0.42857142857142855, 0.42857142857142855, 0.14285714285714285, 0.0;
    ( 1, 1, 1, 1, 0, 0 ) 0.3902439024390244, 0.2682926829268293, 0.17073170731707318, 0.17073170731707318;
    ( 1, 1, 1, 1, 0, 1 ) 0.25196850393700787, 0.29133858267716534, 0.23622047244094488, 0.2204724409448819;
    ( 1, 1, 1, 1, 1, 0 ) 0.0, 0.0, 1.0, 0.0;
    ( 1, 1, 1, 1, 1, 1 ) 0.375, 0.375, 0.125, 0.125;
    ( 1, 2, 0, 0, 0, 0 ) 0.4228571428571429, 0.3314285714285714, 0.2, 0.045714285714285714;
    ( 1, 2, 0, 0, 0, 1 ) 0.36741214057507987, 0.36421725239616615, 0.20447284345047922, 0.06389776357827476;
    ( 1, 2, 0, 0, 1, 0 ) 0.5, 0.3, 0.2, 0.0;
    ( 1, 2, 0, 0, 1, 1 ) 0.6, 0.3, 0.05, 0.05;
    ( 1, 2, 0, 1, 0, 0 ) 0.4076086956521739, 0.34782608695652173, 0.19021739130434784, 0.05434782608695652;
    ( 1, 2, 0, 1, 0, 1 ) 0.3418181818181818, 0.3709090909090909, 0.2109090909090909, 0.07636363636363637;
    ( 1, 2, 0, 1, 1, 0 ) 0.3, 0.6, 0.0, 0.1;
    ( 1, 2, 0, 1, 1, 1 ) 0.45454545454545453, 0.36363636363636365, 0.18181818181818182, 0.0;
    ( 1, 2, 1, 0, 0, 0 ) 0.45893719806763283, 0.27053140096618356, 0.2222222222222222, 0.04830917874396135;
    ( 1, 2, 1, 0, 0, 1 ) 0.46846846846846846, 0.3183183183183183, 0.16816816816816818, 0.04504504504504504;
    ( 1, 2, 1, 0, 1, 0 ) 0.6923076923076923, 0.15384615384615385, 0.07692307692307693, 0.07692307692307693;
    ( 1, 2, 1, 0, 1, 1 ) 0.4857142857142857, 0.34285714285714286, 0.11428571428571428, 0.05714285714285714;
    ( 1, 2, 1, 1, 0, 0 ) 0.4270833333333333, 0.2604166666666667, 0.25, 0.0625;
    ( 1, 2, 1, 1, 0, 1 ) 0.3690909090909091, 0.36727272727272725, 0.20727272727272728, 0.056363636363636366;
    ( 1, 2, 1, 1, 1, 0 ) 0.5, 0.2857142857142857, 0.17857142857142858, 0.03571428571428571;
    ( 1, 2, 1, 1, 1, 1 ) 0.45454545454545453, 0.3181818181818182, 0.13636363636363635, 0.09090909090909091;
    ( 1, 3, 0, 0, 0, 0 ) 0.5813953488372093, 0.3023255813953488, 0.06976744186046512, 0.046511627906976744;
    ( 1, 3, 0, 0, 0, 1 ) 0.5066666666666667, 0.30666666666666664, 0.13333333333333333, 0.05333333333333334;
    ( 1, 3, 0, 0, 1, 0 ) 0.75, 0.25, 0.0, 0.0;
    ( 1, 3, 0, 0, 1, 1 ) 0.3333333333333333, 0.5, 0.16666666666666666, 0.0;
    ( 1, 3, 0, 1, 0, 0 ) 0.4166666666666667, 0.4166666666666667, 0.125, 0.041666666666666664;
    ( 1, 3, 0, 1, 0, 1 ) 0.4915254237288136, 0.3220338983050847, 0.13559322033898305, 0.05084745762711865;
    ( 1, 3, 0, 1, 1, 0 ) 0.0, 0.0, 0.0, 1.0;
    ( 1, 3, 0, 1, 1, 1 ) 0.7777777777777778, 0.1111111111111111, 0.1111111111111111, 0.0;
    ( 1, 3, 1, 0, 0, 0 ) 0.65625, 0.25, 0.07291666666666667, 0.020833333333333332;
    ( 1, 3, 1, 0, 0, 1 ) 0.5126582278481012, 0.35443037974683544, 0.11392405063291139, 0.0189873417721519;
    ( 1, 3, 1, 0, 1, 0 ) 0.42857142857142855, 0.4857142857142857, 0.08571428571428572, 0.0;
    ( 1, 3, 1, 0, 1, 1 ) 0.6, 0.2857142857142857, 0.11428571428571428, 0.0;
    ( 1, 3, 1, 1, 0, 0 ) 0.6666666666666666, 0.23333333333333334, 0.1, 0.0;
    ( 1, 3, 1, 1, 0, 1 ) 0.562962962962963, 0.25925925925925924, 0.1111111111111111, 0.06666666666666667;
    ( 1, 3, 1, 1, 1, 0 ) 0.6, 0.2, 0.2, 0.0;
    ( 1, 3, 1, 1, 1, 1 ) 0.45454545454545453, 0.4090909090909091, 0.13636363636363635, 0.0;
    ( 2, 1, 0, 0, 0, 0 ) 0.11931394481730052, 0.23564504101416853, 0.33109619686800895, 0.313944817300522;
    ( 2, 1, 0, 0, 0, 1 ) 0.08545830461750517, 0.19228118538938663, 0.3335630599586492, 0.388697450034459;
    ( 2, 1, 0, 0, 1, 0 ) 0.22580645161290322, 0.3870967741935484, 0.2903225806451613, 0.0967741935483871;
    ( 2, 1, 0, 0, 1, 1 ) 0.22641509433962265, 0.3018867924528302, 0.3018867924528302, 0.16981132075471697;
    ( 2, 1, 0, 1, 0, 0 ) 0.11150234741784038, 0.20539906103286384, 0.32511737089201875, 0.357981220657277;
    ( 2, 1, 0, 1, 0, 1 ) 0.0676288278286613, 0.15995929318160793, 0.311962253677491, 0.4604496253122398;
    ( 2, 1, 0, 1, 1, 0 ) 0.14, 0.2, 0.48, 0.18;
    ( 2, 1, 0, 1, 1, 1 ) 0.1095890410958904, 0.3287671232876712, 0.3424657534246575, 0.2191780821917808;
    ( 2, 1, 1, 0, 0, 0 ) 0.12976190476190477, 0.25357142857142856, 0.32976190476190476, 0.2869047619047619;
    ( 2, 1, 1, 0, 0, 1 ) 0.08963093145869948, 0.2126537785588752, 0.3333333333333333, 0.36438195664909195;
    ( 2, 1, 1, 0, 1, 0 ) 0.1875, 0.3958333333333333, 0.2708333333333333, 0.14583333333333334;
    ( 2, 1, 1, 0, 1, 1 ) 0.13513513513513514, 0.28378378378378377, 0.43243243243243246, 0.14864864864864866;
    ( 2, 1, 1, 1, 0, 0 ) 0.10721793973370708, 0.20392431674842326, 0.33847231955150664, 0.350385423966363;
    ( 2, 1, 1, 1, 0, 1 ) 0.0632034632034632, 0.1709090909090909, 0.32727272727272727, 0.4386147186147186;
    ( 2, 1, 1, 1, 1, 0 ) 0.1, 0.46, 0.26, 0.18;
    ( 2, 1, 1, 1, 1, 1 ) 0.10714285714285714, 0.27976190476190477, 0.39285714285714285, 0.22023809523809523;
    ( 2, 2, 0, 0, 0, 0 ) 0.21204188481675393, 0.3023560209424084, 0.28534031413612565, 0.20026178010471204;
    ( 2, 2, 0, 0, 0, 1 ) 0.16777566539923955, 0.2754277566539924, 0.3155893536121673, 0.24120722433460076;
    ( 2, 2, 0, 0, 1, 0 ) 0.2653061224489796, 0.2857142857142857, 0.3333333333333333, 0.11564625850340136;
    ( 2, 2, 0, 0, 1, 1 ) 0.2543103448275862, 0.35344827586206895, 0.2629310344827586, 0.12931034482758622;
    ( 2, 2, 0, 1, 0, 0 ) 0.19344141488577746, 0.28039793662490786, 0.2980840088430361, 0.22807663964627856;
    ( 2, 2, 0, 1, 0, 1 ) 0.1491083998122947, 0.26114500234631627, 0.31206006569685596, 0.2776865321445331;
    ( 2, 2, 0, 1, 1, 0 ) 0.2536231884057971, 0.38405797101449274, 0.1956521739130435, 0.16666666666666666;
    ( 2, 2, 0, 1, 1, 1 ) 0.20221606648199447, 0.3462603878116344, 0.2742382271468144, 0.1772853185595568;
    ( 2, 2, 1, 0, 0, 0 ) 0.21762452107279692, 0.3164750957854406, 0.2877394636015326, 0.1781609195402299;
    ( 2, 2, 1, 0, 0, 1 ) 0.19204188481675394, 0.2764397905759162, 0.31287958115183245, 0.2186387434554974;
    ( 2, 2, 1, 0, 1, 0 ) 0.24475524475524477, 0.3951048951048951, 0.2727272727272727, 0.08741258741258741;
    ( 2, 2, 1, 0, 1, 1 ) 0.25806451612903225, 0.30752688172043013, 0.3118279569892473, 0.12258064516129032;
    ( 2, 2, 1, 1, 0, 0 ) 0.20670194003527337, 0.2779541446208113, 0.30052910052910053, 0.21481481481481482;
    ( 2, 2, 1, 1, 0, 1 ) 0.15806214827501835, 0.250917543430389, 0.31844873990702227, 0.27257156838757035;
    ( 2, 2, 1, 1, 1, 0 ) 0.3431372549019608, 0.30718954248366015, 0.27124183006535946, 0.0784313725490196;
    ( 2, 2, 1, 1, 1, 1 ) 0.24881141045958796, 0.329635499207607, 0.2836767036450079, 0.13787638668779714;
    ( 2, 3, 0, 0, 0, 0 ) 0.36585365853658536, 0.3712737127371274, 0.1951219512195122, 0.06775067750677506;
    ( 2, 3, 0, 0, 0, 1 ) 0.30362537764350456, 0.324773413897281, 0.22658610271903323, 0.14501510574018128;
    ( 2, 3, 0, 0, 1, 0 ) 0.3870967741935484, 0.3870967741935484, 0.1774193548387097, 0.04838709677419355;
    ( 2, 3, 0, 0, 1, 1 ) 0.3333333333333333, 0.3548387096774194, 0.23655913978494625, 0.07526881720430108;
    ( 2, 3, 0, 1, 0, 0 ) 0.39069767441860465, 0.34418604651162793, 0.19534883720930232, 0.06976744186046512;
    ( 2, 3, 0, 1, 0, 1 ) 0.3192307692307692, 0.3211538461538462, 0.2403846153846154, 0.11923076923076924;
    ( 2, 3, 0, 1, 1, 0 ) 0.2413793103448276, 0.4482758620689655, 0.20689655172413793, 0.10344827586206896;
    ( 2, 3, 0, 1, 1, 1 ) 0.47368421052631576, 0.3157894736842105, 0.14473684210526316, 0.06578947368421052;
    ( 2, 3, 1, 0, 0, 0 ) 0.40930232558139534, 0.34418604651162793, 0.17984496124031008, 0.06666666666666667;
    ( 2, 3, 1, 0, 0, 1 ) 0.3418560606060606, 0.3248106060606061, 0.22443181818181818, 0.10890151515151515;
    ( 2, 3, 1, 0, 1, 0 ) 0.44370860927152317, 0.36423841059602646, 0.13245033112582782, 0.059602649006622516;
    ( 2, 3, 1, 0, 1, 1 ) 0.39914163090128757, 0.31759656652360513, 0.19742489270386265, 0.08583690987124463;
    ( 2, 3, 1, 1, 0, 0 ) 0.439873417721519, 0.3069620253164557, 0.18037974683544303, 0.07278481012658228;
    ( 2, 3, 1, 1, 0, 1 ) 0.321256038647343, 0.3188405797101449, 0.24516908212560387, 0.11473429951690821;
    ( 2, 3, 1, 1, 1, 0 ) 0.48863636363636365, 0.29545454545454547, 0.17045454545454544, 0.045454545454545456;
    ( 2, 3, 1, 1, 1, 1 ) 0.3476190476190476, 0.34285714285714286, 0.21428571428571427, 0.09523809523809523;
    ( 3, 1, 0, 0, 0, 0 ) 0.04125950054288816, 0.10694896851248643, 0.2709011943539631, 0.5808903365906624;
    ( 3, 1, 0, 0, 0, 1 ) 0.03477051460361613, 0.09364858599907279, 0.24354813784577345, 0.6280327615515376;
    ( 3, 1, 0, 0, 1, 0 ) 0.14285714285714285, 0.17857142857142858, 0.2857142857142857, 0.39285714285714285;
    ( 3, 1, 0, 0, 1, 1 ) 0.08433734939759036, 0.1566265060240964, 0.27710843373493976, 0.4819277108433735;
    ( 3, 1, 0, 1, 0, 0 ) 0.03664053075995175, 0.0758443908323281, 0.21305790108564535, 0.6744571773220748;
    ( 3, 1, 0, 1, 0, 1 ) 0.020819969576452907, 0.05402928724593589, 0.17277275809614573, 0.7523779850814655;
    ( 3, 1, 0, 1, 1, 0 ) 0.025974025974025976, 0.15584415584415584, 0.3246753246753247, 0.4935064935064935;
    ( 3, 1, 0, 1, 1, 1 ) 0.035864978902953586, 0.09071729957805907, 0.25949367088607594, 0.6139240506329114;
    ( 3, 1, 1, 0, 0, 0 ) 0.04306632213608958, 0.12403100775193798, 0.28251507321274766, 0.5503875968992248;
    ( 3, 1, 1, 0, 0, 1 ) 0.0350361059106713, 0.08210751537844344, 0.24418293661406792, 0.6386734420968173;
    ( 3, 1, 1, 0, 1, 0 ) 0.10810810810810811, 0.24324324324324326, 0.3783783783783784, 0.2702702702702703;
    ( 3, 1, 1, 0, 1, 1 ) 0.06557377049180328, 0.19672131147540983, 0.3442622950819672, 0.39344262295081966;
    ( 3, 1, 1, 1, 0, 0 ) 0.029589198506176386, 0.08043665613329504, 0.21545532892846883, 0.6745188164320598;
    ( 3, 1, 1, 1, 0, 1 ) 0.01724596391263058, 0.05204178537511871, 0.1831718898385565, 0.7475403608736942;
    ( 3, 1, 1, 1, 1, 0 ) 0.08, 0.15, 0.26, 0.51;
    ( 3, 1, 1, 1, 1, 1 ) 0.04672897196261682, 0.11962616822429907, 0.2542056074766355, 0.5794392523364486;
    ( 3, 2, 0, 0, 0, 0 ) 0.10979087452471482, 0.18916349809885932, 0.3269961977186312, 0.3740494296577947;
    ( 3, 2, 0, 0, 0, 1 ) 0.07808398950131233, 0.16519028871391075, 0.28789370078740156, 0.4688320209973753;
    ( 3, 2, 0, 0, 1, 0 ) 0.1391304347826087, 0.20869565217391303, 0.3652173913043478, 0.28695652173913044;
    ( 3, 2, 0, 0, 1, 1 ) 0.08873720136518772, 0.20136518771331058, 0.34812286689419797, 0.36177474402730375;
    ( 3, 2, 0, 1, 0, 0 ) 0.09177820267686425, 0.1491395793499044, 0.2685058727123737, 0.4905763452608577;
    ( 3, 2, 0, 1, 0, 1 ) 0.05633311749763411, 0.11685012701100762, 0.2517308362803208, 0.5750859192110375;
    ( 3, 2, 0, 1, 1, 0 ) 0.15873015873015872, 0.1746031746031746, 0.30952380952380953, 0.35714285714285715;
    ( 3, 2, 0, 1, 1, 1 ) 0.1058282208588957, 0.19325153374233128, 0.3006134969325153, 0.4003067484662577;
    ( 3, 2, 1, 0, 0, 0 ) 0.12403100775193798, 0.1920757967269595, 0.29371231696813094, 0.39018087855297157;
    ( 3, 2, 1, 0, 0, 1 ) 0.08228431071538225, 0.1591955787534541, 0.30288609149524104, 0.45563401903592265;
    ( 3, 2, 1, 0, 1, 0 ) 0.21153846153846154, 0.27403846153846156, 0.27884615384615385, 0.23557692307692307;
    ( 3, 2, 1, 0, 1, 1 ) 0.13840155945419103, 0.21442495126705652, 0.3138401559454191, 0.3333333333333333;
    ( 3, 2, 1, 1, 0, 0 ) 0.08314154200230149, 0.1602416570771001, 0.2744533947065593, 0.48216340621403914;
    ( 3, 2, 1, 1, 0, 1 ) 0.056991968313345805, 0.11387391352183959, 0.25970953900319066, 0.5694245791616239;
    ( 3, 2, 1, 1, 1, 0 ) 0.17735849056603772, 0.2188679245283019, 0.2679245283018868, 0.33584905660377357;
    ( 3, 2, 1, 1, 1, 1 ) 0.11156685808039377, 0.17063166529942575, 0.2912223133716161, 0.4265791632485644;
    ( 3, 3, 0, 0, 0, 0 ) 0.2375886524822695, 0.2765957446808511, 0.2695035460992908, 0.21631205673758866;
    ( 3, 3, 0, 0, 0, 1 ) 0.2196765498652291, 0.26819407008086255, 0.20754716981132076, 0.3045822102425876;
    ( 3, 3, 0, 0, 1, 0 ) 0.3225806451612903, 0.2903225806451613, 0.3225806451612903, 0.06451612903225806;
    ( 3, 3, 0, 0, 1, 1 ) 0.24752475247524752, 0.3069306930693069, 0.24752475247524752, 0.19801980198019803;
    ( 3, 3, 0, 1, 0, 0 ) 0.25, 0.26744186046511625, 0.22674418604651161, 0.2558139534883721;
    ( 3, 3, 0, 1, 0, 1 ) 0.19189511323003575, 0.23361144219308702, 0.24433849821215733, 0.3301549463647199;
    ( 3, 3, 0, 1, 1, 0 ) 0.5, 0.23076923076923078, 0.19230769230769232, 0.07692307692307693;
    ( 3, 3, 0, 1, 1, 1 ) 0.24299065420560748, 0.24299065420560748, 0.34579439252336447, 0.16822429906542055;
    ( 3, 3, 1, 0, 0, 0 ) 0.2713936430317848, 0.3056234718826406, 0.2396088019559902, 0.18337408312958436;
    ( 3, 3, 1, 0, 0, 1 ) 0.23696682464454977, 0.23696682464454977, 0.27677725118483415, 0.24928909952606634;
    ( 3, 3, 1, 0, 1, 0 ) 0.33858267716535434, 0.28346456692913385, 0.2283464566929134, 0.14960629921259844;
    ( 3, 3, 1, 0, 1, 1 ) 0.25572519083969464, 0.2786259541984733, 0.2633587786259542, 0.20229007633587787;
    ( 3, 3, 1, 1, 0, 0 ) 0.23376623376623376, 0.26406926406926406, 0.2597402597402597, 0.24242424242424243;
    ( 3, 3, 1, 1, 0, 1 ) 0.2237960339943343, 0.20585457979225685, 0.2804532577903683, 0.2898961284230406;
    ( 3, 3, 1, 1, 1, 0 ) 0.3764705882352941, 0.24705882352941178, 0.23529411764705882, 0.1411764705882353;
    ( 3, 3, 1, 1, 1, 1 ) 0.26146788990825687, 0.22935779816513763, 0.27522935779816515, 0.23394495412844038;

}
probability ( MentHlth | GenHlth, Income ) {
    ( 1, 1 ) 0.8725332259363673, 0.05799436165928312, 0.06947241240434958;
    ( 1, 2 ) 0.9107337070191583, 0.04400568894838116, 0.04526060403246047;
    ( 1, 3 ) 0.9349336057201226, 0.03438883214164113, 0.030677562138236296;
    ( 1, 4 ) 0.9495992916657207, 0.029468522260312848, 0.020932186073966446;
    ( 2, 1 ) 0.7216687422166874, 0.10312889165628891, 0.17520236612702367;
    ( 2, 2 ) 0.7955007256894049, 0.08640541848089017, 0.11809385582970489;
    ( 2, 3 ) 0.8514416082528766, 0.07029493453246925, 0.07826345721465415;
    ( 2, 4 ) 0.8763059787361348, 0.05944216873015142, 0.06425185253371381;
    ( 3, 1 ) 0.44656084656084655, 0.1365079365079365, 0.41693121693121693;
    ( 3, 2 ) 0.5253850541928123, 0.12806617227609812, 0.34654877353108954;
    ( 3, 3 ) 0.5943775100401606, 0.12303760496531581, 0.28258488499452356;
    ( 3, 4 ) 0.6104085603112841, 0.11575875486381323, 0.27383268482490275;

}
probability ( NoDocbcCost | Sex ) {
    ( 0 ) 0.9047572090664487, 0.09524279093355122;
    ( 1 ) 0.9298873829516767, 0.07011261704832328;

}
probability ( PhysActivity | Education, PhysHlth ) {
    ( 1, 0 ) 0.38000696621386276, 0.6199930337861372;
    ( 1, 1 ) 0.449468085106383, 0.550531914893617;
    ( 1, 2 ) 0.5783505154639176, 0.4216494845360825;
    ( 2, 0 ) 0.30549427275454916, 0.6945057272454509;
    ( 2, 1 ) 0.43632850241545895, 0.563671497584541;
    ( 2, 2 ) 0.5498364441023668, 0.45016355589763324;
    ( 3, 0 ) 0.16563438377575573, 0.8343656162242443;
    ( 3, 1 ) 0.3029530978575565, 0.6970469021424436;
    ( 3, 2 ) 0.4511831240024981, 0.548816875997502;

}
probability ( PhysHlth ) {
    table 0.8424747713654999, 0.05592084515925576, 0.1016043834752444 ;
}
probability ( Sex | Stroke ) {
    ( 0 ) 0.5599618715795356, 0.44003812842046447;
    ( 1 ) 0.5524679362611737, 0.44753206373882626;

}
probability ( Smoker | DiffWalk, Sex ) {
    ( 0, 0 ) 0.6265693201718084, 0.37343067982819156;
    ( 0, 1 ) 0.5336395568765199, 0.46636044312348013;
    ( 1, 0 ) 0.4779555065269351, 0.5220444934730649;
    ( 1, 1 ) 0.32248062015503876, 0.6775193798449612;

}
probability ( Stroke ) {
    table 0.959429202144434, 0.04057079785556607 ;
}
probability ( Veggies | Diabetes_binary, Education ) {
    ( 0, 1 ) 0.2976230331436224, 0.7023769668563776;
    ( 0, 2 ) 0.2625454421907383, 0.7374545578092617;
    ( 0, 3 ) 0.1462477872712981, 0.8537522127287019;
    ( 1, 1 ) 0.3300813008130081, 0.6699186991869919;
    ( 1, 2 ) 0.3061667415057626, 0.6938332584942374;
    ( 1, 3 ) 0.1981786643538595, 0.8018213356461406;

}
