network unknown {
}
variable Age {
    type discrete [ 6 ] { 1, 2, 3, 4, 5, 6 };
    property weight = None ;
}
variable AnyHealthcare {
    type discrete [ 2 ] { 0, 1 };
    property weight = None ;
}
variable BMI {
    type discrete [ 3 ] { 0, 1, 2 };
    property weight = None ;
}
variable CholCheck {
    type discrete [ 2 ] { 0, 1 };
    property weight = None ;
}
variable Diabetes_binary {
    type discrete [ 2 ] { 0, 1 };
    property weight = None ;
}
variable DiffWalk {
    type discrete [ 2 ] { 0, 1 };
    property weight = None ;
}
variable Education {
    type discrete [ 3 ] { 1, 2, 3 };
    property weight = None ;
}
variable Fruits {
    type discrete [ 2 ] { 0, 1 };
    property weight = None ;
}
variable GenHlth {
    type discrete [ 3 ] { 1, 2, 3 };
    property weight = None ;
}
variable HeartDiseaseorAttack {
    type discrete [ 2 ] { 0, 1 };
    property weight = None ;
}
variable HighBP {
    type discrete [ 2 ] { 0, 1 };
    property weight = None ;
}
variable HighChol {
    type discrete [ 2 ] { 0, 1 };
    property weight = None ;
}
variable HvyAlcoholConsump {
    type discrete [ 2 ] { 0, 1 };
    property weight = None ;
}
variable Income {
    type discrete [ 4 ] { 1, 2, 3, 4 };
    property weight = None ;
}
variable MentHlth {
    type discrete [ 3 ] { 0, 1, 2 };
    property weight = None ;
}
variable NoDocbcCost {
    type discrete [ 2 ] { 0, 1 };
    property weight = None ;
}
variable PhysActivity {
    type discrete [ 2 ] { 0, 1 };
    property weight = None ;
}
variable PhysHlth {
    type discrete [ 3 ] { 0, 1, 2 };
    property weight = None ;
}
variable Sex {
    type discrete [ 2 ] { 0, 1 };
    property weight = None ;
}
variable Smoker {
    type discrete [ 2 ] { 0, 1 };
    property weight = None ;
}
variable Stroke {
    type discrete [ 2 ] { 0, 1 };
    property weight = None ;
}
variable Veggies {
    type discrete [ 2 ] { 0, 1 };
    property weight = None ;
}
probability ( Age | AnyHealthcare, Diabetes_binary, HeartDiseaseorAttack, HighBP, HighChol, NoDocbcCost ) {
    ( 0, 0, 0, 0, 0, 0 ) 0.19139216157730224, 0.23443135369079104, 0.1995672036547247, 0.23298869920654003, 0.11517191632603992, 0.026448665544602068;
    ( 0, 0, 0, 0, 0, 1 ) 0.1860587002096436, 0.2772536687631027, 0.24947589098532494, 0.21750524109014674, 0.06551362683438156, 0.0041928721174004195;
    ( 0, 0, 0, 0, 1, 0 ) 0.07947019867549669, 0.1467991169977925, 0.2163355408388521, 0.29911699779249445, 0.20309050772626933, 0.05518763796909492;
    ( 0, 0, 0, 0, 1, 1 ) 0.06569343065693431, 0.1989051094890511, 0.2645985401459854, 0.3266423357664234, 0.14051094890510948, 0.0036496350364963502;
    ( 0, 0, 0, 1, 0, 0 ) 0.06761177753544166, 0.11995637949836423, 0.1777535441657579, 0.3260632497273719, 0.23882224645583425, 0.0697928026172301;
    ( 0, 0, 0, 1, 0, 1 ) 0.08159722222222222, 0.18055555555555555, 0.2482638888888889, 0.3420138888888889, 0.140625, 0.006944444444444444;
    ( 0, 0, 0, 1, 1, 0 ) 0.02621231979030144, 0.0655307994757536, 0.14941022280471822, 0.32765399737876805, 0.30013106159895153, 0.1310615989515072;
    ( 0, 0, 0, 1, 1, 1 ) 0.03565640194489465, 0.11345218800648298, 0.24959481361426256, 0.39384116693679094, 0.19448946515397084, 0.012965964343598054;
    ( 0, 0, 1, 0, 0, 0 ) 0.04, 0.09333333333333334, 0.14666666666666667, 0.25333333333333335, 0.22666666666666666, 0.24;
    ( 0, 0, 1, 0, 0, 1 ) 0.08771929824561403, 0.12280701754385964, 0.19298245614035087, 0.42105263157894735, 0.17543859649122806, 0.0;
    ( 0, 0, 1, 0, 1, 0 ) 0.0, 0.0, 0.17073170731707318, 0.4634146341463415, 0.24390243902439024, 0.12195121951219512;
    ( 0, 0, 1, 0, 1, 1 ) 0.029411764705882353, 0.0, 0.23529411764705882, 0.4411764705882353, 0.2647058823529412, 0.029411764705882353;
    ( 0, 0, 1, 1, 0, 0 ) 0.0, 0.021739130434782608, 0.17391304347826086, 0.30434782608695654, 0.2826086956521739, 0.21739130434782608;
    ( 0, 0, 1, 1, 0, 1 ) 0.06153846153846154, 0.1076923076923077, 0.2153846153846154, 0.4, 0.18461538461538463, 0.03076923076923077;
    ( 0, 0, 1, 1, 1, 0 ) 0.0078125, 0.0078125, 0.0625, 0.375, 0.296875, 0.25;
    ( 0, 0, 1, 1, 1, 1 ) 0.0064516129032258064, 0.09032258064516129, 0.22580645161290322, 0.33548387096774196, 0.2967741935483871, 0.04516129032258064;
    ( 0, 1, 0, 0, 0, 0 ) 0.050505050505050504, 0.13131313131313133, 0.1414141414141414, 0.31313131313131315, 0.2222222222222222, 0.1414141414141414;
    ( 0, 1, 0, 0, 0, 1 ) 0.11627906976744186, 0.19767441860465115, 0.3023255813953488, 0.2441860465116279, 0.12790697674418605, 0.011627906976744186;
    ( 0, 1, 0, 0, 1, 0 ) 0.034482758620689655, 0.10344827586206896, 0.1839080459770115, 0.40229885057471265, 0.21839080459770116, 0.05747126436781609;
    ( 0, 1, 0, 0, 1, 1 ) 0.011904761904761904, 0.07142857142857142, 0.2857142857142857, 0.36904761904761907, 0.25, 0.011904761904761904;
    ( 0, 1, 0, 1, 0, 0 ) 0.014184397163120567, 0.04964539007092199, 0.11347517730496454, 0.3617021276595745, 0.36879432624113473, 0.09219858156028368;
    ( 0, 1, 0, 1, 0, 1 ) 0.020202020202020204, 0.0707070707070707, 0.1919191919191919, 0.5050505050505051, 0.20202020202020202, 0.010101010101010102;
    ( 0, 1, 0, 1, 1, 0 ) 0.006172839506172839, 0.009259259259259259, 0.1111111111111111, 0.3117283950617284, 0.41975308641975306, 0.1419753086419753;
    ( 0, 1, 0, 1, 1, 1 ) 0.004291845493562232, 0.0815450643776824, 0.24892703862660945, 0.40772532188841204, 0.2446351931330472, 0.012875536480686695;
    ( 0, 1, 1, 0, 0, 0 ) 0.0, 0.0, 0.3333333333333333, 0.0, 0.2222222222222222, 0.4444444444444444;
    ( 0, 1, 1, 0, 0, 1 ) 0.0, 0.16666666666666666, 0.16666666666666666, 0.3333333333333333, 0.3333333333333333, 0.0;
    ( 0, 1, 1, 0, 1, 0 ) 0.0, 0.0, 0.05, 0.3, 0.35, 0.3;
    ( 0, 1, 1, 0, 1, 1 ) 0.0, 0.16666666666666666, 0.0, 0.5, 0.3333333333333333, 0.0;
    ( 0, 1, 1, 1, 0, 0 ) 0.0, 0.03225806451612903, 0.06451612903225806, 0.2903225806451613, 0.2903225806451613, 0.3225806451612903;
    ( 0, 1, 1, 1, 0, 1 ) 0.0, 0.0, 0.3157894736842105, 0.2631578947368421, 0.2631578947368421, 0.15789473684210525;
    ( 0, 1, 1, 1, 1, 0 ) 0.010869565217391304, 0.0, 0.09782608695652174, 0.29347826086956524, 0.358695652173913, 0.2391304347826087;
    ( 0, 1, 1, 1, 1, 1 ) 0.0, 0.0, 0.1375, 0.5375, 0.2875, 0.0375;
    ( 1, 0, 0, 0, 0, 0 ) 0.10307589275036476, 0.172199765600708, 0.2026477552680045, 0.2280848621110287, 0.17900452055777463, 0.1149872037121194;
    ( 1, 0, 0, 0, 0, 1 ) 0.16360064297195928, 0.22396856581532418, 0.21593141632434362, 0.22914806215395606, 0.12091444900875156, 0.0464368637256653;
    ( 1, 0, 0, 0, 1, 0 ) 0.025696393867415245, 0.07474473270197736, 0.15063084184224326, 0.2635962612209643, 0.29993521917512417, 0.18539655119227566;
    ( 1, 0, 0, 0, 1, 1 ) 0.04618198445358939, 0.13305898491083676, 0.1984453589391861, 0.36899862825788754, 0.19707361682670324, 0.056241426611796985;
    ( 1, 0, 0, 1, 0, 0 ) 0.024058162590879048, 0.06212822207534699, 0.11655651024454726, 0.22458691341705223, 0.2870125578321216, 0.2856576338400529;
    ( 1, 0, 0, 1, 0, 1 ) 0.05423406279733587, 0.13225499524262607, 0.19980970504281637, 0.30637488106565175, 0.20742150333016174, 0.09990485252140818;
    ( 1, 0, 0, 1, 1, 0 ) 0.007192304234469118, 0.029128832149599927, 0.07333153525727472, 0.1971590398273847, 0.3361203512241901, 0.3570679373070814;
    ( 1, 0, 0, 1, 1, 1 ) 0.01980615254951538, 0.067425200168563, 0.14791403286978508, 0.3350189633375474, 0.2966708807416772, 0.13316477033291194;
    ( 1, 0, 1, 0, 0, 0 ) 0.015779092702169626, 0.04043392504930966, 0.058678500986193295, 0.14595660749506903, 0.2593688362919132, 0.4797830374753452;
    ( 1, 0, 1, 0, 0, 1 ) 0.024154589371980676, 0.0821256038647343, 0.1932367149758454, 0.24154589371980675, 0.28019323671497587, 0.178743961352657;
    ( 1, 0, 1, 0, 1, 0 ) 0.0004666355576294914, 0.008866075594960336, 0.041530564629024734, 0.1679888007466169, 0.33411105926271584, 0.44703686420905275;
    ( 1, 0, 1, 0, 1, 1 ) 0.005494505494505495, 0.04395604395604396, 0.09340659340659341, 0.3131868131868132, 0.3131868131868132, 0.23076923076923078;
    ( 1, 0, 1, 1, 0, 0 ) 0.004295197188598204, 0.013666536509176102, 0.033971105037094884, 0.1304178055447091, 0.2623975009761812, 0.5552518547442405;
    ( 1, 0, 1, 1, 0, 1 ) 0.0199203187250996, 0.05976095617529881, 0.09163346613545817, 0.32669322709163345, 0.2549800796812749, 0.24701195219123506;
    ( 1, 0, 1, 1, 1, 0 ) 0.000274310794129749, 0.005349060485530106, 0.027293924015910027, 0.1183651076669867, 0.31065697435194073, 0.5380606226855027;
    ( 1, 0, 1, 1, 1, 1 ) 0.0, 0.022636484687083888, 0.09320905459387484, 0.255659121171771, 0.37283621837549935, 0.255659121171771;
    ( 1, 1, 0, 0, 0, 0 ) 0.02316486161251504, 0.07099879663056559, 0.13898916967509026, 0.21630565583634176, 0.27376654632972325, 0.2767749699157641;
    ( 1, 1, 0, 0, 0, 1 ) 0.04780876494023904, 0.1394422310756972, 0.20318725099601595, 0.30278884462151395, 0.17131474103585656, 0.13545816733067728;
    ( 1, 1, 0, 0, 1, 0 ) 0.00851063829787234, 0.04072948328267477, 0.1121580547112462, 0.25653495440729485, 0.3331306990881459, 0.24893617021276596;
    ( 1, 1, 0, 0, 1, 1 ) 0.02786377708978328, 0.07739938080495357, 0.19814241486068113, 0.34365325077399383, 0.2631578947368421, 0.08978328173374613;
    ( 1, 1, 0, 1, 0, 0 ) 0.0040991242779951555, 0.022917831190609278, 0.06633128377119434, 0.19768958449785728, 0.34823923979877025, 0.3607229364635737;
    ( 1, 1, 0, 1, 0, 1 ) 0.01805869074492099, 0.04966139954853273, 0.17155756207674944, 0.27765237020316025, 0.33182844243792325, 0.15124153498871332;
    ( 1, 1, 0, 1, 1, 0 ) 0.0016609916119923595, 0.015115023669130472, 0.061290590482518066, 0.1945021177643053, 0.3831077153060377, 0.3443235611660161;
    ( 1, 1, 0, 1, 1, 1 ) 0.003918495297805642, 0.04075235109717868, 0.11833855799373041, 0.3393416927899687, 0.3385579937304075, 0.1590909090909091;
    ( 1, 1, 1, 0, 0, 0 ) 0.004415011037527594, 0.002207505518763797, 0.03532008830022075, 0.07505518763796909, 0.31125827814569534, 0.5717439293598234;
    ( 1, 1, 1, 0, 0, 1 ) 0.0, 0.07317073170731707, 0.14634146341463414, 0.2682926829268293, 0.2926829268292683, 0.21951219512195122;
    ( 1, 1, 1, 0, 1, 0 ) 0.0, 0.006734006734006734, 0.03367003367003367, 0.18855218855218855, 0.3468013468013468, 0.42424242424242425;
    ( 1, 1, 1, 0, 1, 1 ) 0.031746031746031744, 0.031746031746031744, 0.1111111111111111, 0.2857142857142857, 0.31746031746031744, 0.2222222222222222;
    ( 1, 1, 1, 1, 0, 0 ) 0.000856898029134533, 0.002570694087403599, 0.02313624678663239, 0.11311053984575835, 0.3324764353041988, 0.5278491859468724;
    ( 1, 1, 1, 1, 0, 1 ) 0.0, 0.016129032258064516, 0.1532258064516129, 0.27419354838709675, 0.25, 0.3064516129032258;
    ( 1, 1, 1, 1, 1, 0 ) 0.0006571741511500548, 0.004819277108433735, 0.03023001095290252, 0.13691128148959475, 0.3588170865279299, 0.468565169769989;
    ( 1, 1, 1, 1, 1, 1 ) 0.0033222591362126247, 0.014950166112956811, 0.08471760797342193, 0.2707641196013289, 0.39368770764119604, 0.23255813953488372;

}
probability ( AnyHealthcare ) {
    table 0.04894749290444655, 0.9510525070955534 ;
}
probability ( BMI | AnyHealthcare ) {
    ( 0 ) 0.2731738745268583, 0.6561166143190786, 0.07070951115406297;
    ( 1 ) 0.28470175700376765, 0.6619995606454367, 0.05329868235079561;

}
probability ( CholCheck | AnyHealthcare, Diabetes_binary, Fruits, HighBP, HighChol ) {
    ( 0, 0, 0, 0, 0 ) 0.20609462710505214, 0.7939053728949479;
    ( 0, 0, 0, 0, 1 ) 0.15014577259475217, 0.8498542274052479;
    ( 0, 0, 0, 1, 0 ) 0.1085383502170767, 0.8914616497829233;
    ( 0, 0, 0, 1, 1 ) 0.09854014598540146, 0.9014598540145985;
    ( 0, 0, 1, 0, 0 ) 0.16437246963562754, 0.8356275303643724;
    ( 0, 0, 1, 0, 1 ) 0.11387900355871886, 0.8861209964412812;
    ( 0, 0, 1, 1, 0 ) 0.08543263964950712, 0.9145673603504929;
    ( 0, 0, 1, 1, 1 ) 0.07847800237812129, 0.9215219976218787;
    ( 0, 1, 0, 0, 0 ) 0.14606741573033707, 0.8539325842696629;
    ( 0, 1, 0, 0, 1 ) 0.04950495049504951, 0.9504950495049505;
    ( 0, 1, 0, 1, 0 ) 0.05384615384615385, 0.9461538461538461;
    ( 0, 1, 0, 1, 1 ) 0.044444444444444446, 0.9555555555555556;
    ( 0, 1, 1, 0, 0 ) 0.09009009009009009, 0.9099099099099099;
    ( 0, 1, 1, 0, 1 ) 0.0392156862745098, 0.9607843137254902;
    ( 0, 1, 1, 1, 0 ) 0.01875, 0.98125;
    ( 0, 1, 1, 1, 1 ) 0.01084010840108401, 0.989159891598916;
    ( 1, 0, 0, 0, 0 ) 0.06722937467157121, 0.9327706253284288;
    ( 1, 0, 0, 0, 1 ) 0.03463528000599745, 0.9653647199940025;
    ( 1, 0, 0, 1, 0 ) 0.02825302150368859, 0.9717469784963114;
    ( 1, 0, 0, 1, 1 ) 0.014491039214526527, 0.9855089607854735;
    ( 1, 0, 1, 0, 0 ) 0.05389810504229231, 0.9461018949577077;
    ( 1, 0, 1, 0, 1 ) 0.02267910131411615, 0.9773208986858839;
    ( 1, 0, 1, 1, 0 ) 0.018366619115549217, 0.9816333808844507;
    ( 1, 0, 1, 1, 1 ) 0.009599285634557428, 0.9904007143654425;
    ( 1, 1, 0, 0, 0 ) 0.01144310235219326, 0.9885568976478067;
    ( 1, 1, 0, 0, 1 ) 0.008908685968819599, 0.9910913140311804;
    ( 1, 1, 0, 1, 0 ) 0.00572041473006793, 0.9942795852699321;
    ( 1, 1, 0, 1, 1 ) 0.004867426668374536, 0.9951325733316254;
    ( 1, 1, 1, 0, 0 ) 0.006810897435897436, 0.9931891025641025;
    ( 1, 1, 1, 0, 1 ) 0.006063055780113177, 0.9939369442198869;
    ( 1, 1, 1, 1, 0 ) 0.005111524163568773, 0.9948884758364313;
    ( 1, 1, 1, 1, 1 ) 0.0034653929006275173, 0.9965346070993725;

}
probability ( Diabetes_binary | BMI, HighBP, HighChol, Veggies ) {
    ( 0, 0, 0, 0 ) 0.9728498542274052, 0.027150145772594753;
    ( 0, 0, 0, 1 ) 0.980631739334271, 0.01936826066572902;
    ( 0, 0, 1, 0 ) 0.9247197010144154, 0.07528029898558462;
    ( 0, 0, 1, 1 ) 0.948627188366976, 0.05137281163302401;
    ( 0, 1, 0, 0 ) 0.8826714801444043, 0.11732851985559567;
    ( 0, 1, 0, 1 ) 0.920356335593671, 0.07964366440632895;
    ( 0, 1, 1, 0 ) 0.8008583690987124, 0.19914163090128756;
    ( 0, 1, 1, 1 ) 0.8433623188405797, 0.15663768115942028;
    ( 1, 0, 0, 0 ) 0.9348640599481218, 0.06513594005187819;
    ( 1, 0, 0, 1 ) 0.9508250757091943, 0.04917492429080571;
    ( 1, 0, 1, 0 ) 0.8590121636564688, 0.14098783634353115;
    ( 1, 0, 1, 1 ) 0.8884566596194503, 0.11154334038054968;
    ( 1, 1, 0, 0 ) 0.7943008408595453, 0.2056991591404547;
    ( 1, 1, 0, 1 ) 0.8327892636924193, 0.1672107363075807;
    ( 1, 1, 1, 0 ) 0.659237428624056, 0.340762571375944;
    ( 1, 1, 1, 1 ) 0.7084569732937686, 0.29154302670623145;
    ( 2, 0, 0, 0 ) 0.8585434173669467, 0.14145658263305322;
    ( 2, 0, 0, 1 ) 0.8890151515151515, 0.11098484848484849;
    ( 2, 0, 1, 0 ) 0.7329974811083123, 0.26700251889168763;
    ( 2, 0, 1, 1 ) 0.7473498233215548, 0.25265017667844525;
    ( 2, 1, 0, 0 ) 0.699666295884316, 0.3003337041156841;
    ( 2, 1, 0, 1 ) 0.6995091164095372, 0.30049088359046283;
    ( 2, 1, 1, 0 ) 0.4709772226304188, 0.5290227773695811;
    ( 2, 1, 1, 1 ) 0.47247461250668094, 0.5275253874933191;

}
probability ( DiffWalk | Age, GenHlth, HighBP, Income ) {
    ( 1, 1, 0, 1 ) 0.9818731117824774, 0.01812688821752266;
    ( 1, 1, 0, 2 ) 0.9866666666666667, 0.013333333333333334;
    ( 1, 1, 0, 3 ) 0.9921568627450981, 0.00784313725490196;
    ( 1, 1, 0, 4 ) 0.9919859754570498, 0.008014024542950162;
    ( 1, 1, 1, 1 ) 0.9423076923076923, 0.057692307692307696;
    ( 1, 1, 1, 2 ) 0.9391304347826087, 0.06086956521739131;
    ( 1, 1, 1, 3 ) 0.9745222929936306, 0.025477707006369428;
    ( 1, 1, 1, 4 ) 0.990990990990991, 0.009009009009009009;
    ( 1, 2, 0, 1 ) 0.9200819672131147, 0.07991803278688525;
    ( 1, 2, 0, 2 ) 0.9495073891625616, 0.050492610837438424;
    ( 1, 2, 0, 3 ) 0.9601386481802426, 0.03986135181975736;
    ( 1, 2, 0, 4 ) 0.9689288634505315, 0.03107113654946852;
    ( 1, 2, 1, 1 ) 0.8269230769230769, 0.17307692307692307;
    ( 1, 2, 1, 2 ) 0.8888888888888888, 0.1111111111111111;
    ( 1, 2, 1, 3 ) 0.9314285714285714, 0.06857142857142857;
    ( 1, 2, 1, 4 ) 0.9665271966527197, 0.03347280334728033;
    ( 1, 3, 0, 1 ) 0.5769230769230769, 0.4230769230769231;
    ( 1, 3, 0, 2 ) 0.4827586206896552, 0.5172413793103449;
    ( 1, 3, 0, 3 ) 0.6666666666666666, 0.3333333333333333;
    ( 1, 3, 0, 4 ) 0.6875, 0.3125;
    ( 1, 3, 1, 1 ) 0.5, 0.5;
    ( 1, 3, 1, 2 ) 0.5, 0.5;
    ( 1, 3, 1, 3 ) 0.6666666666666666, 0.3333333333333333;
    ( 1, 3, 1, 4 ) 0.5, 0.5;
    ( 2, 1, 0, 1 ) 0.9550827423167849, 0.04491725768321513;
    ( 2, 1, 0, 2 ) 0.9742268041237113, 0.02577319587628866;
    ( 2, 1, 0, 3 ) 0.9848954298993029, 0.015104570100697134;
    ( 2, 1, 0, 4 ) 0.9945311723177886, 0.005468827682211395;
    ( 2, 1, 1, 1 ) 0.926829268292683, 0.07317073170731707;
    ( 2, 1, 1, 2 ) 0.9147286821705426, 0.08527131782945736;
    ( 2, 1, 1, 3 ) 0.9494047619047619, 0.050595238095238096;
    ( 2, 1, 1, 4 ) 0.9834782608695652, 0.01652173913043478;
    ( 2, 2, 0, 1 ) 0.803030303030303, 0.19696969696969696;
    ( 2, 2, 0, 2 ) 0.8802502234137622, 0.11974977658623771;
    ( 2, 2, 0, 3 ) 0.9259485924112607, 0.0740514075887393;
    ( 2, 2, 0, 4 ) 0.9571522742254449, 0.04284772577455504;
    ( 2, 2, 1, 1 ) 0.6438356164383562, 0.3561643835616438;
    ( 2, 2, 1, 2 ) 0.828125, 0.171875;
    ( 2, 2, 1, 3 ) 0.8859504132231405, 0.1140495867768595;
    ( 2, 2, 1, 4 ) 0.9351184346035015, 0.06488156539649846;
    ( 2, 3, 0, 1 ) 0.3939393939393939, 0.6060606060606061;
    ( 2, 3, 0, 2 ) 0.578125, 0.421875;
    ( 2, 3, 0, 3 ) 0.5, 0.5;
    ( 2, 3, 0, 4 ) 0.5735294117647058, 0.4264705882352941;
    ( 2, 3, 1, 1 ) 0.30434782608695654, 0.6956521739130435;
    ( 2, 3, 1, 2 ) 0.28, 0.72;
    ( 2, 3, 1, 3 ) 0.4, 0.6;
    ( 2, 3, 1, 4 ) 0.4782608695652174, 0.5217391304347826;
    ( 3, 1, 0, 1 ) 0.9112903225806451, 0.08870967741935484;
    ( 3, 1, 0, 2 ) 0.9600456621004566, 0.03995433789954338;
    ( 3, 1, 0, 3 ) 0.9751525719267655, 0.024847428073234524;
    ( 3, 1, 0, 4 ) 0.9902898757675282, 0.009710124232471798;
    ( 3, 1, 1, 1 ) 0.7792207792207793, 0.22077922077922077;
    ( 3, 1, 1, 2 ) 0.849802371541502, 0.15019762845849802;
    ( 3, 1, 1, 3 ) 0.9479553903345725, 0.05204460966542751;
    ( 3, 1, 1, 4 ) 0.97875, 0.02125;
    ( 3, 2, 0, 1 ) 0.655, 0.345;
    ( 3, 2, 0, 2 ) 0.7985012489592007, 0.20149875104079934;
    ( 3, 2, 0, 3 ) 0.8701298701298701, 0.12987012987012986;
    ( 3, 2, 0, 4 ) 0.9298701298701298, 0.07012987012987013;
    ( 3, 2, 1, 1 ) 0.49793672627235214, 0.5020632737276479;
    ( 3, 2, 1, 2 ) 0.6734258271077909, 0.3265741728922092;
    ( 3, 2, 1, 3 ) 0.7988313856427379, 0.2011686143572621;
    ( 3, 2, 1, 4 ) 0.9028861154446178, 0.09711388455538221;
    ( 3, 3, 0, 1 ) 0.2608695652173913, 0.7391304347826086;
    ( 3, 3, 0, 2 ) 0.28440366972477066, 0.7155963302752294;
    ( 3, 3, 0, 3 ) 0.34375, 0.65625;
    ( 3, 3, 0, 4 ) 0.4188034188034188, 0.5811965811965812;
    ( 3, 3, 1, 1 ) 0.16483516483516483, 0.8351648351648352;
    ( 3, 3, 1, 2 ) 0.20441988950276244, 0.7955801104972375;
    ( 3, 3, 1, 3 ) 0.3053435114503817, 0.6946564885496184;
    ( 3, 3, 1, 4 ) 0.4666666666666667, 0.5333333333333333;
    ( 4, 1, 0, 1 ) 0.8719298245614036, 0.1280701754385965;
    ( 4, 1, 0, 2 ) 0.9256880733944954, 0.07431192660550459;
    ( 4, 1, 0, 3 ) 0.961295871559633, 0.03870412844036697;
    ( 4, 1, 0, 4 ) 0.9838700182492495, 0.016129981750750574;
    ( 4, 1, 1, 1 ) 0.7632398753894081, 0.2367601246105919;
    ( 4, 1, 1, 2 ) 0.839851024208566, 0.1601489757914339;
    ( 4, 1, 1, 3 ) 0.9275158339197748, 0.07248416608022519;
    ( 4, 1, 1, 4 ) 0.9691326958563999, 0.030867304143600068;
    ( 4, 2, 0, 1 ) 0.5650438946528332, 0.4349561053471668;
    ( 4, 2, 0, 2 ) 0.6982097186700768, 0.30179028132992325;
    ( 4, 2, 0, 3 ) 0.7942657884540876, 0.20573421154591243;
    ( 4, 2, 0, 4 ) 0.8816172691451087, 0.1183827308548912;
    ( 4, 2, 1, 1 ) 0.4368619022031166, 0.5631380977968834;
    ( 4, 2, 1, 2 ) 0.5556594948550047, 0.44434050514499535;
    ( 4, 2, 1, 3 ) 0.7177700348432056, 0.28222996515679444;
    ( 4, 2, 1, 4 ) 0.849345380785543, 0.15065461921445694;
    ( 4, 3, 0, 1 ) 0.18950437317784258, 0.8104956268221575;
    ( 4, 3, 0, 2 ) 0.2730263157894737, 0.7269736842105263;
    ( 4, 3, 0, 3 ) 0.3106796116504854, 0.6893203883495146;
    ( 4, 3, 0, 4 ) 0.4046511627906977, 0.5953488372093023;
    ( 4, 3, 1, 1 ) 0.125, 0.875;
    ( 4, 3, 1, 2 ) 0.19968304278922344, 0.8003169572107766;
    ( 4, 3, 1, 3 ) 0.20270270270270271, 0.7972972972972973;
    ( 4, 3, 1, 4 ) 0.3729903536977492, 0.6270096463022508;
    ( 5, 1, 0, 1 ) 0.8678571428571429, 0.13214285714285715;
    ( 5, 1, 0, 2 ) 0.9130141604855023, 0.08698583951449763;
    ( 5, 1, 0, 3 ) 0.9575386012715713, 0.042461398728428704;
    ( 5, 1, 0, 4 ) 0.9737633438580665, 0.026236656141933545;
    ( 5, 1, 1, 1 ) 0.7529880478087649, 0.24701195219123506;
    ( 5, 1, 1, 2 ) 0.8443708609271523, 0.15562913907284767;
    ( 5, 1, 1, 3 ) 0.9061592097617664, 0.09384079023823358;
    ( 5, 1, 1, 4 ) 0.9550454328072693, 0.04495456719273075;
    ( 5, 2, 0, 1 ) 0.6111665004985045, 0.38883349950149554;
    ( 5, 2, 0, 2 ) 0.6879518072289157, 0.31204819277108437;
    ( 5, 2, 0, 3 ) 0.7668860408728784, 0.23311395912712157;
    ( 5, 2, 0, 4 ) 0.837140918344266, 0.16285908165573398;
    ( 5, 2, 1, 1 ) 0.4517408550022036, 0.5482591449977964;
    ( 5, 2, 1, 2 ) 0.5579831932773109, 0.44201680672268906;
    ( 5, 2, 1, 3 ) 0.6880143112701252, 0.31198568872987475;
    ( 5, 2, 1, 4 ) 0.7830437804030577, 0.21695621959694233;
    ( 5, 3, 0, 1 ) 0.19572953736654805, 0.8042704626334519;
    ( 5, 3, 0, 2 ) 0.2490272373540856, 0.7509727626459144;
    ( 5, 3, 0, 3 ) 0.3185840707964602, 0.6814159292035398;
    ( 5, 3, 0, 4 ) 0.4076086956521739, 0.592391304347826;
    ( 5, 3, 1, 1 ) 0.1457345971563981, 0.8542654028436019;
    ( 5, 3, 1, 2 ) 0.18169209431345354, 0.8183079056865464;
    ( 5, 3, 1, 3 ) 0.24333333333333335, 0.7566666666666667;
    ( 5, 3, 1, 4 ) 0.3032258064516129, 0.6967741935483871;
    ( 6, 1, 0, 1 ) 0.8022598870056498, 0.1977401129943503;
    ( 6, 1, 0, 2 ) 0.8534630795649685, 0.14653692043503147;
    ( 6, 1, 0, 3 ) 0.9189048239895697, 0.08109517601043024;
    ( 6, 1, 0, 4 ) 0.9533239038189534, 0.04667609618104668;
    ( 6, 1, 1, 1 ) 0.7503392130257802, 0.2496607869742198;
    ( 6, 1, 1, 2 ) 0.8008528784648188, 0.19914712153518124;
    ( 6, 1, 1, 3 ) 0.8682830930537353, 0.13171690694626476;
    ( 6, 1, 1, 4 ) 0.9119796091758708, 0.08802039082412914;
    ( 6, 2, 0, 1 ) 0.5911214953271028, 0.4088785046728972;
    ( 6, 2, 0, 2 ) 0.6578529878371232, 0.3421470121628768;
    ( 6, 2, 0, 3 ) 0.7234889612739775, 0.27651103872602245;
    ( 6, 2, 0, 4 ) 0.7752854812398042, 0.22471451876019577;
    ( 6, 2, 1, 1 ) 0.513214990138067, 0.48678500986193296;
    ( 6, 2, 1, 2 ) 0.5721749226006192, 0.4278250773993808;
    ( 6, 2, 1, 3 ) 0.6348176970745064, 0.3651823029254936;
    ( 6, 2, 1, 4 ) 0.7128767123287671, 0.28712328767123285;
    ( 6, 3, 0, 1 ) 0.281767955801105, 0.7182320441988951;
    ( 6, 3, 0, 2 ) 0.26838235294117646, 0.7316176470588235;
    ( 6, 3, 0, 3 ) 0.3659574468085106, 0.6340425531914894;
    ( 6, 3, 0, 4 ) 0.3, 0.7;
    ( 6, 3, 1, 1 ) 0.18292682926829268, 0.8170731707317073;
    ( 6, 3, 1, 2 ) 0.22840909090909092, 0.7715909090909091;
    ( 6, 3, 1, 3 ) 0.26785714285714285, 0.7321428571428571;
    ( 6, 3, 1, 4 ) 0.2830188679245283, 0.7169811320754716;

}
probability ( Education | AnyHealthcare, GenHlth, HighBP, Veggies ) {
    ( 0, 1, 0, 0 ) 0.021518987341772152, 0.44556962025316454, 0.5329113924050632;
    ( 0, 1, 0, 1 ) 0.021239453011347106, 0.31888274658132093, 0.659877800407332;
    ( 0, 1, 1, 0 ) 0.017482517482517484, 0.4825174825174825, 0.5;
    ( 0, 1, 1, 1 ) 0.02546296296296296, 0.38078703703703703, 0.59375;
    ( 0, 2, 0, 0 ) 0.07244785949506037, 0.5455543358946213, 0.38199780461031835;
    ( 0, 2, 0, 1 ) 0.07652495378927911, 0.4595194085027726, 0.46395563770794823;
    ( 0, 2, 1, 0 ) 0.07248322147651007, 0.5691275167785235, 0.35838926174496644;
    ( 0, 2, 1, 1 ) 0.06659619450317125, 0.48150105708245244, 0.45190274841437633;
    ( 0, 3, 0, 0 ) 0.11267605633802817, 0.5070422535211268, 0.38028169014084506;
    ( 0, 3, 0, 1 ) 0.11981566820276497, 0.4700460829493088, 0.41013824884792627;
    ( 0, 3, 1, 0 ) 0.12209302325581395, 0.5581395348837209, 0.31976744186046513;
    ( 0, 3, 1, 1 ) 0.1437308868501529, 0.5107033639143731, 0.345565749235474;
    ( 1, 1, 0, 0 ) 0.006142003111948243, 0.2849889443943985, 0.7088690524936533;
    ( 1, 1, 0, 1 ) 0.0034050295665735263, 0.16494898953798168, 0.8316459808954448;
    ( 1, 1, 1, 0 ) 0.013484848484848485, 0.35954545454545456, 0.626969696969697;
    ( 1, 1, 1, 1 ) 0.005804511278195488, 0.22607518796992482, 0.7681203007518796;
    ( 1, 2, 0, 0 ) 0.02608047690014903, 0.42271662763466045, 0.5512028954651905;
    ( 1, 2, 0, 1 ) 0.0173232424966188, 0.29040890909614114, 0.6922678484072401;
    ( 1, 2, 1, 0 ) 0.03488458952715321, 0.4807649211922014, 0.4843504892806454;
    ( 1, 2, 1, 1 ) 0.0214593262876747, 0.34823052658239506, 0.6303101471299303;
    ( 1, 3, 0, 0 ) 0.053763440860215055, 0.5161290322580645, 0.43010752688172044;
    ( 1, 3, 0, 1 ) 0.04379268782643632, 0.3873041382081157, 0.568903173965448;
    ( 1, 3, 1, 0 ) 0.08454312553373185, 0.5392826643894107, 0.37617421007685736;
    ( 1, 3, 1, 1 ) 0.05837701066329297, 0.441894090005422, 0.499728899331285;

}
probability ( Fruits | BMI, Education, Smoker, Veggies ) {
    ( 0, 1, 0, 0 ) 0.5327868852459017, 0.4672131147540984;
    ( 0, 1, 0, 1 ) 0.24, 0.76;
    ( 0, 1, 1, 0 ) 0.6851851851851852, 0.3148148148148148;
    ( 0, 1, 1, 1 ) 0.382262996941896, 0.617737003058104;
    ( 0, 2, 0, 0 ) 0.5646376811594203, 0.4353623188405797;
    ( 0, 2, 0, 1 ) 0.2744928038841685, 0.7255071961158315;
    ( 0, 2, 1, 0 ) 0.6664181885948565, 0.3335818114051435;
    ( 0, 2, 1, 1 ) 0.38005278510904295, 0.619947214890957;
    ( 0, 3, 0, 0 ) 0.5452189686447266, 0.45478103135527337;
    ( 0, 3, 0, 1 ) 0.21006416751097604, 0.789935832489024;
    ( 0, 3, 1, 0 ) 0.6106352605281942, 0.38936473947180583;
    ( 0, 3, 1, 1 ) 0.27441568089605123, 0.7255843191039488;
    ( 1, 1, 0, 0 ) 0.5683962264150944, 0.43160377358490565;
    ( 1, 1, 0, 1 ) 0.2874251497005988, 0.7125748502994012;
    ( 1, 1, 1, 0 ) 0.6790123456790124, 0.32098765432098764;
    ( 1, 1, 1, 1 ) 0.40416210295728366, 0.5958378970427163;
    ( 1, 2, 0, 0 ) 0.608242463117383, 0.39175753688261705;
    ( 1, 2, 0, 1 ) 0.32832554563198674, 0.6716744543680132;
    ( 1, 2, 1, 0 ) 0.6625067824199674, 0.33749321758003253;
    ( 1, 2, 1, 1 ) 0.3992194320340985, 0.6007805679659015;
    ( 1, 3, 0, 0 ) 0.598342541436464, 0.4016574585635359;
    ( 1, 3, 0, 1 ) 0.2853484963534585, 0.7146515036465415;
    ( 1, 3, 1, 0 ) 0.6250484683986041, 0.3749515316013959;
    ( 1, 3, 1, 1 ) 0.3382757142496911, 0.661724285750309;
    ( 2, 1, 0, 0 ) 0.6862745098039216, 0.3137254901960784;
    ( 2, 1, 0, 1 ) 0.27, 0.73;
    ( 2, 1, 1, 0 ) 0.72, 0.28;
    ( 2, 1, 1, 1 ) 0.36363636363636365, 0.6363636363636364;
    ( 2, 2, 0, 0 ) 0.686777920410783, 0.31322207958921694;
    ( 2, 2, 0, 1 ) 0.40376175548589344, 0.5962382445141066;
    ( 2, 2, 1, 0 ) 0.7003994673768309, 0.2996005326231691;
    ( 2, 2, 1, 1 ) 0.42389431361286617, 0.5761056863871339;
    ( 2, 3, 0, 0 ) 0.6616822429906543, 0.3383177570093458;
    ( 2, 3, 0, 1 ) 0.3472325639116406, 0.6527674360883594;
    ( 2, 3, 1, 0 ) 0.7134328358208956, 0.2865671641791045;
    ( 2, 3, 1, 1 ) 0.4056167792392464, 0.5943832207607537;

}
probability ( GenHlth | BMI, Diabetes_binary, HighBP, HighChol, Veggies ) {
    ( 0, 0, 0, 0, 0 ) 0.6349503652369357, 0.3245926203408878, 0.04045701442217644;
    ( 0, 0, 0, 0, 1 ) 0.7745241581259151, 0.2089521020706965, 0.016523739803388414;
    ( 0, 0, 0, 1, 0 ) 0.5069284064665127, 0.4289838337182448, 0.06408775981524249;
    ( 0, 0, 0, 1, 1 ) 0.6911052843888664, 0.28378378378378377, 0.025110931827349737;
    ( 0, 0, 1, 0, 0 ) 0.38173142467620996, 0.5323790047716428, 0.08588957055214724;
    ( 0, 0, 1, 0, 1 ) 0.5673215833574111, 0.3858711355099682, 0.04680728113262063;
    ( 0, 0, 1, 1, 0 ) 0.31136120042872456, 0.564844587352626, 0.12379421221864952;
    ( 0, 0, 1, 1, 1 ) 0.4744294748419027, 0.45779488589496836, 0.06777563926312895;
    ( 0, 1, 0, 0, 0 ) 0.26174496644295303, 0.610738255033557, 0.12751677852348994;
    ( 0, 1, 0, 0, 1 ) 0.36459909228441756, 0.5491679273827534, 0.08623298033282904;
    ( 0, 1, 0, 1, 0 ) 0.3191489361702128, 0.6028368794326241, 0.07801418439716312;
    ( 0, 1, 0, 1, 1 ) 0.33891992551210426, 0.5623836126629422, 0.09869646182495345;
    ( 0, 1, 1, 0, 0 ) 0.2, 0.6205128205128205, 0.1794871794871795;
    ( 0, 1, 1, 0, 1 ) 0.3055091819699499, 0.5709515859766278, 0.12353923205342238;
    ( 0, 1, 1, 1, 0 ) 0.15732758620689655, 0.6336206896551724, 0.20905172413793102;
    ( 0, 1, 1, 1, 1 ) 0.21169504071058476, 0.6336047372316802, 0.154700222057735;
    ( 1, 0, 0, 0, 0 ) 0.5827766930428527, 0.3923543315178296, 0.024868975439317646;
    ( 1, 0, 0, 0, 1 ) 0.6821943926853578, 0.30246565844780515, 0.01533994886683711;
    ( 1, 0, 0, 1, 0 ) 0.49731817206608026, 0.46363441321604804, 0.0390474147178717;
    ( 1, 0, 0, 1, 1 ) 0.6084142394822006, 0.36755187511897963, 0.02403388539881972;
    ( 1, 0, 1, 0, 0 ) 0.41619290335228387, 0.5326406586943736, 0.05116643795334248;
    ( 1, 0, 1, 0, 1 ) 0.5062911343399148, 0.4615756871854433, 0.03213317847464189;
    ( 1, 0, 1, 1, 0 ) 0.3294216261525566, 0.5866163732886281, 0.08396200055881531;
    ( 1, 0, 1, 1, 1 ) 0.42546746447270006, 0.5225504861630516, 0.051982049364248314;
    ( 1, 1, 0, 0, 0 ) 0.2610619469026549, 0.6460176991150443, 0.09292035398230089;
    ( 1, 1, 0, 0, 1 ) 0.3422706325932132, 0.5915374947633012, 0.06619187264348554;
    ( 1, 1, 0, 1, 0 ) 0.20784313725490197, 0.6888888888888889, 0.10326797385620914;
    ( 1, 1, 0, 1, 1 ) 0.2744503411675512, 0.6474601971190296, 0.07808946171341925;
    ( 1, 1, 1, 0, 0 ) 0.20136260408781226, 0.6835730507191522, 0.11506434519303559;
    ( 1, 1, 1, 0, 1 ) 0.26271390696553387, 0.648590021691974, 0.08869607134249216;
    ( 1, 1, 1, 1, 0 ) 0.15567567567567567, 0.6754054054054054, 0.16891891891891891;
    ( 1, 1, 1, 1, 1 ) 0.19638313340603417, 0.6708469647400945, 0.13276990185387133;
    ( 2, 0, 0, 0, 0 ) 0.34910277324632955, 0.6052202283849919, 0.04567699836867863;
    ( 2, 0, 0, 0, 1 ) 0.43331913080528334, 0.5308904985087346, 0.035790370685982106;
    ( 2, 0, 0, 1, 0 ) 0.2920962199312715, 0.6323024054982818, 0.07560137457044673;
    ( 2, 0, 0, 1, 1 ) 0.3321513002364066, 0.6182033096926713, 0.04964539007092199;
    ( 2, 0, 1, 0, 0 ) 0.22416534181240064, 0.6931637519872814, 0.08267090620031796;
    ( 2, 0, 1, 0, 1 ) 0.27518796992481204, 0.6516290726817042, 0.07318295739348371;
    ( 2, 0, 1, 1, 0 ) 0.1482059282371295, 0.7020280811232449, 0.1497659906396256;
    ( 2, 0, 1, 1, 1 ) 0.19230769230769232, 0.707579185520362, 0.1001131221719457;
    ( 2, 1, 0, 0, 0 ) 0.16831683168316833, 0.7128712871287128, 0.1188118811881188;
    ( 2, 1, 0, 0, 1 ) 0.17064846416382254, 0.7030716723549488, 0.12627986348122866;
    ( 2, 1, 0, 1, 0 ) 0.07547169811320754, 0.7735849056603774, 0.1509433962264151;
    ( 2, 1, 0, 1, 1 ) 0.09090909090909091, 0.7202797202797203, 0.1888111888111888;
    ( 2, 1, 1, 0, 0 ) 0.07037037037037037, 0.7222222222222222, 0.2074074074074074;
    ( 2, 1, 1, 0, 1 ) 0.12718786464410736, 0.7304550758459744, 0.1423570595099183;
    ( 2, 1, 1, 1, 0 ) 0.0763888888888889, 0.6708333333333333, 0.25277777777777777;
    ( 2, 1, 1, 1, 1 ) 0.09067882472137791, 0.6904761904761905, 0.2188449848024316;

}
probability ( HeartDiseaseorAttack | Diabetes_binary, GenHlth, HighBP, HighChol, Smoker ) {
    ( 0, 1, 0, 0, 0 ) 0.9908518262959912, 0.009148173704008725;
    ( 0, 1, 0, 0, 1 ) 0.9807658528016863, 0.01923414719831372;
    ( 0, 1, 0, 1, 0 ) 0.9741164758586361, 0.025883524141363863;
    ( 0, 1, 0, 1, 1 ) 0.9549036777583187, 0.04509632224168126;
    ( 0, 1, 1, 0, 0 ) 0.9663081755020463, 0.03369182449795374;
    ( 0, 1, 1, 0, 1 ) 0.9503790489317712, 0.04962095106822881;
    ( 0, 1, 1, 1, 0 ) 0.9181930438361803, 0.08180695616381972;
    ( 0, 1, 1, 1, 1 ) 0.8731730315888732, 0.12682696841112684;
    ( 0, 2, 0, 0, 0 ) 0.969746364999674, 0.030253635000326008;
    ( 0, 2, 0, 0, 1 ) 0.9389080100125157, 0.06109198998748436;
    ( 0, 2, 0, 1, 0 ) 0.9294034090909091, 0.07059659090909091;
    ( 0, 2, 0, 1, 1 ) 0.8761958356781092, 0.12380416432189083;
    ( 0, 2, 1, 0, 0 ) 0.9173581520520296, 0.0826418479479704;
    ( 0, 2, 1, 0, 1 ) 0.8774193548387097, 0.12258064516129032;
    ( 0, 2, 1, 1, 0 ) 0.8263002944062807, 0.17369970559371933;
    ( 0, 2, 1, 1, 1 ) 0.7443286327406499, 0.2556713672593501;
    ( 0, 3, 0, 0, 0 ) 0.889589905362776, 0.11041009463722397;
    ( 0, 3, 0, 0, 1 ) 0.8304093567251462, 0.1695906432748538;
    ( 0, 3, 0, 1, 0 ) 0.8244047619047619, 0.17559523809523808;
    ( 0, 3, 0, 1, 1 ) 0.7574193548387097, 0.24258064516129033;
    ( 0, 3, 1, 0, 0 ) 0.7726495726495727, 0.22735042735042735;
    ( 0, 3, 1, 0, 1 ) 0.7024291497975709, 0.2975708502024291;
    ( 0, 3, 1, 1, 0 ) 0.6740041928721174, 0.3259958071278826;
    ( 0, 3, 1, 1, 1 ) 0.5771878072763028, 0.42281219272369713;
    ( 1, 1, 0, 0, 0 ) 0.9487179487179487, 0.05128205128205128;
    ( 1, 1, 0, 0, 1 ) 0.9126559714795008, 0.0873440285204991;
    ( 1, 1, 0, 1, 0 ) 0.9141004862236629, 0.08589951377633712;
    ( 1, 1, 0, 1, 1 ) 0.8918406072106262, 0.10815939278937381;
    ( 1, 1, 1, 0, 0 ) 0.9110396570203644, 0.08896034297963558;
    ( 1, 1, 1, 0, 1 ) 0.8952134540750324, 0.10478654592496765;
    ( 1, 1, 1, 1, 0 ) 0.8642344497607656, 0.13576555023923445;
    ( 1, 1, 1, 1, 1 ) 0.7925211097708083, 0.2074788902291918;
    ( 1, 2, 0, 0, 0 ) 0.9002201027146002, 0.09977989728539985;
    ( 1, 2, 0, 0, 1 ) 0.8474159146841673, 0.15258408531583265;
    ( 1, 2, 0, 1, 0 ) 0.8889711324944486, 0.11102886750555144;
    ( 1, 2, 0, 1, 1 ) 0.804361770365619, 0.19563822963438102;
    ( 1, 2, 1, 0, 0 ) 0.8570873786407767, 0.1429126213592233;
    ( 1, 2, 1, 0, 1 ) 0.7811550151975684, 0.2188449848024316;
    ( 1, 2, 1, 1, 0 ) 0.795439414114514, 0.204560585885486;
    ( 1, 2, 1, 1, 1 ) 0.697627019944679, 0.302372980055321;
    ( 1, 3, 0, 0, 0 ) 0.7175572519083969, 0.2824427480916031;
    ( 1, 3, 0, 0, 1 ) 0.7162790697674418, 0.2837209302325581;
    ( 1, 3, 0, 1, 0 ) 0.7421875, 0.2578125;
    ( 1, 3, 0, 1, 1 ) 0.6872852233676976, 0.3127147766323024;
    ( 1, 3, 1, 0, 0 ) 0.6676384839650146, 0.3323615160349854;
    ( 1, 3, 1, 0, 1 ) 0.5883620689655172, 0.41163793103448276;
    ( 1, 3, 1, 1, 0 ) 0.574468085106383, 0.425531914893617;
    ( 1, 3, 1, 1, 1 ) 0.47710330138445156, 0.5228966986155484;

}
probability ( HighBP | AnyHealthcare, BMI, HighChol, Veggies ) {
    ( 0, 0, 0, 0 ) 0.8513513513513513, 0.14864864864864866;
    ( 0, 0, 0, 1 ) 0.8855072463768116, 0.1144927536231884;
    ( 0, 0, 1, 0 ) 0.4260869565217391, 0.5739130434782609;
    ( 0, 0, 1, 1 ) 0.5574912891986062, 0.4425087108013937;
    ( 0, 1, 0, 0 ) 0.719253604749788, 0.28074639525021206;
    ( 0, 1, 0, 1 ) 0.7413021868787276, 0.2586978131212724;
    ( 0, 1, 1, 0 ) 0.3657635467980296, 0.6342364532019704;
    ( 0, 1, 1, 1 ) 0.425422138836773, 0.5745778611632271;
    ( 0, 2, 0, 0 ) 0.49572649572649574, 0.5042735042735043;
    ( 0, 2, 0, 1 ) 0.612987012987013, 0.38701298701298703;
    ( 0, 2, 1, 0 ) 0.25210084033613445, 0.7478991596638656;
    ( 0, 2, 1, 1 ) 0.311284046692607, 0.688715953307393;
    ( 1, 0, 0, 0 ) 0.7610072376357057, 0.23899276236429434;
    ( 1, 0, 0, 1 ) 0.8159630106874858, 0.18403698931251422;
    ( 1, 0, 1, 0 ) 0.44676566826076014, 0.5532343317392399;
    ( 1, 0, 1, 1 ) 0.547611327280588, 0.452388672719412;
    ( 1, 1, 0, 0 ) 0.6108484538717097, 0.38915154612829034;
    ( 1, 1, 0, 1 ) 0.6571181306793595, 0.3428818693206404;
    ( 1, 1, 1, 0 ) 0.3315020682523268, 0.6684979317476732;
    ( 1, 1, 1, 1 ) 0.38377037562012756, 0.6162296243798724;
    ( 1, 2, 0, 0 ) 0.4385026737967914, 0.5614973262032086;
    ( 1, 2, 0, 1 ) 0.470726453886822, 0.529273546113178;
    ( 1, 2, 1, 0 ) 0.2239170225747407, 0.7760829774252593;
    ( 1, 2, 1, 1 ) 0.22785358457873078, 0.7721464154212693;

}
probability ( HighChol | AnyHealthcare, BMI ) {
    ( 0, 0 ) 0.7629716981132075, 0.23702830188679244;
    ( 0, 1 ) 0.6386399901804345, 0.3613600098195655;
    ( 0, 2 ) 0.571753986332574, 0.428246013667426;
    ( 1, 0 ) 0.6727667132541346, 0.3272332867458654;
    ( 1, 1 ) 0.5320819454531794, 0.4679180545468206;
    ( 1, 2 ) 0.5134924955284237, 0.4865075044715763;

}
probability ( HvyAlcoholConsump | Diabetes_binary, Fruits, Income, Smoker ) {
    ( 0, 0, 1, 0 ) 0.9795244385733157, 0.02047556142668428;
    ( 0, 0, 1, 1 ) 0.930635838150289, 0.06936416184971098;
    ( 0, 0, 2, 0 ) 0.9702549575070821, 0.029745042492917848;
    ( 0, 0, 2, 1 ) 0.9249605055292259, 0.0750394944707741;
    ( 0, 0, 3, 0 ) 0.9615257413736082, 0.0384742586263918;
    ( 0, 0, 3, 1 ) 0.9048547475141353, 0.0951452524858647;
    ( 0, 0, 4, 0 ) 0.9441015089163237, 0.05589849108367627;
    ( 0, 0, 4, 1 ) 0.8710749688371817, 0.1289250311628183;
    ( 0, 1, 1, 0 ) 0.9795637198622273, 0.020436280137772676;
    ( 0, 1, 1, 1 ) 0.9488340502603577, 0.051165949739642294;
    ( 0, 1, 2, 0 ) 0.9786804308797128, 0.021319569120287252;
    ( 0, 1, 2, 1 ) 0.9396852096599784, 0.06031479034002163;
    ( 0, 1, 3, 0 ) 0.9737603084502516, 0.026239691549748312;
    ( 0, 1, 3, 1 ) 0.9275163174166953, 0.0724836825833047;
    ( 0, 1, 4, 0 ) 0.9586848491852537, 0.04131515081474633;
    ( 0, 1, 4, 1 ) 0.8987298199717738, 0.10127018002822623;
    ( 1, 0, 1, 0 ) 0.989786443825441, 0.01021355617455896;
    ( 1, 0, 1, 1 ) 0.976268951878708, 0.023731048121292023;
    ( 1, 0, 2, 0 ) 0.9896907216494846, 0.010309278350515464;
    ( 1, 0, 2, 1 ) 0.9689008042895443, 0.031099195710455763;
    ( 1, 0, 3, 0 ) 0.9866434378629501, 0.013356562137049941;
    ( 1, 0, 3, 1 ) 0.962372731297034, 0.03762726870296591;
    ( 1, 0, 4, 0 ) 0.9781353135313532, 0.021864686468646866;
    ( 1, 0, 4, 1 ) 0.9415878239407651, 0.058412176059234884;
    ( 1, 1, 1, 0 ) 0.9956043956043956, 0.004395604395604396;
    ( 1, 1, 1, 1 ) 0.9847682119205298, 0.015231788079470199;
    ( 1, 1, 2, 0 ) 0.9943767572633552, 0.005623242736644799;
    ( 1, 1, 2, 1 ) 0.9814569536423841, 0.018543046357615896;
    ( 1, 1, 3, 0 ) 0.9891835310537335, 0.010816468946266573;
    ( 1, 1, 3, 1 ) 0.9694708276797829, 0.030529172320217096;
    ( 1, 1, 4, 0 ) 0.9845701689933872, 0.015429831006612785;
    ( 1, 1, 4, 1 ) 0.9593980692788189, 0.040601930721181144;

}
probability ( Income | Age, Education, GenHlth, NoDocbcCost ) {
    ( 1, 1, 1, 0 ) 0.17391304347826086, 0.2608695652173913, 0.2608695652173913, 0.30434782608695654;
    ( 1, 1, 1, 1 ) 0.16666666666666666, 0.5, 0.3333333333333333, 0.0;
    ( 1, 1, 2, 0 ) 0.3870967741935484, 0.41935483870967744, 0.12903225806451613, 0.06451612903225806;
    ( 1, 1, 2, 1 ) 0.5714285714285714, 0.2857142857142857, 0.07142857142857142, 0.07142857142857142;
    ( 1, 1, 3, 0 ) 0.6666666666666666, 0.0, 0.0, 0.3333333333333333;
    ( 1, 1, 3, 1 ) 1.0, 0.0, 0.0, 0.0;
    ( 1, 2, 1, 0 ) 0.1259475218658892, 0.20699708454810495, 0.3142857142857143, 0.35276967930029157;
    ( 1, 2, 1, 1 ) 0.10270270270270271, 0.32972972972972975, 0.31351351351351353, 0.25405405405405407;
    ( 1, 2, 2, 0 ) 0.18003412969283278, 0.26109215017064846, 0.30887372013651876, 0.25;
    ( 1, 2, 2, 1 ) 0.2049469964664311, 0.37809187279151946, 0.2826855123674912, 0.13427561837455831;
    ( 1, 2, 3, 0 ) 0.3023255813953488, 0.4186046511627907, 0.16279069767441862, 0.11627906976744186;
    ( 1, 2, 3, 1 ) 0.5, 0.15, 0.25, 0.1;
    ( 1, 3, 1, 0 ) 0.0675308049287886, 0.11985917746839495, 0.2590814530324852, 0.5535285645703313;
    ( 1, 3, 1, 1 ) 0.08267090620031796, 0.22416534181240064, 0.3624801271860095, 0.33068362480127184;
    ( 1, 3, 2, 0 ) 0.09453599306157849, 0.16305290546400694, 0.3070251517779705, 0.43538594969644406;
    ( 1, 3, 2, 1 ) 0.1542649727767695, 0.30490018148820325, 0.3157894736842105, 0.2250453720508167;
    ( 1, 3, 3, 0 ) 0.2727272727272727, 0.20454545454545456, 0.25, 0.2727272727272727;
    ( 1, 3, 3, 1 ) 0.17391304347826086, 0.30434782608695654, 0.43478260869565216, 0.08695652173913043;
    ( 2, 1, 1, 0 ) 0.11594202898550725, 0.3333333333333333, 0.30434782608695654, 0.2463768115942029;
    ( 2, 1, 1, 1 ) 0.45454545454545453, 0.18181818181818182, 0.18181818181818182, 0.18181818181818182;
    ( 2, 1, 2, 0 ) 0.2698412698412698, 0.38095238095238093, 0.2857142857142857, 0.06349206349206349;
    ( 2, 1, 2, 1 ) 0.23333333333333334, 0.55, 0.13333333333333333, 0.08333333333333333;
    ( 2, 1, 3, 0 ) 0.2, 0.4, 0.2, 0.2;
    ( 2, 1, 3, 1 ) 0.5, 0.125, 0.375, 0.0;
    ( 2, 2, 1, 0 ) 0.07749077490774908, 0.1609778597785978, 0.28182656826568264, 0.4797047970479705;
    ( 2, 2, 1, 1 ) 0.1595744680851064, 0.2801418439716312, 0.32269503546099293, 0.2375886524822695;
    ( 2, 2, 2, 0 ) 0.18430034129692832, 0.2476840565577767, 0.26328620185275475, 0.3047294002925402;
    ( 2, 2, 2, 1 ) 0.2078559738134206, 0.33060556464811786, 0.3109656301145663, 0.15057283142389524;
    ( 2, 2, 3, 0 ) 0.4235294117647059, 0.29411764705882354, 0.17647058823529413, 0.10588235294117647;
    ( 2, 2, 3, 1 ) 0.38571428571428573, 0.3, 0.2714285714285714, 0.04285714285714286;
    ( 2, 3, 1, 0 ) 0.018300122000813338, 0.041886945912972755, 0.15591703944692964, 0.7838958926392843;
    ( 2, 3, 1, 1 ) 0.059734513274336286, 0.14491150442477876, 0.3053097345132743, 0.49004424778761063;
    ( 2, 3, 2, 0 ) 0.056476365868631064, 0.10988336402701043, 0.23061182729691018, 0.6030284428074484;
    ( 2, 3, 2, 1 ) 0.11964980544747082, 0.23249027237354086, 0.32879377431906615, 0.31906614785992216;
    ( 2, 3, 3, 0 ) 0.2023121387283237, 0.24855491329479767, 0.20809248554913296, 0.34104046242774566;
    ( 2, 3, 3, 1 ) 0.28703703703703703, 0.18518518518518517, 0.3611111111111111, 0.16666666666666666;
    ( 3, 1, 1, 0 ) 0.16216216216216217, 0.32432432432432434, 0.21621621621621623, 0.2972972972972973;
    ( 3, 1, 1, 1 ) 0.2857142857142857, 0.5, 0.21428571428571427, 0.0;
    ( 3, 1, 2, 0 ) 0.27459016393442626, 0.3360655737704918, 0.3114754098360656, 0.0778688524590164;
    ( 3, 1, 2, 1 ) 0.3434343434343434, 0.42424242424242425, 0.20202020202020202, 0.030303030303030304;
    ( 3, 1, 3, 0 ) 0.6451612903225806, 0.16129032258064516, 0.16129032258064516, 0.03225806451612903;
    ( 3, 1, 3, 1 ) 0.5384615384615384, 0.3076923076923077, 0.15384615384615385, 0.0;
    ( 3, 2, 1, 0 ) 0.06239896540575493, 0.12156482379566763, 0.24603944390559326, 0.5699967668929842;
    ( 3, 2, 1, 1 ) 0.1440677966101695, 0.3050847457627119, 0.2937853107344633, 0.2570621468926554;
    ( 3, 2, 2, 0 ) 0.17030442274554852, 0.2018954623779437, 0.26421596783457785, 0.36358414704192993;
    ( 3, 2, 2, 1 ) 0.2238648363252376, 0.337909186906019, 0.2734952481520591, 0.16473072861668428;
    ( 3, 2, 3, 0 ) 0.41479099678456594, 0.3022508038585209, 0.16720257234726688, 0.1157556270096463;
    ( 3, 2, 3, 1 ) 0.46060606060606063, 0.2909090909090909, 0.19393939393939394, 0.05454545454545454;
    ( 3, 3, 1, 0 ) 0.012259835315645014, 0.030436108569685878, 0.1036901494358036, 0.8536139066788655;
    ( 3, 3, 1, 1 ) 0.06749740394600208, 0.11941848390446522, 0.25752855659397716, 0.5555555555555556;
    ( 3, 3, 2, 0 ) 0.05515556698380046, 0.08794034456158395, 0.17729493443044483, 0.6796091540241708;
    ( 3, 3, 2, 1 ) 0.14275092936802974, 0.22825278810408922, 0.29144981412639404, 0.337546468401487;
    ( 3, 3, 3, 0 ) 0.2857142857142857, 0.16964285714285715, 0.19866071428571427, 0.34598214285714285;
    ( 3, 3, 3, 1 ) 0.32367149758454106, 0.28502415458937197, 0.21739130434782608, 0.17391304347826086;
    ( 4, 1, 1, 0 ) 0.24, 0.25, 0.28, 0.23;
    ( 4, 1, 1, 1 ) 0.2727272727272727, 0.2727272727272727, 0.36363636363636365, 0.09090909090909091;
    ( 4, 1, 2, 0 ) 0.3720316622691293, 0.2796833773087071, 0.24538258575197888, 0.10290237467018469;
    ( 4, 1, 2, 1 ) 0.424, 0.288, 0.256, 0.032;
    ( 4, 1, 3, 0 ) 0.4864864864864865, 0.38738738738738737, 0.07207207207207207, 0.05405405405405406;
    ( 4, 1, 3, 1 ) 0.5, 0.29411764705882354, 0.16176470588235295, 0.04411764705882353;
    ( 4, 2, 1, 0 ) 0.05675765645805592, 0.09836884154460719, 0.25848868175765644, 0.5863848202396804;
    ( 4, 2, 1, 1 ) 0.14072494669509594, 0.24307036247334754, 0.34328358208955223, 0.27292110874200426;
    ( 4, 2, 2, 0 ) 0.1739011739011739, 0.19683319683319683, 0.2646737646737647, 0.3645918645918646;
    ( 4, 2, 2, 1 ) 0.2766233766233766, 0.3233766233766234, 0.2525974025974026, 0.1474025974025974;
    ( 4, 2, 3, 0 ) 0.43486410496719774, 0.2802249297094658, 0.16869728209934395, 0.1162136832239925;
    ( 4, 2, 3, 1 ) 0.432712215320911, 0.3167701863354037, 0.17184265010351968, 0.07867494824016563;
    ( 4, 3, 1, 0 ) 0.015288487104493485, 0.031684835593370556, 0.12483382079234247, 0.8281928565097935;
    ( 4, 3, 1, 1 ) 0.09172809172809172, 0.1466011466011466, 0.2833742833742834, 0.4782964782964783;
    ( 4, 3, 2, 0 ) 0.07034561460710792, 0.09757091620476036, 0.19880991196609063, 0.633273557222041;
    ( 4, 3, 2, 1 ) 0.18898888300688194, 0.223928004235045, 0.29592376919004765, 0.2911593435680254;
    ( 4, 3, 3, 0 ) 0.2774566473988439, 0.24373795761078998, 0.19171483622350674, 0.28709055876685935;
    ( 4, 3, 3, 1 ) 0.3312368972746331, 0.350104821802935, 0.19916142557651992, 0.11949685534591195;
    ( 5, 1, 1, 0 ) 0.24786324786324787, 0.3076923076923077, 0.26495726495726496, 0.1794871794871795;
    ( 5, 1, 1, 1 ) 0.5454545454545454, 0.36363636363636365, 0.0, 0.09090909090909091;
    ( 5, 1, 2, 0 ) 0.45401174168297453, 0.3013698630136986, 0.18199608610567514, 0.06262230919765166;
    ( 5, 1, 2, 1 ) 0.54, 0.34, 0.1, 0.02;
    ( 5, 1, 3, 0 ) 0.6057142857142858, 0.2742857142857143, 0.08, 0.04;
    ( 5, 1, 3, 1 ) 0.6190476190476191, 0.2698412698412698, 0.1111111111111111, 0.0;
    ( 5, 2, 1, 0 ) 0.06715819842923546, 0.15899983971790352, 0.3577496393652829, 0.41609232248757816;
    ( 5, 2, 1, 1 ) 0.20363636363636364, 0.2872727272727273, 0.29454545454545455, 0.21454545454545454;
    ( 5, 2, 2, 0 ) 0.16876661657611836, 0.2513004276962201, 0.33510576811929255, 0.24482718760836897;
    ( 5, 2, 2, 1 ) 0.27437858508604207, 0.37476099426386233, 0.25621414913957935, 0.09464627151051626;
    ( 5, 2, 3, 0 ) 0.33256880733944955, 0.308868501529052, 0.23318042813455658, 0.12538226299694188;
    ( 5, 2, 3, 1 ) 0.4185303514376997, 0.3450479233226837, 0.17891373801916932, 0.05750798722044728;
    ( 5, 3, 1, 0 ) 0.018335138480581773, 0.055779049976790965, 0.20362060962401363, 0.7222652019186137;
    ( 5, 3, 1, 1 ) 0.10116731517509728, 0.17898832684824903, 0.3086900129701686, 0.41115434500648507;
    ( 5, 3, 2, 0 ) 0.05822080075811419, 0.12295664534470505, 0.28233830845771146, 0.5364842454394693;
    ( 5, 3, 2, 1 ) 0.18246614397719174, 0.2851033499643621, 0.3136136849607983, 0.21881682109764788;
    ( 5, 3, 3, 0 ) 0.22140762463343108, 0.20821114369501467, 0.2602639296187683, 0.3101173020527859;
    ( 5, 3, 3, 1 ) 0.3154929577464789, 0.3295774647887324, 0.2507042253521127, 0.10422535211267606;
    ( 6, 1, 1, 0 ) 0.2949640287769784, 0.3345323741007194, 0.24820143884892087, 0.1223021582733813;
    ( 6, 1, 1, 1 ) 0.3181818181818182, 0.4090909090909091, 0.2727272727272727, 0.0;
    ( 6, 1, 2, 0 ) 0.4208289054197662, 0.36344314558979807, 0.17003188097768332, 0.04569606801275239;
    ( 6, 1, 2, 1 ) 0.6086956521739131, 0.30434782608695654, 0.07246376811594203, 0.014492753623188406;
    ( 6, 1, 3, 0 ) 0.5291666666666667, 0.3458333333333333, 0.10833333333333334, 0.016666666666666666;
    ( 6, 1, 3, 1 ) 0.6086956521739131, 0.2608695652173913, 0.10869565217391304, 0.021739130434782608;
    ( 6, 2, 1, 0 ) 0.09639241408812206, 0.2863253956937117, 0.40182518180521887, 0.21545700841294738;
    ( 6, 2, 1, 1 ) 0.2159090909090909, 0.375, 0.2727272727272727, 0.13636363636363635;
    ( 6, 2, 2, 0 ) 0.16506165061650616, 0.34452344523445233, 0.35334353343533437, 0.13707137071370715;
    ( 6, 2, 2, 1 ) 0.3117154811715481, 0.42677824267782427, 0.20920502092050208, 0.05230125523012552;
    ( 6, 2, 3, 0 ) 0.25984251968503935, 0.3910761154855643, 0.2618110236220472, 0.08727034120734908;
    ( 6, 2, 3, 1 ) 0.3902439024390244, 0.4329268292682927, 0.1524390243902439, 0.024390243902439025;
    ( 6, 3, 1, 0 ) 0.024941632025511074, 0.10454985479186835, 0.30727179545583966, 0.563236717726781;
    ( 6, 3, 1, 1 ) 0.10227272727272728, 0.30303030303030304, 0.2878787878787879, 0.3068181818181818;
    ( 6, 3, 2, 0 ) 0.058894070619586944, 0.16788807461692204, 0.35722851432378416, 0.41598934043970687;
    ( 6, 3, 2, 1 ) 0.1829787234042553, 0.30638297872340425, 0.3170212765957447, 0.19361702127659575;
    ( 6, 3, 3, 0 ) 0.1313497822931785, 0.25036284470246734, 0.3497822931785196, 0.26850507982583455;
    ( 6, 3, 3, 1 ) 0.31297709923664124, 0.3435114503816794, 0.1984732824427481, 0.1450381679389313;

}
probability ( MentHlth | Age, GenHlth, NoDocbcCost, PhysHlth ) {
    ( 1, 1, 0, 0 ) 0.9038387469508281, 0.06136859673899089, 0.034792656310181025;
    ( 1, 1, 0, 1 ) 0.7699115044247787, 0.08849557522123894, 0.1415929203539823;
    ( 1, 1, 0, 2 ) 0.7058823529411765, 0.11764705882352941, 0.17647058823529413;
    ( 1, 1, 1, 0 ) 0.7915057915057915, 0.11969111969111969, 0.0888030888030888;
    ( 1, 1, 1, 1 ) 0.7142857142857143, 0.14285714285714285, 0.14285714285714285;
    ( 1, 1, 1, 2 ) 0.5333333333333333, 0.06666666666666667, 0.4;
    ( 1, 2, 0, 0 ) 0.8065134099616859, 0.11302681992337164, 0.08045977011494253;
    ( 1, 2, 0, 1 ) 0.6802030456852792, 0.14213197969543148, 0.17766497461928935;
    ( 1, 2, 0, 2 ) 0.5055555555555555, 0.18333333333333332, 0.3111111111111111;
    ( 1, 2, 1, 0 ) 0.6576319543509273, 0.15263908701854492, 0.18972895863052783;
    ( 1, 2, 1, 1 ) 0.47058823529411764, 0.2, 0.32941176470588235;
    ( 1, 2, 1, 2 ) 0.3870967741935484, 0.1774193548387097, 0.43548387096774194;
    ( 1, 3, 0, 0 ) 0.7083333333333334, 0.20833333333333334, 0.08333333333333333;
    ( 1, 3, 0, 1 ) 0.3076923076923077, 0.23076923076923078, 0.46153846153846156;
    ( 1, 3, 0, 2 ) 0.37735849056603776, 0.18867924528301888, 0.4339622641509434;
    ( 1, 3, 1, 0 ) 0.6363636363636364, 0.0, 0.36363636363636365;
    ( 1, 3, 1, 1 ) 0.5, 0.16666666666666666, 0.3333333333333333;
    ( 1, 3, 1, 2 ) 0.37037037037037035, 0.14814814814814814, 0.48148148148148145;
    ( 2, 1, 0, 0 ) 0.9284704551880124, 0.041136556403731976, 0.030392988408255585;
    ( 2, 1, 0, 1 ) 0.8215962441314554, 0.10328638497652583, 0.07511737089201878;
    ( 2, 1, 0, 2 ) 0.7076023391812866, 0.13450292397660818, 0.15789473684210525;
    ( 2, 1, 1, 0 ) 0.839647577092511, 0.08634361233480176, 0.07400881057268723;
    ( 2, 1, 1, 1 ) 0.7435897435897436, 0.10256410256410256, 0.15384615384615385;
    ( 2, 1, 1, 2 ) 0.6521739130434783, 0.13043478260869565, 0.21739130434782608;
    ( 2, 2, 0, 0 ) 0.8416899556140063, 0.07775768535262206, 0.0805523590333717;
    ( 2, 2, 0, 1 ) 0.6204819277108434, 0.1646586345381526, 0.21485943775100402;
    ( 2, 2, 0, 2 ) 0.4720496894409938, 0.2070393374741201, 0.32091097308488614;
    ( 2, 2, 1, 0 ) 0.6984375, 0.1265625, 0.175;
    ( 2, 2, 1, 1 ) 0.5, 0.19148936170212766, 0.30851063829787234;
    ( 2, 2, 1, 2 ) 0.4025974025974026, 0.15584415584415584, 0.44155844155844154;
    ( 2, 3, 0, 0 ) 0.717948717948718, 0.1282051282051282, 0.15384615384615385;
    ( 2, 3, 0, 1 ) 0.3902439024390244, 0.12195121951219512, 0.4878048780487805;
    ( 2, 3, 0, 2 ) 0.39361702127659576, 0.14893617021276595, 0.4574468085106383;
    ( 2, 3, 1, 0 ) 0.5925925925925926, 0.07407407407407407, 0.3333333333333333;
    ( 2, 3, 1, 1 ) 0.5416666666666666, 0.16666666666666666, 0.2916666666666667;
    ( 2, 3, 1, 2 ) 0.21481481481481482, 0.13333333333333333, 0.6518518518518519;
    ( 3, 1, 0, 0 ) 0.9378924595008179, 0.03667352646298348, 0.02543401403619862;
    ( 3, 1, 0, 1 ) 0.8405797101449275, 0.08985507246376812, 0.06956521739130435;
    ( 3, 1, 0, 2 ) 0.7744360902255639, 0.10150375939849623, 0.12406015037593984;
    ( 3, 1, 1, 0 ) 0.8208092485549133, 0.08670520231213873, 0.09248554913294797;
    ( 3, 1, 1, 1 ) 0.6779661016949152, 0.1864406779661017, 0.13559322033898305;
    ( 3, 1, 1, 2 ) 0.5081967213114754, 0.11475409836065574, 0.3770491803278688;
    ( 3, 2, 0, 0 ) 0.8636843215868326, 0.07079552648238024, 0.06552015193078708;
    ( 3, 2, 0, 1 ) 0.6157253599114064, 0.16611295681063123, 0.21816168327796234;
    ( 3, 2, 0, 2 ) 0.5155832591273375, 0.14158504007123776, 0.3428317008014248;
    ( 3, 2, 1, 0 ) 0.7459627329192546, 0.11366459627329192, 0.14037267080745341;
    ( 3, 2, 1, 1 ) 0.49853372434017595, 0.20527859237536658, 0.2961876832844575;
    ( 3, 2, 1, 2 ) 0.37272727272727274, 0.20227272727272727, 0.425;
    ( 3, 3, 0, 0 ) 0.5959595959595959, 0.06060606060606061, 0.3434343434343434;
    ( 3, 3, 0, 1 ) 0.5252525252525253, 0.16161616161616163, 0.31313131313131315;
    ( 3, 3, 0, 2 ) 0.31925675675675674, 0.17229729729729729, 0.5084459459459459;
    ( 3, 3, 1, 0 ) 0.4888888888888889, 0.13333333333333333, 0.37777777777777777;
    ( 3, 3, 1, 1 ) 0.375, 0.2708333333333333, 0.3541666666666667;
    ( 3, 3, 1, 2 ) 0.2754098360655738, 0.16393442622950818, 0.5606557377049181;
    ( 4, 1, 0, 0 ) 0.9500506365740741, 0.02911603009259259, 0.020833333333333332;
    ( 4, 1, 0, 1 ) 0.8571428571428571, 0.08458646616541353, 0.05827067669172932;
    ( 4, 1, 0, 2 ) 0.8036437246963563, 0.06680161943319839, 0.12955465587044535;
    ( 4, 1, 1, 0 ) 0.8523017902813299, 0.07161125319693094, 0.07608695652173914;
    ( 4, 1, 1, 1 ) 0.6666666666666666, 0.15, 0.18333333333333332;
    ( 4, 1, 1, 2 ) 0.5324675324675324, 0.15584415584415584, 0.3116883116883117;
    ( 4, 2, 0, 0 ) 0.8856995086630463, 0.05404706490819757, 0.06025342642875614;
    ( 4, 2, 0, 1 ) 0.6435313714602998, 0.17601332593003888, 0.1804553026096613;
    ( 4, 2, 0, 2 ) 0.5595414201183432, 0.14090236686390534, 0.2995562130177515;
    ( 4, 2, 1, 0 ) 0.768783542039356, 0.09973166368515206, 0.13148479427549195;
    ( 4, 2, 1, 1 ) 0.5368217054263565, 0.24031007751937986, 0.22286821705426357;
    ( 4, 2, 1, 2 ) 0.42768079800498754, 0.18079800498753118, 0.3915211970074813;
    ( 4, 3, 0, 0 ) 0.6911764705882353, 0.06985294117647059, 0.23897058823529413;
    ( 4, 3, 0, 1 ) 0.4954545454545455, 0.24545454545454545, 0.2590909090909091;
    ( 4, 3, 0, 2 ) 0.4008120649651972, 0.14559164733178653, 0.45359628770301624;
    ( 4, 3, 1, 0 ) 0.6057692307692307, 0.08653846153846154, 0.3076923076923077;
    ( 4, 3, 1, 1 ) 0.34285714285714286, 0.2571428571428571, 0.4;
    ( 4, 3, 1, 2 ) 0.29914529914529914, 0.14041514041514042, 0.5604395604395604;
    ( 5, 1, 0, 0 ) 0.9599442590011991, 0.021324172797096284, 0.018731568201704636;
    ( 5, 1, 0, 1 ) 0.8976157082748948, 0.0546984572230014, 0.047685834502103785;
    ( 5, 1, 0, 2 ) 0.8495297805642633, 0.048589341692789965, 0.10188087774294671;
    ( 5, 1, 1, 0 ) 0.8945147679324894, 0.05168776371308017, 0.05379746835443038;
    ( 5, 1, 1, 1 ) 0.6909090909090909, 0.16363636363636364, 0.14545454545454545;
    ( 5, 1, 1, 2 ) 0.7407407407407407, 0.07407407407407407, 0.18518518518518517;
    ( 5, 2, 0, 0 ) 0.9168699288167654, 0.03957389616207875, 0.04355617502115586;
    ( 5, 2, 0, 1 ) 0.7398066414459857, 0.13787305590584278, 0.1223203026481715;
    ( 5, 2, 0, 2 ) 0.6766349916154276, 0.11235326998323085, 0.21101173840134152;
    ( 5, 2, 1, 0 ) 0.8050682261208577, 0.07732293697205977, 0.11760883690708251;
    ( 5, 2, 1, 1 ) 0.5896103896103896, 0.21558441558441557, 0.19480519480519481;
    ( 5, 2, 1, 2 ) 0.4896, 0.152, 0.3584;
    ( 5, 3, 0, 0 ) 0.7559808612440191, 0.09569377990430622, 0.14832535885167464;
    ( 5, 3, 0, 1 ) 0.6101083032490975, 0.16606498194945848, 0.22382671480144403;
    ( 5, 3, 0, 2 ) 0.5315985130111525, 0.11942379182156133, 0.3489776951672863;
    ( 5, 3, 1, 0 ) 0.7123287671232876, 0.0821917808219178, 0.2054794520547945;
    ( 5, 3, 1, 1 ) 0.494949494949495, 0.26262626262626265, 0.24242424242424243;
    ( 5, 3, 1, 2 ) 0.3774597495527728, 0.13237924865831843, 0.49016100178890876;
    ( 6, 1, 0, 0 ) 0.9728015663573678, 0.013833319145313697, 0.013365114497318465;
    ( 6, 1, 0, 1 ) 0.8920863309352518, 0.06474820143884892, 0.04316546762589928;
    ( 6, 1, 0, 2 ) 0.8702865761689291, 0.0392156862745098, 0.09049773755656108;
    ( 6, 1, 1, 0 ) 0.9508599508599509, 0.022113022113022112, 0.02702702702702703;
    ( 6, 1, 1, 1 ) 0.6666666666666666, 0.14814814814814814, 0.18518518518518517;
    ( 6, 1, 1, 2 ) 0.6428571428571429, 0.03571428571428571, 0.32142857142857145;
    ( 6, 2, 0, 0 ) 0.9478752455325061, 0.026062377233746947, 0.026062377233746947;
    ( 6, 2, 0, 1 ) 0.8322121092204194, 0.10526315789473684, 0.06252473288484368;
    ( 6, 2, 0, 2 ) 0.7894593118514472, 0.0860185690879301, 0.1245221190606226;
    ( 6, 2, 1, 0 ) 0.8625592417061612, 0.04897314375987362, 0.08846761453396525;
    ( 6, 2, 1, 1 ) 0.6644736842105263, 0.17763157894736842, 0.15789473684210525;
    ( 6, 2, 1, 2 ) 0.7155172413793104, 0.1206896551724138, 0.16379310344827586;
    ( 6, 3, 0, 0 ) 0.8549019607843137, 0.052941176470588235, 0.09215686274509804;
    ( 6, 3, 0, 1 ) 0.7440633245382586, 0.15303430079155672, 0.10290237467018469;
    ( 6, 3, 0, 2 ) 0.6959609409675988, 0.09409675987572126, 0.20994229915667997;
    ( 6, 3, 1, 0 ) 0.782608695652174, 0.043478260869565216, 0.17391304347826086;
    ( 6, 3, 1, 1 ) 0.625, 0.20833333333333334, 0.16666666666666666;
    ( 6, 3, 1, 2 ) 0.5239852398523985, 0.12546125461254612, 0.3505535055350554;

}
probability ( NoDocbcCost | AnyHealthcare, CholCheck, Fruits, GenHlth ) {
    ( 0, 0, 0, 1 ) 0.7091836734693877, 0.29081632653061223;
    ( 0, 0, 0, 2 ) 0.45595854922279794, 0.5440414507772021;
    ( 0, 0, 0, 3 ) 0.08333333333333333, 0.9166666666666666;
    ( 0, 0, 1, 1 ) 0.6984435797665369, 0.301556420233463;
    ( 0, 0, 1, 2 ) 0.4723926380368098, 0.5276073619631901;
    ( 0, 0, 1, 3 ) 0.26666666666666666, 0.7333333333333333;
    ( 0, 1, 0, 1 ) 0.7465630603705917, 0.2534369396294083;
    ( 0, 1, 0, 2 ) 0.5738546603475514, 0.42614533965244866;
    ( 0, 1, 0, 3 ) 0.3220338983050847, 0.6779661016949152;
    ( 0, 1, 1, 1 ) 0.7537526804860615, 0.24624731951393852;
    ( 0, 1, 1, 2 ) 0.5948820206048521, 0.4051179793951479;
    ( 0, 1, 1, 3 ) 0.39509536784741145, 0.6049046321525886;
    ( 1, 0, 0, 1 ) 0.9110169491525424, 0.08898305084745763;
    ( 1, 0, 0, 2 ) 0.8088597210828548, 0.1911402789171452;
    ( 1, 0, 0, 3 ) 0.6526315789473685, 0.3473684210526316;
    ( 1, 0, 1, 1 ) 0.9378783051927365, 0.06212169480726346;
    ( 1, 0, 1, 2 ) 0.841642228739003, 0.15835777126099707;
    ( 1, 0, 1, 3 ) 0.7037037037037037, 0.2962962962962963;
    ( 1, 1, 0, 1 ) 0.9569544788561613, 0.04304552114383873;
    ( 1, 1, 0, 2 ) 0.8974804736709499, 0.10251952632905013;
    ( 1, 1, 0, 3 ) 0.796390184546745, 0.2036098154532549;
    ( 1, 1, 1, 1 ) 0.96304195845627, 0.03695804154372993;
    ( 1, 1, 1, 2 ) 0.9171920258987902, 0.08280797410120974;
    ( 1, 1, 1, 3 ) 0.8141263940520446, 0.18587360594795538;

}
probability ( PhysActivity | BMI, DiffWalk, Education, Fruits, GenHlth, Veggies ) {
    ( 0, 0, 1, 0, 1, 0 ) 0.35, 0.65;
    ( 0, 0, 1, 0, 1, 1 ) 0.325, 0.675;
    ( 0, 0, 1, 0, 2, 0 ) 0.5066666666666667, 0.49333333333333335;
    ( 0, 0, 1, 0, 2, 1 ) 0.4444444444444444, 0.5555555555555556;
    ( 0, 0, 1, 0, 3, 0 ) 0.8333333333333334, 0.16666666666666666;
    ( 0, 0, 1, 0, 3, 1 ) 0.14285714285714285, 0.8571428571428571;
    ( 0, 0, 1, 1, 1, 0 ) 0.17647058823529413, 0.8235294117647058;
    ( 0, 0, 1, 1, 1, 1 ) 0.16981132075471697, 0.8301886792452831;
    ( 0, 0, 1, 1, 2, 0 ) 0.32653061224489793, 0.673469387755102;
    ( 0, 0, 1, 1, 2, 1 ) 0.305, 0.695;
    ( 0, 0, 1, 1, 3, 0 ) 0.375, 0.625;
    ( 0, 0, 1, 1, 3, 1 ) 0.45, 0.55;
    ( 0, 0, 2, 0, 1, 0 ) 0.33226837060702874, 0.6677316293929713;
    ( 0, 0, 2, 0, 1, 1 ) 0.2373871481678173, 0.7626128518321826;
    ( 0, 0, 2, 0, 2, 0 ) 0.41869158878504675, 0.5813084112149532;
    ( 0, 0, 2, 0, 2, 1 ) 0.34827810266406756, 0.6517218973359324;
    ( 0, 0, 2, 0, 3, 0 ) 0.5760869565217391, 0.42391304347826086;
    ( 0, 0, 2, 0, 3, 1 ) 0.5483870967741935, 0.45161290322580644;
    ( 0, 0, 2, 1, 1, 0 ) 0.24546952224052718, 0.7545304777594728;
    ( 0, 0, 2, 1, 1, 1 ) 0.14056603773584905, 0.8594339622641509;
    ( 0, 0, 2, 1, 2, 0 ) 0.3490566037735849, 0.6509433962264151;
    ( 0, 0, 2, 1, 2, 1 ) 0.23430375306909856, 0.7656962469309014;
    ( 0, 0, 2, 1, 3, 0 ) 0.4864864864864865, 0.5135135135135135;
    ( 0, 0, 2, 1, 3, 1 ) 0.4065934065934066, 0.5934065934065934;
    ( 0, 0, 3, 0, 1, 0 ) 0.22296015180265655, 0.7770398481973435;
    ( 0, 0, 3, 0, 1, 1 ) 0.12549232649735162, 0.8745076735026484;
    ( 0, 0, 3, 0, 2, 0 ) 0.3244444444444444, 0.6755555555555556;
    ( 0, 0, 3, 0, 2, 1 ) 0.2296522735957203, 0.7703477264042797;
    ( 0, 0, 3, 0, 3, 0 ) 0.423728813559322, 0.576271186440678;
    ( 0, 0, 3, 0, 3, 1 ) 0.4215686274509804, 0.5784313725490197;
    ( 0, 0, 3, 1, 1, 0 ) 0.15115589804386484, 0.8488441019561351;
    ( 0, 0, 3, 1, 1, 1 ) 0.06616615477950935, 0.9338338452204906;
    ( 0, 0, 3, 1, 2, 0 ) 0.24146981627296588, 0.7585301837270341;
    ( 0, 0, 3, 1, 2, 1 ) 0.14953810623556582, 0.8504618937644342;
    ( 0, 0, 3, 1, 3, 0 ) 0.4666666666666667, 0.5333333333333333;
    ( 0, 0, 3, 1, 3, 1 ) 0.26171875, 0.73828125;
    ( 0, 1, 1, 0, 1, 0 ) 1.0, 0.0;
    ( 0, 1, 1, 0, 1, 1 ) 0.5, 0.5;
    ( 0, 1, 1, 0, 2, 0 ) 0.6842105263157895, 0.3157894736842105;
    ( 0, 1, 1, 0, 2, 1 ) 0.46153846153846156, 0.5384615384615384;
    ( 0, 1, 1, 0, 3, 0 ) 0.6857142857142857, 0.3142857142857143;
    ( 0, 1, 1, 0, 3, 1 ) 0.7407407407407407, 0.25925925925925924;
    ( 0, 1, 1, 1, 1, 0 ) 1.0, 0.0;
    ( 0, 1, 1, 1, 1, 1 ) 0.5454545454545454, 0.45454545454545453;
    ( 0, 1, 1, 1, 2, 0 ) 0.47619047619047616, 0.5238095238095238;
    ( 0, 1, 1, 1, 2, 1 ) 0.4788732394366197, 0.5211267605633803;
    ( 0, 1, 1, 1, 3, 0 ) 0.45454545454545453, 0.5454545454545454;
    ( 0, 1, 1, 1, 3, 1 ) 0.5121951219512195, 0.4878048780487805;
    ( 0, 1, 2, 0, 1, 0 ) 0.5263157894736842, 0.47368421052631576;
    ( 0, 1, 2, 0, 1, 1 ) 0.44554455445544555, 0.5544554455445545;
    ( 0, 1, 2, 0, 2, 0 ) 0.5728900255754475, 0.42710997442455245;
    ( 0, 1, 2, 0, 2, 1 ) 0.512987012987013, 0.487012987012987;
    ( 0, 1, 2, 0, 3, 0 ) 0.7089201877934272, 0.29107981220657275;
    ( 0, 1, 2, 0, 3, 1 ) 0.5975103734439834, 0.4024896265560166;
    ( 0, 1, 2, 1, 1, 0 ) 0.35, 0.65;
    ( 0, 1, 2, 1, 1, 1 ) 0.28095238095238095, 0.719047619047619;
    ( 0, 1, 2, 1, 2, 0 ) 0.515695067264574, 0.484304932735426;
    ( 0, 1, 2, 1, 2, 1 ) 0.4320685434516524, 0.5679314565483476;
    ( 0, 1, 2, 1, 3, 0 ) 0.6699029126213593, 0.3300970873786408;
    ( 0, 1, 2, 1, 3, 1 ) 0.5504322766570605, 0.4495677233429395;
    ( 0, 1, 3, 0, 1, 0 ) 0.4915254237288136, 0.5084745762711864;
    ( 0, 1, 3, 0, 1, 1 ) 0.30538922155688625, 0.6946107784431138;
    ( 0, 1, 3, 0, 2, 0 ) 0.5290322580645161, 0.47096774193548385;
    ( 0, 1, 3, 0, 2, 1 ) 0.44028520499108736, 0.5597147950089126;
    ( 0, 1, 3, 0, 3, 0 ) 0.7467532467532467, 0.2532467532467532;
    ( 0, 1, 3, 0, 3, 1 ) 0.5707547169811321, 0.42924528301886794;
    ( 0, 1, 3, 1, 1, 0 ) 0.34328358208955223, 0.6567164179104478;
    ( 0, 1, 3, 1, 1, 1 ) 0.2381818181818182, 0.7618181818181818;
    ( 0, 1, 3, 1, 2, 0 ) 0.4900990099009901, 0.5099009900990099;
    ( 0, 1, 3, 1, 2, 1 ) 0.3502673796791444, 0.6497326203208557;
    ( 0, 1, 3, 1, 3, 0 ) 0.5662650602409639, 0.43373493975903615;
    ( 0, 1, 3, 1, 3, 1 ) 0.48140495867768596, 0.518595041322314;
    ( 1, 0, 1, 0, 1, 0 ) 0.484375, 0.515625;
    ( 1, 0, 1, 0, 1, 1 ) 0.35365853658536583, 0.6463414634146342;
    ( 1, 0, 1, 0, 2, 0 ) 0.4688995215311005, 0.5311004784688995;
    ( 1, 0, 1, 0, 2, 1 ) 0.42900302114803623, 0.5709969788519638;
    ( 1, 0, 1, 0, 3, 0 ) 0.5238095238095238, 0.47619047619047616;
    ( 1, 0, 1, 0, 3, 1 ) 0.4482758620689655, 0.5517241379310345;
    ( 1, 0, 1, 1, 1, 0 ) 0.4146341463414634, 0.5853658536585366;
    ( 1, 0, 1, 1, 1, 1 ) 0.2697095435684647, 0.7302904564315352;
    ( 1, 0, 1, 1, 2, 0 ) 0.42857142857142855, 0.5714285714285714;
    ( 1, 0, 1, 1, 2, 1 ) 0.300163132137031, 0.6998368678629691;
    ( 1, 0, 1, 1, 3, 0 ) 0.4666666666666667, 0.5333333333333333;
    ( 1, 0, 1, 1, 3, 1 ) 0.44, 0.56;
    ( 1, 0, 2, 0, 1, 0 ) 0.388560157790927, 0.611439842209073;
    ( 1, 0, 2, 0, 1, 1 ) 0.2855924978687127, 0.7144075021312873;
    ( 1, 0, 2, 0, 2, 0 ) 0.45241497570734496, 0.5475850242926551;
    ( 1, 0, 2, 0, 2, 1 ) 0.366312191416635, 0.6336878085833649;
    ( 1, 0, 2, 0, 3, 0 ) 0.5465116279069767, 0.45348837209302323;
    ( 1, 0, 2, 0, 3, 1 ) 0.4751131221719457, 0.5248868778280543;
    ( 1, 0, 2, 1, 1, 0 ) 0.2876526458616011, 0.7123473541383989;
    ( 1, 0, 2, 1, 1, 1 ) 0.18149789748835096, 0.818502102511649;
    ( 1, 0, 2, 1, 2, 0 ) 0.36462450592885376, 0.6353754940711462;
    ( 1, 0, 2, 1, 2, 1 ) 0.2715611041117856, 0.7284388958882144;
    ( 1, 0, 2, 1, 3, 0 ) 0.4444444444444444, 0.5555555555555556;
    ( 1, 0, 2, 1, 3, 1 ) 0.3746130030959752, 0.6253869969040248;
    ( 1, 0, 3, 0, 1, 0 ) 0.2563952353056044, 0.7436047646943956;
    ( 1, 0, 3, 0, 1, 1 ) 0.16646171768817553, 0.8335382823118245;
    ( 1, 0, 3, 0, 2, 0 ) 0.36470871449205583, 0.6352912855079441;
    ( 1, 0, 3, 0, 2, 1 ) 0.25805474194525807, 0.741945258054742;
    ( 1, 0, 3, 0, 3, 0 ) 0.42016806722689076, 0.5798319327731093;
    ( 1, 0, 3, 0, 3, 1 ) 0.39919354838709675, 0.6008064516129032;
    ( 1, 0, 3, 1, 1, 0 ) 0.18474820143884893, 0.815251798561151;
    ( 1, 0, 3, 1, 1, 1 ) 0.09921123660281439, 0.9007887633971856;
    ( 1, 0, 3, 1, 2, 0 ) 0.2894628946289463, 0.7105371053710537;
    ( 1, 0, 3, 1, 2, 1 ) 0.17927055429631156, 0.8207294457036884;
    ( 1, 0, 3, 1, 3, 0 ) 0.4444444444444444, 0.5555555555555556;
    ( 1, 0, 3, 1, 3, 1 ) 0.3156862745098039, 0.6843137254901961;
    ( 1, 1, 1, 0, 1, 0 ) 0.5, 0.5;
    ( 1, 1, 1, 0, 1, 1 ) 0.5555555555555556, 0.4444444444444444;
    ( 1, 1, 1, 0, 2, 0 ) 0.6025641025641025, 0.3974358974358974;
    ( 1, 1, 1, 0, 2, 1 ) 0.5, 0.5;
    ( 1, 1, 1, 0, 3, 0 ) 0.6666666666666666, 0.3333333333333333;
    ( 1, 1, 1, 0, 3, 1 ) 0.5922330097087378, 0.4077669902912621;
    ( 1, 1, 1, 1, 1, 0 ) 0.4166666666666667, 0.5833333333333334;
    ( 1, 1, 1, 1, 1, 1 ) 0.34210526315789475, 0.6578947368421053;
    ( 1, 1, 1, 1, 2, 0 ) 0.5066666666666667, 0.49333333333333335;
    ( 1, 1, 1, 1, 2, 1 ) 0.3968871595330739, 0.603112840466926;
    ( 1, 1, 1, 1, 3, 0 ) 0.7346938775510204, 0.2653061224489796;
    ( 1, 1, 1, 1, 3, 1 ) 0.5816993464052288, 0.41830065359477125;
    ( 1, 1, 2, 0, 1, 0 ) 0.5637065637065637, 0.4362934362934363;
    ( 1, 1, 2, 0, 1, 1 ) 0.4720670391061452, 0.5279329608938548;
    ( 1, 1, 2, 0, 2, 0 ) 0.58680333119795, 0.41319666880204997;
    ( 1, 1, 2, 0, 2, 1 ) 0.516546762589928, 0.48345323741007196;
    ( 1, 1, 2, 0, 3, 0 ) 0.6881720430107527, 0.3118279569892473;
    ( 1, 1, 2, 0, 3, 1 ) 0.6372688477951636, 0.3627311522048364;
    ( 1, 1, 2, 1, 1, 0 ) 0.521505376344086, 0.478494623655914;
    ( 1, 1, 2, 1, 1, 1 ) 0.36022253129346316, 0.6397774687065368;
    ( 1, 1, 2, 1, 2, 0 ) 0.5412429378531074, 0.45875706214689266;
    ( 1, 1, 2, 1, 2, 1 ) 0.4441167797109997, 0.5558832202890003;
    ( 1, 1, 2, 1, 3, 0 ) 0.6615969581749049, 0.33840304182509506;
    ( 1, 1, 2, 1, 3, 1 ) 0.5631868131868132, 0.4368131868131868;
    ( 1, 1, 3, 0, 1, 0 ) 0.42913385826771655, 0.5708661417322834;
    ( 1, 1, 3, 0, 1, 1 ) 0.3828125, 0.6171875;
    ( 1, 1, 3, 0, 2, 0 ) 0.5481651376146789, 0.4518348623853211;
    ( 1, 1, 3, 0, 2, 1 ) 0.46646571213263, 0.53353428786737;
    ( 1, 1, 3, 0, 3, 0 ) 0.6613756613756614, 0.3386243386243386;
    ( 1, 1, 3, 0, 3, 1 ) 0.5794117647058824, 0.42058823529411765;
    ( 1, 1, 3, 1, 1, 0 ) 0.3886255924170616, 0.6113744075829384;
    ( 1, 1, 3, 1, 1, 1 ) 0.2826086956521739, 0.717391304347826;
    ( 1, 1, 3, 1, 2, 0 ) 0.48819875776397514, 0.5118012422360249;
    ( 1, 1, 3, 1, 2, 1 ) 0.37562455389007854, 0.6243754461099215;
    ( 1, 1, 3, 1, 3, 0 ) 0.6428571428571429, 0.35714285714285715;
    ( 1, 1, 3, 1, 3, 1 ) 0.5207860922146637, 0.47921390778533635;
    ( 2, 0, 1, 0, 1, 0 ) 0.6, 0.4;
    ( 2, 0, 1, 0, 1, 1 ) 0.4, 0.6;
    ( 2, 0, 1, 0, 2, 0 ) 0.4117647058823529, 0.5882352941176471;
    ( 2, 0, 1, 0, 2, 1 ) 0.5, 0.5;
    ( 2, 0, 1, 0, 3, 0 ) 0.6666666666666666, 0.3333333333333333;
    ( 2, 0, 1, 0, 3, 1 ) 1.0, 0.0;
    ( 2, 0, 1, 1, 1, 0 ) 0.0, 1.0;
    ( 2, 0, 1, 1, 1, 1 ) 0.14285714285714285, 0.8571428571428571;
    ( 2, 0, 1, 1, 2, 0 ) 0.16666666666666666, 0.8333333333333334;
    ( 2, 0, 1, 1, 2, 1 ) 0.3023255813953488, 0.6976744186046512;
    ( 2, 0, 1, 1, 3, 0 ) 0.5, 0.5;
    ( 2, 0, 1, 1, 3, 1 ) 0.5, 0.5;
    ( 2, 0, 2, 0, 1, 0 ) 0.424, 0.576;
    ( 2, 0, 2, 0, 1, 1 ) 0.366120218579235, 0.6338797814207651;
    ( 2, 0, 2, 0, 2, 0 ) 0.5267605633802817, 0.4732394366197183;
    ( 2, 0, 2, 0, 2, 1 ) 0.4246031746031746, 0.5753968253968254;
    ( 2, 0, 2, 0, 3, 0 ) 0.55, 0.45;
    ( 2, 0, 2, 0, 3, 1 ) 0.4074074074074074, 0.5925925925925926;
    ( 2, 0, 2, 1, 1, 0 ) 0.3787878787878788, 0.6212121212121212;
    ( 2, 0, 2, 1, 1, 1 ) 0.29545454545454547, 0.7045454545454546;
    ( 2, 0, 2, 1, 2, 0 ) 0.4217687074829932, 0.5782312925170068;
    ( 2, 0, 2, 1, 2, 1 ) 0.3114754098360656, 0.6885245901639344;
    ( 2, 0, 2, 1, 3, 0 ) 0.4, 0.6;
    ( 2, 0, 2, 1, 3, 1 ) 0.3939393939393939, 0.6060606060606061;
    ( 2, 0, 3, 0, 1, 0 ) 0.3588516746411483, 0.6411483253588517;
    ( 2, 0, 3, 0, 1, 1 ) 0.2943201376936317, 0.7056798623063684;
    ( 2, 0, 3, 0, 2, 0 ) 0.4533898305084746, 0.5466101694915254;
    ( 2, 0, 3, 0, 2, 1 ) 0.3504761904761905, 0.6495238095238095;
    ( 2, 0, 3, 0, 3, 0 ) 0.6666666666666666, 0.3333333333333333;
    ( 2, 0, 3, 0, 3, 1 ) 0.5357142857142857, 0.4642857142857143;
    ( 2, 0, 3, 1, 1, 0 ) 0.2920353982300885, 0.7079646017699115;
    ( 2, 0, 3, 1, 1, 1 ) 0.1853211009174312, 0.8146788990825689;
    ( 2, 0, 3, 1, 2, 0 ) 0.3163265306122449, 0.6836734693877551;
    ( 2, 0, 3, 1, 2, 1 ) 0.26920712968653965, 0.7307928703134604;
    ( 2, 0, 3, 1, 3, 0 ) 0.75, 0.25;
    ( 2, 0, 3, 1, 3, 1 ) 0.29411764705882354, 0.7058823529411765;
    ( 2, 1, 1, 0, 1, 0 ) 1.0, 0.0;
    ( 2, 1, 1, 0, 1, 1 ) 0.5, 0.5;
    ( 2, 1, 1, 0, 2, 0 ) 0.6538461538461539, 0.34615384615384615;
    ( 2, 1, 1, 0, 2, 1 ) 0.45454545454545453, 0.5454545454545454;
    ( 2, 1, 1, 0, 3, 0 ) 0.8235294117647058, 0.17647058823529413;
    ( 2, 1, 1, 0, 3, 1 ) 0.5625, 0.4375;
    ( 2, 1, 1, 1, 1, 0 ) 0.5, 0.5;
    ( 2, 1, 1, 1, 1, 1 ) 1.0, 0.0;
    ( 2, 1, 1, 1, 2, 0 ) 0.7692307692307693, 0.23076923076923078;
    ( 2, 1, 1, 1, 2, 1 ) 0.4222222222222222, 0.5777777777777777;
    ( 2, 1, 1, 1, 3, 0 ) 0.7142857142857143, 0.2857142857142857;
    ( 2, 1, 1, 1, 3, 1 ) 0.7, 0.3;
    ( 2, 1, 2, 0, 1, 0 ) 0.45454545454545453, 0.5454545454545454;
    ( 2, 1, 2, 0, 1, 1 ) 0.5098039215686274, 0.49019607843137253;
    ( 2, 1, 2, 0, 2, 0 ) 0.7060367454068242, 0.29396325459317585;
    ( 2, 1, 2, 0, 2, 1 ) 0.6157205240174672, 0.38427947598253276;
    ( 2, 1, 2, 0, 3, 0 ) 0.7551020408163265, 0.24489795918367346;
    ( 2, 1, 2, 0, 3, 1 ) 0.6855345911949685, 0.31446540880503143;
    ( 2, 1, 2, 1, 1, 0 ) 0.45454545454545453, 0.5454545454545454;
    ( 2, 1, 2, 1, 1, 1 ) 0.4444444444444444, 0.5555555555555556;
    ( 2, 1, 2, 1, 2, 0 ) 0.5897435897435898, 0.41025641025641024;
    ( 2, 1, 2, 1, 2, 1 ) 0.5008403361344538, 0.4991596638655462;
    ( 2, 1, 2, 1, 3, 0 ) 0.7123287671232876, 0.2876712328767123;
    ( 2, 1, 2, 1, 3, 1 ) 0.6303501945525292, 0.36964980544747084;
    ( 2, 1, 3, 0, 1, 0 ) 0.7428571428571429, 0.2571428571428571;
    ( 2, 1, 3, 0, 1, 1 ) 0.55, 0.45;
    ( 2, 1, 3, 0, 2, 0 ) 0.6716417910447762, 0.3283582089552239;
    ( 2, 1, 3, 0, 2, 1 ) 0.5131147540983606, 0.48688524590163934;
    ( 2, 1, 3, 0, 3, 0 ) 0.7719298245614035, 0.22807017543859648;
    ( 2, 1, 3, 0, 3, 1 ) 0.6701570680628273, 0.3298429319371728;
    ( 2, 1, 3, 1, 1, 0 ) 0.5789473684210527, 0.42105263157894735;
    ( 2, 1, 3, 1, 1, 1 ) 0.4090909090909091, 0.5909090909090909;
    ( 2, 1, 3, 1, 2, 0 ) 0.621301775147929, 0.378698224852071;
    ( 2, 1, 3, 1, 2, 1 ) 0.4722735674676525, 0.5277264325323475;
    ( 2, 1, 3, 1, 3, 0 ) 0.7142857142857143, 0.2857142857142857;
    ( 2, 1, 3, 1, 3, 1 ) 0.6543624161073825, 0.34563758389261745;

}
probability ( PhysHlth | DiffWalk, GenHlth, NoDocbcCost, PhysActivity ) {
    ( 0, 1, 0, 0 ) 0.9533723331039229, 0.022138105069970177, 0.024489561826106905;
    ( 0, 1, 0, 1 ) 0.9713295856915163, 0.017112534239384598, 0.011557880069099134;
    ( 0, 1, 1, 0 ) 0.9152872444011685, 0.04673807205452775, 0.0379746835443038;
    ( 0, 1, 1, 1 ) 0.9459296482412061, 0.03135678391959799, 0.02271356783919598;
    ( 0, 2, 0, 0 ) 0.8296738097751504, 0.0762166156444632, 0.09410957458038637;
    ( 0, 2, 0, 1 ) 0.8803151694225051, 0.06129136125158626, 0.05839346932590867;
    ( 0, 2, 1, 0 ) 0.767287784679089, 0.10434782608695652, 0.12836438923395446;
    ( 0, 2, 1, 1 ) 0.8002494654312188, 0.10655737704918032, 0.09319315751960086;
    ( 0, 3, 0, 0 ) 0.2520242914979757, 0.12955465587044535, 0.618421052631579;
    ( 0, 3, 0, 1 ) 0.25704225352112675, 0.1443661971830986, 0.5985915492957746;
    ( 0, 3, 1, 0 ) 0.1814516129032258, 0.14516129032258066, 0.6733870967741935;
    ( 0, 3, 1, 1 ) 0.20604395604395603, 0.1510989010989011, 0.6428571428571429;
    ( 1, 1, 0, 0 ) 0.7591240875912408, 0.08661800486618004, 0.15425790754257906;
    ( 1, 1, 0, 1 ) 0.8263321116436425, 0.07160981110797858, 0.10205807724837891;
    ( 1, 1, 1, 0 ) 0.6417910447761194, 0.12437810945273632, 0.23383084577114427;
    ( 1, 1, 1, 1 ) 0.7315068493150685, 0.10684931506849316, 0.16164383561643836;
    ( 1, 2, 0, 0 ) 0.5053070851855211, 0.15204572258005988, 0.3426471922344189;
    ( 1, 2, 0, 1 ) 0.5936087798579729, 0.15727888960619754, 0.24911233053582957;
    ( 1, 2, 1, 0 ) 0.385378590078329, 0.197911227154047, 0.416710182767624;
    ( 1, 2, 1, 1 ) 0.4333648393194707, 0.20699432892249528, 0.359640831758034;
    ( 1, 3, 0, 0 ) 0.0971764705882353, 0.0868235294117647, 0.816;
    ( 1, 3, 0, 1 ) 0.12430426716141002, 0.12133580705009277, 0.7543599257884972;
    ( 1, 3, 1, 0 ) 0.07961783439490445, 0.09713375796178345, 0.8232484076433121;
    ( 1, 3, 1, 1 ) 0.1, 0.10813953488372093, 0.791860465116279;

}
probability ( Sex | BMI, DiffWalk, Fruits, HeartDiseaseorAttack, Income, Smoker ) {
    ( 0, 0, 0, 0, 1, 0 ) 0.6784, 0.3216;
    ( 0, 0, 0, 0, 1, 1 ) 0.595771144278607, 0.40422885572139305;
    ( 0, 0, 0, 0, 2, 0 ) 0.6526217228464419, 0.34737827715355807;
    ( 0, 0, 0, 0, 2, 1 ) 0.5822878228782288, 0.4177121771217712;
    ( 0, 0, 0, 0, 3, 0 ) 0.6423248882265276, 0.35767511177347244;
    ( 0, 0, 0, 0, 3, 1 ) 0.5661031642826181, 0.43389683571738186;
    ( 0, 0, 0, 0, 4, 0 ) 0.6188304284085356, 0.3811695715914644;
    ( 0, 0, 0, 0, 4, 1 ) 0.5710614237985093, 0.4289385762014906;
    ( 0, 0, 0, 1, 1, 0 ) 0.6078431372549019, 0.39215686274509803;
    ( 0, 0, 0, 1, 1, 1 ) 0.4639175257731959, 0.5360824742268041;
    ( 0, 0, 0, 1, 2, 0 ) 0.6557377049180327, 0.3442622950819672;
    ( 0, 0, 0, 1, 2, 1 ) 0.4378698224852071, 0.5621301775147929;
    ( 0, 0, 0, 1, 3, 0 ) 0.38461538461538464, 0.6153846153846154;
    ( 0, 0, 0, 1, 3, 1 ) 0.39732142857142855, 0.6026785714285714;
    ( 0, 0, 0, 1, 4, 0 ) 0.3482142857142857, 0.6517857142857143;
    ( 0, 0, 0, 1, 4, 1 ) 0.28054298642533937, 0.7194570135746606;
    ( 0, 0, 1, 0, 1, 0 ) 0.7450805008944544, 0.2549194991055456;
    ( 0, 0, 1, 0, 1, 1 ) 0.6427771556550952, 0.3572228443449048;
    ( 0, 0, 1, 0, 2, 0 ) 0.7594202898550725, 0.24057971014492754;
    ( 0, 0, 1, 0, 2, 1 ) 0.6786967418546366, 0.3213032581453634;
    ( 0, 0, 1, 0, 3, 0 ) 0.7333828444114371, 0.2666171555885629;
    ( 0, 0, 1, 0, 3, 1 ) 0.6443246019517206, 0.3556753980482794;
    ( 0, 0, 1, 0, 4, 0 ) 0.7126039529106815, 0.2873960470893185;
    ( 0, 0, 1, 0, 4, 1 ) 0.6535710097337868, 0.3464289902662132;
    ( 0, 0, 1, 1, 1, 0 ) 0.7540983606557377, 0.2459016393442623;
    ( 0, 0, 1, 1, 1, 1 ) 0.5983606557377049, 0.4016393442622951;
    ( 0, 0, 1, 1, 2, 0 ) 0.6857142857142857, 0.3142857142857143;
    ( 0, 0, 1, 1, 2, 1 ) 0.5443037974683544, 0.45569620253164556;
    ( 0, 0, 1, 1, 3, 0 ) 0.5874587458745875, 0.41254125412541254;
    ( 0, 0, 1, 1, 3, 1 ) 0.3804347826086957, 0.6195652173913043;
    ( 0, 0, 1, 1, 4, 0 ) 0.42348008385744235, 0.5765199161425576;
    ( 0, 0, 1, 1, 4, 1 ) 0.3029126213592233, 0.6970873786407767;
    ( 0, 1, 0, 0, 1, 0 ) 0.7657142857142857, 0.2342857142857143;
    ( 0, 1, 0, 0, 1, 1 ) 0.5979381443298969, 0.4020618556701031;
    ( 0, 1, 0, 0, 2, 0 ) 0.7311827956989247, 0.26881720430107525;
    ( 0, 1, 0, 0, 2, 1 ) 0.579520697167756, 0.420479302832244;
    ( 0, 1, 0, 0, 3, 0 ) 0.7433155080213903, 0.25668449197860965;
    ( 0, 1, 0, 0, 3, 1 ) 0.5811138014527845, 0.4188861985472155;
    ( 0, 1, 0, 0, 4, 0 ) 0.5964912280701754, 0.40350877192982454;
    ( 0, 1, 0, 0, 4, 1 ) 0.5818815331010453, 0.4181184668989547;
    ( 0, 1, 0, 1, 1, 0 ) 0.85, 0.15;
    ( 0, 1, 0, 1, 1, 1 ) 0.543010752688172, 0.45698924731182794;
    ( 0, 1, 0, 1, 2, 0 ) 0.6486486486486487, 0.35135135135135137;
    ( 0, 1, 0, 1, 2, 1 ) 0.5144508670520231, 0.48554913294797686;
    ( 0, 1, 0, 1, 3, 0 ) 0.5428571428571428, 0.45714285714285713;
    ( 0, 1, 0, 1, 3, 1 ) 0.45454545454545453, 0.5454545454545454;
    ( 0, 1, 0, 1, 4, 0 ) 0.5757575757575758, 0.42424242424242425;
    ( 0, 1, 0, 1, 4, 1 ) 0.4857142857142857, 0.5142857142857142;
    ( 0, 1, 1, 0, 1, 0 ) 0.8098859315589354, 0.19011406844106463;
    ( 0, 1, 1, 0, 1, 1 ) 0.7041420118343196, 0.2958579881656805;
    ( 0, 1, 1, 0, 2, 0 ) 0.8438356164383561, 0.15616438356164383;
    ( 0, 1, 1, 0, 2, 1 ) 0.6347197106690777, 0.36528028933092227;
    ( 0, 1, 1, 0, 3, 0 ) 0.814385150812065, 0.18561484918793503;
    ( 0, 1, 1, 0, 3, 1 ) 0.6061120543293718, 0.3938879456706282;
    ( 0, 1, 1, 0, 4, 0 ) 0.6857707509881423, 0.3142292490118577;
    ( 0, 1, 1, 0, 4, 1 ) 0.6455445544554456, 0.35445544554455444;
    ( 0, 1, 1, 1, 1, 0 ) 0.8148148148148148, 0.18518518518518517;
    ( 0, 1, 1, 1, 1, 1 ) 0.6283783783783784, 0.3716216216216216;
    ( 0, 1, 1, 1, 2, 0 ) 0.7777777777777778, 0.2222222222222222;
    ( 0, 1, 1, 1, 2, 1 ) 0.6303317535545023, 0.3696682464454976;
    ( 0, 1, 1, 1, 3, 0 ) 0.711340206185567, 0.28865979381443296;
    ( 0, 1, 1, 1, 3, 1 ) 0.43523316062176165, 0.5647668393782384;
    ( 0, 1, 1, 1, 4, 0 ) 0.6375, 0.3625;
    ( 0, 1, 1, 1, 4, 1 ) 0.5140845070422535, 0.4859154929577465;
    ( 1, 0, 0, 0, 1, 0 ) 0.6297509829619922, 0.3702490170380079;
    ( 1, 0, 0, 0, 1, 1 ) 0.5417771883289124, 0.4582228116710875;
    ( 1, 0, 0, 0, 2, 0 ) 0.6195652173913043, 0.3804347826086957;
    ( 1, 0, 0, 0, 2, 1 ) 0.5212953185498064, 0.47870468145019357;
    ( 1, 0, 0, 0, 3, 0 ) 0.5329441201000834, 0.4670558798999166;
    ( 1, 0, 0, 0, 3, 1 ) 0.43965223320831914, 0.5603477667916809;
    ( 1, 0, 0, 0, 4, 0 ) 0.3958307635376835, 0.6041692364623165;
    ( 1, 0, 0, 0, 4, 1 ) 0.35386110620250927, 0.6461388937974907;
    ( 1, 0, 0, 1, 1, 0 ) 0.5984848484848485, 0.4015151515151515;
    ( 1, 0, 0, 1, 1, 1 ) 0.47540983606557374, 0.5245901639344263;
    ( 1, 0, 0, 1, 2, 0 ) 0.4978165938864629, 0.5021834061135371;
    ( 1, 0, 0, 1, 2, 1 ) 0.35306122448979593, 0.6469387755102041;
    ( 1, 0, 0, 1, 3, 0 ) 0.36074270557029176, 0.6392572944297082;
    ( 1, 0, 0, 1, 3, 1 ) 0.25961538461538464, 0.7403846153846154;
    ( 1, 0, 0, 1, 4, 0 ) 0.18468468468468469, 0.8153153153153153;
    ( 1, 0, 0, 1, 4, 1 ) 0.1521951219512195, 0.8478048780487805;
    ( 1, 0, 1, 0, 1, 0 ) 0.7390255668113844, 0.2609744331886155;
    ( 1, 0, 1, 0, 1, 1 ) 0.6339173967459324, 0.3660826032540676;
    ( 1, 0, 1, 0, 2, 0 ) 0.7248710010319918, 0.27512899896800824;
    ( 1, 0, 1, 0, 2, 1 ) 0.5804641673042591, 0.4195358326957409;
    ( 1, 0, 1, 0, 3, 0 ) 0.6545667447306791, 0.34543325526932084;
    ( 1, 0, 1, 0, 3, 1 ) 0.516008004002001, 0.483991995997999;
    ( 1, 0, 1, 0, 4, 0 ) 0.5095961872866619, 0.49040381271333805;
    ( 1, 0, 1, 0, 4, 1 ) 0.4268122026308424, 0.5731877973691576;
    ( 1, 0, 1, 1, 1, 0 ) 0.6855670103092784, 0.31443298969072164;
    ( 1, 0, 1, 1, 1, 1 ) 0.42338709677419356, 0.5766129032258065;
    ( 1, 0, 1, 1, 2, 0 ) 0.6651162790697674, 0.33488372093023255;
    ( 1, 0, 1, 1, 2, 1 ) 0.43256578947368424, 0.5674342105263158;
    ( 1, 0, 1, 1, 3, 0 ) 0.46875, 0.53125;
    ( 1, 0, 1, 1, 3, 1 ) 0.3051948051948052, 0.6948051948051948;
    ( 1, 0, 1, 1, 4, 0 ) 0.28270676691729324, 0.7172932330827068;
    ( 1, 0, 1, 1, 4, 1 ) 0.1832258064516129, 0.8167741935483871;
    ( 1, 1, 0, 0, 1, 0 ) 0.7518987341772152, 0.2481012658227848;
    ( 1, 1, 0, 0, 1, 1 ) 0.6377777777777778, 0.3622222222222222;
    ( 1, 1, 0, 0, 2, 0 ) 0.7299794661190965, 0.27002053388090347;
    ( 1, 1, 0, 0, 2, 1 ) 0.5940860215053764, 0.40591397849462363;
    ( 1, 1, 0, 0, 3, 0 ) 0.6523955147808359, 0.3476044852191641;
    ( 1, 1, 0, 0, 3, 1 ) 0.545774647887324, 0.45422535211267606;
    ( 1, 1, 0, 0, 4, 0 ) 0.5842931937172775, 0.4157068062827225;
    ( 1, 1, 0, 0, 4, 1 ) 0.4600665557404326, 0.5399334442595674;
    ( 1, 1, 0, 1, 1, 0 ) 0.7415254237288136, 0.2584745762711864;
    ( 1, 1, 0, 1, 1, 1 ) 0.5456140350877193, 0.4543859649122807;
    ( 1, 1, 0, 1, 2, 0 ) 0.5645161290322581, 0.43548387096774194;
    ( 1, 1, 0, 1, 2, 1 ) 0.4469565217391304, 0.5530434782608695;
    ( 1, 1, 0, 1, 3, 0 ) 0.4805194805194805, 0.5194805194805194;
    ( 1, 1, 0, 1, 3, 1 ) 0.3396584440227704, 0.6603415559772297;
    ( 1, 1, 0, 1, 4, 0 ) 0.37790697674418605, 0.622093023255814;
    ( 1, 1, 0, 1, 4, 1 ) 0.26420454545454547, 0.7357954545454546;
    ( 1, 1, 1, 0, 1, 0 ) 0.8308605341246291, 0.16913946587537093;
    ( 1, 1, 1, 0, 1, 1 ) 0.7175925925925926, 0.2824074074074074;
    ( 1, 1, 1, 0, 2, 0 ) 0.8172823218997362, 0.18271767810026385;
    ( 1, 1, 1, 0, 2, 1 ) 0.6608433734939759, 0.3391566265060241;
    ( 1, 1, 1, 0, 3, 0 ) 0.773524720893142, 0.22647527910685805;
    ( 1, 1, 1, 0, 3, 1 ) 0.5830198817839871, 0.4169801182160129;
    ( 1, 1, 1, 0, 4, 0 ) 0.6468716861081655, 0.3531283138918346;
    ( 1, 1, 1, 0, 4, 1 ) 0.5282409897794513, 0.47175901022054867;
    ( 1, 1, 1, 1, 1, 0 ) 0.7790697674418605, 0.22093023255813954;
    ( 1, 1, 1, 1, 1, 1 ) 0.6575591985428051, 0.3424408014571949;
    ( 1, 1, 1, 1, 2, 0 ) 0.7744874715261959, 0.2255125284738041;
    ( 1, 1, 1, 1, 2, 1 ) 0.5267489711934157, 0.4732510288065844;
    ( 1, 1, 1, 1, 3, 0 ) 0.6206088992974239, 0.3793911007025761;
    ( 1, 1, 1, 1, 3, 1 ) 0.42735042735042733, 0.5726495726495726;
    ( 1, 1, 1, 1, 4, 0 ) 0.4553314121037464, 0.5446685878962536;
    ( 1, 1, 1, 1, 4, 1 ) 0.26862745098039215, 0.7313725490196078;
    ( 2, 0, 0, 0, 1, 0 ) 0.7103825136612022, 0.2896174863387978;
    ( 2, 0, 0, 0, 1, 1 ) 0.6619718309859155, 0.3380281690140845;
    ( 2, 0, 0, 0, 2, 0 ) 0.7049180327868853, 0.29508196721311475;
    ( 2, 0, 0, 0, 2, 1 ) 0.6507177033492823, 0.3492822966507177;
    ( 2, 0, 0, 0, 3, 0 ) 0.5892193308550185, 0.4107806691449814;
    ( 2, 0, 0, 0, 3, 1 ) 0.5614457831325301, 0.43855421686746987;
    ( 2, 0, 0, 0, 4, 0 ) 0.5287588294651867, 0.47124117053481335;
    ( 2, 0, 0, 0, 4, 1 ) 0.4867109634551495, 0.5132890365448505;
    ( 2, 0, 0, 1, 1, 0 ) 0.6153846153846154, 0.38461538461538464;
    ( 2, 0, 0, 1, 1, 1 ) 0.4375, 0.5625;
    ( 2, 0, 0, 1, 2, 0 ) 0.5833333333333334, 0.4166666666666667;
    ( 2, 0, 0, 1, 2, 1 ) 0.3939393939393939, 0.6060606060606061;
    ( 2, 0, 0, 1, 3, 0 ) 0.42857142857142855, 0.5714285714285714;
    ( 2, 0, 0, 1, 3, 1 ) 0.34146341463414637, 0.6585365853658537;
    ( 2, 0, 0, 1, 4, 0 ) 0.26666666666666666, 0.7333333333333333;
    ( 2, 0, 0, 1, 4, 1 ) 0.22413793103448276, 0.7758620689655172;
    ( 2, 0, 1, 0, 1, 0 ) 0.8235294117647058, 0.17647058823529413;
    ( 2, 0, 1, 0, 1, 1 ) 0.7375886524822695, 0.2624113475177305;
    ( 2, 0, 1, 0, 2, 0 ) 0.8033240997229917, 0.19667590027700832;
    ( 2, 0, 1, 0, 2, 1 ) 0.6833333333333333, 0.31666666666666665;
    ( 2, 0, 1, 0, 3, 0 ) 0.73224043715847, 0.2677595628415301;
    ( 2, 0, 1, 0, 3, 1 ) 0.6485013623978202, 0.35149863760217986;
    ( 2, 0, 1, 0, 4, 0 ) 0.6262699564586357, 0.3737300435413643;
    ( 2, 0, 1, 0, 4, 1 ) 0.4957983193277311, 0.5042016806722689;
    ( 2, 0, 1, 1, 1, 0 ) 0.8571428571428571, 0.14285714285714285;
    ( 2, 0, 1, 1, 1, 1 ) 0.5882352941176471, 0.4117647058823529;
    ( 2, 0, 1, 1, 2, 0 ) 0.42857142857142855, 0.5714285714285714;
    ( 2, 0, 1, 1, 2, 1 ) 0.5, 0.5;
    ( 2, 0, 1, 1, 3, 0 ) 0.4482758620689655, 0.5517241379310345;
    ( 2, 0, 1, 1, 3, 1 ) 0.43478260869565216, 0.5652173913043478;
    ( 2, 0, 1, 1, 4, 0 ) 0.3617021276595745, 0.6382978723404256;
    ( 2, 0, 1, 1, 4, 1 ) 0.27419354838709675, 0.7258064516129032;
    ( 2, 1, 0, 0, 1, 0 ) 0.7729083665338645, 0.22709163346613545;
    ( 2, 1, 0, 0, 1, 1 ) 0.740625, 0.259375;
    ( 2, 1, 0, 0, 2, 0 ) 0.8225806451612904, 0.1774193548387097;
    ( 2, 1, 0, 0, 2, 1 ) 0.6913183279742765, 0.3086816720257235;
    ( 2, 1, 0, 0, 3, 0 ) 0.7415730337078652, 0.25842696629213485;
    ( 2, 1, 0, 0, 3, 1 ) 0.667953667953668, 0.33204633204633205;
    ( 2, 1, 0, 0, 4, 0 ) 0.6460905349794238, 0.35390946502057613;
    ( 2, 1, 0, 0, 4, 1 ) 0.6298076923076923, 0.3701923076923077;
    ( 2, 1, 0, 1, 1, 0 ) 0.7590361445783133, 0.24096385542168675;
    ( 2, 1, 0, 1, 1, 1 ) 0.6, 0.4;
    ( 2, 1, 0, 1, 2, 0 ) 0.7647058823529411, 0.23529411764705882;
    ( 2, 1, 0, 1, 2, 1 ) 0.5869565217391305, 0.41304347826086957;
    ( 2, 1, 0, 1, 3, 0 ) 0.5789473684210527, 0.42105263157894735;
    ( 2, 1, 0, 1, 3, 1 ) 0.48148148148148145, 0.5185185185185185;
    ( 2, 1, 0, 1, 4, 0 ) 0.5, 0.5;
    ( 2, 1, 0, 1, 4, 1 ) 0.2727272727272727, 0.7272727272727273;
    ( 2, 1, 1, 0, 1, 0 ) 0.847682119205298, 0.152317880794702;
    ( 2, 1, 1, 0, 1, 1 ) 0.8412162162162162, 0.15878378378378377;
    ( 2, 1, 1, 0, 2, 0 ) 0.8474025974025974, 0.1525974025974026;
    ( 2, 1, 1, 0, 2, 1 ) 0.755700325732899, 0.24429967426710097;
    ( 2, 1, 1, 0, 3, 0 ) 0.790273556231003, 0.20972644376899696;
    ( 2, 1, 1, 0, 3, 1 ) 0.694006309148265, 0.305993690851735;
    ( 2, 1, 1, 0, 4, 0 ) 0.7850467289719626, 0.21495327102803738;
    ( 2, 1, 1, 0, 4, 1 ) 0.5593869731800766, 0.44061302681992337;
    ( 2, 1, 1, 1, 1, 0 ) 0.8055555555555556, 0.19444444444444445;
    ( 2, 1, 1, 1, 1, 1 ) 0.6696428571428571, 0.33035714285714285;
    ( 2, 1, 1, 1, 2, 0 ) 0.7, 0.3;
    ( 2, 1, 1, 1, 2, 1 ) 0.5454545454545454, 0.45454545454545453;
    ( 2, 1, 1, 1, 3, 0 ) 0.6727272727272727, 0.32727272727272727;
    ( 2, 1, 1, 1, 3, 1 ) 0.5, 0.5;
    ( 2, 1, 1, 1, 4, 0 ) 0.631578947368421, 0.3684210526315789;
    ( 2, 1, 1, 1, 4, 1 ) 0.5079365079365079, 0.49206349206349204;

}
probability ( Smoker | Education, GenHlth, HighBP, HighChol ) {
    ( 1, 1, 0, 0 ) 0.653968253968254, 0.346031746031746;
    ( 1, 1, 0, 1 ) 0.5803571428571429, 0.41964285714285715;
    ( 1, 1, 1, 0 ) 0.6074074074074074, 0.3925925925925926;
    ( 1, 1, 1, 1 ) 0.4482758620689655, 0.5517241379310345;
    ( 1, 2, 0, 0 ) 0.6002785515320335, 0.3997214484679666;
    ( 1, 2, 0, 1 ) 0.5124378109452736, 0.48756218905472637;
    ( 1, 2, 1, 0 ) 0.5530035335689046, 0.4469964664310954;
    ( 1, 2, 1, 1 ) 0.4777887462981244, 0.5222112537018756;
    ( 1, 3, 0, 0 ) 0.4117647058823529, 0.5882352941176471;
    ( 1, 3, 0, 1 ) 0.34065934065934067, 0.6593406593406593;
    ( 1, 3, 1, 0 ) 0.5116279069767442, 0.4883720930232558;
    ( 1, 3, 1, 1 ) 0.40652173913043477, 0.5934782608695652;
    ( 2, 1, 0, 0 ) 0.5392457458224743, 0.4607542541775257;
    ( 2, 1, 0, 1 ) 0.47988631394840403, 0.520113686051596;
    ( 2, 1, 1, 0 ) 0.5194134655101198, 0.4805865344898802;
    ( 2, 1, 1, 1 ) 0.46618313689936536, 0.5338168631006346;
    ( 2, 2, 0, 0 ) 0.45850379894798365, 0.5414962010520163;
    ( 2, 2, 0, 1 ) 0.41014990066823187, 0.5898500993317681;
    ( 2, 2, 1, 0 ) 0.46526946107784434, 0.5347305389221557;
    ( 2, 2, 1, 1 ) 0.42255070470952216, 0.5774492952904778;
    ( 2, 3, 0, 0 ) 0.2814569536423841, 0.7185430463576159;
    ( 2, 3, 0, 1 ) 0.22189349112426035, 0.7781065088757396;
    ( 2, 3, 1, 0 ) 0.32857142857142857, 0.6714285714285714;
    ( 2, 3, 1, 1 ) 0.31953700455980355, 0.6804629954401964;
    ( 3, 1, 0, 0 ) 0.690852924801092, 0.30914707519890805;
    ( 3, 1, 0, 1 ) 0.6318359871801393, 0.3681640128198606;
    ( 3, 1, 1, 0 ) 0.6102408391415362, 0.38975916085846385;
    ( 3, 1, 1, 1 ) 0.5517263144606451, 0.4482736855393549;
    ( 3, 2, 0, 0 ) 0.5863380495968356, 0.41366195040316445;
    ( 3, 2, 0, 1 ) 0.5318823635218994, 0.46811763647810056;
    ( 3, 2, 1, 0 ) 0.5441999254009698, 0.4558000745990302;
    ( 3, 2, 1, 1 ) 0.4906840934371524, 0.5093159065628476;
    ( 3, 3, 0, 0 ) 0.40034217279726264, 0.5996578272027374;
    ( 3, 3, 0, 1 ) 0.3709043250327654, 0.6290956749672346;
    ( 3, 3, 1, 0 ) 0.4367816091954023, 0.5632183908045977;
    ( 3, 3, 1, 1 ) 0.3667536339918002, 0.6332463660081997;

}
probability ( Stroke | Age, DiffWalk, GenHlth, HeartDiseaseorAttack, HighBP ) {
    ( 1, 0, 1, 0, 0 ) 0.9982625961777116, 0.001737403822288409;
    ( 1, 0, 1, 0, 1 ) 1.0, 0.0;
    ( 1, 0, 1, 1, 0 ) 0.9285714285714286, 0.07142857142857142;
    ( 1, 0, 1, 1, 1 ) 0.8333333333333334, 0.16666666666666666;
    ( 1, 0, 2, 0, 0 ) 0.9979896611143021, 0.002010338885697875;
    ( 1, 0, 2, 0, 1 ) 0.9819672131147541, 0.018032786885245903;
    ( 1, 0, 2, 1, 0 ) 0.8387096774193549, 0.16129032258064516;
    ( 1, 0, 2, 1, 1 ) 0.9285714285714286, 0.07142857142857142;
    ( 1, 0, 3, 0, 0 ) 0.9824561403508771, 0.017543859649122806;
    ( 1, 0, 3, 0, 1 ) 0.9473684210526315, 0.05263157894736842;
    ( 1, 0, 3, 1, 0 ) 0.0, 1.0;
    ( 1, 0, 3, 1, 1 ) 0.5, 0.5;
    ( 1, 1, 1, 0, 0 ) 1.0, 0.0;
    ( 1, 1, 1, 0, 1 ) 0.9333333333333333, 0.06666666666666667;
    ( 1, 1, 1, 1, 0 ) 0.0, 1.0;
    ( 1, 1, 1, 1, 1 ) 0.5, 0.5;
    ( 1, 1, 2, 0, 0 ) 0.99375, 0.00625;
    ( 1, 1, 2, 0, 1 ) 1.0, 0.0;
    ( 1, 1, 2, 1, 0 ) 1.0, 0.0;
    ( 1, 1, 2, 1, 1 ) 1.0, 0.0;
    ( 1, 1, 3, 0, 0 ) 0.9487179487179487, 0.05128205128205128;
    ( 1, 1, 3, 0, 1 ) 1.0, 0.0;
    ( 1, 1, 3, 1, 0 ) 1.0, 0.0;
    ( 1, 1, 3, 1, 1 ) 0.5, 0.5;
    ( 2, 0, 1, 0, 0 ) 0.9974007220216606, 0.00259927797833935;
    ( 2, 0, 1, 0, 1 ) 0.9944478716841456, 0.005552128315854411;
    ( 2, 0, 1, 1, 0 ) 0.9090909090909091, 0.09090909090909091;
    ( 2, 0, 1, 1, 1 ) 0.8695652173913043, 0.13043478260869565;
    ( 2, 0, 2, 0, 0 ) 0.9945439045183291, 0.005456095481670929;
    ( 2, 0, 2, 0, 1 ) 0.982821447162936, 0.01717855283706403;
    ( 2, 0, 2, 1, 0 ) 0.8656716417910447, 0.13432835820895522;
    ( 2, 0, 2, 1, 1 ) 0.8780487804878049, 0.12195121951219512;
    ( 2, 0, 3, 0, 0 ) 0.9767441860465116, 0.023255813953488372;
    ( 2, 0, 3, 0, 1 ) 0.9661016949152542, 0.03389830508474576;
    ( 2, 0, 3, 1, 0 ) 0.6, 0.4;
    ( 2, 0, 3, 1, 1 ) 0.8571428571428571, 0.14285714285714285;
    ( 2, 1, 1, 0, 0 ) 0.9851851851851852, 0.014814814814814815;
    ( 2, 1, 1, 0, 1 ) 1.0, 0.0;
    ( 2, 1, 1, 1, 0 ) 1.0, 0.0;
    ( 2, 1, 1, 1, 1 ) 0.0, 1.0;
    ( 2, 1, 2, 0, 0 ) 0.9613034623217923, 0.038696537678207736;
    ( 2, 1, 2, 0, 1 ) 0.9581881533101045, 0.041811846689895474;
    ( 2, 1, 2, 1, 0 ) 0.7916666666666666, 0.20833333333333334;
    ( 2, 1, 2, 1, 1 ) 0.6153846153846154, 0.38461538461538464;
    ( 2, 1, 3, 0, 0 ) 0.923728813559322, 0.07627118644067797;
    ( 2, 1, 3, 0, 1 ) 0.9393939393939394, 0.06060606060606061;
    ( 2, 1, 3, 1, 0 ) 0.7, 0.3;
    ( 2, 1, 3, 1, 1 ) 0.6666666666666666, 0.3333333333333333;
    ( 3, 0, 1, 0, 0 ) 0.9965100046533272, 0.003489995346672871;
    ( 3, 0, 1, 0, 1 ) 0.9907110826393337, 0.009288917360666239;
    ( 3, 0, 1, 1, 0 ) 0.9578947368421052, 0.042105263157894736;
    ( 3, 0, 1, 1, 1 ) 0.9166666666666666, 0.08333333333333333;
    ( 3, 0, 2, 0, 0 ) 0.9896537453441854, 0.010346254655814595;
    ( 3, 0, 2, 0, 1 ) 0.9807980049875312, 0.019201995012468828;
    ( 3, 0, 2, 1, 0 ) 0.9202898550724637, 0.07971014492753623;
    ( 3, 0, 2, 1, 1 ) 0.8901960784313725, 0.10980392156862745;
    ( 3, 0, 3, 0, 0 ) 0.9455782312925171, 0.05442176870748299;
    ( 3, 0, 3, 0, 1 ) 0.9379310344827586, 0.06206896551724138;
    ( 3, 0, 3, 1, 0 ) 1.0, 0.0;
    ( 3, 0, 3, 1, 1 ) 0.7272727272727273, 0.2727272727272727;
    ( 3, 1, 1, 0, 0 ) 0.9762845849802372, 0.023715415019762844;
    ( 3, 1, 1, 0, 1 ) 0.9708029197080292, 0.029197080291970802;
    ( 3, 1, 1, 1, 0 ) 1.0, 0.0;
    ( 3, 1, 1, 1, 1 ) 0.9285714285714286, 0.07142857142857142;
    ( 3, 1, 2, 0, 0 ) 0.9637610186092067, 0.03623898139079334;
    ( 3, 1, 2, 0, 1 ) 0.9279918864097363, 0.0720081135902637;
    ( 3, 1, 2, 1, 0 ) 0.8524590163934426, 0.14754098360655737;
    ( 3, 1, 2, 1, 1 ) 0.7314285714285714, 0.26857142857142857;
    ( 3, 1, 3, 0, 0 ) 0.9290780141843972, 0.07092198581560284;
    ( 3, 1, 3, 0, 1 ) 0.8780487804878049, 0.12195121951219512;
    ( 3, 1, 3, 1, 0 ) 0.8043478260869565, 0.1956521739130435;
    ( 3, 1, 3, 1, 1 ) 0.7974683544303798, 0.20253164556962025;
    ( 4, 0, 1, 0, 0 ) 0.9952642190650349, 0.004735780934965067;
    ( 4, 0, 1, 0, 1 ) 0.9878277153558053, 0.012172284644194757;
    ( 4, 0, 1, 1, 0 ) 0.926530612244898, 0.07346938775510205;
    ( 4, 0, 1, 1, 1 ) 0.9142857142857143, 0.08571428571428572;
    ( 4, 0, 2, 0, 0 ) 0.9859482057833004, 0.014051794216699571;
    ( 4, 0, 2, 0, 1 ) 0.9695958948043618, 0.03040410519563823;
    ( 4, 0, 2, 1, 0 ) 0.9246753246753247, 0.07532467532467532;
    ( 4, 0, 2, 1, 1 ) 0.8979357798165137, 0.10206422018348624;
    ( 4, 0, 3, 0, 0 ) 0.9543726235741445, 0.045627376425855515;
    ( 4, 0, 3, 0, 1 ) 0.9135802469135802, 0.08641975308641975;
    ( 4, 0, 3, 1, 0 ) 0.7222222222222222, 0.2777777777777778;
    ( 4, 0, 3, 1, 1 ) 0.801980198019802, 0.19801980198019803;
    ( 4, 1, 1, 0, 0 ) 0.9742647058823529, 0.025735294117647058;
    ( 4, 1, 1, 0, 1 ) 0.9596977329974811, 0.04030226700251889;
    ( 4, 1, 1, 1, 0 ) 0.8947368421052632, 0.10526315789473684;
    ( 4, 1, 1, 1, 1 ) 0.8076923076923077, 0.19230769230769232;
    ( 4, 1, 2, 0, 0 ) 0.950441609421001, 0.049558390578999016;
    ( 4, 1, 2, 0, 1 ) 0.9189838654308273, 0.08101613456917267;
    ( 4, 1, 2, 1, 0 ) 0.8109452736318408, 0.1890547263681592;
    ( 4, 1, 2, 1, 1 ) 0.776685393258427, 0.22331460674157302;
    ( 4, 1, 3, 0, 0 ) 0.889776357827476, 0.11022364217252396;
    ( 4, 1, 3, 0, 1 ) 0.8708838821490468, 0.1291161178509532;
    ( 4, 1, 3, 1, 0 ) 0.7622377622377622, 0.23776223776223776;
    ( 4, 1, 3, 1, 1 ) 0.6716917922948074, 0.32830820770519265;
    ( 5, 0, 1, 0, 0 ) 0.991566199924312, 0.008433800075687949;
    ( 5, 0, 1, 0, 1 ) 0.9811790993468545, 0.01882090065314541;
    ( 5, 0, 1, 1, 0 ) 0.949317738791423, 0.050682261208576995;
    ( 5, 0, 1, 1, 1 ) 0.9309551208285386, 0.06904487917146145;
    ( 5, 0, 2, 0, 0 ) 0.9774845833930876, 0.022515416606912378;
    ( 5, 0, 2, 0, 1 ) 0.9519453004622496, 0.048054699537750385;
    ( 5, 0, 2, 1, 0 ) 0.9110473457675753, 0.08895265423242468;
    ( 5, 0, 2, 1, 1 ) 0.8902035021296735, 0.10979649787032655;
    ( 5, 0, 3, 0, 0 ) 0.954337899543379, 0.045662100456621;
    ( 5, 0, 3, 0, 1 ) 0.8774928774928775, 0.1225071225071225;
    ( 5, 0, 3, 1, 0 ) 0.7446808510638298, 0.2553191489361702;
    ( 5, 0, 3, 1, 1 ) 0.7789473684210526, 0.22105263157894736;
    ( 5, 1, 1, 0, 0 ) 0.9684813753581661, 0.03151862464183381;
    ( 5, 1, 1, 0, 1 ) 0.9453125, 0.0546875;
    ( 5, 1, 1, 1, 0 ) 0.8780487804878049, 0.12195121951219512;
    ( 5, 1, 1, 1, 1 ) 0.782608695652174, 0.21739130434782608;
    ( 5, 1, 2, 0, 0 ) 0.9485481406011207, 0.051451859398879266;
    ( 5, 1, 2, 0, 1 ) 0.9129963115643307, 0.08700368843566934;
    ( 5, 1, 2, 1, 0 ) 0.8284023668639053, 0.17159763313609466;
    ( 5, 1, 2, 1, 1 ) 0.7819499341238472, 0.21805006587615283;
    ( 5, 1, 3, 0, 0 ) 0.9001919385796545, 0.09980806142034548;
    ( 5, 1, 3, 0, 1 ) 0.8763157894736842, 0.12368421052631579;
    ( 5, 1, 3, 1, 0 ) 0.7577639751552795, 0.2422360248447205;
    ( 5, 1, 3, 1, 1 ) 0.6923076923076923, 0.3076923076923077;
    ( 6, 0, 1, 0, 0 ) 0.9788055858175696, 0.021194414182430423;
    ( 6, 0, 1, 0, 1 ) 0.9562378167641326, 0.04376218323586745;
    ( 6, 0, 1, 1, 0 ) 0.9307065217391305, 0.06929347826086957;
    ( 6, 0, 1, 1, 1 ) 0.9041639127561136, 0.09583608724388631;
    ( 6, 0, 2, 0, 0 ) 0.9519148936170213, 0.04808510638297872;
    ( 6, 0, 2, 0, 1 ) 0.9290192328126661, 0.07098076718733397;
    ( 6, 0, 2, 1, 0 ) 0.8726315789473684, 0.12736842105263158;
    ( 6, 0, 2, 1, 1 ) 0.8605388272583201, 0.13946117274167988;
    ( 6, 0, 3, 0, 0 ) 0.9239130434782609, 0.07608695652173914;
    ( 6, 0, 3, 0, 1 ) 0.8853868194842407, 0.11461318051575932;
    ( 6, 0, 3, 1, 0 ) 0.7162162162162162, 0.28378378378378377;
    ( 6, 0, 3, 1, 1 ) 0.7720588235294118, 0.22794117647058823;
    ( 6, 1, 1, 0, 0 ) 0.9566787003610109, 0.04332129963898917;
    ( 6, 1, 1, 0, 1 ) 0.9191073919107392, 0.08089260808926081;
    ( 6, 1, 1, 1, 0 ) 0.8476190476190476, 0.1523809523809524;
    ( 6, 1, 1, 1, 1 ) 0.8313609467455622, 0.16863905325443787;
    ( 6, 1, 2, 0, 0 ) 0.9198452183526811, 0.08015478164731896;
    ( 6, 1, 2, 0, 1 ) 0.8915409585640633, 0.1084590414359366;
    ( 6, 1, 2, 1, 0 ) 0.8151093439363817, 0.1848906560636183;
    ( 6, 1, 2, 1, 1 ) 0.7709593777009507, 0.22904062229904926;
    ( 6, 1, 3, 0, 0 ) 0.8789473684210526, 0.12105263157894737;
    ( 6, 1, 3, 0, 1 ) 0.8314720812182741, 0.16852791878172588;
    ( 6, 1, 3, 1, 0 ) 0.8142857142857143, 0.18571428571428572;
    ( 6, 1, 3, 1, 1 ) 0.6880466472303207, 0.3119533527696793;

}
probability ( Veggies | AnyHealthcare, BMI, HighChol ) {
    ( 0, 0, 0 ) 0.20015455950540958, 0.7998454404945904;
    ( 0, 0, 1 ) 0.2860696517412935, 0.7139303482587065;
    ( 0, 1, 0 ) 0.2266000384393619, 0.7733999615606381;
    ( 0, 1, 1 ) 0.2758152173913043, 0.7241847826086957;
    ( 0, 2, 0 ) 0.23306772908366533, 0.7669322709163346;
    ( 0, 2, 1 ) 0.31648936170212766, 0.6835106382978723;
    ( 1, 0, 0 ) 0.14351561316569647, 0.8564843868343035;
    ( 1, 0, 1 ) 0.17675846420785693, 0.8232415357921431;
    ( 1, 1, 0 ) 0.18418017933209385, 0.8158198206679061;
    ( 1, 1, 1 ) 0.2070275911900875, 0.7929724088099125;
    ( 1, 2, 0 ) 0.22656368317431472, 0.7734363168256853;
    ( 1, 2, 1 ) 0.26198849104859334, 0.7380115089514067;

}
