network unknown {
}
variable Age {
    type discrete [ 6 ] { 1, 2, 3, 4, 5, 6 };
    property weight = None ;
}
variable AnyHealthcare {
    type discrete [ 2 ] { 0, 1 };
    property weight = None ;
}
variable BMI {
    type discrete [ 3 ] { 0, 1, 2 };
    property weight = None ;
}
variable CholCheck {
    type discrete [ 2 ] { 0, 1 };
    property weight = None ;
}
variable Diabetes_binary {
    type discrete [ 2 ] { 0, 1 };
    property weight = None ;
}
variable DiffWalk {
    type discrete [ 2 ] { 0, 1 };
    property weight = None ;
}
variable Education {
    type discrete [ 3 ] { 1, 2, 3 };
    property weight = None ;
}
variable Fruits {
    type discrete [ 2 ] { 0, 1 };
    property weight = None ;
}
variable GenHlth {
    type discrete [ 3 ] { 1, 2, 3 };
    property weight = None ;
}
variable HeartDiseaseorAttack {
    type discrete [ 2 ] { 0, 1 };
    property weight = None ;
}
variable HighBP {
    type discrete [ 2 ] { 0, 1 };
    property weight = None ;
}
variable HighChol {
    type discrete [ 2 ] { 0, 1 };
    property weight = None ;
}
variable HvyAlcoholConsump {
    type discrete [ 2 ] { 0, 1 };
    property weight = None ;
}
variable Income {
    type discrete [ 4 ] { 1, 2, 3, 4 };
    property weight = None ;
}
variable MentHlth {
    type discrete [ 3 ] { 0, 1, 2 };
    property weight = None ;
}
variable NoDocbcCost {
    type discrete [ 2 ] { 0, 1 };
    property weight = None ;
}
variable PhysActivity {
    type discrete [ 2 ] { 0, 1 };
    property weight = None ;
}
variable PhysHlth {
    type discrete [ 3 ] { 0, 1, 2 };
    property weight = None ;
}
variable Sex {
    type discrete [ 2 ] { 0, 1 };
    property weight = None ;
}
variable Smoker {
    type discrete [ 2 ] { 0, 1 };
    property weight = None ;
}
variable Stroke {
    type discrete [ 2 ] { 0, 1 };
    property weight = None ;
}
variable Veggies {
    type discrete [ 2 ] { 0, 1 };
    property weight = None ;
}
probability ( Age | AnyHealthcare, Diabetes_binary, DiffWalk, HeartDiseaseorAttack, HighBP, HighChol, Income, MentHlth, NoDocbcCost ) {
    ( 0, 0, 0, 0, 0, 0, 1, 0, 0 ) 0.19540229885057472, 0.22988505747126436, 0.17701149425287357, 0.21839080459770116, 0.15632183908045977, 0.022988505747126436;
    ( 0, 0, 0, 0, 0, 0, 1, 0, 1 ) 0.17094017094017094, 0.25213675213675213, 0.2222222222222222, 0.28205128205128205, 0.07264957264957266, 0.0;
    ( 0, 0, 0, 0, 0, 0, 1, 1, 0 ) 0.4090909090909091, 0.2727272727272727, 0.13636363636363635, 0.13636363636363635, 0.045454545454545456, 0.0;
    ( 0, 0, 0, 0, 0, 0, 1, 1, 1 ) 0.21621621621621623, 0.32432432432432434, 0.1891891891891892, 0.1891891891891892, 0.08108108108108109, 0.0;
    ( 0, 0, 0, 0, 0, 0, 1, 2, 0 ) 0.25, 0.16666666666666666, 0.25, 0.2916666666666667, 0.041666666666666664, 0.0;
    ( 0, 0, 0, 0, 0, 0, 1, 2, 1 ) 0.1276595744680851, 0.2978723404255319, 0.2765957446808511, 0.1702127659574468, 0.1276595744680851, 0.0;
    ( 0, 0, 0, 0, 0, 0, 2, 0, 0 ) 0.19582850521436848, 0.2549246813441483, 0.20973348783314022, 0.19351100811123986, 0.11819235225955968, 0.027809965237543453;
    ( 0, 0, 0, 0, 0, 0, 2, 0, 1 ) 0.21666666666666667, 0.28809523809523807, 0.23095238095238096, 0.19523809523809524, 0.06190476190476191, 0.007142857142857143;
    ( 0, 0, 0, 0, 0, 0, 2, 1, 0 ) 0.3902439024390244, 0.21951219512195122, 0.17073170731707318, 0.14634146341463414, 0.07317073170731707, 0.0;
    ( 0, 0, 0, 0, 0, 0, 2, 1, 1 ) 0.3684210526315789, 0.3157894736842105, 0.15789473684210525, 0.14035087719298245, 0.017543859649122806, 0.0;
    ( 0, 0, 0, 0, 0, 0, 2, 2, 0 ) 0.2786885245901639, 0.2786885245901639, 0.19672131147540983, 0.18032786885245902, 0.04918032786885246, 0.01639344262295082;
    ( 0, 0, 0, 0, 0, 0, 2, 2, 1 ) 0.1917808219178082, 0.2465753424657534, 0.2876712328767123, 0.2465753424657534, 0.0273972602739726, 0.0;
    ( 0, 0, 0, 0, 0, 0, 3, 0, 0 ) 0.20833333333333334, 0.2372448979591837, 0.1828231292517007, 0.2261904761904762, 0.12244897959183673, 0.02295918367346939;
    ( 0, 0, 0, 0, 0, 0, 3, 0, 1 ) 0.21428571428571427, 0.2834101382488479, 0.26036866359447003, 0.17511520737327188, 0.059907834101382486, 0.0069124423963133645;
    ( 0, 0, 0, 0, 0, 0, 3, 1, 0 ) 0.38333333333333336, 0.21666666666666667, 0.2, 0.15, 0.03333333333333333, 0.016666666666666666;
    ( 0, 0, 0, 0, 0, 0, 3, 1, 1 ) 0.14583333333333334, 0.3333333333333333, 0.375, 0.125, 0.020833333333333332, 0.0;
    ( 0, 0, 0, 0, 0, 0, 3, 2, 0 ) 0.25, 0.2708333333333333, 0.20833333333333334, 0.1875, 0.08333333333333333, 0.0;
    ( 0, 0, 0, 0, 0, 0, 3, 2, 1 ) 0.23636363636363636, 0.2909090909090909, 0.2545454545454545, 0.16363636363636364, 0.05454545454545454, 0.0;
    ( 0, 0, 0, 0, 0, 0, 4, 0, 0 ) 0.15734265734265734, 0.23426573426573427, 0.2263986013986014, 0.2666083916083916, 0.0979020979020979, 0.017482517482517484;
    ( 0, 0, 0, 0, 0, 0, 4, 0, 1 ) 0.15517241379310345, 0.2974137931034483, 0.29310344827586204, 0.20689655172413793, 0.04741379310344827, 0.0;
    ( 0, 0, 0, 0, 0, 0, 4, 1, 0 ) 0.2558139534883721, 0.3023255813953488, 0.20930232558139536, 0.16279069767441862, 0.06976744186046512, 0.0;
    ( 0, 0, 0, 0, 0, 0, 4, 1, 1 ) 0.16, 0.48, 0.2, 0.12, 0.04, 0.0;
    ( 0, 0, 0, 0, 0, 0, 4, 2, 0 ) 0.24390243902439024, 0.24390243902439024, 0.21951219512195122, 0.2682926829268293, 0.024390243902439025, 0.0;
    ( 0, 0, 0, 0, 0, 0, 4, 2, 1 ) 0.23076923076923078, 0.3076923076923077, 0.23076923076923078, 0.23076923076923078, 0.0, 0.0;
    ( 0, 0, 0, 0, 0, 1, 1, 0, 0 ) 0.08433734939759036, 0.2289156626506024, 0.25301204819277107, 0.24096385542168675, 0.18072289156626506, 0.012048192771084338;
    ( 0, 0, 0, 0, 0, 1, 1, 0, 1 ) 0.05084745762711865, 0.11864406779661017, 0.22033898305084745, 0.3728813559322034, 0.22033898305084745, 0.01694915254237288;
    ( 0, 0, 0, 0, 0, 1, 1, 1, 0 ) 0.14285714285714285, 0.14285714285714285, 0.2857142857142857, 0.2857142857142857, 0.14285714285714285, 0.0;
    ( 0, 0, 0, 0, 0, 1, 1, 1, 1 ) 0.23076923076923078, 0.15384615384615385, 0.15384615384615385, 0.3076923076923077, 0.15384615384615385, 0.0;
    ( 0, 0, 0, 0, 0, 1, 1, 2, 0 ) 0.09090909090909091, 0.2727272727272727, 0.18181818181818182, 0.36363636363636365, 0.09090909090909091, 0.0;
    ( 0, 0, 0, 0, 0, 1, 1, 2, 1 ) 0.0, 0.18181818181818182, 0.09090909090909091, 0.5909090909090909, 0.13636363636363635, 0.0;
    ( 0, 0, 0, 0, 0, 1, 2, 0, 0 ) 0.10982658959537572, 0.1791907514450867, 0.23699421965317918, 0.2543352601156069, 0.18497109826589594, 0.03468208092485549;
    ( 0, 0, 0, 0, 0, 1, 2, 0, 1 ) 0.0673076923076923, 0.28846153846153844, 0.25, 0.23076923076923078, 0.16346153846153846, 0.0;
    ( 0, 0, 0, 0, 0, 1, 2, 1, 0 ) 0.07692307692307693, 0.23076923076923078, 0.07692307692307693, 0.3076923076923077, 0.23076923076923078, 0.07692307692307693;
    ( 0, 0, 0, 0, 0, 1, 2, 1, 1 ) 0.1, 0.2, 0.25, 0.4, 0.05, 0.0;
    ( 0, 0, 0, 0, 0, 1, 2, 2, 0 ) 0.07142857142857142, 0.07142857142857142, 0.21428571428571427, 0.42857142857142855, 0.21428571428571427, 0.0;
    ( 0, 0, 0, 0, 0, 1, 2, 2, 1 ) 0.0, 0.2608695652173913, 0.34782608695652173, 0.34782608695652173, 0.043478260869565216, 0.0;
    ( 0, 0, 0, 0, 0, 1, 3, 0, 0 ) 0.08144796380090498, 0.12669683257918551, 0.19004524886877827, 0.33031674208144796, 0.19457013574660634, 0.07692307692307693;
    ( 0, 0, 0, 0, 0, 1, 3, 0, 1 ) 0.07758620689655173, 0.2413793103448276, 0.27586206896551724, 0.27586206896551724, 0.1206896551724138, 0.008620689655172414;
    ( 0, 0, 0, 0, 0, 1, 3, 1, 0 ) 0.3333333333333333, 0.0, 0.2222222222222222, 0.1111111111111111, 0.3333333333333333, 0.0;
    ( 0, 0, 0, 0, 0, 1, 3, 1, 1 ) 0.2, 0.1, 0.2, 0.3, 0.2, 0.0;
    ( 0, 0, 0, 0, 0, 1, 3, 2, 0 ) 0.037037037037037035, 0.07407407407407407, 0.18518518518518517, 0.4074074074074074, 0.18518518518518517, 0.1111111111111111;
    ( 0, 0, 0, 0, 0, 1, 3, 2, 1 ) 0.05555555555555555, 0.16666666666666666, 0.3333333333333333, 0.3888888888888889, 0.05555555555555555, 0.0;
    ( 0, 0, 0, 0, 0, 1, 4, 0, 0 ) 0.06589147286821706, 0.13953488372093023, 0.24031007751937986, 0.29844961240310075, 0.21705426356589147, 0.03875968992248062;
    ( 0, 0, 0, 0, 0, 1, 4, 0, 1 ) 0.07692307692307693, 0.17307692307692307, 0.36538461538461536, 0.34615384615384615, 0.038461538461538464, 0.0;
    ( 0, 0, 0, 0, 0, 1, 4, 1, 0 ) 0.125, 0.25, 0.125, 0.5, 0.0, 0.0;
    ( 0, 0, 0, 0, 0, 1, 4, 1, 1 ) 0.0, 0.3333333333333333, 0.3333333333333333, 0.3333333333333333, 0.0, 0.0;
    ( 0, 0, 0, 0, 0, 1, 4, 2, 0 ) 0.25, 0.375, 0.0, 0.125, 0.25, 0.0;
    ( 0, 0, 0, 0, 0, 1, 4, 2, 1 ) 0.1111111111111111, 0.2222222222222222, 0.3333333333333333, 0.0, 0.3333333333333333, 0.0;
    ( 0, 0, 0, 0, 1, 0, 1, 0, 0 ) 0.056818181818181816, 0.125, 0.125, 0.3522727272727273, 0.23863636363636365, 0.10227272727272728;
    ( 0, 0, 0, 0, 1, 0, 1, 0, 1 ) 0.07142857142857142, 0.19642857142857142, 0.26785714285714285, 0.3392857142857143, 0.10714285714285714, 0.017857142857142856;
    ( 0, 0, 0, 0, 1, 0, 1, 1, 0 ) 0.2, 0.0, 0.2, 0.4, 0.2, 0.0;
    ( 0, 0, 0, 0, 1, 0, 1, 1, 1 ) 0.13333333333333333, 0.2, 0.4666666666666667, 0.13333333333333333, 0.06666666666666667, 0.0;
    ( 0, 0, 0, 0, 1, 0, 1, 2, 0 ) 0.0, 0.1, 0.1, 0.4, 0.3, 0.1;
    ( 0, 0, 0, 0, 1, 0, 1, 2, 1 ) 0.11764705882352941, 0.29411764705882354, 0.17647058823529413, 0.4117647058823529, 0.0, 0.0;
    ( 0, 0, 0, 0, 1, 0, 2, 0, 0 ) 0.08808290155440414, 0.07772020725388601, 0.18652849740932642, 0.3160621761658031, 0.24352331606217617, 0.08808290155440414;
    ( 0, 0, 0, 0, 1, 0, 2, 0, 1 ) 0.06862745098039216, 0.18627450980392157, 0.2549019607843137, 0.29411764705882354, 0.19607843137254902, 0.0;
    ( 0, 0, 0, 0, 1, 0, 2, 1, 0 ) 0.0, 0.18181818181818182, 0.09090909090909091, 0.36363636363636365, 0.18181818181818182, 0.18181818181818182;
    ( 0, 0, 0, 0, 1, 0, 2, 1, 1 ) 0.3448275862068966, 0.10344827586206896, 0.3793103448275862, 0.06896551724137931, 0.06896551724137931, 0.034482758620689655;
    ( 0, 0, 0, 0, 1, 0, 2, 2, 0 ) 0.0, 0.2222222222222222, 0.4444444444444444, 0.2222222222222222, 0.1111111111111111, 0.0;
    ( 0, 0, 0, 0, 1, 0, 2, 2, 1 ) 0.11764705882352941, 0.23529411764705882, 0.23529411764705882, 0.29411764705882354, 0.11764705882352941, 0.0;
    ( 0, 0, 0, 0, 1, 0, 3, 0, 0 ) 0.08296943231441048, 0.1222707423580786, 0.2096069868995633, 0.32751091703056767, 0.22707423580786026, 0.03056768558951965;
    ( 0, 0, 0, 0, 1, 0, 3, 0, 1 ) 0.03333333333333333, 0.23333333333333334, 0.24444444444444444, 0.3888888888888889, 0.08888888888888889, 0.011111111111111112;
    ( 0, 0, 0, 0, 1, 0, 3, 1, 0 ) 0.0, 0.07692307692307693, 0.23076923076923078, 0.46153846153846156, 0.07692307692307693, 0.15384615384615385;
    ( 0, 0, 0, 0, 1, 0, 3, 1, 1 ) 0.058823529411764705, 0.35294117647058826, 0.23529411764705882, 0.35294117647058826, 0.0, 0.0;
    ( 0, 0, 0, 0, 1, 0, 3, 2, 0 ) 0.0, 0.25, 0.25, 0.3333333333333333, 0.08333333333333333, 0.08333333333333333;
    ( 0, 0, 0, 0, 1, 0, 3, 2, 1 ) 0.06666666666666667, 0.26666666666666666, 0.4, 0.2, 0.06666666666666667, 0.0;
    ( 0, 0, 0, 0, 1, 0, 4, 0, 0 ) 0.06896551724137931, 0.1724137931034483, 0.19704433497536947, 0.33004926108374383, 0.18226600985221675, 0.04926108374384237;
    ( 0, 0, 0, 0, 1, 0, 4, 0, 1 ) 0.13636363636363635, 0.13636363636363635, 0.18181818181818182, 0.3787878787878788, 0.16666666666666666, 0.0;
    ( 0, 0, 0, 0, 1, 0, 4, 1, 0 ) 0.3333333333333333, 0.08333333333333333, 0.08333333333333333, 0.3333333333333333, 0.16666666666666666, 0.0;
    ( 0, 0, 0, 0, 1, 0, 4, 1, 1 ) 0.1111111111111111, 0.2222222222222222, 0.2222222222222222, 0.3333333333333333, 0.1111111111111111, 0.0;
    ( 0, 0, 0, 0, 1, 0, 4, 2, 0 ) 0.09090909090909091, 0.18181818181818182, 0.0, 0.36363636363636365, 0.36363636363636365, 0.0;
    ( 0, 0, 0, 0, 1, 0, 4, 2, 1 ) 0.25, 0.16666666666666666, 0.25, 0.3333333333333333, 0.0, 0.0;
    ( 0, 0, 0, 0, 1, 1, 1, 0, 0 ) 0.04, 0.05333333333333334, 0.10666666666666667, 0.37333333333333335, 0.3333333333333333, 0.09333333333333334;
    ( 0, 0, 0, 0, 1, 1, 1, 0, 1 ) 0.013157894736842105, 0.14473684210526316, 0.17105263157894737, 0.42105263157894735, 0.23684210526315788, 0.013157894736842105;
    ( 0, 0, 0, 0, 1, 1, 1, 1, 0 ) 0.18181818181818182, 0.0, 0.18181818181818182, 0.5454545454545454, 0.09090909090909091, 0.0;
    ( 0, 0, 0, 0, 1, 1, 1, 1, 1 ) 0.07142857142857142, 0.0, 0.35714285714285715, 0.35714285714285715, 0.21428571428571427, 0.0;
    ( 0, 0, 0, 0, 1, 1, 1, 2, 0 ) 0.0, 0.3333333333333333, 0.16666666666666666, 0.3333333333333333, 0.16666666666666666, 0.0;
    ( 0, 0, 0, 0, 1, 1, 1, 2, 1 ) 0.041666666666666664, 0.16666666666666666, 0.4583333333333333, 0.16666666666666666, 0.16666666666666666, 0.0;
    ( 0, 0, 0, 0, 1, 1, 2, 0, 0 ) 0.04580152671755725, 0.06870229007633588, 0.12213740458015267, 0.31297709923664124, 0.32061068702290074, 0.1297709923664122;
    ( 0, 0, 0, 0, 1, 1, 2, 0, 1 ) 0.07692307692307693, 0.10989010989010989, 0.2087912087912088, 0.37362637362637363, 0.21978021978021978, 0.01098901098901099;
    ( 0, 0, 0, 0, 1, 1, 2, 1, 0 ) 0.0, 0.18181818181818182, 0.09090909090909091, 0.36363636363636365, 0.2727272727272727, 0.09090909090909091;
    ( 0, 0, 0, 0, 1, 1, 2, 1, 1 ) 0.043478260869565216, 0.13043478260869565, 0.4782608695652174, 0.21739130434782608, 0.13043478260869565, 0.0;
    ( 0, 0, 0, 0, 1, 1, 2, 2, 0 ) 0.14285714285714285, 0.21428571428571427, 0.0, 0.5, 0.0, 0.14285714285714285;
    ( 0, 0, 0, 0, 1, 1, 2, 2, 1 ) 0.06451612903225806, 0.16129032258064516, 0.25806451612903225, 0.45161290322580644, 0.03225806451612903, 0.03225806451612903;
    ( 0, 0, 0, 0, 1, 1, 3, 0, 0 ) 0.006097560975609756, 0.10365853658536585, 0.2073170731707317, 0.2804878048780488, 0.3048780487804878, 0.0975609756097561;
    ( 0, 0, 0, 0, 1, 1, 3, 0, 1 ) 0.05063291139240506, 0.13924050632911392, 0.2911392405063291, 0.3291139240506329, 0.17721518987341772, 0.012658227848101266;
    ( 0, 0, 0, 0, 1, 1, 3, 1, 0 ) 0.1111111111111111, 0.0, 0.3333333333333333, 0.1111111111111111, 0.1111111111111111, 0.3333333333333333;
    ( 0, 0, 0, 0, 1, 1, 3, 1, 1 ) 0.0, 0.07692307692307693, 0.23076923076923078, 0.3076923076923077, 0.38461538461538464, 0.0;
    ( 0, 0, 0, 0, 1, 1, 3, 2, 0 ) 0.11764705882352941, 0.11764705882352941, 0.11764705882352941, 0.47058823529411764, 0.17647058823529413, 0.0;
    ( 0, 0, 0, 0, 1, 1, 3, 2, 1 ) 0.14285714285714285, 0.21428571428571427, 0.07142857142857142, 0.5, 0.07142857142857142, 0.0;
    ( 0, 0, 0, 0, 1, 1, 4, 0, 0 ) 0.006802721088435374, 0.034013605442176874, 0.17687074829931973, 0.3673469387755102, 0.3129251700680272, 0.10204081632653061;
    ( 0, 0, 0, 0, 1, 1, 4, 0, 1 ) 0.0, 0.15625, 0.15625, 0.375, 0.28125, 0.03125;
    ( 0, 0, 0, 0, 1, 1, 4, 1, 0 ) 0.0, 0.1, 0.4, 0.1, 0.3, 0.1;
    ( 0, 0, 0, 0, 1, 1, 4, 1, 1 ) 0.0, 0.2, 0.4, 0.3, 0.1, 0.0;
    ( 0, 0, 0, 0, 1, 1, 4, 2, 0 ) 0.0, 0.2857142857142857, 0.2857142857142857, 0.2857142857142857, 0.14285714285714285, 0.0;
    ( 0, 0, 0, 0, 1, 1, 4, 2, 1 ) 0.0, 0.2, 0.5, 0.2, 0.1, 0.0;
    ( 0, 0, 0, 1, 0, 0, 1, 0, 0 ) 0.0, 0.0, 0.2222222222222222, 0.2222222222222222, 0.3333333333333333, 0.2222222222222222;
    ( 0, 0, 0, 1, 0, 0, 1, 0, 1 ) 0.0, 0.0, 0.0, 0.5, 0.5, 0.0;
    ( 0, 0, 0, 1, 0, 0, 1, 1, 0 ) 0.16666666666666666, 0.16666666666666666, 0.16666666666666666, 0.16666666666666666, 0.16666666666666666, 0.16666666666666666;
    ( 0, 0, 0, 1, 0, 0, 1, 1, 1 ) 0.3333333333333333, 0.0, 0.0, 0.3333333333333333, 0.3333333333333333, 0.0;
    ( 0, 0, 0, 1, 0, 0, 1, 2, 0 ) 0.0, 0.0, 0.0, 1.0, 0.0, 0.0;
    ( 0, 0, 0, 1, 0, 0, 1, 2, 1 ) 0.25, 0.0, 0.0, 0.75, 0.0, 0.0;
    ( 0, 0, 0, 1, 0, 0, 2, 0, 0 ) 0.0, 0.23529411764705882, 0.11764705882352941, 0.17647058823529413, 0.23529411764705882, 0.23529411764705882;
    ( 0, 0, 0, 1, 0, 0, 2, 0, 1 ) 0.2, 0.2, 0.1, 0.4, 0.1, 0.0;
    ( 0, 0, 0, 1, 0, 0, 2, 1, 0 ) 0.16666666666666666, 0.16666666666666666, 0.16666666666666666, 0.16666666666666666, 0.16666666666666666, 0.16666666666666666;
    ( 0, 0, 0, 1, 0, 0, 2, 1, 1 ) 0.0, 0.0, 0.0, 0.0, 1.0, 0.0;
    ( 0, 0, 0, 1, 0, 0, 2, 2, 0 ) 0.0, 0.0, 0.5, 0.5, 0.0, 0.0;
    ( 0, 0, 0, 1, 0, 0, 2, 2, 1 ) 0.0, 0.5, 0.0, 0.5, 0.0, 0.0;
    ( 0, 0, 0, 1, 0, 0, 3, 0, 0 ) 0.1, 0.1, 0.15, 0.15, 0.3, 0.2;
    ( 0, 0, 0, 1, 0, 0, 3, 0, 1 ) 0.0, 0.0, 0.6666666666666666, 0.3333333333333333, 0.0, 0.0;
    ( 0, 0, 0, 1, 0, 0, 3, 1, 0 ) 0.5, 0.0, 0.0, 0.0, 0.0, 0.5;
    ( 0, 0, 0, 1, 0, 0, 3, 1, 1 ) 0.16666666666666666, 0.16666666666666666, 0.16666666666666666, 0.16666666666666666, 0.16666666666666666, 0.16666666666666666;
    ( 0, 0, 0, 1, 0, 0, 3, 2, 0 ) 0.0, 0.0, 1.0, 0.0, 0.0, 0.0;
    ( 0, 0, 0, 1, 0, 0, 3, 2, 1 ) 0.0, 0.0, 0.0, 1.0, 0.0, 0.0;
    ( 0, 0, 0, 1, 0, 0, 4, 0, 0 ) 0.0, 0.1111111111111111, 0.1111111111111111, 0.3333333333333333, 0.3333333333333333, 0.1111111111111111;
    ( 0, 0, 0, 1, 0, 0, 4, 0, 1 ) 0.0, 0.2, 0.2, 0.4, 0.2, 0.0;
    ( 0, 0, 0, 1, 0, 0, 4, 1, 0 ) 0.16666666666666666, 0.16666666666666666, 0.16666666666666666, 0.16666666666666666, 0.16666666666666666, 0.16666666666666666;
    ( 0, 0, 0, 1, 0, 0, 4, 1, 1 ) 0.0, 0.0, 0.0, 1.0, 0.0, 0.0;
    ( 0, 0, 0, 1, 0, 0, 4, 2, 0 ) 0.0, 0.0, 0.0, 1.0, 0.0, 0.0;
    ( 0, 0, 0, 1, 0, 0, 4, 2, 1 ) 0.0, 1.0, 0.0, 0.0, 0.0, 0.0;
    ( 0, 0, 0, 1, 0, 1, 1, 0, 0 ) 0.0, 0.0, 0.0, 1.0, 0.0, 0.0;
    ( 0, 0, 0, 1, 0, 1, 1, 0, 1 ) 0.0, 0.0, 0.6, 0.4, 0.0, 0.0;
    ( 0, 0, 0, 1, 0, 1, 1, 1, 0 ) 0.16666666666666666, 0.16666666666666666, 0.16666666666666666, 0.16666666666666666, 0.16666666666666666, 0.16666666666666666;
    ( 0, 0, 0, 1, 0, 1, 1, 1, 1 ) 0.0, 0.0, 1.0, 0.0, 0.0, 0.0;
    ( 0, 0, 0, 1, 0, 1, 1, 2, 0 ) 0.16666666666666666, 0.16666666666666666, 0.16666666666666666, 0.16666666666666666, 0.16666666666666666, 0.16666666666666666;
    ( 0, 0, 0, 1, 0, 1, 1, 2, 1 ) 0.0, 0.0, 0.0, 0.5, 0.5, 0.0;
    ( 0, 0, 0, 1, 0, 1, 2, 0, 0 ) 0.0, 0.0, 0.1111111111111111, 0.4444444444444444, 0.2222222222222222, 0.2222222222222222;
    ( 0, 0, 0, 1, 0, 1, 2, 0, 1 ) 0.0, 0.0, 0.0, 0.0, 1.0, 0.0;
    ( 0, 0, 0, 1, 0, 1, 2, 1, 0 ) 0.16666666666666666, 0.16666666666666666, 0.16666666666666666, 0.16666666666666666, 0.16666666666666666, 0.16666666666666666;
    ( 0, 0, 0, 1, 0, 1, 2, 1, 1 ) 1.0, 0.0, 0.0, 0.0, 0.0, 0.0;
    ( 0, 0, 0, 1, 0, 1, 2, 2, 0 ) 0.16666666666666666, 0.16666666666666666, 0.16666666666666666, 0.16666666666666666, 0.16666666666666666, 0.16666666666666666;
    ( 0, 0, 0, 1, 0, 1, 2, 2, 1 ) 0.0, 0.0, 0.0, 0.0, 1.0, 0.0;
    ( 0, 0, 0, 1, 0, 1, 3, 0, 0 ) 0.0, 0.0, 0.2222222222222222, 0.3333333333333333, 0.2222222222222222, 0.2222222222222222;
    ( 0, 0, 0, 1, 0, 1, 3, 0, 1 ) 0.0, 0.0, 0.5, 0.5, 0.0, 0.0;
    ( 0, 0, 0, 1, 0, 1, 3, 1, 0 ) 0.16666666666666666, 0.16666666666666666, 0.16666666666666666, 0.16666666666666666, 0.16666666666666666, 0.16666666666666666;
    ( 0, 0, 0, 1, 0, 1, 3, 1, 1 ) 0.16666666666666666, 0.16666666666666666, 0.16666666666666666, 0.16666666666666666, 0.16666666666666666, 0.16666666666666666;
    ( 0, 0, 0, 1, 0, 1, 3, 2, 0 ) 0.16666666666666666, 0.16666666666666666, 0.16666666666666666, 0.16666666666666666, 0.16666666666666666, 0.16666666666666666;
    ( 0, 0, 0, 1, 0, 1, 3, 2, 1 ) 0.0, 0.0, 0.0, 1.0, 0.0, 0.0;
    ( 0, 0, 0, 1, 0, 1, 4, 0, 0 ) 0.0, 0.0, 0.0, 0.6666666666666666, 0.16666666666666666, 0.16666666666666666;
    ( 0, 0, 0, 1, 0, 1, 4, 0, 1 ) 0.0, 0.0, 0.3333333333333333, 0.6666666666666666, 0.0, 0.0;
    ( 0, 0, 0, 1, 0, 1, 4, 1, 0 ) 0.16666666666666666, 0.16666666666666666, 0.16666666666666666, 0.16666666666666666, 0.16666666666666666, 0.16666666666666666;
    ( 0, 0, 0, 1, 0, 1, 4, 1, 1 ) 0.16666666666666666, 0.16666666666666666, 0.16666666666666666, 0.16666666666666666, 0.16666666666666666, 0.16666666666666666;
    ( 0, 0, 0, 1, 0, 1, 4, 2, 0 ) 0.0, 0.0, 0.25, 0.75, 0.0, 0.0;
    ( 0, 0, 0, 1, 0, 1, 4, 2, 1 ) 0.16666666666666666, 0.16666666666666666, 0.16666666666666666, 0.16666666666666666, 0.16666666666666666, 0.16666666666666666;
    ( 0, 0, 0, 1, 1, 0, 1, 0, 0 ) 0.0, 0.0, 0.2, 0.4, 0.2, 0.2;
    ( 0, 0, 0, 1, 1, 0, 1, 0, 1 ) 0.0, 0.0, 0.5, 0.0, 0.5, 0.0;
    ( 0, 0, 0, 1, 1, 0, 1, 1, 0 ) 0.0, 0.0, 0.0, 0.0, 1.0, 0.0;
    ( 0, 0, 0, 1, 1, 0, 1, 1, 1 ) 0.16666666666666666, 0.16666666666666666, 0.16666666666666666, 0.16666666666666666, 0.16666666666666666, 0.16666666666666666;
    ( 0, 0, 0, 1, 1, 0, 1, 2, 0 ) 0.0, 0.0, 1.0, 0.0, 0.0, 0.0;
    ( 0, 0, 0, 1, 1, 0, 1, 2, 1 ) 0.0, 0.0, 0.3333333333333333, 0.3333333333333333, 0.3333333333333333, 0.0;
    ( 0, 0, 0, 1, 1, 0, 2, 0, 0 ) 0.0, 0.0, 0.2, 0.3, 0.4, 0.1;
    ( 0, 0, 0, 1, 1, 0, 2, 0, 1 ) 0.125, 0.125, 0.125, 0.5, 0.125, 0.0;
    ( 0, 0, 0, 1, 1, 0, 2, 1, 0 ) 0.0, 1.0, 0.0, 0.0, 0.0, 0.0;
    ( 0, 0, 0, 1, 1, 0, 2, 1, 1 ) 0.0, 0.0, 0.0, 0.6666666666666666, 0.3333333333333333, 0.0;
    ( 0, 0, 0, 1, 1, 0, 2, 2, 0 ) 0.16666666666666666, 0.16666666666666666, 0.16666666666666666, 0.16666666666666666, 0.16666666666666666, 0.16666666666666666;
    ( 0, 0, 0, 1, 1, 0, 2, 2, 1 ) 0.0, 0.6666666666666666, 0.0, 0.0, 0.3333333333333333, 0.0;
    ( 0, 0, 0, 1, 1, 0, 3, 0, 0 ) 0.0, 0.0, 0.1111111111111111, 0.5555555555555556, 0.1111111111111111, 0.2222222222222222;
    ( 0, 0, 0, 1, 1, 0, 3, 0, 1 ) 0.0, 0.25, 0.25, 0.375, 0.125, 0.0;
    ( 0, 0, 0, 1, 1, 0, 3, 1, 0 ) 0.16666666666666666, 0.16666666666666666, 0.16666666666666666, 0.16666666666666666, 0.16666666666666666, 0.16666666666666666;
    ( 0, 0, 0, 1, 1, 0, 3, 1, 1 ) 0.3333333333333333, 0.3333333333333333, 0.0, 0.3333333333333333, 0.0, 0.0;
    ( 0, 0, 0, 1, 1, 0, 3, 2, 0 ) 0.16666666666666666, 0.16666666666666666, 0.16666666666666666, 0.16666666666666666, 0.16666666666666666, 0.16666666666666666;
    ( 0, 0, 0, 1, 1, 0, 3, 2, 1 ) 0.0, 0.0, 1.0, 0.0, 0.0, 0.0;
    ( 0, 0, 0, 1, 1, 0, 4, 0, 0 ) 0.0, 0.0, 0.5, 0.0, 0.5, 0.0;
    ( 0, 0, 0, 1, 1, 0, 4, 0, 1 ) 0.16666666666666666, 0.16666666666666666, 0.16666666666666666, 0.16666666666666666, 0.16666666666666666, 0.16666666666666666;
    ( 0, 0, 0, 1, 1, 0, 4, 1, 0 ) 0.16666666666666666, 0.16666666666666666, 0.16666666666666666, 0.16666666666666666, 0.16666666666666666, 0.16666666666666666;
    ( 0, 0, 0, 1, 1, 0, 4, 1, 1 ) 1.0, 0.0, 0.0, 0.0, 0.0, 0.0;
    ( 0, 0, 0, 1, 1, 0, 4, 2, 0 ) 0.16666666666666666, 0.16666666666666666, 0.16666666666666666, 0.16666666666666666, 0.16666666666666666, 0.16666666666666666;
    ( 0, 0, 0, 1, 1, 0, 4, 2, 1 ) 0.0, 0.0, 0.0, 1.0, 0.0, 0.0;
    ( 0, 0, 0, 1, 1, 1, 1, 0, 0 ) 0.0, 0.0, 0.07142857142857142, 0.35714285714285715, 0.14285714285714285, 0.42857142857142855;
    ( 0, 0, 0, 1, 1, 1, 1, 0, 1 ) 0.0, 0.07142857142857142, 0.07142857142857142, 0.42857142857142855, 0.21428571428571427, 0.21428571428571427;
    ( 0, 0, 0, 1, 1, 1, 1, 1, 0 ) 0.0, 0.0, 0.0, 1.0, 0.0, 0.0;
    ( 0, 0, 0, 1, 1, 1, 1, 1, 1 ) 0.0, 0.0, 0.5, 0.5, 0.0, 0.0;
    ( 0, 0, 0, 1, 1, 1, 1, 2, 0 ) 0.0, 0.0, 0.0, 1.0, 0.0, 0.0;
    ( 0, 0, 0, 1, 1, 1, 1, 2, 1 ) 0.0, 0.0, 0.0, 0.6, 0.4, 0.0;
    ( 0, 0, 0, 1, 1, 1, 2, 0, 0 ) 0.041666666666666664, 0.041666666666666664, 0.08333333333333333, 0.20833333333333334, 0.4166666666666667, 0.20833333333333334;
    ( 0, 0, 0, 1, 1, 1, 2, 0, 1 ) 0.0, 0.23076923076923078, 0.38461538461538464, 0.15384615384615385, 0.23076923076923078, 0.0;
    ( 0, 0, 0, 1, 1, 1, 2, 1, 0 ) 0.0, 0.0, 0.0, 0.0, 0.0, 1.0;
    ( 0, 0, 0, 1, 1, 1, 2, 1, 1 ) 0.0, 0.5, 0.0, 0.5, 0.0, 0.0;
    ( 0, 0, 0, 1, 1, 1, 2, 2, 0 ) 0.0, 0.0, 0.5, 0.25, 0.0, 0.25;
    ( 0, 0, 0, 1, 1, 1, 2, 2, 1 ) 0.0, 0.0, 0.3333333333333333, 0.3333333333333333, 0.3333333333333333, 0.0;
    ( 0, 0, 0, 1, 1, 1, 3, 0, 0 ) 0.0, 0.0, 0.08, 0.44, 0.2, 0.28;
    ( 0, 0, 0, 1, 1, 1, 3, 0, 1 ) 0.0, 0.16666666666666666, 0.25, 0.3333333333333333, 0.25, 0.0;
    ( 0, 0, 0, 1, 1, 1, 3, 1, 0 ) 0.0, 0.0, 0.0, 0.5, 0.5, 0.0;
    ( 0, 0, 0, 1, 1, 1, 3, 1, 1 ) 0.0, 0.3333333333333333, 0.0, 0.6666666666666666, 0.0, 0.0;
    ( 0, 0, 0, 1, 1, 1, 3, 2, 0 ) 0.0, 0.0, 0.0, 0.0, 0.0, 1.0;
    ( 0, 0, 0, 1, 1, 1, 3, 2, 1 ) 0.0, 0.25, 0.25, 0.25, 0.0, 0.25;
    ( 0, 0, 0, 1, 1, 1, 4, 0, 0 ) 0.0, 0.0, 0.0, 0.23076923076923078, 0.6153846153846154, 0.15384615384615385;
    ( 0, 0, 0, 1, 1, 1, 4, 0, 1 ) 0.25, 0.5, 0.0, 0.0, 0.25, 0.0;
    ( 0, 0, 0, 1, 1, 1, 4, 1, 0 ) 0.0, 0.0, 0.0, 1.0, 0.0, 0.0;
    ( 0, 0, 0, 1, 1, 1, 4, 1, 1 ) 0.16666666666666666, 0.16666666666666666, 0.16666666666666666, 0.16666666666666666, 0.16666666666666666, 0.16666666666666666;
    ( 0, 0, 0, 1, 1, 1, 4, 2, 0 ) 0.0, 0.0, 0.0, 0.0, 0.0, 1.0;
    ( 0, 0, 0, 1, 1, 1, 4, 2, 1 ) 0.0, 0.0, 1.0, 0.0, 0.0, 0.0;
    ( 0, 0, 1, 0, 0, 0, 1, 0, 0 ) 0.05555555555555555, 0.027777777777777776, 0.16666666666666666, 0.4444444444444444, 0.1111111111111111, 0.19444444444444445;
    ( 0, 0, 1, 0, 0, 0, 1, 0, 1 ) 0.0, 0.07142857142857142, 0.21428571428571427, 0.4642857142857143, 0.21428571428571427, 0.03571428571428571;
    ( 0, 0, 1, 0, 0, 0, 1, 1, 0 ) 0.0, 0.3333333333333333, 0.0, 0.3333333333333333, 0.0, 0.3333333333333333;
    ( 0, 0, 1, 0, 0, 0, 1, 1, 1 ) 0.07692307692307693, 0.15384615384615385, 0.23076923076923078, 0.5384615384615384, 0.0, 0.0;
    ( 0, 0, 1, 0, 0, 0, 1, 2, 0 ) 0.1111111111111111, 0.1111111111111111, 0.1111111111111111, 0.3333333333333333, 0.2222222222222222, 0.1111111111111111;
    ( 0, 0, 1, 0, 0, 0, 1, 2, 1 ) 0.08108108108108109, 0.24324324324324326, 0.24324324324324326, 0.35135135135135137, 0.08108108108108109, 0.0;
    ( 0, 0, 1, 0, 0, 0, 2, 0, 0 ) 0.05, 0.15, 0.21666666666666667, 0.21666666666666667, 0.13333333333333333, 0.23333333333333334;
    ( 0, 0, 1, 0, 0, 0, 2, 0, 1 ) 0.11627906976744186, 0.18604651162790697, 0.23255813953488372, 0.32558139534883723, 0.11627906976744186, 0.023255813953488372;
    ( 0, 0, 1, 0, 0, 0, 2, 1, 0 ) 0.0, 0.0, 0.0, 1.0, 0.0, 0.0;
    ( 0, 0, 1, 0, 0, 0, 2, 1, 1 ) 0.07692307692307693, 0.15384615384615385, 0.3076923076923077, 0.3076923076923077, 0.15384615384615385, 0.0;
    ( 0, 0, 1, 0, 0, 0, 2, 2, 0 ) 0.125, 0.0, 0.25, 0.375, 0.125, 0.125;
    ( 0, 0, 1, 0, 0, 0, 2, 2, 1 ) 0.0625, 0.25, 0.25, 0.375, 0.0625, 0.0;
    ( 0, 0, 1, 0, 0, 0, 3, 0, 0 ) 0.058823529411764705, 0.14705882352941177, 0.058823529411764705, 0.38235294117647056, 0.35294117647058826, 0.0;
    ( 0, 0, 1, 0, 0, 0, 3, 0, 1 ) 0.06666666666666667, 0.26666666666666666, 0.2, 0.3333333333333333, 0.13333333333333333, 0.0;
    ( 0, 0, 1, 0, 0, 0, 3, 1, 0 ) 0.0, 0.0, 0.25, 0.5, 0.25, 0.0;
    ( 0, 0, 1, 0, 0, 0, 3, 1, 1 ) 0.125, 0.125, 0.25, 0.125, 0.375, 0.0;
    ( 0, 0, 1, 0, 0, 0, 3, 2, 0 ) 0.0, 0.2222222222222222, 0.1111111111111111, 0.6666666666666666, 0.0, 0.0;
    ( 0, 0, 1, 0, 0, 0, 3, 2, 1 ) 0.14285714285714285, 0.14285714285714285, 0.35714285714285715, 0.07142857142857142, 0.2857142857142857, 0.0;
    ( 0, 0, 1, 0, 0, 0, 4, 0, 0 ) 0.13333333333333333, 0.06666666666666667, 0.13333333333333333, 0.36666666666666664, 0.23333333333333334, 0.06666666666666667;
    ( 0, 0, 1, 0, 0, 0, 4, 0, 1 ) 0.0, 0.16666666666666666, 0.16666666666666666, 0.6666666666666666, 0.0, 0.0;
    ( 0, 0, 1, 0, 0, 0, 4, 1, 0 ) 0.0, 0.5, 0.0, 0.5, 0.0, 0.0;
    ( 0, 0, 1, 0, 0, 0, 4, 1, 1 ) 0.0, 0.6, 0.0, 0.4, 0.0, 0.0;
    ( 0, 0, 1, 0, 0, 0, 4, 2, 0 ) 0.0, 0.2, 0.0, 0.6, 0.0, 0.2;
    ( 0, 0, 1, 0, 0, 0, 4, 2, 1 ) 0.0, 0.14285714285714285, 0.42857142857142855, 0.42857142857142855, 0.0, 0.0;
    ( 0, 0, 1, 0, 0, 1, 1, 0, 0 ) 0.0, 0.08333333333333333, 0.08333333333333333, 0.4166666666666667, 0.4166666666666667, 0.0;
    ( 0, 0, 1, 0, 0, 1, 1, 0, 1 ) 0.07692307692307693, 0.07692307692307693, 0.07692307692307693, 0.46153846153846156, 0.3076923076923077, 0.0;
    ( 0, 0, 1, 0, 0, 1, 1, 1, 0 ) 0.0, 0.0, 0.2, 0.0, 0.2, 0.6;
    ( 0, 0, 1, 0, 0, 1, 1, 1, 1 ) 0.0, 0.0, 0.3333333333333333, 0.6666666666666666, 0.0, 0.0;
    ( 0, 0, 1, 0, 0, 1, 1, 2, 0 ) 0.0, 0.0, 0.0, 0.6, 0.4, 0.0;
    ( 0, 0, 1, 0, 0, 1, 1, 2, 1 ) 0.0, 0.16666666666666666, 0.25, 0.4166666666666667, 0.16666666666666666, 0.0;
    ( 0, 0, 1, 0, 0, 1, 2, 0, 0 ) 0.0, 0.0, 0.07692307692307693, 0.46153846153846156, 0.15384615384615385, 0.3076923076923077;
    ( 0, 0, 1, 0, 0, 1, 2, 0, 1 ) 0.08, 0.2, 0.24, 0.28, 0.2, 0.0;
    ( 0, 0, 1, 0, 0, 1, 2, 1, 0 ) 0.0, 0.0, 0.5, 0.0, 0.5, 0.0;
    ( 0, 0, 1, 0, 0, 1, 2, 1, 1 ) 0.0, 0.16666666666666666, 0.3333333333333333, 0.5, 0.0, 0.0;
    ( 0, 0, 1, 0, 0, 1, 2, 2, 0 ) 0.0, 0.0, 0.0, 0.0, 0.0, 1.0;
    ( 0, 0, 1, 0, 0, 1, 2, 2, 1 ) 0.0, 0.125, 0.375, 0.375, 0.125, 0.0;
    ( 0, 0, 1, 0, 0, 1, 3, 0, 0 ) 0.0, 0.058823529411764705, 0.23529411764705882, 0.17647058823529413, 0.35294117647058826, 0.17647058823529413;
    ( 0, 0, 1, 0, 0, 1, 3, 0, 1 ) 0.0, 0.09090909090909091, 0.2727272727272727, 0.5454545454545454, 0.09090909090909091, 0.0;
    ( 0, 0, 1, 0, 0, 1, 3, 1, 0 ) 0.0, 0.0, 0.0, 1.0, 0.0, 0.0;
    ( 0, 0, 1, 0, 0, 1, 3, 1, 1 ) 0.0, 0.0, 0.3333333333333333, 0.3333333333333333, 0.3333333333333333, 0.0;
    ( 0, 0, 1, 0, 0, 1, 3, 2, 0 ) 0.0, 0.0, 0.5, 0.25, 0.25, 0.0;
    ( 0, 0, 1, 0, 0, 1, 3, 2, 1 ) 0.1, 0.0, 0.4, 0.4, 0.1, 0.0;
    ( 0, 0, 1, 0, 0, 1, 4, 0, 0 ) 0.0, 0.1, 0.3, 0.3, 0.2, 0.1;
    ( 0, 0, 1, 0, 0, 1, 4, 0, 1 ) 0.0, 0.25, 0.0, 0.25, 0.5, 0.0;
    ( 0, 0, 1, 0, 0, 1, 4, 1, 0 ) 0.0, 0.3333333333333333, 0.3333333333333333, 0.3333333333333333, 0.0, 0.0;
    ( 0, 0, 1, 0, 0, 1, 4, 1, 1 ) 0.0, 0.0, 0.0, 0.5, 0.5, 0.0;
    ( 0, 0, 1, 0, 0, 1, 4, 2, 0 ) 0.16666666666666666, 0.16666666666666666, 0.16666666666666666, 0.16666666666666666, 0.16666666666666666, 0.16666666666666666;
    ( 0, 0, 1, 0, 0, 1, 4, 2, 1 ) 0.0, 0.0, 1.0, 0.0, 0.0, 0.0;
    ( 0, 0, 1, 0, 1, 0, 1, 0, 0 ) 0.05263157894736842, 0.05263157894736842, 0.0, 0.3684210526315789, 0.5263157894736842, 0.0;
    ( 0, 0, 1, 0, 1, 0, 1, 0, 1 ) 0.045454545454545456, 0.045454545454545456, 0.13636363636363635, 0.6818181818181818, 0.045454545454545456, 0.045454545454545456;
    ( 0, 0, 1, 0, 1, 0, 1, 1, 0 ) 0.0, 0.0, 0.0, 1.0, 0.0, 0.0;
    ( 0, 0, 1, 0, 1, 0, 1, 1, 1 ) 0.0, 0.0, 0.375, 0.375, 0.25, 0.0;
    ( 0, 0, 1, 0, 1, 0, 1, 2, 0 ) 0.0, 0.09090909090909091, 0.18181818181818182, 0.36363636363636365, 0.2727272727272727, 0.09090909090909091;
    ( 0, 0, 1, 0, 1, 0, 1, 2, 1 ) 0.0, 0.25, 0.2, 0.3, 0.25, 0.0;
    ( 0, 0, 1, 0, 1, 0, 2, 0, 0 ) 0.0, 0.041666666666666664, 0.16666666666666666, 0.08333333333333333, 0.625, 0.08333333333333333;
    ( 0, 0, 1, 0, 1, 0, 2, 0, 1 ) 0.03571428571428571, 0.10714285714285714, 0.10714285714285714, 0.4642857142857143, 0.2857142857142857, 0.0;
    ( 0, 0, 1, 0, 1, 0, 2, 1, 0 ) 0.0, 0.0, 0.16666666666666666, 0.5, 0.16666666666666666, 0.16666666666666666;
    ( 0, 0, 1, 0, 1, 0, 2, 1, 1 ) 0.0, 0.2, 0.2, 0.4, 0.2, 0.0;
    ( 0, 0, 1, 0, 1, 0, 2, 2, 0 ) 0.0, 0.1111111111111111, 0.0, 0.6666666666666666, 0.1111111111111111, 0.1111111111111111;
    ( 0, 0, 1, 0, 1, 0, 2, 2, 1 ) 0.0, 0.16666666666666666, 0.16666666666666666, 0.4166666666666667, 0.25, 0.0;
    ( 0, 0, 1, 0, 1, 0, 3, 0, 0 ) 0.0, 0.08823529411764706, 0.14705882352941177, 0.14705882352941177, 0.38235294117647056, 0.23529411764705882;
    ( 0, 0, 1, 0, 1, 0, 3, 0, 1 ) 0.0, 0.0, 0.26666666666666666, 0.3333333333333333, 0.4, 0.0;
    ( 0, 0, 1, 0, 1, 0, 3, 1, 0 ) 0.0, 0.0, 0.0, 0.0, 1.0, 0.0;
    ( 0, 0, 1, 0, 1, 0, 3, 1, 1 ) 0.0, 0.5, 0.5, 0.0, 0.0, 0.0;
    ( 0, 0, 1, 0, 1, 0, 3, 2, 0 ) 0.0, 0.25, 0.0, 0.25, 0.5, 0.0;
    ( 0, 0, 1, 0, 1, 0, 3, 2, 1 ) 0.0, 0.25, 0.25, 0.25, 0.25, 0.0;
    ( 0, 0, 1, 0, 1, 0, 4, 0, 0 ) 0.0, 0.125, 0.125, 0.5, 0.0, 0.25;
    ( 0, 0, 1, 0, 1, 0, 4, 0, 1 ) 0.0, 0.0, 0.6666666666666666, 0.3333333333333333, 0.0, 0.0;
    ( 0, 0, 1, 0, 1, 0, 4, 1, 0 ) 0.0, 0.0, 0.0, 1.0, 0.0, 0.0;
    ( 0, 0, 1, 0, 1, 0, 4, 1, 1 ) 0.0, 0.0, 1.0, 0.0, 0.0, 0.0;
    ( 0, 0, 1, 0, 1, 0, 4, 2, 0 ) 0.0, 0.0, 0.5, 0.5, 0.0, 0.0;
    ( 0, 0, 1, 0, 1, 0, 4, 2, 1 ) 0.0, 0.0, 0.0, 0.6666666666666666, 0.3333333333333333, 0.0;
    ( 0, 0, 1, 0, 1, 1, 1, 0, 0 ) 0.0, 0.0, 0.08571428571428572, 0.3142857142857143, 0.34285714285714286, 0.2571428571428571;
    ( 0, 0, 1, 0, 1, 1, 1, 0, 1 ) 0.023809523809523808, 0.0, 0.14285714285714285, 0.5714285714285714, 0.21428571428571427, 0.047619047619047616;
    ( 0, 0, 1, 0, 1, 1, 1, 1, 0 ) 0.0, 0.0, 0.1111111111111111, 0.4444444444444444, 0.2222222222222222, 0.2222222222222222;
    ( 0, 0, 1, 0, 1, 1, 1, 1, 1 ) 0.0, 0.08333333333333333, 0.25, 0.5833333333333334, 0.08333333333333333, 0.0;
    ( 0, 0, 1, 0, 1, 1, 1, 2, 0 ) 0.0, 0.07142857142857142, 0.2857142857142857, 0.21428571428571427, 0.35714285714285715, 0.07142857142857142;
    ( 0, 0, 1, 0, 1, 1, 1, 2, 1 ) 0.0, 0.11904761904761904, 0.2857142857142857, 0.47619047619047616, 0.11904761904761904, 0.0;
    ( 0, 0, 1, 0, 1, 1, 2, 0, 0 ) 0.0625, 0.03125, 0.03125, 0.1875, 0.46875, 0.21875;
    ( 0, 0, 1, 0, 1, 1, 2, 0, 1 ) 0.0, 0.12121212121212122, 0.18181818181818182, 0.5151515151515151, 0.15151515151515152, 0.030303030303030304;
    ( 0, 0, 1, 0, 1, 1, 2, 1, 0 ) 0.0, 0.0, 0.0, 0.6, 0.2, 0.2;
    ( 0, 0, 1, 0, 1, 1, 2, 1, 1 ) 0.0, 0.0, 0.7142857142857143, 0.14285714285714285, 0.14285714285714285, 0.0;
    ( 0, 0, 1, 0, 1, 1, 2, 2, 0 ) 0.0, 0.0, 0.1111111111111111, 0.3333333333333333, 0.4444444444444444, 0.1111111111111111;
    ( 0, 0, 1, 0, 1, 1, 2, 2, 1 ) 0.0, 0.0625, 0.25, 0.25, 0.4375, 0.0;
    ( 0, 0, 1, 0, 1, 1, 3, 0, 0 ) 0.0, 0.0, 0.08333333333333333, 0.3333333333333333, 0.19444444444444445, 0.3888888888888889;
    ( 0, 0, 1, 0, 1, 1, 3, 0, 1 ) 0.05555555555555555, 0.0, 0.2777777777777778, 0.3888888888888889, 0.2777777777777778, 0.0;
    ( 0, 0, 1, 0, 1, 1, 3, 1, 0 ) 0.16666666666666666, 0.16666666666666666, 0.16666666666666666, 0.16666666666666666, 0.16666666666666666, 0.16666666666666666;
    ( 0, 0, 1, 0, 1, 1, 3, 1, 1 ) 0.0, 0.0, 0.0, 0.8571428571428571, 0.14285714285714285, 0.0;
    ( 0, 0, 1, 0, 1, 1, 3, 2, 0 ) 0.0, 0.0, 0.0, 0.75, 0.0, 0.25;
    ( 0, 0, 1, 0, 1, 1, 3, 2, 1 ) 0.07692307692307693, 0.0, 0.23076923076923078, 0.3076923076923077, 0.38461538461538464, 0.0;
    ( 0, 0, 1, 0, 1, 1, 4, 0, 0 ) 0.0, 0.125, 0.0, 0.0, 0.625, 0.25;
    ( 0, 0, 1, 0, 1, 1, 4, 0, 1 ) 0.0, 0.0, 0.3333333333333333, 0.3333333333333333, 0.3333333333333333, 0.0;
    ( 0, 0, 1, 0, 1, 1, 4, 1, 0 ) 0.0, 0.0, 0.25, 0.5, 0.25, 0.0;
    ( 0, 0, 1, 0, 1, 1, 4, 1, 1 ) 0.0, 0.0, 0.0, 1.0, 0.0, 0.0;
    ( 0, 0, 1, 0, 1, 1, 4, 2, 0 ) 0.0, 0.0, 0.2, 0.6, 0.2, 0.0;
    ( 0, 0, 1, 0, 1, 1, 4, 2, 1 ) 0.0, 0.5, 0.25, 0.25, 0.0, 0.0;
    ( 0, 0, 1, 1, 0, 0, 1, 0, 0 ) 0.0, 0.0, 0.0, 0.0, 1.0, 0.0;
    ( 0, 0, 1, 1, 0, 0, 1, 0, 1 ) 0.0, 0.0, 0.0, 0.6, 0.4, 0.0;
    ( 0, 0, 1, 1, 0, 0, 1, 1, 0 ) 0.16666666666666666, 0.16666666666666666, 0.16666666666666666, 0.16666666666666666, 0.16666666666666666, 0.16666666666666666;
    ( 0, 0, 1, 1, 0, 0, 1, 1, 1 ) 0.0, 0.0, 1.0, 0.0, 0.0, 0.0;
    ( 0, 0, 1, 1, 0, 0, 1, 2, 0 ) 0.16666666666666666, 0.16666666666666666, 0.16666666666666666, 0.16666666666666666, 0.16666666666666666, 0.16666666666666666;
    ( 0, 0, 1, 1, 0, 0, 1, 2, 1 ) 0.0, 0.0, 0.3333333333333333, 0.6666666666666666, 0.0, 0.0;
    ( 0, 0, 1, 1, 0, 0, 2, 0, 0 ) 0.0, 0.0, 0.2, 0.2, 0.0, 0.6;
    ( 0, 0, 1, 1, 0, 0, 2, 0, 1 ) 0.0, 0.5, 0.0, 0.5, 0.0, 0.0;
    ( 0, 0, 1, 1, 0, 0, 2, 1, 0 ) 0.16666666666666666, 0.16666666666666666, 0.16666666666666666, 0.16666666666666666, 0.16666666666666666, 0.16666666666666666;
    ( 0, 0, 1, 1, 0, 0, 2, 1, 1 ) 0.0, 0.0, 0.5, 0.5, 0.0, 0.0;
    ( 0, 0, 1, 1, 0, 0, 2, 2, 0 ) 0.0, 0.0, 0.0, 0.0, 0.0, 1.0;
    ( 0, 0, 1, 1, 0, 0, 2, 2, 1 ) 0.3333333333333333, 0.0, 0.3333333333333333, 0.0, 0.3333333333333333, 0.0;
    ( 0, 0, 1, 1, 0, 0, 3, 0, 0 ) 0.0, 0.0, 0.0, 0.3333333333333333, 0.0, 0.6666666666666666;
    ( 0, 0, 1, 1, 0, 0, 3, 0, 1 ) 0.0, 0.0, 0.0, 1.0, 0.0, 0.0;
    ( 0, 0, 1, 1, 0, 0, 3, 1, 0 ) 0.16666666666666666, 0.16666666666666666, 0.16666666666666666, 0.16666666666666666, 0.16666666666666666, 0.16666666666666666;
    ( 0, 0, 1, 1, 0, 0, 3, 1, 1 ) 0.0, 1.0, 0.0, 0.0, 0.0, 0.0;
    ( 0, 0, 1, 1, 0, 0, 3, 2, 0 ) 0.16666666666666666, 0.16666666666666666, 0.16666666666666666, 0.16666666666666666, 0.16666666666666666, 0.16666666666666666;
    ( 0, 0, 1, 1, 0, 0, 3, 2, 1 ) 0.0, 0.0, 1.0, 0.0, 0.0, 0.0;
    ( 0, 0, 1, 1, 0, 0, 4, 0, 0 ) 0.0, 0.0, 0.0, 1.0, 0.0, 0.0;
    ( 0, 0, 1, 1, 0, 0, 4, 0, 1 ) 0.16666666666666666, 0.16666666666666666, 0.16666666666666666, 0.16666666666666666, 0.16666666666666666, 0.16666666666666666;
    ( 0, 0, 1, 1, 0, 0, 4, 1, 0 ) 0.0, 0.0, 0.0, 1.0, 0.0, 0.0;
    ( 0, 0, 1, 1, 0, 0, 4, 1, 1 ) 0.16666666666666666, 0.16666666666666666, 0.16666666666666666, 0.16666666666666666, 0.16666666666666666, 0.16666666666666666;
    ( 0, 0, 1, 1, 0, 0, 4, 2, 0 ) 0.0, 0.0, 0.0, 1.0, 0.0, 0.0;
    ( 0, 0, 1, 1, 0, 0, 4, 2, 1 ) 0.0, 0.0, 0.5, 0.0, 0.5, 0.0;
    ( 0, 0, 1, 1, 0, 1, 1, 0, 0 ) 0.0, 0.0, 0.25, 0.5, 0.25, 0.0;
    ( 0, 0, 1, 1, 0, 1, 1, 0, 1 ) 0.0, 0.0, 0.0, 0.25, 0.5, 0.25;
    ( 0, 0, 1, 1, 0, 1, 1, 1, 0 ) 0.16666666666666666, 0.16666666666666666, 0.16666666666666666, 0.16666666666666666, 0.16666666666666666, 0.16666666666666666;
    ( 0, 0, 1, 1, 0, 1, 1, 1, 1 ) 0.16666666666666666, 0.16666666666666666, 0.16666666666666666, 0.16666666666666666, 0.16666666666666666, 0.16666666666666666;
    ( 0, 0, 1, 1, 0, 1, 1, 2, 0 ) 0.16666666666666666, 0.16666666666666666, 0.16666666666666666, 0.16666666666666666, 0.16666666666666666, 0.16666666666666666;
    ( 0, 0, 1, 1, 0, 1, 1, 2, 1 ) 0.0, 0.0, 0.3333333333333333, 0.6666666666666666, 0.0, 0.0;
    ( 0, 0, 1, 1, 0, 1, 2, 0, 0 ) 0.0, 0.0, 0.3333333333333333, 0.0, 0.6666666666666666, 0.0;
    ( 0, 0, 1, 1, 0, 1, 2, 0, 1 ) 0.0, 0.0, 0.0, 0.6666666666666666, 0.3333333333333333, 0.0;
    ( 0, 0, 1, 1, 0, 1, 2, 1, 0 ) 0.16666666666666666, 0.16666666666666666, 0.16666666666666666, 0.16666666666666666, 0.16666666666666666, 0.16666666666666666;
    ( 0, 0, 1, 1, 0, 1, 2, 1, 1 ) 0.0, 0.0, 0.0, 1.0, 0.0, 0.0;
    ( 0, 0, 1, 1, 0, 1, 2, 2, 0 ) 0.16666666666666666, 0.16666666666666666, 0.16666666666666666, 0.16666666666666666, 0.16666666666666666, 0.16666666666666666;
    ( 0, 0, 1, 1, 0, 1, 2, 2, 1 ) 0.0, 0.0, 0.0, 0.3333333333333333, 0.6666666666666666, 0.0;
    ( 0, 0, 1, 1, 0, 1, 3, 0, 0 ) 0.0, 0.0, 1.0, 0.0, 0.0, 0.0;
    ( 0, 0, 1, 1, 0, 1, 3, 0, 1 ) 0.0, 0.0, 0.3333333333333333, 0.3333333333333333, 0.3333333333333333, 0.0;
    ( 0, 0, 1, 1, 0, 1, 3, 1, 0 ) 0.16666666666666666, 0.16666666666666666, 0.16666666666666666, 0.16666666666666666, 0.16666666666666666, 0.16666666666666666;
    ( 0, 0, 1, 1, 0, 1, 3, 1, 1 ) 0.16666666666666666, 0.16666666666666666, 0.16666666666666666, 0.16666666666666666, 0.16666666666666666, 0.16666666666666666;
    ( 0, 0, 1, 1, 0, 1, 3, 2, 0 ) 0.16666666666666666, 0.16666666666666666, 0.16666666666666666, 0.16666666666666666, 0.16666666666666666, 0.16666666666666666;
    ( 0, 0, 1, 1, 0, 1, 3, 2, 1 ) 0.16666666666666666, 0.16666666666666666, 0.16666666666666666, 0.16666666666666666, 0.16666666666666666, 0.16666666666666666;
    ( 0, 0, 1, 1, 0, 1, 4, 0, 0 ) 0.0, 0.0, 0.0, 0.0, 1.0, 0.0;
    ( 0, 0, 1, 1, 0, 1, 4, 0, 1 ) 0.16666666666666666, 0.16666666666666666, 0.16666666666666666, 0.16666666666666666, 0.16666666666666666, 0.16666666666666666;
    ( 0, 0, 1, 1, 0, 1, 4, 1, 0 ) 0.16666666666666666, 0.16666666666666666, 0.16666666666666666, 0.16666666666666666, 0.16666666666666666, 0.16666666666666666;
    ( 0, 0, 1, 1, 0, 1, 4, 1, 1 ) 0.16666666666666666, 0.16666666666666666, 0.16666666666666666, 0.16666666666666666, 0.16666666666666666, 0.16666666666666666;
    ( 0, 0, 1, 1, 0, 1, 4, 2, 0 ) 0.0, 0.0, 0.0, 0.0, 1.0, 0.0;
    ( 0, 0, 1, 1, 0, 1, 4, 2, 1 ) 0.16666666666666666, 0.16666666666666666, 0.16666666666666666, 0.16666666666666666, 0.16666666666666666, 0.16666666666666666;
    ( 0, 0, 1, 1, 1, 0, 1, 0, 0 ) 0.0, 0.0, 0.0, 0.3333333333333333, 0.3333333333333333, 0.3333333333333333;
    ( 0, 0, 1, 1, 1, 0, 1, 0, 1 ) 0.0, 0.0, 0.0, 0.4, 0.2, 0.4;
    ( 0, 0, 1, 1, 1, 0, 1, 1, 0 ) 0.16666666666666666, 0.16666666666666666, 0.16666666666666666, 0.16666666666666666, 0.16666666666666666, 0.16666666666666666;
    ( 0, 0, 1, 1, 1, 0, 1, 1, 1 ) 0.0, 0.0, 0.6666666666666666, 0.3333333333333333, 0.0, 0.0;
    ( 0, 0, 1, 1, 1, 0, 1, 2, 0 ) 0.16666666666666666, 0.16666666666666666, 0.16666666666666666, 0.16666666666666666, 0.16666666666666666, 0.16666666666666666;
    ( 0, 0, 1, 1, 1, 0, 1, 2, 1 ) 0.25, 0.0, 0.25, 0.5, 0.0, 0.0;
    ( 0, 0, 1, 1, 1, 0, 2, 0, 0 ) 0.0, 0.0, 0.0, 0.0, 0.0, 1.0;
    ( 0, 0, 1, 1, 1, 0, 2, 0, 1 ) 0.0, 0.16666666666666666, 0.16666666666666666, 0.3333333333333333, 0.3333333333333333, 0.0;
    ( 0, 0, 1, 1, 1, 0, 2, 1, 0 ) 0.16666666666666666, 0.16666666666666666, 0.16666666666666666, 0.16666666666666666, 0.16666666666666666, 0.16666666666666666;
    ( 0, 0, 1, 1, 1, 0, 2, 1, 1 ) 0.0, 0.0, 0.0, 1.0, 0.0, 0.0;
    ( 0, 0, 1, 1, 1, 0, 2, 2, 0 ) 0.0, 0.0, 0.0, 0.0, 0.5, 0.5;
    ( 0, 0, 1, 1, 1, 0, 2, 2, 1 ) 0.0, 0.0, 0.3333333333333333, 0.3333333333333333, 0.3333333333333333, 0.0;
    ( 0, 0, 1, 1, 1, 0, 3, 0, 0 ) 0.0, 0.0, 0.0, 0.5, 0.25, 0.25;
    ( 0, 0, 1, 1, 1, 0, 3, 0, 1 ) 0.0, 0.0, 0.3333333333333333, 0.6666666666666666, 0.0, 0.0;
    ( 0, 0, 1, 1, 1, 0, 3, 1, 0 ) 0.0, 0.0, 0.5, 0.0, 0.0, 0.5;
    ( 0, 0, 1, 1, 1, 0, 3, 1, 1 ) 0.16666666666666666, 0.16666666666666666, 0.16666666666666666, 0.16666666666666666, 0.16666666666666666, 0.16666666666666666;
    ( 0, 0, 1, 1, 1, 0, 3, 2, 0 ) 0.0, 0.0, 0.0, 1.0, 0.0, 0.0;
    ( 0, 0, 1, 1, 1, 0, 3, 2, 1 ) 0.0, 0.0, 0.0, 1.0, 0.0, 0.0;
    ( 0, 0, 1, 1, 1, 0, 4, 0, 0 ) 0.16666666666666666, 0.16666666666666666, 0.16666666666666666, 0.16666666666666666, 0.16666666666666666, 0.16666666666666666;
    ( 0, 0, 1, 1, 1, 0, 4, 0, 1 ) 0.16666666666666666, 0.16666666666666666, 0.16666666666666666, 0.16666666666666666, 0.16666666666666666, 0.16666666666666666;
    ( 0, 0, 1, 1, 1, 0, 4, 1, 0 ) 0.0, 0.0, 0.0, 0.0, 0.0, 1.0;
    ( 0, 0, 1, 1, 1, 0, 4, 1, 1 ) 0.16666666666666666, 0.16666666666666666, 0.16666666666666666, 0.16666666666666666, 0.16666666666666666, 0.16666666666666666;
    ( 0, 0, 1, 1, 1, 0, 4, 2, 0 ) 0.0, 0.0, 0.0, 0.0, 1.0, 0.0;
    ( 0, 0, 1, 1, 1, 0, 4, 2, 1 ) 0.16666666666666666, 0.16666666666666666, 0.16666666666666666, 0.16666666666666666, 0.16666666666666666, 0.16666666666666666;
    ( 0, 0, 1, 1, 1, 1, 1, 0, 0 ) 0.0, 0.0, 0.0, 1.0, 0.0, 0.0;
    ( 0, 0, 1, 1, 1, 1, 1, 0, 1 ) 0.0, 0.0, 0.09523809523809523, 0.42857142857142855, 0.47619047619047616, 0.0;
    ( 0, 0, 1, 1, 1, 1, 1, 1, 0 ) 0.0, 0.0, 0.0, 0.3333333333333333, 0.3333333333333333, 0.3333333333333333;
    ( 0, 0, 1, 1, 1, 1, 1, 1, 1 ) 0.0, 0.14285714285714285, 0.2857142857142857, 0.2857142857142857, 0.2857142857142857, 0.0;
    ( 0, 0, 1, 1, 1, 1, 1, 2, 0 ) 0.0, 0.0, 0.0, 0.5, 0.5, 0.0;
    ( 0, 0, 1, 1, 1, 1, 1, 2, 1 ) 0.0, 0.10526315789473684, 0.2631578947368421, 0.15789473684210525, 0.42105263157894735, 0.05263157894736842;
    ( 0, 0, 1, 1, 1, 1, 2, 0, 0 ) 0.0, 0.0, 0.16666666666666666, 0.0, 0.3333333333333333, 0.5;
    ( 0, 0, 1, 1, 1, 1, 2, 0, 1 ) 0.0, 0.0, 0.125, 0.5, 0.25, 0.125;
    ( 0, 0, 1, 1, 1, 1, 2, 1, 0 ) 0.0, 0.0, 0.0, 0.6666666666666666, 0.0, 0.3333333333333333;
    ( 0, 0, 1, 1, 1, 1, 2, 1, 1 ) 0.0, 0.0, 0.8333333333333334, 0.0, 0.16666666666666666, 0.0;
    ( 0, 0, 1, 1, 1, 1, 2, 2, 0 ) 0.0, 0.0, 0.0, 0.3333333333333333, 0.6666666666666666, 0.0;
    ( 0, 0, 1, 1, 1, 1, 2, 2, 1 ) 0.0, 0.0, 0.375, 0.125, 0.5, 0.0;
    ( 0, 0, 1, 1, 1, 1, 3, 0, 0 ) 0.0, 0.0, 0.0, 0.6, 0.2, 0.2;
    ( 0, 0, 1, 1, 1, 1, 3, 0, 1 ) 0.0, 0.0, 0.0, 0.6666666666666666, 0.16666666666666666, 0.16666666666666666;
    ( 0, 0, 1, 1, 1, 1, 3, 1, 0 ) 0.0, 0.0, 0.0, 0.0, 0.5, 0.5;
    ( 0, 0, 1, 1, 1, 1, 3, 1, 1 ) 0.0, 0.0, 0.0, 1.0, 0.0, 0.0;
    ( 0, 0, 1, 1, 1, 1, 3, 2, 0 ) 0.0, 0.0, 0.0, 0.0, 1.0, 0.0;
    ( 0, 0, 1, 1, 1, 1, 3, 2, 1 ) 0.0, 0.0, 0.0, 0.3333333333333333, 0.6666666666666666, 0.0;
    ( 0, 0, 1, 1, 1, 1, 4, 0, 0 ) 0.0, 0.0, 0.0, 0.5, 0.5, 0.0;
    ( 0, 0, 1, 1, 1, 1, 4, 0, 1 ) 0.0, 0.0, 0.5, 0.25, 0.25, 0.0;
    ( 0, 0, 1, 1, 1, 1, 4, 1, 0 ) 0.16666666666666666, 0.16666666666666666, 0.16666666666666666, 0.16666666666666666, 0.16666666666666666, 0.16666666666666666;
    ( 0, 0, 1, 1, 1, 1, 4, 1, 1 ) 0.16666666666666666, 0.16666666666666666, 0.16666666666666666, 0.16666666666666666, 0.16666666666666666, 0.16666666666666666;
    ( 0, 0, 1, 1, 1, 1, 4, 2, 0 ) 0.0, 0.0, 0.0, 1.0, 0.0, 0.0;
    ( 0, 0, 1, 1, 1, 1, 4, 2, 1 ) 0.0, 0.0, 0.0, 0.0, 1.0, 0.0;
    ( 0, 1, 0, 0, 0, 0, 1, 0, 0 ) 0.058823529411764705, 0.11764705882352941, 0.23529411764705882, 0.29411764705882354, 0.17647058823529413, 0.11764705882352941;
    ( 0, 1, 0, 0, 0, 0, 1, 0, 1 ) 0.0, 0.1, 0.4, 0.4, 0.1, 0.0;
    ( 0, 1, 0, 0, 0, 0, 1, 1, 0 ) 0.0, 0.0, 0.0, 1.0, 0.0, 0.0;
    ( 0, 1, 0, 0, 0, 0, 1, 1, 1 ) 0.0, 0.0, 0.5, 0.5, 0.0, 0.0;
    ( 0, 1, 0, 0, 0, 0, 1, 2, 0 ) 0.0, 0.0, 0.0, 0.0, 1.0, 0.0;
    ( 0, 1, 0, 0, 0, 0, 1, 2, 1 ) 0.14285714285714285, 0.2857142857142857, 0.14285714285714285, 0.2857142857142857, 0.14285714285714285, 0.0;
    ( 0, 1, 0, 0, 0, 0, 2, 0, 0 ) 0.11538461538461539, 0.11538461538461539, 0.15384615384615385, 0.2692307692307692, 0.15384615384615385, 0.19230769230769232;
    ( 0, 1, 0, 0, 0, 0, 2, 0, 1 ) 0.125, 0.25, 0.2916666666666667, 0.20833333333333334, 0.125, 0.0;
    ( 0, 1, 0, 0, 0, 0, 2, 1, 0 ) 0.16666666666666666, 0.16666666666666666, 0.16666666666666666, 0.16666666666666666, 0.16666666666666666, 0.16666666666666666;
    ( 0, 1, 0, 0, 0, 0, 2, 1, 1 ) 0.16666666666666666, 0.16666666666666666, 0.16666666666666666, 0.16666666666666666, 0.16666666666666666, 0.16666666666666666;
    ( 0, 1, 0, 0, 0, 0, 2, 2, 0 ) 0.0, 0.5, 0.0, 0.0, 0.5, 0.0;
    ( 0, 1, 0, 0, 0, 0, 2, 2, 1 ) 0.5, 0.0, 0.5, 0.0, 0.0, 0.0;
    ( 0, 1, 0, 0, 0, 0, 3, 0, 0 ) 0.045454545454545456, 0.13636363636363635, 0.18181818181818182, 0.4090909090909091, 0.13636363636363635, 0.09090909090909091;
    ( 0, 1, 0, 0, 0, 0, 3, 0, 1 ) 0.0, 0.2222222222222222, 0.4444444444444444, 0.2222222222222222, 0.1111111111111111, 0.0;
    ( 0, 1, 0, 0, 0, 0, 3, 1, 0 ) 0.0, 1.0, 0.0, 0.0, 0.0, 0.0;
    ( 0, 1, 0, 0, 0, 0, 3, 1, 1 ) 0.5, 0.0, 0.5, 0.0, 0.0, 0.0;
    ( 0, 1, 0, 0, 0, 0, 3, 2, 0 ) 0.0, 1.0, 0.0, 0.0, 0.0, 0.0;
    ( 0, 1, 0, 0, 0, 0, 3, 2, 1 ) 0.0, 1.0, 0.0, 0.0, 0.0, 0.0;
    ( 0, 1, 0, 0, 0, 0, 4, 0, 0 ) 0.0, 0.058823529411764705, 0.11764705882352941, 0.4117647058823529, 0.35294117647058826, 0.058823529411764705;
    ( 0, 1, 0, 0, 0, 0, 4, 0, 1 ) 0.0, 0.125, 0.25, 0.625, 0.0, 0.0;
    ( 0, 1, 0, 0, 0, 0, 4, 1, 0 ) 0.16666666666666666, 0.16666666666666666, 0.16666666666666666, 0.16666666666666666, 0.16666666666666666, 0.16666666666666666;
    ( 0, 1, 0, 0, 0, 0, 4, 1, 1 ) 0.16666666666666666, 0.16666666666666666, 0.16666666666666666, 0.16666666666666666, 0.16666666666666666, 0.16666666666666666;
    ( 0, 1, 0, 0, 0, 0, 4, 2, 0 ) 0.16666666666666666, 0.16666666666666666, 0.16666666666666666, 0.16666666666666666, 0.16666666666666666, 0.16666666666666666;
    ( 0, 1, 0, 0, 0, 0, 4, 2, 1 ) 0.3333333333333333, 0.3333333333333333, 0.0, 0.0, 0.3333333333333333, 0.0;
    ( 0, 1, 0, 0, 0, 1, 1, 0, 0 ) 0.1, 0.1, 0.2, 0.2, 0.3, 0.1;
    ( 0, 1, 0, 0, 0, 1, 1, 0, 1 ) 0.0, 0.08333333333333333, 0.3333333333333333, 0.4166666666666667, 0.16666666666666666, 0.0;
    ( 0, 1, 0, 0, 0, 1, 1, 1, 0 ) 0.3333333333333333, 0.0, 0.3333333333333333, 0.0, 0.3333333333333333, 0.0;
    ( 0, 1, 0, 0, 0, 1, 1, 1, 1 ) 0.0, 0.0, 1.0, 0.0, 0.0, 0.0;
    ( 0, 1, 0, 0, 0, 1, 1, 2, 0 ) 0.0, 0.0, 0.5, 0.5, 0.0, 0.0;
    ( 0, 1, 0, 0, 0, 1, 1, 2, 1 ) 0.16666666666666666, 0.16666666666666666, 0.16666666666666666, 0.16666666666666666, 0.16666666666666666, 0.16666666666666666;
    ( 0, 1, 0, 0, 0, 1, 2, 0, 0 ) 0.05, 0.05, 0.25, 0.4, 0.1, 0.15;
    ( 0, 1, 0, 0, 0, 1, 2, 0, 1 ) 0.08333333333333333, 0.0, 0.4166666666666667, 0.16666666666666666, 0.25, 0.08333333333333333;
    ( 0, 1, 0, 0, 0, 1, 2, 1, 0 ) 0.0, 0.3333333333333333, 0.3333333333333333, 0.3333333333333333, 0.0, 0.0;
    ( 0, 1, 0, 0, 0, 1, 2, 1, 1 ) 0.0, 0.0, 0.0, 0.5, 0.5, 0.0;
    ( 0, 1, 0, 0, 0, 1, 2, 2, 0 ) 0.0, 0.0, 1.0, 0.0, 0.0, 0.0;
    ( 0, 1, 0, 0, 0, 1, 2, 2, 1 ) 0.0, 0.0, 0.4, 0.4, 0.2, 0.0;
    ( 0, 1, 0, 0, 0, 1, 3, 0, 0 ) 0.0, 0.17647058823529413, 0.23529411764705882, 0.4117647058823529, 0.17647058823529413, 0.0;
    ( 0, 1, 0, 0, 0, 1, 3, 0, 1 ) 0.0, 0.125, 0.25, 0.375, 0.25, 0.0;
    ( 0, 1, 0, 0, 0, 1, 3, 1, 0 ) 0.16666666666666666, 0.16666666666666666, 0.16666666666666666, 0.16666666666666666, 0.16666666666666666, 0.16666666666666666;
    ( 0, 1, 0, 0, 0, 1, 3, 1, 1 ) 0.0, 0.0, 0.0, 1.0, 0.0, 0.0;
    ( 0, 1, 0, 0, 0, 1, 3, 2, 0 ) 0.0, 0.0, 0.0, 0.5, 0.5, 0.0;
    ( 0, 1, 0, 0, 0, 1, 3, 2, 1 ) 0.0, 0.3333333333333333, 0.3333333333333333, 0.3333333333333333, 0.0, 0.0;
    ( 0, 1, 0, 0, 0, 1, 4, 0, 0 ) 0.0, 0.2, 0.0, 0.5, 0.3, 0.0;
    ( 0, 1, 0, 0, 0, 1, 4, 0, 1 ) 0.0, 0.2222222222222222, 0.2222222222222222, 0.4444444444444444, 0.1111111111111111, 0.0;
    ( 0, 1, 0, 0, 0, 1, 4, 1, 0 ) 0.16666666666666666, 0.16666666666666666, 0.16666666666666666, 0.16666666666666666, 0.16666666666666666, 0.16666666666666666;
    ( 0, 1, 0, 0, 0, 1, 4, 1, 1 ) 0.0, 0.0, 1.0, 0.0, 0.0, 0.0;
    ( 0, 1, 0, 0, 0, 1, 4, 2, 0 ) 0.0, 0.0, 0.0, 0.0, 1.0, 0.0;
    ( 0, 1, 0, 0, 0, 1, 4, 2, 1 ) 0.16666666666666666, 0.16666666666666666, 0.16666666666666666, 0.16666666666666666, 0.16666666666666666, 0.16666666666666666;
    ( 0, 1, 0, 0, 1, 0, 1, 0, 0 ) 0.0, 0.0, 0.125, 0.4375, 0.375, 0.0625;
    ( 0, 1, 0, 0, 1, 0, 1, 0, 1 ) 0.0, 0.23529411764705882, 0.23529411764705882, 0.29411764705882354, 0.23529411764705882, 0.0;
    ( 0, 1, 0, 0, 1, 0, 1, 1, 0 ) 0.16666666666666666, 0.16666666666666666, 0.16666666666666666, 0.16666666666666666, 0.16666666666666666, 0.16666666666666666;
    ( 0, 1, 0, 0, 1, 0, 1, 1, 1 ) 0.0, 0.0, 0.0, 1.0, 0.0, 0.0;
    ( 0, 1, 0, 0, 1, 0, 1, 2, 0 ) 0.5, 0.5, 0.0, 0.0, 0.0, 0.0;
    ( 0, 1, 0, 0, 1, 0, 1, 2, 1 ) 0.0, 0.0, 0.4, 0.4, 0.2, 0.0;
    ( 0, 1, 0, 0, 1, 0, 2, 0, 0 ) 0.03333333333333333, 0.13333333333333333, 0.06666666666666667, 0.23333333333333334, 0.4, 0.13333333333333333;
    ( 0, 1, 0, 0, 1, 0, 2, 0, 1 ) 0.0, 0.15384615384615385, 0.15384615384615385, 0.5384615384615384, 0.15384615384615385, 0.0;
    ( 0, 1, 0, 0, 1, 0, 2, 1, 0 ) 0.0, 0.5, 0.5, 0.0, 0.0, 0.0;
    ( 0, 1, 0, 0, 1, 0, 2, 1, 1 ) 0.0, 0.0, 1.0, 0.0, 0.0, 0.0;
    ( 0, 1, 0, 0, 1, 0, 2, 2, 0 ) 0.0, 0.0, 0.0, 0.5, 0.5, 0.0;
    ( 0, 1, 0, 0, 1, 0, 2, 2, 1 ) 0.0, 0.0, 0.25, 0.75, 0.0, 0.0;
    ( 0, 1, 0, 0, 1, 0, 3, 0, 0 ) 0.0, 0.0, 0.24, 0.36, 0.36, 0.04;
    ( 0, 1, 0, 0, 1, 0, 3, 0, 1 ) 0.0, 0.0, 0.14285714285714285, 0.5, 0.2857142857142857, 0.07142857142857142;
    ( 0, 1, 0, 0, 1, 0, 3, 1, 0 ) 0.0, 0.0, 0.0, 0.0, 1.0, 0.0;
    ( 0, 1, 0, 0, 1, 0, 3, 1, 1 ) 0.16666666666666666, 0.16666666666666666, 0.16666666666666666, 0.16666666666666666, 0.16666666666666666, 0.16666666666666666;
    ( 0, 1, 0, 0, 1, 0, 3, 2, 0 ) 0.0, 0.0, 0.0, 0.0, 0.0, 1.0;
    ( 0, 1, 0, 0, 1, 0, 3, 2, 1 ) 0.0, 0.0, 0.0, 0.75, 0.25, 0.0;
    ( 0, 1, 0, 0, 1, 0, 4, 0, 0 ) 0.0, 0.037037037037037035, 0.14814814814814814, 0.37037037037037035, 0.4074074074074074, 0.037037037037037035;
    ( 0, 1, 0, 0, 1, 0, 4, 0, 1 ) 0.0, 0.2, 0.2, 0.4, 0.2, 0.0;
    ( 0, 1, 0, 0, 1, 0, 4, 1, 0 ) 0.16666666666666666, 0.16666666666666666, 0.16666666666666666, 0.16666666666666666, 0.16666666666666666, 0.16666666666666666;
    ( 0, 1, 0, 0, 1, 0, 4, 1, 1 ) 0.16666666666666666, 0.16666666666666666, 0.16666666666666666, 0.16666666666666666, 0.16666666666666666, 0.16666666666666666;
    ( 0, 1, 0, 0, 1, 0, 4, 2, 0 ) 0.0, 0.0, 0.0, 0.3333333333333333, 0.6666666666666666, 0.0;
    ( 0, 1, 0, 0, 1, 0, 4, 2, 1 ) 0.0, 0.0, 0.0, 1.0, 0.0, 0.0;
    ( 0, 1, 0, 0, 1, 1, 1, 0, 0 ) 0.03333333333333333, 0.06666666666666667, 0.1, 0.3333333333333333, 0.3333333333333333, 0.13333333333333333;
    ( 0, 1, 0, 0, 1, 1, 1, 0, 1 ) 0.0, 0.10526315789473684, 0.2631578947368421, 0.2631578947368421, 0.3684210526315789, 0.0;
    ( 0, 1, 0, 0, 1, 1, 1, 1, 0 ) 0.0, 0.0, 0.0, 1.0, 0.0, 0.0;
    ( 0, 1, 0, 0, 1, 1, 1, 1, 1 ) 0.0, 0.4, 0.2, 0.2, 0.2, 0.0;
    ( 0, 1, 0, 0, 1, 1, 1, 2, 0 ) 0.0, 0.0, 0.0, 0.5, 0.5, 0.0;
    ( 0, 1, 0, 0, 1, 1, 1, 2, 1 ) 0.0, 0.14285714285714285, 0.35714285714285715, 0.21428571428571427, 0.21428571428571427, 0.07142857142857142;
    ( 0, 1, 0, 0, 1, 1, 2, 0, 0 ) 0.0196078431372549, 0.0, 0.13725490196078433, 0.39215686274509803, 0.39215686274509803, 0.058823529411764705;
    ( 0, 1, 0, 0, 1, 1, 2, 0, 1 ) 0.03225806451612903, 0.06451612903225806, 0.25806451612903225, 0.5161290322580645, 0.12903225806451613, 0.0;
    ( 0, 1, 0, 0, 1, 1, 2, 1, 0 ) 0.0, 0.0, 0.0, 0.25, 0.5, 0.25;
    ( 0, 1, 0, 0, 1, 1, 2, 1, 1 ) 0.0, 0.0, 0.5555555555555556, 0.3333333333333333, 0.1111111111111111, 0.0;
    ( 0, 1, 0, 0, 1, 1, 2, 2, 0 ) 0.0, 0.0, 0.0, 0.6666666666666666, 0.3333333333333333, 0.0;
    ( 0, 1, 0, 0, 1, 1, 2, 2, 1 ) 0.0, 0.25, 0.25, 0.25, 0.25, 0.0;
    ( 0, 1, 0, 0, 1, 1, 3, 0, 0 ) 0.0, 0.0, 0.08928571428571429, 0.23214285714285715, 0.5, 0.17857142857142858;
    ( 0, 1, 0, 0, 1, 1, 3, 0, 1 ) 0.0, 0.06666666666666667, 0.26666666666666666, 0.3333333333333333, 0.3333333333333333, 0.0;
    ( 0, 1, 0, 0, 1, 1, 3, 1, 0 ) 0.0, 0.0, 0.0, 0.6666666666666666, 0.3333333333333333, 0.0;
    ( 0, 1, 0, 0, 1, 1, 3, 1, 1 ) 0.0, 0.25, 0.25, 0.25, 0.25, 0.0;
    ( 0, 1, 0, 0, 1, 1, 3, 2, 0 ) 0.0, 0.0, 0.0, 0.3333333333333333, 0.6666666666666666, 0.0;
    ( 0, 1, 0, 0, 1, 1, 3, 2, 1 ) 0.0, 0.5, 0.25, 0.25, 0.0, 0.0;
    ( 0, 1, 0, 0, 1, 1, 4, 0, 0 ) 0.0, 0.017543859649122806, 0.17543859649122806, 0.3333333333333333, 0.38596491228070173, 0.08771929824561403;
    ( 0, 1, 0, 0, 1, 1, 4, 0, 1 ) 0.0, 0.0, 0.25, 0.25, 0.5, 0.0;
    ( 0, 1, 0, 0, 1, 1, 4, 1, 0 ) 0.0, 0.0, 0.5, 0.5, 0.0, 0.0;
    ( 0, 1, 0, 0, 1, 1, 4, 1, 1 ) 0.16666666666666666, 0.16666666666666666, 0.16666666666666666, 0.16666666666666666, 0.16666666666666666, 0.16666666666666666;
    ( 0, 1, 0, 0, 1, 1, 4, 2, 0 ) 0.0, 0.0, 0.0, 1.0, 0.0, 0.0;
    ( 0, 1, 0, 0, 1, 1, 4, 2, 1 ) 0.16666666666666666, 0.16666666666666666, 0.16666666666666666, 0.16666666666666666, 0.16666666666666666, 0.16666666666666666;
    ( 0, 1, 0, 1, 0, 0, 1, 0, 0 ) 0.0, 0.0, 1.0, 0.0, 0.0, 0.0;
    ( 0, 1, 0, 1, 0, 0, 1, 0, 1 ) 0.16666666666666666, 0.16666666666666666, 0.16666666666666666, 0.16666666666666666, 0.16666666666666666, 0.16666666666666666;
    ( 0, 1, 0, 1, 0, 0, 1, 1, 0 ) 0.16666666666666666, 0.16666666666666666, 0.16666666666666666, 0.16666666666666666, 0.16666666666666666, 0.16666666666666666;
    ( 0, 1, 0, 1, 0, 0, 1, 1, 1 ) 0.16666666666666666, 0.16666666666666666, 0.16666666666666666, 0.16666666666666666, 0.16666666666666666, 0.16666666666666666;
    ( 0, 1, 0, 1, 0, 0, 1, 2, 0 ) 0.16666666666666666, 0.16666666666666666, 0.16666666666666666, 0.16666666666666666, 0.16666666666666666, 0.16666666666666666;
    ( 0, 1, 0, 1, 0, 0, 1, 2, 1 ) 0.16666666666666666, 0.16666666666666666, 0.16666666666666666, 0.16666666666666666, 0.16666666666666666, 0.16666666666666666;
    ( 0, 1, 0, 1, 0, 0, 2, 0, 0 ) 0.0, 0.0, 0.6666666666666666, 0.0, 0.0, 0.3333333333333333;
    ( 0, 1, 0, 1, 0, 0, 2, 0, 1 ) 0.16666666666666666, 0.16666666666666666, 0.16666666666666666, 0.16666666666666666, 0.16666666666666666, 0.16666666666666666;
    ( 0, 1, 0, 1, 0, 0, 2, 1, 0 ) 0.0, 0.0, 0.0, 0.0, 1.0, 0.0;
    ( 0, 1, 0, 1, 0, 0, 2, 1, 1 ) 0.16666666666666666, 0.16666666666666666, 0.16666666666666666, 0.16666666666666666, 0.16666666666666666, 0.16666666666666666;
    ( 0, 1, 0, 1, 0, 0, 2, 2, 0 ) 0.16666666666666666, 0.16666666666666666, 0.16666666666666666, 0.16666666666666666, 0.16666666666666666, 0.16666666666666666;
    ( 0, 1, 0, 1, 0, 0, 2, 2, 1 ) 0.16666666666666666, 0.16666666666666666, 0.16666666666666666, 0.16666666666666666, 0.16666666666666666, 0.16666666666666666;
    ( 0, 1, 0, 1, 0, 0, 3, 0, 0 ) 0.16666666666666666, 0.16666666666666666, 0.16666666666666666, 0.16666666666666666, 0.16666666666666666, 0.16666666666666666;
    ( 0, 1, 0, 1, 0, 0, 3, 0, 1 ) 0.0, 0.0, 1.0, 0.0, 0.0, 0.0;
    ( 0, 1, 0, 1, 0, 0, 3, 1, 0 ) 0.16666666666666666, 0.16666666666666666, 0.16666666666666666, 0.16666666666666666, 0.16666666666666666, 0.16666666666666666;
    ( 0, 1, 0, 1, 0, 0, 3, 1, 1 ) 0.16666666666666666, 0.16666666666666666, 0.16666666666666666, 0.16666666666666666, 0.16666666666666666, 0.16666666666666666;
    ( 0, 1, 0, 1, 0, 0, 3, 2, 0 ) 0.16666666666666666, 0.16666666666666666, 0.16666666666666666, 0.16666666666666666, 0.16666666666666666, 0.16666666666666666;
    ( 0, 1, 0, 1, 0, 0, 3, 2, 1 ) 0.16666666666666666, 0.16666666666666666, 0.16666666666666666, 0.16666666666666666, 0.16666666666666666, 0.16666666666666666;
    ( 0, 1, 0, 1, 0, 0, 4, 0, 0 ) 0.16666666666666666, 0.16666666666666666, 0.16666666666666666, 0.16666666666666666, 0.16666666666666666, 0.16666666666666666;
    ( 0, 1, 0, 1, 0, 0, 4, 0, 1 ) 0.16666666666666666, 0.16666666666666666, 0.16666666666666666, 0.16666666666666666, 0.16666666666666666, 0.16666666666666666;
    ( 0, 1, 0, 1, 0, 0, 4, 1, 0 ) 0.16666666666666666, 0.16666666666666666, 0.16666666666666666, 0.16666666666666666, 0.16666666666666666, 0.16666666666666666;
    ( 0, 1, 0, 1, 0, 0, 4, 1, 1 ) 0.16666666666666666, 0.16666666666666666, 0.16666666666666666, 0.16666666666666666, 0.16666666666666666, 0.16666666666666666;
    ( 0, 1, 0, 1, 0, 0, 4, 2, 0 ) 0.16666666666666666, 0.16666666666666666, 0.16666666666666666, 0.16666666666666666, 0.16666666666666666, 0.16666666666666666;
    ( 0, 1, 0, 1, 0, 0, 4, 2, 1 ) 0.16666666666666666, 0.16666666666666666, 0.16666666666666666, 0.16666666666666666, 0.16666666666666666, 0.16666666666666666;
    ( 0, 1, 0, 1, 0, 1, 1, 0, 0 ) 0.0, 0.0, 0.0, 1.0, 0.0, 0.0;
    ( 0, 1, 0, 1, 0, 1, 1, 0, 1 ) 0.0, 1.0, 0.0, 0.0, 0.0, 0.0;
    ( 0, 1, 0, 1, 0, 1, 1, 1, 0 ) 0.16666666666666666, 0.16666666666666666, 0.16666666666666666, 0.16666666666666666, 0.16666666666666666, 0.16666666666666666;
    ( 0, 1, 0, 1, 0, 1, 1, 1, 1 ) 0.0, 0.0, 0.0, 1.0, 0.0, 0.0;
    ( 0, 1, 0, 1, 0, 1, 1, 2, 0 ) 0.16666666666666666, 0.16666666666666666, 0.16666666666666666, 0.16666666666666666, 0.16666666666666666, 0.16666666666666666;
    ( 0, 1, 0, 1, 0, 1, 1, 2, 1 ) 0.16666666666666666, 0.16666666666666666, 0.16666666666666666, 0.16666666666666666, 0.16666666666666666, 0.16666666666666666;
    ( 0, 1, 0, 1, 0, 1, 2, 0, 0 ) 0.0, 0.0, 0.0, 0.3333333333333333, 0.3333333333333333, 0.3333333333333333;
    ( 0, 1, 0, 1, 0, 1, 2, 0, 1 ) 0.0, 0.0, 0.0, 1.0, 0.0, 0.0;
    ( 0, 1, 0, 1, 0, 1, 2, 1, 0 ) 0.16666666666666666, 0.16666666666666666, 0.16666666666666666, 0.16666666666666666, 0.16666666666666666, 0.16666666666666666;
    ( 0, 1, 0, 1, 0, 1, 2, 1, 1 ) 0.16666666666666666, 0.16666666666666666, 0.16666666666666666, 0.16666666666666666, 0.16666666666666666, 0.16666666666666666;
    ( 0, 1, 0, 1, 0, 1, 2, 2, 0 ) 0.16666666666666666, 0.16666666666666666, 0.16666666666666666, 0.16666666666666666, 0.16666666666666666, 0.16666666666666666;
    ( 0, 1, 0, 1, 0, 1, 2, 2, 1 ) 0.16666666666666666, 0.16666666666666666, 0.16666666666666666, 0.16666666666666666, 0.16666666666666666, 0.16666666666666666;
    ( 0, 1, 0, 1, 0, 1, 3, 0, 0 ) 0.0, 0.0, 0.0, 0.0, 0.5, 0.5;
    ( 0, 1, 0, 1, 0, 1, 3, 0, 1 ) 0.0, 1.0, 0.0, 0.0, 0.0, 0.0;
    ( 0, 1, 0, 1, 0, 1, 3, 1, 0 ) 0.0, 0.0, 1.0, 0.0, 0.0, 0.0;
    ( 0, 1, 0, 1, 0, 1, 3, 1, 1 ) 0.16666666666666666, 0.16666666666666666, 0.16666666666666666, 0.16666666666666666, 0.16666666666666666, 0.16666666666666666;
    ( 0, 1, 0, 1, 0, 1, 3, 2, 0 ) 0.0, 0.0, 0.0, 0.0, 1.0, 0.0;
    ( 0, 1, 0, 1, 0, 1, 3, 2, 1 ) 0.16666666666666666, 0.16666666666666666, 0.16666666666666666, 0.16666666666666666, 0.16666666666666666, 0.16666666666666666;
    ( 0, 1, 0, 1, 0, 1, 4, 0, 0 ) 0.0, 0.0, 0.0, 0.0, 0.5, 0.5;
    ( 0, 1, 0, 1, 0, 1, 4, 0, 1 ) 0.16666666666666666, 0.16666666666666666, 0.16666666666666666, 0.16666666666666666, 0.16666666666666666, 0.16666666666666666;
    ( 0, 1, 0, 1, 0, 1, 4, 1, 0 ) 0.16666666666666666, 0.16666666666666666, 0.16666666666666666, 0.16666666666666666, 0.16666666666666666, 0.16666666666666666;
    ( 0, 1, 0, 1, 0, 1, 4, 1, 1 ) 0.16666666666666666, 0.16666666666666666, 0.16666666666666666, 0.16666666666666666, 0.16666666666666666, 0.16666666666666666;
    ( 0, 1, 0, 1, 0, 1, 4, 2, 0 ) 0.16666666666666666, 0.16666666666666666, 0.16666666666666666, 0.16666666666666666, 0.16666666666666666, 0.16666666666666666;
    ( 0, 1, 0, 1, 0, 1, 4, 2, 1 ) 0.16666666666666666, 0.16666666666666666, 0.16666666666666666, 0.16666666666666666, 0.16666666666666666, 0.16666666666666666;
    ( 0, 1, 0, 1, 1, 0, 1, 0, 0 ) 0.0, 0.0, 0.0, 0.5, 0.25, 0.25;
    ( 0, 1, 0, 1, 1, 0, 1, 0, 1 ) 0.16666666666666666, 0.16666666666666666, 0.16666666666666666, 0.16666666666666666, 0.16666666666666666, 0.16666666666666666;
    ( 0, 1, 0, 1, 1, 0, 1, 1, 0 ) 0.16666666666666666, 0.16666666666666666, 0.16666666666666666, 0.16666666666666666, 0.16666666666666666, 0.16666666666666666;
    ( 0, 1, 0, 1, 1, 0, 1, 1, 1 ) 0.16666666666666666, 0.16666666666666666, 0.16666666666666666, 0.16666666666666666, 0.16666666666666666, 0.16666666666666666;
    ( 0, 1, 0, 1, 1, 0, 1, 2, 0 ) 0.0, 0.0, 1.0, 0.0, 0.0, 0.0;
    ( 0, 1, 0, 1, 1, 0, 1, 2, 1 ) 0.16666666666666666, 0.16666666666666666, 0.16666666666666666, 0.16666666666666666, 0.16666666666666666, 0.16666666666666666;
    ( 0, 1, 0, 1, 1, 0, 2, 0, 0 ) 0.0, 0.16666666666666666, 0.0, 0.5, 0.16666666666666666, 0.16666666666666666;
    ( 0, 1, 0, 1, 1, 0, 2, 0, 1 ) 0.0, 0.0, 1.0, 0.0, 0.0, 0.0;
    ( 0, 1, 0, 1, 1, 0, 2, 1, 0 ) 0.16666666666666666, 0.16666666666666666, 0.16666666666666666, 0.16666666666666666, 0.16666666666666666, 0.16666666666666666;
    ( 0, 1, 0, 1, 1, 0, 2, 1, 1 ) 0.16666666666666666, 0.16666666666666666, 0.16666666666666666, 0.16666666666666666, 0.16666666666666666, 0.16666666666666666;
    ( 0, 1, 0, 1, 1, 0, 2, 2, 0 ) 0.0, 0.0, 0.0, 0.0, 1.0, 0.0;
    ( 0, 1, 0, 1, 1, 0, 2, 2, 1 ) 0.16666666666666666, 0.16666666666666666, 0.16666666666666666, 0.16666666666666666, 0.16666666666666666, 0.16666666666666666;
    ( 0, 1, 0, 1, 1, 0, 3, 0, 0 ) 0.0, 0.0, 0.0, 0.0, 1.0, 0.0;
    ( 0, 1, 0, 1, 1, 0, 3, 0, 1 ) 0.0, 0.0, 0.0, 0.5, 0.25, 0.25;
    ( 0, 1, 0, 1, 1, 0, 3, 1, 0 ) 0.16666666666666666, 0.16666666666666666, 0.16666666666666666, 0.16666666666666666, 0.16666666666666666, 0.16666666666666666;
    ( 0, 1, 0, 1, 1, 0, 3, 1, 1 ) 0.0, 0.0, 1.0, 0.0, 0.0, 0.0;
    ( 0, 1, 0, 1, 1, 0, 3, 2, 0 ) 0.16666666666666666, 0.16666666666666666, 0.16666666666666666, 0.16666666666666666, 0.16666666666666666, 0.16666666666666666;
    ( 0, 1, 0, 1, 1, 0, 3, 2, 1 ) 0.16666666666666666, 0.16666666666666666, 0.16666666666666666, 0.16666666666666666, 0.16666666666666666, 0.16666666666666666;
    ( 0, 1, 0, 1, 1, 0, 4, 0, 0 ) 0.0, 0.0, 0.25, 0.5, 0.0, 0.25;
    ( 0, 1, 0, 1, 1, 0, 4, 0, 1 ) 0.0, 0.0, 0.0, 1.0, 0.0, 0.0;
    ( 0, 1, 0, 1, 1, 0, 4, 1, 0 ) 0.16666666666666666, 0.16666666666666666, 0.16666666666666666, 0.16666666666666666, 0.16666666666666666, 0.16666666666666666;
    ( 0, 1, 0, 1, 1, 0, 4, 1, 1 ) 0.16666666666666666, 0.16666666666666666, 0.16666666666666666, 0.16666666666666666, 0.16666666666666666, 0.16666666666666666;
    ( 0, 1, 0, 1, 1, 0, 4, 2, 0 ) 0.16666666666666666, 0.16666666666666666, 0.16666666666666666, 0.16666666666666666, 0.16666666666666666, 0.16666666666666666;
    ( 0, 1, 0, 1, 1, 0, 4, 2, 1 ) 0.16666666666666666, 0.16666666666666666, 0.16666666666666666, 0.16666666666666666, 0.16666666666666666, 0.16666666666666666;
    ( 0, 1, 0, 1, 1, 1, 1, 0, 0 ) 0.0, 0.0, 0.0, 0.6666666666666666, 0.3333333333333333, 0.0;
    ( 0, 1, 0, 1, 1, 1, 1, 0, 1 ) 0.0, 0.0, 0.0, 0.0, 1.0, 0.0;
    ( 0, 1, 0, 1, 1, 1, 1, 1, 0 ) 0.0, 0.0, 0.0, 0.0, 0.0, 1.0;
    ( 0, 1, 0, 1, 1, 1, 1, 1, 1 ) 0.0, 0.0, 0.0, 0.5, 0.5, 0.0;
    ( 0, 1, 0, 1, 1, 1, 1, 2, 0 ) 0.0, 0.0, 0.0, 0.5, 0.0, 0.5;
    ( 0, 1, 0, 1, 1, 1, 1, 2, 1 ) 0.0, 0.0, 0.0, 1.0, 0.0, 0.0;
    ( 0, 1, 0, 1, 1, 1, 2, 0, 0 ) 0.0, 0.0, 0.1111111111111111, 0.2222222222222222, 0.3333333333333333, 0.3333333333333333;
    ( 0, 1, 0, 1, 1, 1, 2, 0, 1 ) 0.0, 0.0, 0.2857142857142857, 0.42857142857142855, 0.2857142857142857, 0.0;
    ( 0, 1, 0, 1, 1, 1, 2, 1, 0 ) 0.16666666666666666, 0.16666666666666666, 0.16666666666666666, 0.16666666666666666, 0.16666666666666666, 0.16666666666666666;
    ( 0, 1, 0, 1, 1, 1, 2, 1, 1 ) 0.0, 0.0, 0.5, 0.5, 0.0, 0.0;
    ( 0, 1, 0, 1, 1, 1, 2, 2, 0 ) 0.0, 0.0, 0.0, 0.4, 0.4, 0.2;
    ( 0, 1, 0, 1, 1, 1, 2, 2, 1 ) 0.0, 0.0, 0.0, 0.6666666666666666, 0.3333333333333333, 0.0;
    ( 0, 1, 0, 1, 1, 1, 3, 0, 0 ) 0.0, 0.0, 0.15384615384615385, 0.3076923076923077, 0.38461538461538464, 0.15384615384615385;
    ( 0, 1, 0, 1, 1, 1, 3, 0, 1 ) 0.16666666666666666, 0.16666666666666666, 0.16666666666666666, 0.16666666666666666, 0.16666666666666666, 0.16666666666666666;
    ( 0, 1, 0, 1, 1, 1, 3, 1, 0 ) 0.16666666666666666, 0.16666666666666666, 0.16666666666666666, 0.16666666666666666, 0.16666666666666666, 0.16666666666666666;
    ( 0, 1, 0, 1, 1, 1, 3, 1, 1 ) 0.0, 0.0, 0.0, 1.0, 0.0, 0.0;
    ( 0, 1, 0, 1, 1, 1, 3, 2, 0 ) 0.0, 0.0, 0.0, 0.0, 1.0, 0.0;
    ( 0, 1, 0, 1, 1, 1, 3, 2, 1 ) 0.0, 0.0, 0.0, 1.0, 0.0, 0.0;
    ( 0, 1, 0, 1, 1, 1, 4, 0, 0 ) 0.1, 0.0, 0.1, 0.6, 0.2, 0.0;
    ( 0, 1, 0, 1, 1, 1, 4, 0, 1 ) 0.16666666666666666, 0.16666666666666666, 0.16666666666666666, 0.16666666666666666, 0.16666666666666666, 0.16666666666666666;
    ( 0, 1, 0, 1, 1, 1, 4, 1, 0 ) 0.16666666666666666, 0.16666666666666666, 0.16666666666666666, 0.16666666666666666, 0.16666666666666666, 0.16666666666666666;
    ( 0, 1, 0, 1, 1, 1, 4, 1, 1 ) 0.16666666666666666, 0.16666666666666666, 0.16666666666666666, 0.16666666666666666, 0.16666666666666666, 0.16666666666666666;
    ( 0, 1, 0, 1, 1, 1, 4, 2, 0 ) 0.0, 0.0, 0.0, 0.0, 0.5, 0.5;
    ( 0, 1, 0, 1, 1, 1, 4, 2, 1 ) 0.16666666666666666, 0.16666666666666666, 0.16666666666666666, 0.16666666666666666, 0.16666666666666666, 0.16666666666666666;
    ( 0, 1, 1, 0, 0, 0, 1, 0, 0 ) 0.0, 0.0, 0.0, 0.0, 0.3333333333333333, 0.6666666666666666;
    ( 0, 1, 1, 0, 0, 0, 1, 0, 1 ) 0.5, 0.5, 0.0, 0.0, 0.0, 0.0;
    ( 0, 1, 1, 0, 0, 0, 1, 1, 0 ) 0.16666666666666666, 0.16666666666666666, 0.16666666666666666, 0.16666666666666666, 0.16666666666666666, 0.16666666666666666;
    ( 0, 1, 1, 0, 0, 0, 1, 1, 1 ) 0.0, 0.0, 1.0, 0.0, 0.0, 0.0;
    ( 0, 1, 1, 0, 0, 0, 1, 2, 0 ) 0.16666666666666666, 0.16666666666666666, 0.16666666666666666, 0.16666666666666666, 0.16666666666666666, 0.16666666666666666;
    ( 0, 1, 1, 0, 0, 0, 1, 2, 1 ) 0.3333333333333333, 0.0, 0.3333333333333333, 0.3333333333333333, 0.0, 0.0;
    ( 0, 1, 1, 0, 0, 0, 2, 0, 0 ) 0.0, 0.2, 0.0, 0.2, 0.4, 0.2;
    ( 0, 1, 1, 0, 0, 0, 2, 0, 1 ) 0.3333333333333333, 0.0, 0.0, 0.0, 0.6666666666666666, 0.0;
    ( 0, 1, 1, 0, 0, 0, 2, 1, 0 ) 0.16666666666666666, 0.16666666666666666, 0.16666666666666666, 0.16666666666666666, 0.16666666666666666, 0.16666666666666666;
    ( 0, 1, 1, 0, 0, 0, 2, 1, 1 ) 0.0, 0.0, 1.0, 0.0, 0.0, 0.0;
    ( 0, 1, 1, 0, 0, 0, 2, 2, 0 ) 0.16666666666666666, 0.16666666666666666, 0.16666666666666666, 0.16666666666666666, 0.16666666666666666, 0.16666666666666666;
    ( 0, 1, 1, 0, 0, 0, 2, 2, 1 ) 0.0, 0.0, 0.0, 0.0, 1.0, 0.0;
    ( 0, 1, 1, 0, 0, 0, 3, 0, 0 ) 0.0, 0.0, 0.0, 0.3333333333333333, 0.3333333333333333, 0.3333333333333333;
    ( 0, 1, 1, 0, 0, 0, 3, 0, 1 ) 0.0, 0.5, 0.0, 0.0, 0.0, 0.5;
    ( 0, 1, 1, 0, 0, 0, 3, 1, 0 ) 0.16666666666666666, 0.16666666666666666, 0.16666666666666666, 0.16666666666666666, 0.16666666666666666, 0.16666666666666666;
    ( 0, 1, 1, 0, 0, 0, 3, 1, 1 ) 0.0, 0.0, 1.0, 0.0, 0.0, 0.0;
    ( 0, 1, 1, 0, 0, 0, 3, 2, 0 ) 0.16666666666666666, 0.16666666666666666, 0.16666666666666666, 0.16666666666666666, 0.16666666666666666, 0.16666666666666666;
    ( 0, 1, 1, 0, 0, 0, 3, 2, 1 ) 0.0, 0.3333333333333333, 0.3333333333333333, 0.3333333333333333, 0.0, 0.0;
    ( 0, 1, 1, 0, 0, 0, 4, 0, 0 ) 0.16666666666666666, 0.16666666666666666, 0.16666666666666666, 0.16666666666666666, 0.16666666666666666, 0.16666666666666666;
    ( 0, 1, 1, 0, 0, 0, 4, 0, 1 ) 0.16666666666666666, 0.16666666666666666, 0.16666666666666666, 0.16666666666666666, 0.16666666666666666, 0.16666666666666666;
    ( 0, 1, 1, 0, 0, 0, 4, 1, 0 ) 0.16666666666666666, 0.16666666666666666, 0.16666666666666666, 0.16666666666666666, 0.16666666666666666, 0.16666666666666666;
    ( 0, 1, 1, 0, 0, 0, 4, 1, 1 ) 0.16666666666666666, 0.16666666666666666, 0.16666666666666666, 0.16666666666666666, 0.16666666666666666, 0.16666666666666666;
    ( 0, 1, 1, 0, 0, 0, 4, 2, 0 ) 0.16666666666666666, 0.16666666666666666, 0.16666666666666666, 0.16666666666666666, 0.16666666666666666, 0.16666666666666666;
    ( 0, 1, 1, 0, 0, 0, 4, 2, 1 ) 0.0, 0.0, 0.0, 0.0, 1.0, 0.0;
    ( 0, 1, 1, 0, 0, 1, 1, 0, 0 ) 0.0, 0.5, 0.0, 0.0, 0.5, 0.0;
    ( 0, 1, 1, 0, 0, 1, 1, 0, 1 ) 0.0, 0.0, 0.0, 0.6, 0.4, 0.0;
    ( 0, 1, 1, 0, 0, 1, 1, 1, 0 ) 0.0, 0.0, 0.0, 1.0, 0.0, 0.0;
    ( 0, 1, 1, 0, 0, 1, 1, 1, 1 ) 0.0, 0.0, 0.3333333333333333, 0.3333333333333333, 0.3333333333333333, 0.0;
    ( 0, 1, 1, 0, 0, 1, 1, 2, 0 ) 0.0, 0.0, 0.0, 1.0, 0.0, 0.0;
    ( 0, 1, 1, 0, 0, 1, 1, 2, 1 ) 0.0, 0.0, 0.2857142857142857, 0.5714285714285714, 0.14285714285714285, 0.0;
    ( 0, 1, 1, 0, 0, 1, 2, 0, 0 ) 0.0, 0.0, 0.16666666666666666, 0.6666666666666666, 0.16666666666666666, 0.0;
    ( 0, 1, 1, 0, 0, 1, 2, 0, 1 ) 0.0, 0.0, 0.0, 0.5, 0.5, 0.0;
    ( 0, 1, 1, 0, 0, 1, 2, 1, 0 ) 0.0, 0.0, 0.0, 1.0, 0.0, 0.0;
    ( 0, 1, 1, 0, 0, 1, 2, 1, 1 ) 0.0, 0.2, 0.0, 0.6, 0.2, 0.0;
    ( 0, 1, 1, 0, 0, 1, 2, 2, 0 ) 0.16666666666666666, 0.16666666666666666, 0.16666666666666666, 0.16666666666666666, 0.16666666666666666, 0.16666666666666666;
    ( 0, 1, 1, 0, 0, 1, 2, 2, 1 ) 0.0, 0.0, 0.5, 0.0, 0.5, 0.0;
    ( 0, 1, 1, 0, 0, 1, 3, 0, 0 ) 0.0, 0.0, 0.0, 0.0, 1.0, 0.0;
    ( 0, 1, 1, 0, 0, 1, 3, 0, 1 ) 0.0, 0.0, 0.0, 0.0, 1.0, 0.0;
    ( 0, 1, 1, 0, 0, 1, 3, 1, 0 ) 0.0, 0.0, 0.0, 0.0, 0.0, 1.0;
    ( 0, 1, 1, 0, 0, 1, 3, 1, 1 ) 0.0, 0.0, 1.0, 0.0, 0.0, 0.0;
    ( 0, 1, 1, 0, 0, 1, 3, 2, 0 ) 0.0, 0.0, 0.0, 1.0, 0.0, 0.0;
    ( 0, 1, 1, 0, 0, 1, 3, 2, 1 ) 0.0, 0.0, 0.5, 0.0, 0.5, 0.0;
    ( 0, 1, 1, 0, 0, 1, 4, 0, 0 ) 0.0, 0.0, 0.0, 0.0, 1.0, 0.0;
    ( 0, 1, 1, 0, 0, 1, 4, 0, 1 ) 0.0, 0.0, 0.0, 0.0, 1.0, 0.0;
    ( 0, 1, 1, 0, 0, 1, 4, 1, 0 ) 0.16666666666666666, 0.16666666666666666, 0.16666666666666666, 0.16666666666666666, 0.16666666666666666, 0.16666666666666666;
    ( 0, 1, 1, 0, 0, 1, 4, 1, 1 ) 0.16666666666666666, 0.16666666666666666, 0.16666666666666666, 0.16666666666666666, 0.16666666666666666, 0.16666666666666666;
    ( 0, 1, 1, 0, 0, 1, 4, 2, 0 ) 0.16666666666666666, 0.16666666666666666, 0.16666666666666666, 0.16666666666666666, 0.16666666666666666, 0.16666666666666666;
    ( 0, 1, 1, 0, 0, 1, 4, 2, 1 ) 0.0, 0.0, 0.0, 0.0, 1.0, 0.0;
    ( 0, 1, 1, 0, 1, 0, 1, 0, 0 ) 0.0, 0.0, 0.0, 0.75, 0.125, 0.125;
    ( 0, 1, 1, 0, 1, 0, 1, 0, 1 ) 0.0, 0.0, 0.16666666666666666, 0.6666666666666666, 0.16666666666666666, 0.0;
    ( 0, 1, 1, 0, 1, 0, 1, 1, 0 ) 0.16666666666666666, 0.16666666666666666, 0.16666666666666666, 0.16666666666666666, 0.16666666666666666, 0.16666666666666666;
    ( 0, 1, 1, 0, 1, 0, 1, 1, 1 ) 0.0, 0.0, 0.3333333333333333, 0.3333333333333333, 0.3333333333333333, 0.0;
    ( 0, 1, 1, 0, 1, 0, 1, 2, 0 ) 0.0, 0.0, 0.0, 1.0, 0.0, 0.0;
    ( 0, 1, 1, 0, 1, 0, 1, 2, 1 ) 0.2, 0.0, 0.2, 0.2, 0.4, 0.0;
    ( 0, 1, 1, 0, 1, 0, 2, 0, 0 ) 0.0, 0.0, 0.0, 0.2727272727272727, 0.6363636363636364, 0.09090909090909091;
    ( 0, 1, 1, 0, 1, 0, 2, 0, 1 ) 0.0, 0.0, 0.0, 0.8, 0.2, 0.0;
    ( 0, 1, 1, 0, 1, 0, 2, 1, 0 ) 0.16666666666666666, 0.16666666666666666, 0.16666666666666666, 0.16666666666666666, 0.16666666666666666, 0.16666666666666666;
    ( 0, 1, 1, 0, 1, 0, 2, 1, 1 ) 0.0, 0.0, 0.0, 0.6666666666666666, 0.3333333333333333, 0.0;
    ( 0, 1, 1, 0, 1, 0, 2, 2, 0 ) 0.0, 0.0, 0.0, 1.0, 0.0, 0.0;
    ( 0, 1, 1, 0, 1, 0, 2, 2, 1 ) 0.3333333333333333, 0.0, 0.3333333333333333, 0.3333333333333333, 0.0, 0.0;
    ( 0, 1, 1, 0, 1, 0, 3, 0, 0 ) 0.0, 0.0, 0.0, 0.16666666666666666, 0.3333333333333333, 0.5;
    ( 0, 1, 1, 0, 1, 0, 3, 0, 1 ) 0.0, 0.0, 0.0, 1.0, 0.0, 0.0;
    ( 0, 1, 1, 0, 1, 0, 3, 1, 0 ) 0.16666666666666666, 0.16666666666666666, 0.16666666666666666, 0.16666666666666666, 0.16666666666666666, 0.16666666666666666;
    ( 0, 1, 1, 0, 1, 0, 3, 1, 1 ) 0.0, 0.0, 0.5, 0.5, 0.0, 0.0;
    ( 0, 1, 1, 0, 1, 0, 3, 2, 0 ) 0.0, 0.0, 1.0, 0.0, 0.0, 0.0;
    ( 0, 1, 1, 0, 1, 0, 3, 2, 1 ) 0.0, 0.0, 0.0, 1.0, 0.0, 0.0;
    ( 0, 1, 1, 0, 1, 0, 4, 0, 0 ) 0.0, 0.0, 0.0, 1.0, 0.0, 0.0;
    ( 0, 1, 1, 0, 1, 0, 4, 0, 1 ) 0.0, 0.0, 0.0, 0.5, 0.5, 0.0;
    ( 0, 1, 1, 0, 1, 0, 4, 1, 0 ) 0.16666666666666666, 0.16666666666666666, 0.16666666666666666, 0.16666666666666666, 0.16666666666666666, 0.16666666666666666;
    ( 0, 1, 1, 0, 1, 0, 4, 1, 1 ) 0.0, 0.0, 1.0, 0.0, 0.0, 0.0;
    ( 0, 1, 1, 0, 1, 0, 4, 2, 0 ) 0.16666666666666666, 0.16666666666666666, 0.16666666666666666, 0.16666666666666666, 0.16666666666666666, 0.16666666666666666;
    ( 0, 1, 1, 0, 1, 0, 4, 2, 1 ) 0.0, 0.0, 0.0, 1.0, 0.0, 0.0;
    ( 0, 1, 1, 0, 1, 1, 1, 0, 0 ) 0.0, 0.0, 0.09090909090909091, 0.2727272727272727, 0.4090909090909091, 0.22727272727272727;
    ( 0, 1, 1, 0, 1, 1, 1, 0, 1 ) 0.0, 0.0, 0.2777777777777778, 0.5555555555555556, 0.16666666666666666, 0.0;
    ( 0, 1, 1, 0, 1, 1, 1, 1, 0 ) 0.0, 0.0, 0.6, 0.2, 0.2, 0.0;
    ( 0, 1, 1, 0, 1, 1, 1, 1, 1 ) 0.0, 0.0, 0.2, 0.8, 0.0, 0.0;
    ( 0, 1, 1, 0, 1, 1, 1, 2, 0 ) 0.0, 0.0, 0.1, 0.2, 0.6, 0.1;
    ( 0, 1, 1, 0, 1, 1, 1, 2, 1 ) 0.0, 0.1, 0.2, 0.6, 0.05, 0.05;
    ( 0, 1, 1, 0, 1, 1, 2, 0, 0 ) 0.0, 0.0, 0.06666666666666667, 0.26666666666666666, 0.43333333333333335, 0.23333333333333334;
    ( 0, 1, 1, 0, 1, 1, 2, 0, 1 ) 0.0, 0.0625, 0.25, 0.375, 0.3125, 0.0;
    ( 0, 1, 1, 0, 1, 1, 2, 1, 0 ) 0.0, 0.0, 0.0, 1.0, 0.0, 0.0;
    ( 0, 1, 1, 0, 1, 1, 2, 1, 1 ) 0.0, 0.0, 0.0, 0.0, 1.0, 0.0;
    ( 0, 1, 1, 0, 1, 1, 2, 2, 0 ) 0.0, 0.0, 0.3333333333333333, 0.3333333333333333, 0.3333333333333333, 0.0;
    ( 0, 1, 1, 0, 1, 1, 2, 2, 1 ) 0.0, 0.0, 0.2, 0.5, 0.2, 0.1;
    ( 0, 1, 1, 0, 1, 1, 3, 0, 0 ) 0.0, 0.0, 0.05555555555555555, 0.2777777777777778, 0.3888888888888889, 0.2777777777777778;
    ( 0, 1, 1, 0, 1, 1, 3, 0, 1 ) 0.0, 0.0, 0.07142857142857142, 0.5714285714285714, 0.35714285714285715, 0.0;
    ( 0, 1, 1, 0, 1, 1, 3, 1, 0 ) 0.0, 0.0, 0.0, 0.0, 0.0, 1.0;
    ( 0, 1, 1, 0, 1, 1, 3, 1, 1 ) 0.0, 0.0, 0.3333333333333333, 0.3333333333333333, 0.3333333333333333, 0.0;
    ( 0, 1, 1, 0, 1, 1, 3, 2, 0 ) 0.0, 0.0, 0.0, 0.6, 0.4, 0.0;
    ( 0, 1, 1, 0, 1, 1, 3, 2, 1 ) 0.0, 0.0, 0.2, 0.6, 0.2, 0.0;
    ( 0, 1, 1, 0, 1, 1, 4, 0, 0 ) 0.0, 0.0, 0.0, 0.08333333333333333, 0.6666666666666666, 0.25;
    ( 0, 1, 1, 0, 1, 1, 4, 0, 1 ) 0.0, 0.0, 0.0, 0.4, 0.6, 0.0;
    ( 0, 1, 1, 0, 1, 1, 4, 1, 0 ) 0.16666666666666666, 0.16666666666666666, 0.16666666666666666, 0.16666666666666666, 0.16666666666666666, 0.16666666666666666;
    ( 0, 1, 1, 0, 1, 1, 4, 1, 1 ) 0.16666666666666666, 0.16666666666666666, 0.16666666666666666, 0.16666666666666666, 0.16666666666666666, 0.16666666666666666;
    ( 0, 1, 1, 0, 1, 1, 4, 2, 0 ) 0.16666666666666666, 0.16666666666666666, 0.16666666666666666, 0.16666666666666666, 0.16666666666666666, 0.16666666666666666;
    ( 0, 1, 1, 0, 1, 1, 4, 2, 1 ) 0.0, 0.0, 0.3333333333333333, 0.0, 0.6666666666666666, 0.0;
    ( 0, 1, 1, 1, 0, 0, 1, 0, 0 ) 0.16666666666666666, 0.16666666666666666, 0.16666666666666666, 0.16666666666666666, 0.16666666666666666, 0.16666666666666666;
    ( 0, 1, 1, 1, 0, 0, 1, 0, 1 ) 0.0, 0.0, 0.0, 0.5, 0.5, 0.0;
    ( 0, 1, 1, 1, 0, 0, 1, 1, 0 ) 0.16666666666666666, 0.16666666666666666, 0.16666666666666666, 0.16666666666666666, 0.16666666666666666, 0.16666666666666666;
    ( 0, 1, 1, 1, 0, 0, 1, 1, 1 ) 0.16666666666666666, 0.16666666666666666, 0.16666666666666666, 0.16666666666666666, 0.16666666666666666, 0.16666666666666666;
    ( 0, 1, 1, 1, 0, 0, 1, 2, 0 ) 0.16666666666666666, 0.16666666666666666, 0.16666666666666666, 0.16666666666666666, 0.16666666666666666, 0.16666666666666666;
    ( 0, 1, 1, 1, 0, 0, 1, 2, 1 ) 0.16666666666666666, 0.16666666666666666, 0.16666666666666666, 0.16666666666666666, 0.16666666666666666, 0.16666666666666666;
    ( 0, 1, 1, 1, 0, 0, 2, 0, 0 ) 0.16666666666666666, 0.16666666666666666, 0.16666666666666666, 0.16666666666666666, 0.16666666666666666, 0.16666666666666666;
    ( 0, 1, 1, 1, 0, 0, 2, 0, 1 ) 0.0, 0.0, 0.0, 1.0, 0.0, 0.0;
    ( 0, 1, 1, 1, 0, 0, 2, 1, 0 ) 0.16666666666666666, 0.16666666666666666, 0.16666666666666666, 0.16666666666666666, 0.16666666666666666, 0.16666666666666666;
    ( 0, 1, 1, 1, 0, 0, 2, 1, 1 ) 0.16666666666666666, 0.16666666666666666, 0.16666666666666666, 0.16666666666666666, 0.16666666666666666, 0.16666666666666666;
    ( 0, 1, 1, 1, 0, 0, 2, 2, 0 ) 0.0, 0.0, 0.0, 0.0, 1.0, 0.0;
    ( 0, 1, 1, 1, 0, 0, 2, 2, 1 ) 0.16666666666666666, 0.16666666666666666, 0.16666666666666666, 0.16666666666666666, 0.16666666666666666, 0.16666666666666666;
    ( 0, 1, 1, 1, 0, 0, 3, 0, 0 ) 0.0, 0.0, 0.0, 0.0, 0.0, 1.0;
    ( 0, 1, 1, 1, 0, 0, 3, 0, 1 ) 0.16666666666666666, 0.16666666666666666, 0.16666666666666666, 0.16666666666666666, 0.16666666666666666, 0.16666666666666666;
    ( 0, 1, 1, 1, 0, 0, 3, 1, 0 ) 0.16666666666666666, 0.16666666666666666, 0.16666666666666666, 0.16666666666666666, 0.16666666666666666, 0.16666666666666666;
    ( 0, 1, 1, 1, 0, 0, 3, 1, 1 ) 0.16666666666666666, 0.16666666666666666, 0.16666666666666666, 0.16666666666666666, 0.16666666666666666, 0.16666666666666666;
    ( 0, 1, 1, 1, 0, 0, 3, 2, 0 ) 0.16666666666666666, 0.16666666666666666, 0.16666666666666666, 0.16666666666666666, 0.16666666666666666, 0.16666666666666666;
    ( 0, 1, 1, 1, 0, 0, 3, 2, 1 ) 0.0, 0.5, 0.0, 0.0, 0.5, 0.0;
    ( 0, 1, 1, 1, 0, 0, 4, 0, 0 ) 0.0, 0.0, 0.0, 0.0, 0.0, 1.0;
    ( 0, 1, 1, 1, 0, 0, 4, 0, 1 ) 0.16666666666666666, 0.16666666666666666, 0.16666666666666666, 0.16666666666666666, 0.16666666666666666, 0.16666666666666666;
    ( 0, 1, 1, 1, 0, 0, 4, 1, 0 ) 0.16666666666666666, 0.16666666666666666, 0.16666666666666666, 0.16666666666666666, 0.16666666666666666, 0.16666666666666666;
    ( 0, 1, 1, 1, 0, 0, 4, 1, 1 ) 0.16666666666666666, 0.16666666666666666, 0.16666666666666666, 0.16666666666666666, 0.16666666666666666, 0.16666666666666666;
    ( 0, 1, 1, 1, 0, 0, 4, 2, 0 ) 0.16666666666666666, 0.16666666666666666, 0.16666666666666666, 0.16666666666666666, 0.16666666666666666, 0.16666666666666666;
    ( 0, 1, 1, 1, 0, 0, 4, 2, 1 ) 0.16666666666666666, 0.16666666666666666, 0.16666666666666666, 0.16666666666666666, 0.16666666666666666, 0.16666666666666666;
    ( 0, 1, 1, 1, 0, 1, 1, 0, 0 ) 0.0, 0.0, 0.0, 0.0, 0.0, 1.0;
    ( 0, 1, 1, 1, 0, 1, 1, 0, 1 ) 0.16666666666666666, 0.16666666666666666, 0.16666666666666666, 0.16666666666666666, 0.16666666666666666, 0.16666666666666666;
    ( 0, 1, 1, 1, 0, 1, 1, 1, 0 ) 0.16666666666666666, 0.16666666666666666, 0.16666666666666666, 0.16666666666666666, 0.16666666666666666, 0.16666666666666666;
    ( 0, 1, 1, 1, 0, 1, 1, 1, 1 ) 0.0, 0.0, 0.0, 1.0, 0.0, 0.0;
    ( 0, 1, 1, 1, 0, 1, 1, 2, 0 ) 0.0, 0.0, 0.0, 0.3333333333333333, 0.0, 0.6666666666666666;
    ( 0, 1, 1, 1, 0, 1, 1, 2, 1 ) 0.16666666666666666, 0.16666666666666666, 0.16666666666666666, 0.16666666666666666, 0.16666666666666666, 0.16666666666666666;
    ( 0, 1, 1, 1, 0, 1, 2, 0, 0 ) 0.0, 0.0, 0.0, 0.5, 0.5, 0.0;
    ( 0, 1, 1, 1, 0, 1, 2, 0, 1 ) 0.0, 0.0, 0.0, 0.0, 1.0, 0.0;
    ( 0, 1, 1, 1, 0, 1, 2, 1, 0 ) 0.16666666666666666, 0.16666666666666666, 0.16666666666666666, 0.16666666666666666, 0.16666666666666666, 0.16666666666666666;
    ( 0, 1, 1, 1, 0, 1, 2, 1, 1 ) 0.16666666666666666, 0.16666666666666666, 0.16666666666666666, 0.16666666666666666, 0.16666666666666666, 0.16666666666666666;
    ( 0, 1, 1, 1, 0, 1, 2, 2, 0 ) 0.16666666666666666, 0.16666666666666666, 0.16666666666666666, 0.16666666666666666, 0.16666666666666666, 0.16666666666666666;
    ( 0, 1, 1, 1, 0, 1, 2, 2, 1 ) 0.16666666666666666, 0.16666666666666666, 0.16666666666666666, 0.16666666666666666, 0.16666666666666666, 0.16666666666666666;
    ( 0, 1, 1, 1, 0, 1, 3, 0, 0 ) 0.16666666666666666, 0.16666666666666666, 0.16666666666666666, 0.16666666666666666, 0.16666666666666666, 0.16666666666666666;
    ( 0, 1, 1, 1, 0, 1, 3, 0, 1 ) 0.0, 0.0, 0.0, 0.0, 1.0, 0.0;
    ( 0, 1, 1, 1, 0, 1, 3, 1, 0 ) 0.0, 0.0, 0.0, 0.0, 1.0, 0.0;
    ( 0, 1, 1, 1, 0, 1, 3, 1, 1 ) 0.16666666666666666, 0.16666666666666666, 0.16666666666666666, 0.16666666666666666, 0.16666666666666666, 0.16666666666666666;
    ( 0, 1, 1, 1, 0, 1, 3, 2, 0 ) 0.16666666666666666, 0.16666666666666666, 0.16666666666666666, 0.16666666666666666, 0.16666666666666666, 0.16666666666666666;
    ( 0, 1, 1, 1, 0, 1, 3, 2, 1 ) 0.0, 0.0, 0.0, 1.0, 0.0, 0.0;
    ( 0, 1, 1, 1, 0, 1, 4, 0, 0 ) 0.0, 0.0, 0.0, 0.0, 1.0, 0.0;
    ( 0, 1, 1, 1, 0, 1, 4, 0, 1 ) 0.16666666666666666, 0.16666666666666666, 0.16666666666666666, 0.16666666666666666, 0.16666666666666666, 0.16666666666666666;
    ( 0, 1, 1, 1, 0, 1, 4, 1, 0 ) 0.16666666666666666, 0.16666666666666666, 0.16666666666666666, 0.16666666666666666, 0.16666666666666666, 0.16666666666666666;
    ( 0, 1, 1, 1, 0, 1, 4, 1, 1 ) 0.16666666666666666, 0.16666666666666666, 0.16666666666666666, 0.16666666666666666, 0.16666666666666666, 0.16666666666666666;
    ( 0, 1, 1, 1, 0, 1, 4, 2, 0 ) 0.16666666666666666, 0.16666666666666666, 0.16666666666666666, 0.16666666666666666, 0.16666666666666666, 0.16666666666666666;
    ( 0, 1, 1, 1, 0, 1, 4, 2, 1 ) 0.16666666666666666, 0.16666666666666666, 0.16666666666666666, 0.16666666666666666, 0.16666666666666666, 0.16666666666666666;
    ( 0, 1, 1, 1, 1, 0, 1, 0, 0 ) 0.0, 0.0, 0.0, 0.2, 0.2, 0.6;
    ( 0, 1, 1, 1, 1, 0, 1, 0, 1 ) 0.0, 0.0, 0.5, 0.0, 0.0, 0.5;
    ( 0, 1, 1, 1, 1, 0, 1, 1, 0 ) 0.16666666666666666, 0.16666666666666666, 0.16666666666666666, 0.16666666666666666, 0.16666666666666666, 0.16666666666666666;
    ( 0, 1, 1, 1, 1, 0, 1, 1, 1 ) 0.0, 0.0, 1.0, 0.0, 0.0, 0.0;
    ( 0, 1, 1, 1, 1, 0, 1, 2, 0 ) 0.16666666666666666, 0.16666666666666666, 0.16666666666666666, 0.16666666666666666, 0.16666666666666666, 0.16666666666666666;
    ( 0, 1, 1, 1, 1, 0, 1, 2, 1 ) 0.0, 0.0, 0.3333333333333333, 0.3333333333333333, 0.3333333333333333, 0.0;
    ( 0, 1, 1, 1, 1, 0, 2, 0, 0 ) 0.0, 0.0, 0.0, 0.3333333333333333, 0.3333333333333333, 0.3333333333333333;
    ( 0, 1, 1, 1, 1, 0, 2, 0, 1 ) 0.16666666666666666, 0.16666666666666666, 0.16666666666666666, 0.16666666666666666, 0.16666666666666666, 0.16666666666666666;
    ( 0, 1, 1, 1, 1, 0, 2, 1, 0 ) 0.16666666666666666, 0.16666666666666666, 0.16666666666666666, 0.16666666666666666, 0.16666666666666666, 0.16666666666666666;
    ( 0, 1, 1, 1, 1, 0, 2, 1, 1 ) 0.0, 0.0, 0.0, 1.0, 0.0, 0.0;
    ( 0, 1, 1, 1, 1, 0, 2, 2, 0 ) 0.16666666666666666, 0.16666666666666666, 0.16666666666666666, 0.16666666666666666, 0.16666666666666666, 0.16666666666666666;
    ( 0, 1, 1, 1, 1, 0, 2, 2, 1 ) 0.16666666666666666, 0.16666666666666666, 0.16666666666666666, 0.16666666666666666, 0.16666666666666666, 0.16666666666666666;
    ( 0, 1, 1, 1, 1, 0, 3, 0, 0 ) 0.0, 0.0, 0.0, 0.0, 0.5, 0.5;
    ( 0, 1, 1, 1, 1, 0, 3, 0, 1 ) 0.0, 0.0, 0.0, 0.0, 1.0, 0.0;
    ( 0, 1, 1, 1, 1, 0, 3, 1, 0 ) 0.16666666666666666, 0.16666666666666666, 0.16666666666666666, 0.16666666666666666, 0.16666666666666666, 0.16666666666666666;
    ( 0, 1, 1, 1, 1, 0, 3, 1, 1 ) 0.16666666666666666, 0.16666666666666666, 0.16666666666666666, 0.16666666666666666, 0.16666666666666666, 0.16666666666666666;
    ( 0, 1, 1, 1, 1, 0, 3, 2, 0 ) 0.16666666666666666, 0.16666666666666666, 0.16666666666666666, 0.16666666666666666, 0.16666666666666666, 0.16666666666666666;
    ( 0, 1, 1, 1, 1, 0, 3, 2, 1 ) 0.0, 0.0, 0.0, 0.0, 1.0, 0.0;
    ( 0, 1, 1, 1, 1, 0, 4, 0, 0 ) 0.0, 0.0, 0.0, 0.0, 0.5, 0.5;
    ( 0, 1, 1, 1, 1, 0, 4, 0, 1 ) 0.0, 0.0, 0.0, 0.0, 1.0, 0.0;
    ( 0, 1, 1, 1, 1, 0, 4, 1, 0 ) 0.16666666666666666, 0.16666666666666666, 0.16666666666666666, 0.16666666666666666, 0.16666666666666666, 0.16666666666666666;
    ( 0, 1, 1, 1, 1, 0, 4, 1, 1 ) 0.16666666666666666, 0.16666666666666666, 0.16666666666666666, 0.16666666666666666, 0.16666666666666666, 0.16666666666666666;
    ( 0, 1, 1, 1, 1, 0, 4, 2, 0 ) 0.0, 0.0, 0.0, 0.0, 0.0, 1.0;
    ( 0, 1, 1, 1, 1, 0, 4, 2, 1 ) 0.0, 0.0, 0.0, 0.0, 0.0, 1.0;
    ( 0, 1, 1, 1, 1, 1, 1, 0, 0 ) 0.0, 0.0, 0.0, 0.1111111111111111, 0.2222222222222222, 0.6666666666666666;
    ( 0, 1, 1, 1, 1, 1, 1, 0, 1 ) 0.0, 0.0, 0.125, 0.625, 0.125, 0.125;
    ( 0, 1, 1, 1, 1, 1, 1, 1, 0 ) 0.0, 0.0, 0.0, 0.0, 1.0, 0.0;
    ( 0, 1, 1, 1, 1, 1, 1, 1, 1 ) 0.0, 0.0, 0.0, 0.3333333333333333, 0.6666666666666666, 0.0;
    ( 0, 1, 1, 1, 1, 1, 1, 2, 0 ) 0.0, 0.0, 0.0, 0.5, 0.3333333333333333, 0.16666666666666666;
    ( 0, 1, 1, 1, 1, 1, 1, 2, 1 ) 0.0, 0.0, 0.2857142857142857, 0.5, 0.21428571428571427, 0.0;
    ( 0, 1, 1, 1, 1, 1, 2, 0, 0 ) 0.0, 0.0, 0.14285714285714285, 0.14285714285714285, 0.5, 0.21428571428571427;
    ( 0, 1, 1, 1, 1, 1, 2, 0, 1 ) 0.0, 0.0, 0.14285714285714285, 0.7142857142857143, 0.14285714285714285, 0.0;
    ( 0, 1, 1, 1, 1, 1, 2, 1, 0 ) 0.0, 0.0, 0.3333333333333333, 0.0, 0.3333333333333333, 0.3333333333333333;
    ( 0, 1, 1, 1, 1, 1, 2, 1, 1 ) 0.0, 0.0, 0.3333333333333333, 0.0, 0.3333333333333333, 0.3333333333333333;
    ( 0, 1, 1, 1, 1, 1, 2, 2, 0 ) 0.0, 0.0, 0.0, 0.5, 0.5, 0.0;
    ( 0, 1, 1, 1, 1, 1, 2, 2, 1 ) 0.0, 0.0, 0.0, 0.7142857142857143, 0.2857142857142857, 0.0;
    ( 0, 1, 1, 1, 1, 1, 3, 0, 0 ) 0.0, 0.0, 0.0, 0.25, 0.5, 0.25;
    ( 0, 1, 1, 1, 1, 1, 3, 0, 1 ) 0.0, 0.0, 0.0, 0.42857142857142855, 0.5714285714285714, 0.0;
    ( 0, 1, 1, 1, 1, 1, 3, 1, 0 ) 0.16666666666666666, 0.16666666666666666, 0.16666666666666666, 0.16666666666666666, 0.16666666666666666, 0.16666666666666666;
    ( 0, 1, 1, 1, 1, 1, 3, 1, 1 ) 0.0, 0.0, 0.0, 0.0, 0.6666666666666666, 0.3333333333333333;
    ( 0, 1, 1, 1, 1, 1, 3, 2, 0 ) 0.0, 0.0, 0.6666666666666666, 0.3333333333333333, 0.0, 0.0;
    ( 0, 1, 1, 1, 1, 1, 3, 2, 1 ) 0.0, 0.0, 0.2, 0.8, 0.0, 0.0;
    ( 0, 1, 1, 1, 1, 1, 4, 0, 0 ) 0.0, 0.0, 0.0, 0.0, 0.0, 1.0;
    ( 0, 1, 1, 1, 1, 1, 4, 0, 1 ) 0.0, 0.0, 0.0, 0.0, 1.0, 0.0;
    ( 0, 1, 1, 1, 1, 1, 4, 1, 0 ) 0.16666666666666666, 0.16666666666666666, 0.16666666666666666, 0.16666666666666666, 0.16666666666666666, 0.16666666666666666;
    ( 0, 1, 1, 1, 1, 1, 4, 1, 1 ) 0.16666666666666666, 0.16666666666666666, 0.16666666666666666, 0.16666666666666666, 0.16666666666666666, 0.16666666666666666;
    ( 0, 1, 1, 1, 1, 1, 4, 2, 0 ) 0.0, 0.0, 0.0, 0.0, 1.0, 0.0;
    ( 0, 1, 1, 1, 1, 1, 4, 2, 1 ) 0.16666666666666666, 0.16666666666666666, 0.16666666666666666, 0.16666666666666666, 0.16666666666666666, 0.16666666666666666;
    ( 1, 0, 0, 0, 0, 0, 1, 0, 0 ) 0.24757281553398058, 0.15169902912621358, 0.11205501618122977, 0.1476537216828479, 0.16302588996763753, 0.1779935275080906;
    ( 1, 0, 0, 0, 0, 0, 1, 0, 1 ) 0.21052631578947367, 0.21052631578947367, 0.17763157894736842, 0.17434210526315788, 0.1611842105263158, 0.06578947368421052;
    ( 1, 0, 0, 0, 0, 0, 1, 1, 0 ) 0.3317972350230415, 0.19815668202764977, 0.15668202764976957, 0.1336405529953917, 0.12442396313364056, 0.055299539170506916;
    ( 1, 0, 0, 0, 0, 0, 1, 1, 1 ) 0.2545454545454545, 0.2545454545454545, 0.21818181818181817, 0.18181818181818182, 0.07272727272727272, 0.01818181818181818;
    ( 1, 0, 0, 0, 0, 0, 1, 2, 0 ) 0.2277992277992278, 0.18146718146718147, 0.1969111969111969, 0.23166023166023167, 0.11583011583011583, 0.04633204633204633;
    ( 1, 0, 0, 0, 0, 0, 1, 2, 1 ) 0.23863636363636365, 0.2840909090909091, 0.1590909090909091, 0.22727272727272727, 0.07954545454545454, 0.011363636363636364;
    ( 1, 0, 0, 0, 0, 0, 2, 0, 0 ) 0.17835285889141458, 0.1481028151774786, 0.12187445357579997, 0.1398845952089526, 0.1839482426997727, 0.22783703444658157;
    ( 1, 0, 0, 0, 0, 0, 2, 0, 1 ) 0.21470588235294116, 0.2088235294117647, 0.17647058823529413, 0.18235294117647058, 0.13088235294117648, 0.08676470588235294;
    ( 1, 0, 0, 0, 0, 0, 2, 1, 0 ) 0.32848837209302323, 0.20930232558139536, 0.15406976744186046, 0.13662790697674418, 0.09011627906976744, 0.08139534883720931;
    ( 1, 0, 0, 0, 0, 0, 2, 1, 1 ) 0.3333333333333333, 0.2, 0.1523809523809524, 0.17142857142857143, 0.11428571428571428, 0.02857142857142857;
    ( 1, 0, 0, 0, 0, 0, 2, 2, 0 ) 0.19592875318066158, 0.22900763358778625, 0.1806615776081425, 0.14249363867684478, 0.15012722646310434, 0.10178117048346055;
    ( 1, 0, 0, 0, 0, 0, 2, 2, 1 ) 0.2635135135135135, 0.2635135135135135, 0.17567567567567569, 0.17567567567567569, 0.10135135135135136, 0.02027027027027027;
    ( 1, 0, 0, 0, 0, 0, 3, 0, 0 ) 0.14237356983278046, 0.1542888091530702, 0.1359420486087604, 0.18197820052806174, 0.2073657843070882, 0.17805158757023898;
    ( 1, 0, 0, 0, 0, 0, 3, 0, 1 ) 0.19930374238468232, 0.24456048738033073, 0.18189730200174065, 0.21671018276762402, 0.12184508268059181, 0.03568320278503046;
    ( 1, 0, 0, 0, 0, 0, 3, 1, 0 ) 0.25962910128388017, 0.23109843081312412, 0.14122681883024252, 0.16262482168330955, 0.12268188302425106, 0.08273894436519258;
    ( 1, 0, 0, 0, 0, 0, 3, 1, 1 ) 0.22727272727272727, 0.3181818181818182, 0.18181818181818182, 0.17424242424242425, 0.08333333333333333, 0.015151515151515152;
    ( 1, 0, 0, 0, 0, 0, 3, 2, 0 ) 0.17944535073409462, 0.2495921696574225, 0.1631321370309951, 0.15823817292006526, 0.1631321370309951, 0.0864600326264274;
    ( 1, 0, 0, 0, 0, 0, 3, 2, 1 ) 0.1945945945945946, 0.3027027027027027, 0.23783783783783785, 0.1891891891891892, 0.04864864864864865, 0.02702702702702703;
    ( 1, 0, 0, 0, 0, 0, 4, 0, 0 ) 0.07392800370243677, 0.18504135058454232, 0.2412419260719963, 0.25852667163007825, 0.17105660301426645, 0.07020544499667988;
    ( 1, 0, 0, 0, 0, 0, 4, 0, 1 ) 0.1262073406310367, 0.24661944623309723, 0.2646490663232453, 0.2421120412105602, 0.09465550547327753, 0.025756600128783;
    ( 1, 0, 0, 0, 0, 0, 4, 1, 0 ) 0.1393528183716075, 0.2395615866388309, 0.29018789144050106, 0.2150313152400835, 0.09290187891440502, 0.022964509394572025;
    ( 1, 0, 0, 0, 0, 0, 4, 1, 1 ) 0.17532467532467533, 0.3116883116883117, 0.2857142857142857, 0.14935064935064934, 0.07792207792207792, 0.0;
    ( 1, 0, 0, 0, 0, 0, 4, 2, 0 ) 0.12931034482758622, 0.22054597701149425, 0.26939655172413796, 0.21982758620689655, 0.11709770114942529, 0.04382183908045977;
    ( 1, 0, 0, 0, 0, 0, 4, 2, 1 ) 0.16447368421052633, 0.2894736842105263, 0.23684210526315788, 0.21710526315789475, 0.09210526315789473, 0.0;
    ( 1, 0, 0, 0, 0, 1, 1, 0, 0 ) 0.0665024630541872, 0.06527093596059114, 0.09975369458128079, 0.21428571428571427, 0.27832512315270935, 0.27586206896551724;
    ( 1, 0, 0, 0, 0, 1, 1, 0, 1 ) 0.02631578947368421, 0.13157894736842105, 0.18421052631578946, 0.2807017543859649, 0.2543859649122807, 0.12280701754385964;
    ( 1, 0, 0, 0, 0, 1, 1, 1, 0 ) 0.056818181818181816, 0.125, 0.1590909090909091, 0.32954545454545453, 0.20454545454545456, 0.125;
    ( 1, 0, 0, 0, 0, 1, 1, 1, 1 ) 0.125, 0.125, 0.1875, 0.3125, 0.0625, 0.1875;
    ( 1, 0, 0, 0, 0, 1, 1, 2, 0 ) 0.047619047619047616, 0.11564625850340136, 0.21768707482993196, 0.2857142857142857, 0.25170068027210885, 0.08163265306122448;
    ( 1, 0, 0, 0, 0, 1, 1, 2, 1 ) 0.0425531914893617, 0.2127659574468085, 0.19148936170212766, 0.2765957446808511, 0.23404255319148937, 0.0425531914893617;
    ( 1, 0, 0, 0, 0, 1, 2, 0, 0 ) 0.04383282364933741, 0.058613659531090725, 0.09531090723751275, 0.16055045871559634, 0.29408766564729866, 0.3476044852191641;
    ( 1, 0, 0, 0, 0, 1, 2, 0, 1 ) 0.046632124352331605, 0.11398963730569948, 0.16580310880829016, 0.35233160621761656, 0.2538860103626943, 0.06735751295336788;
    ( 1, 0, 0, 0, 0, 1, 2, 1, 0 ) 0.06993006993006994, 0.11188811188811189, 0.11888111888111888, 0.24475524475524477, 0.3146853146853147, 0.13986013986013987;
    ( 1, 0, 0, 0, 0, 1, 2, 1, 1 ) 0.18181818181818182, 0.15151515151515152, 0.21212121212121213, 0.15151515151515152, 0.24242424242424243, 0.06060606060606061;
    ( 1, 0, 0, 0, 0, 1, 2, 2, 0 ) 0.08441558441558442, 0.09090909090909091, 0.2012987012987013, 0.22077922077922077, 0.2532467532467532, 0.14935064935064934;
    ( 1, 0, 0, 0, 0, 1, 2, 2, 1 ) 0.04411764705882353, 0.1323529411764706, 0.25, 0.3235294117647059, 0.14705882352941177, 0.10294117647058823;
    ( 1, 0, 0, 0, 0, 1, 3, 0, 0 ) 0.03259688518652662, 0.06030423759507425, 0.09398768562115176, 0.18743208982252807, 0.3361101050344078, 0.2895689967403115;
    ( 1, 0, 0, 0, 0, 1, 3, 0, 1 ) 0.07344632768361582, 0.1694915254237288, 0.1497175141242938, 0.3785310734463277, 0.20056497175141244, 0.02824858757062147;
    ( 1, 0, 0, 0, 0, 1, 3, 1, 0 ) 0.056140350877192984, 0.0912280701754386, 0.1368421052631579, 0.2771929824561403, 0.2596491228070175, 0.17894736842105263;
    ( 1, 0, 0, 0, 0, 1, 3, 1, 1 ) 0.14, 0.18, 0.14, 0.38, 0.14, 0.02;
    ( 1, 0, 0, 0, 0, 1, 3, 2, 0 ) 0.02459016393442623, 0.12295081967213115, 0.18442622950819673, 0.21721311475409835, 0.29098360655737704, 0.1598360655737705;
    ( 1, 0, 0, 0, 0, 1, 3, 2, 1 ) 0.09523809523809523, 0.12698412698412698, 0.20634920634920634, 0.36507936507936506, 0.19047619047619047, 0.015873015873015872;
    ( 1, 0, 0, 0, 0, 1, 4, 0, 0 ) 0.020043829173125235, 0.08199262387086428, 0.17713399967929874, 0.2978245764070768, 0.29552621732855844, 0.1274787535410765;
    ( 1, 0, 0, 0, 0, 1, 4, 0, 1 ) 0.035650623885918005, 0.17825311942959002, 0.2531194295900178, 0.3315508021390374, 0.1711229946524064, 0.030303030303030304;
    ( 1, 0, 0, 0, 0, 1, 4, 1, 0 ) 0.04878048780487805, 0.14363143631436315, 0.24525745257452575, 0.2886178861788618, 0.21951219512195122, 0.05420054200542006;
    ( 1, 0, 0, 0, 0, 1, 4, 1, 1 ) 0.1111111111111111, 0.12962962962962962, 0.35185185185185186, 0.37037037037037035, 0.037037037037037035, 0.0;
    ( 1, 0, 0, 0, 0, 1, 4, 2, 0 ) 0.04152823920265781, 0.11627906976744186, 0.19102990033222592, 0.3388704318936877, 0.24584717607973422, 0.0664451827242525;
    ( 1, 0, 0, 0, 0, 1, 4, 2, 1 ) 0.038461538461538464, 0.1794871794871795, 0.2948717948717949, 0.4230769230769231, 0.05128205128205128, 0.01282051282051282;
    ( 1, 0, 0, 0, 1, 0, 1, 0, 0 ) 0.04035874439461883, 0.05829596412556054, 0.08251121076233184, 0.16053811659192826, 0.25829596412556055, 0.4;
    ( 1, 0, 0, 0, 1, 0, 1, 0, 1 ) 0.041666666666666664, 0.0625, 0.125, 0.3125, 0.22916666666666666, 0.22916666666666666;
    ( 1, 0, 0, 0, 1, 0, 1, 1, 0 ) 0.14492753623188406, 0.11594202898550725, 0.10144927536231885, 0.2608695652173913, 0.14492753623188406, 0.2318840579710145;
    ( 1, 0, 0, 0, 1, 0, 1, 1, 1 ) 0.09523809523809523, 0.14285714285714285, 0.23809523809523808, 0.23809523809523808, 0.19047619047619047, 0.09523809523809523;
    ( 1, 0, 0, 0, 1, 0, 1, 2, 0 ) 0.10317460317460317, 0.1111111111111111, 0.24603174603174602, 0.24603174603174602, 0.1349206349206349, 0.15873015873015872;
    ( 1, 0, 0, 0, 1, 0, 1, 2, 1 ) 0.14705882352941177, 0.11764705882352941, 0.17647058823529413, 0.20588235294117646, 0.3235294117647059, 0.029411764705882353;
    ( 1, 0, 0, 0, 1, 0, 2, 0, 0 ) 0.03073376872839032, 0.04686899731079524, 0.06684594698424895, 0.1298501728774491, 0.25662696888205916, 0.46907414521705726;
    ( 1, 0, 0, 0, 1, 0, 2, 0, 1 ) 0.07142857142857142, 0.10504201680672269, 0.21428571428571427, 0.23109243697478993, 0.24789915966386555, 0.13025210084033614;
    ( 1, 0, 0, 0, 1, 0, 2, 1, 0 ) 0.07563025210084033, 0.09243697478991597, 0.10084033613445378, 0.226890756302521, 0.25210084033613445, 0.25210084033613445;
    ( 1, 0, 0, 0, 1, 0, 2, 1, 1 ) 0.125, 0.21875, 0.25, 0.15625, 0.21875, 0.03125;
    ( 1, 0, 0, 0, 1, 0, 2, 2, 0 ) 0.06217616580310881, 0.12953367875647667, 0.10362694300518134, 0.23316062176165803, 0.23834196891191708, 0.23316062176165803;
    ( 1, 0, 0, 0, 1, 0, 2, 2, 1 ) 0.1, 0.26666666666666666, 0.25, 0.2, 0.11666666666666667, 0.06666666666666667;
    ( 1, 0, 0, 0, 1, 0, 3, 0, 0 ) 0.02445236882322975, 0.0489047376464595, 0.08065885549329257, 0.17099677364578028, 0.30259806418746815, 0.37238920020376975;
    ( 1, 0, 0, 0, 1, 0, 3, 0, 1 ) 0.06609195402298851, 0.15229885057471265, 0.16954022988505746, 0.28735632183908044, 0.21264367816091953, 0.11206896551724138;
    ( 1, 0, 0, 0, 1, 0, 3, 1, 0 ) 0.08097165991902834, 0.12955465587044535, 0.12550607287449392, 0.21052631578947367, 0.2591093117408907, 0.19433198380566802;
    ( 1, 0, 0, 0, 1, 0, 3, 1, 1 ) 0.0975609756097561, 0.17073170731707318, 0.2682926829268293, 0.36585365853658536, 0.07317073170731707, 0.024390243902439025;
    ( 1, 0, 0, 0, 1, 0, 3, 2, 0 ) 0.05058365758754864, 0.12062256809338522, 0.14396887159533073, 0.19066147859922178, 0.3035019455252918, 0.19066147859922178;
    ( 1, 0, 0, 0, 1, 0, 3, 2, 1 ) 0.08, 0.3, 0.18, 0.32, 0.12, 0.0;
    ( 1, 0, 0, 0, 1, 0, 4, 0, 0 ) 0.02230132209792242, 0.07460409705070463, 0.14935347958738923, 0.2790934185674851, 0.2985616736887985, 0.17608600900770013;
    ( 1, 0, 0, 0, 1, 0, 4, 0, 1 ) 0.05995203836930456, 0.14628297362110312, 0.2422062350119904, 0.33093525179856115, 0.15827338129496402, 0.06235011990407674;
    ( 1, 0, 0, 0, 1, 0, 4, 1, 0 ) 0.06746031746031746, 0.13293650793650794, 0.23412698412698413, 0.30357142857142855, 0.19047619047619047, 0.07142857142857142;
    ( 1, 0, 0, 0, 1, 0, 4, 1, 1 ) 0.08163265306122448, 0.32653061224489793, 0.1836734693877551, 0.2857142857142857, 0.12244897959183673, 0.0;
    ( 1, 0, 0, 0, 1, 0, 4, 2, 0 ) 0.02158273381294964, 0.1510791366906475, 0.23501199040767387, 0.2637889688249401, 0.23261390887290168, 0.09592326139088729;
    ( 1, 0, 0, 0, 1, 0, 4, 2, 1 ) 0.1702127659574468, 0.23404255319148937, 0.23404255319148937, 0.23404255319148937, 0.10638297872340426, 0.02127659574468085;
    ( 1, 0, 0, 0, 1, 1, 1, 0, 0 ) 0.014795474325500435, 0.031331592689295036, 0.05918189730200174, 0.1618798955613577, 0.2732811140121845, 0.4595300261096606;
    ( 1, 0, 0, 0, 1, 1, 1, 0, 1 ) 0.032, 0.032, 0.072, 0.36, 0.328, 0.176;
    ( 1, 0, 0, 0, 1, 1, 1, 1, 0 ) 0.031914893617021274, 0.031914893617021274, 0.1276595744680851, 0.30851063829787234, 0.3191489361702128, 0.18085106382978725;
    ( 1, 0, 0, 0, 1, 1, 1, 1, 1 ) 0.05555555555555555, 0.1111111111111111, 0.1111111111111111, 0.3333333333333333, 0.3888888888888889, 0.0;
    ( 1, 0, 0, 0, 1, 1, 1, 2, 0 ) 0.023809523809523808, 0.07142857142857142, 0.15476190476190477, 0.3273809523809524, 0.26785714285714285, 0.15476190476190477;
    ( 1, 0, 0, 0, 1, 1, 1, 2, 1 ) 0.020833333333333332, 0.08333333333333333, 0.14583333333333334, 0.3125, 0.3333333333333333, 0.10416666666666667;
    ( 1, 0, 0, 0, 1, 1, 2, 0, 0 ) 0.011307420494699646, 0.02120141342756184, 0.044169611307420496, 0.10777385159010601, 0.2703180212014134, 0.5452296819787986;
    ( 1, 0, 0, 0, 1, 1, 2, 0, 1 ) 0.022222222222222223, 0.08, 0.15555555555555556, 0.27555555555555555, 0.28444444444444444, 0.18222222222222223;
    ( 1, 0, 0, 0, 1, 1, 2, 1, 0 ) 0.02631578947368421, 0.03289473684210526, 0.1118421052631579, 0.17105263157894737, 0.24342105263157895, 0.4144736842105263;
    ( 1, 0, 0, 0, 1, 1, 2, 1, 1 ) 0.10526315789473684, 0.05263157894736842, 0.13157894736842105, 0.34210526315789475, 0.2894736842105263, 0.07894736842105263;
    ( 1, 0, 0, 0, 1, 1, 2, 2, 0 ) 0.023809523809523808, 0.06666666666666667, 0.09523809523809523, 0.26666666666666666, 0.3047619047619048, 0.24285714285714285;
    ( 1, 0, 0, 0, 1, 1, 2, 2, 1 ) 0.05172413793103448, 0.1896551724137931, 0.10344827586206896, 0.3275862068965517, 0.25862068965517243, 0.06896551724137931;
    ( 1, 0, 0, 0, 1, 1, 3, 0, 0 ) 0.006973923590054579, 0.023953911461491815, 0.044724075197089146, 0.1323529411764706, 0.3471801091570649, 0.44481503941782896;
