network unknown {
}
variable Age {
    type discrete [ 6 ] { 1, 2, 3, 4, 5, 6 };
    property weight = None ;
}
variable AnyHealthcare {
    type discrete [ 2 ] { 0, 1 };
    property weight = None ;
}
variable BMI {
    type discrete [ 3 ] { 0, 1, 2 };
    property weight = None ;
}
variable CholCheck {
    type discrete [ 2 ] { 0, 1 };
    property weight = None ;
}
variable Diabetes_binary {
    type discrete [ 2 ] { 0, 1 };
    property weight = None ;
}
variable DiffWalk {
    type discrete [ 2 ] { 0, 1 };
    property weight = None ;
}
variable Education {
    type discrete [ 3 ] { 1, 2, 3 };
    property weight = None ;
}
variable Fruits {
    type discrete [ 2 ] { 0, 1 };
    property weight = None ;
}
variable GenHlth {
    type discrete [ 3 ] { 1, 2, 3 };
    property weight = None ;
}
variable HeartDiseaseorAttack {
    type discrete [ 2 ] { 0, 1 };
    property weight = None ;
}
variable HighBP {
    type discrete [ 2 ] { 0, 1 };
    property weight = None ;
}
variable HighChol {
    type discrete [ 2 ] { 0, 1 };
    property weight = None ;
}
variable HvyAlcoholConsump {
    type discrete [ 2 ] { 0, 1 };
    property weight = None ;
}
variable Income {
    type discrete [ 4 ] { 1, 2, 3, 4 };
    property weight = None ;
}
variable MentHlth {
    type discrete [ 3 ] { 0, 1, 2 };
    property weight = None ;
}
variable NoDocbcCost {
    type discrete [ 2 ] { 0, 1 };
    property weight = None ;
}
variable PhysActivity {
    type discrete [ 2 ] { 0, 1 };
    property weight = None ;
}
variable PhysHlth {
    type discrete [ 3 ] { 0, 1, 2 };
    property weight = None ;
}
variable Sex {
    type discrete [ 2 ] { 0, 1 };
    property weight = None ;
}
variable Smoker {
    type discrete [ 2 ] { 0, 1 };
    property weight = None ;
}
variable Stroke {
    type discrete [ 2 ] { 0, 1 };
    property weight = None ;
}
variable Veggies {
    type discrete [ 2 ] { 0, 1 };
    property weight = None ;
}
probability ( Age ) {
    table 0.05242037212235888, 0.09833648691264585, 0.14181646168401135, 0.22526805424156418, 0.25795490381583097, 0.22420372122358878 ;
}
probability ( AnyHealthcare | Income ) {
    ( 1 ) 0.1102621098453274, 0.8897378901546726;
    ( 2 ) 0.098757231033242, 0.901242768966758;
    ( 3 ) 0.059066925408560934, 0.940933074591439;
    ( 4 ) 0.020845184275919883, 0.9791548157240801;

}
probability ( BMI | Age ) {
    ( 1 ) 0.43141825838471953, 0.5213565949766882, 0.04722514663859227;
    ( 2 ) 0.3109115689890163, 0.6222240038483123, 0.06686442716267137;
    ( 3 ) 0.26895708249944406, 0.6585779408494552, 0.07246497665110073;
    ( 4 ) 0.2558534280614566, 0.6788576628285444, 0.06528890910999895;
    ( 5 ) 0.251872000978025, 0.6927931782756197, 0.05533482074635533;
    ( 6 ) 0.31310218721429073, 0.6608411280680779, 0.02605668471763134;

}
probability ( CholCheck | AnyHealthcare, Income ) {
    ( 0, 1 ) 0.13439731205375893, 0.8656026879462411;
    ( 0, 2 ) 0.12752242152466367, 0.8724775784753364;
    ( 0, 3 ) 0.15177844148791747, 0.8482215585120826;
    ( 0, 4 ) 0.12567324955116696, 0.874326750448833;
    ( 1, 1 ) 0.03023994170613647, 0.9697600582938636;
    ( 1, 2 ) 0.030773010656920858, 0.9692269893430792;
    ( 1, 3 ) 0.0320095449122209, 0.9679904550877791;
    ( 1, 4 ) 0.03306094680436328, 0.9669390531956367;

}
probability ( Diabetes_binary | Age, BMI, Education, GenHlth, HighBP, HighChol, PhysActivity, Sex ) {
    ( 1, 0, 1, 1, 0, 0, 0, 0 ) 0.5, 0.5;
    ( 1, 0, 1, 1, 0, 0, 0, 1 ) 1.0, 0.0;
    ( 1, 0, 1, 1, 0, 0, 1, 0 ) 1.0, 0.0;
    ( 1, 0, 1, 1, 0, 0, 1, 1 ) 1.0, 0.0;
    ( 1, 0, 1, 1, 0, 1, 0, 0 ) 0.5, 0.5;
    ( 1, 0, 1, 1, 0, 1, 0, 1 ) 0.5, 0.5;
    ( 1, 0, 1, 1, 0, 1, 1, 0 ) 0.5, 0.5;
    ( 1, 0, 1, 1, 0, 1, 1, 1 ) 1.0, 0.0;
    ( 1, 0, 1, 1, 1, 0, 0, 0 ) 0.5, 0.5;
    ( 1, 0, 1, 1, 1, 0, 0, 1 ) 0.5, 0.5;
    ( 1, 0, 1, 1, 1, 0, 1, 0 ) 0.5, 0.5;
    ( 1, 0, 1, 1, 1, 0, 1, 1 ) 0.5, 0.5;
    ( 1, 0, 1, 1, 1, 1, 0, 0 ) 0.5, 0.5;
    ( 1, 0, 1, 1, 1, 1, 0, 1 ) 0.5, 0.5;
    ( 1, 0, 1, 1, 1, 1, 1, 0 ) 0.5, 0.5;
    ( 1, 0, 1, 1, 1, 1, 1, 1 ) 0.5, 0.5;
    ( 1, 0, 1, 2, 0, 0, 0, 0 ) 1.0, 0.0;
    ( 1, 0, 1, 2, 0, 0, 0, 1 ) 1.0, 0.0;
    ( 1, 0, 1, 2, 0, 0, 1, 0 ) 1.0, 0.0;
    ( 1, 0, 1, 2, 0, 0, 1, 1 ) 1.0, 0.0;
    ( 1, 0, 1, 2, 0, 1, 0, 0 ) 0.5, 0.5;
    ( 1, 0, 1, 2, 0, 1, 0, 1 ) 0.5, 0.5;
    ( 1, 0, 1, 2, 0, 1, 1, 0 ) 1.0, 0.0;
    ( 1, 0, 1, 2, 0, 1, 1, 1 ) 1.0, 0.0;
    ( 1, 0, 1, 2, 1, 0, 0, 0 ) 0.5, 0.5;
    ( 1, 0, 1, 2, 1, 0, 0, 1 ) 0.5, 0.5;
    ( 1, 0, 1, 2, 1, 0, 1, 0 ) 0.5, 0.5;
    ( 1, 0, 1, 2, 1, 0, 1, 1 ) 0.5, 0.5;
    ( 1, 0, 1, 2, 1, 1, 0, 0 ) 0.5, 0.5;
    ( 1, 0, 1, 2, 1, 1, 0, 1 ) 1.0, 0.0;
    ( 1, 0, 1, 2, 1, 1, 1, 0 ) 0.5, 0.5;
    ( 1, 0, 1, 2, 1, 1, 1, 1 ) 0.5, 0.5;
    ( 1, 0, 1, 3, 0, 0, 0, 0 ) 1.0, 0.0;
    ( 1, 0, 1, 3, 0, 0, 0, 1 ) 0.5, 0.5;
    ( 1, 0, 1, 3, 0, 0, 1, 0 ) 0.5, 0.5;
    ( 1, 0, 1, 3, 0, 0, 1, 1 ) 0.5, 0.5;
    ( 1, 0, 1, 3, 0, 1, 0, 0 ) 0.5, 0.5;
    ( 1, 0, 1, 3, 0, 1, 0, 1 ) 0.5, 0.5;
    ( 1, 0, 1, 3, 0, 1, 1, 0 ) 0.5, 0.5;
    ( 1, 0, 1, 3, 0, 1, 1, 1 ) 0.5, 0.5;
    ( 1, 0, 1, 3, 1, 0, 0, 0 ) 0.5, 0.5;
    ( 1, 0, 1, 3, 1, 0, 0, 1 ) 0.5, 0.5;
    ( 1, 0, 1, 3, 1, 0, 1, 0 ) 0.5, 0.5;
    ( 1, 0, 1, 3, 1, 0, 1, 1 ) 0.5, 0.5;
    ( 1, 0, 1, 3, 1, 1, 0, 0 ) 0.5, 0.5;
    ( 1, 0, 1, 3, 1, 1, 0, 1 ) 0.5, 0.5;
    ( 1, 0, 1, 3, 1, 1, 1, 0 ) 0.5, 0.5;
    ( 1, 0, 1, 3, 1, 1, 1, 1 ) 0.5, 0.5;
    ( 1, 0, 2, 1, 0, 0, 0, 0 ) 1.0, 0.0;
    ( 1, 0, 2, 1, 0, 0, 0, 1 ) 0.9859154929577465, 0.014084507042253521;
    ( 1, 0, 2, 1, 0, 0, 1, 0 ) 1.0, 0.0;
    ( 1, 0, 2, 1, 0, 0, 1, 1 ) 1.0, 0.0;
    ( 1, 0, 2, 1, 0, 1, 0, 0 ) 1.0, 0.0;
    ( 1, 0, 2, 1, 0, 1, 0, 1 ) 1.0, 0.0;
    ( 1, 0, 2, 1, 0, 1, 1, 0 ) 0.9285714285714286, 0.07142857142857142;
    ( 1, 0, 2, 1, 0, 1, 1, 1 ) 1.0, 0.0;
    ( 1, 0, 2, 1, 1, 0, 0, 0 ) 1.0, 0.0;
    ( 1, 0, 2, 1, 1, 0, 0, 1 ) 1.0, 0.0;
    ( 1, 0, 2, 1, 1, 0, 1, 0 ) 1.0, 0.0;
    ( 1, 0, 2, 1, 1, 0, 1, 1 ) 0.9375, 0.0625;
    ( 1, 0, 2, 1, 1, 1, 0, 0 ) 0.5, 0.5;
    ( 1, 0, 2, 1, 1, 1, 0, 1 ) 0.5, 0.5;
    ( 1, 0, 2, 1, 1, 1, 1, 0 ) 0.5, 0.5;
    ( 1, 0, 2, 1, 1, 1, 1, 1 ) 1.0, 0.0;
    ( 1, 0, 2, 2, 0, 0, 0, 0 ) 1.0, 0.0;
    ( 1, 0, 2, 2, 0, 0, 0, 1 ) 0.9487179487179487, 0.05128205128205128;
    ( 1, 0, 2, 2, 0, 0, 1, 0 ) 0.9932885906040269, 0.006711409395973154;
    ( 1, 0, 2, 2, 0, 0, 1, 1 ) 0.9827586206896551, 0.017241379310344827;
    ( 1, 0, 2, 2, 0, 1, 0, 0 ) 1.0, 0.0;
    ( 1, 0, 2, 2, 0, 1, 0, 1 ) 1.0, 0.0;
    ( 1, 0, 2, 2, 0, 1, 1, 0 ) 0.8571428571428571, 0.14285714285714285;
    ( 1, 0, 2, 2, 0, 1, 1, 1 ) 1.0, 0.0;
    ( 1, 0, 2, 2, 1, 0, 0, 0 ) 1.0, 0.0;
    ( 1, 0, 2, 2, 1, 0, 0, 1 ) 1.0, 0.0;
    ( 1, 0, 2, 2, 1, 0, 1, 0 ) 0.9, 0.1;
    ( 1, 0, 2, 2, 1, 0, 1, 1 ) 0.8823529411764706, 0.11764705882352941;
    ( 1, 0, 2, 2, 1, 1, 0, 0 ) 0.5, 0.5;
    ( 1, 0, 2, 2, 1, 1, 0, 1 ) 1.0, 0.0;
    ( 1, 0, 2, 2, 1, 1, 1, 0 ) 1.0, 0.0;
    ( 1, 0, 2, 2, 1, 1, 1, 1 ) 1.0, 0.0;
    ( 1, 0, 2, 3, 0, 0, 0, 0 ) 0.7142857142857143, 0.2857142857142857;
    ( 1, 0, 2, 3, 0, 0, 0, 1 ) 1.0, 0.0;
    ( 1, 0, 2, 3, 0, 0, 1, 0 ) 1.0, 0.0;
    ( 1, 0, 2, 3, 0, 0, 1, 1 ) 1.0, 0.0;
    ( 1, 0, 2, 3, 0, 1, 0, 0 ) 0.5, 0.5;
    ( 1, 0, 2, 3, 0, 1, 0, 1 ) 0.5, 0.5;
    ( 1, 0, 2, 3, 0, 1, 1, 0 ) 0.5, 0.5;
    ( 1, 0, 2, 3, 0, 1, 1, 1 ) 0.5, 0.5;
    ( 1, 0, 2, 3, 1, 0, 0, 0 ) 0.5, 0.5;
    ( 1, 0, 2, 3, 1, 0, 0, 1 ) 1.0, 0.0;
    ( 1, 0, 2, 3, 1, 0, 1, 0 ) 0.5, 0.5;
    ( 1, 0, 2, 3, 1, 0, 1, 1 ) 0.5, 0.5;
    ( 1, 0, 2, 3, 1, 1, 0, 0 ) 0.5, 0.5;
    ( 1, 0, 2, 3, 1, 1, 0, 1 ) 0.5, 0.5;
    ( 1, 0, 2, 3, 1, 1, 1, 0 ) 0.5, 0.5;
    ( 1, 0, 2, 3, 1, 1, 1, 1 ) 1.0, 0.0;
    ( 1, 0, 3, 1, 0, 0, 0, 0 ) 0.9943820224719101, 0.0056179775280898875;
    ( 1, 0, 3, 1, 0, 0, 0, 1 ) 0.9818181818181818, 0.01818181818181818;
    ( 1, 0, 3, 1, 0, 0, 1, 0 ) 0.9975624619134674, 0.002437538086532602;
    ( 1, 0, 3, 1, 0, 0, 1, 1 ) 0.994661921708185, 0.005338078291814947;
    ( 1, 0, 3, 1, 0, 1, 0, 0 ) 1.0, 0.0;
    ( 1, 0, 3, 1, 0, 1, 0, 1 ) 1.0, 0.0;
    ( 1, 0, 3, 1, 0, 1, 1, 0 ) 1.0, 0.0;
    ( 1, 0, 3, 1, 0, 1, 1, 1 ) 0.9830508474576272, 0.01694915254237288;
    ( 1, 0, 3, 1, 1, 0, 0, 0 ) 1.0, 0.0;
    ( 1, 0, 3, 1, 1, 0, 0, 1 ) 1.0, 0.0;
    ( 1, 0, 3, 1, 1, 0, 1, 0 ) 1.0, 0.0;
    ( 1, 0, 3, 1, 1, 0, 1, 1 ) 0.987012987012987, 0.012987012987012988;
    ( 1, 0, 3, 1, 1, 1, 0, 0 ) 1.0, 0.0;
    ( 1, 0, 3, 1, 1, 1, 0, 1 ) 1.0, 0.0;
    ( 1, 0, 3, 1, 1, 1, 1, 0 ) 1.0, 0.0;
    ( 1, 0, 3, 1, 1, 1, 1, 1 ) 1.0, 0.0;
    ( 1, 0, 3, 2, 0, 0, 0, 0 ) 1.0, 0.0;
    ( 1, 0, 3, 2, 0, 0, 0, 1 ) 1.0, 0.0;
    ( 1, 0, 3, 2, 0, 0, 1, 0 ) 0.989100817438692, 0.010899182561307902;
    ( 1, 0, 3, 2, 0, 0, 1, 1 ) 0.9881422924901185, 0.011857707509881422;
    ( 1, 0, 3, 2, 0, 1, 0, 0 ) 1.0, 0.0;
    ( 1, 0, 3, 2, 0, 1, 0, 1 ) 1.0, 0.0;
    ( 1, 0, 3, 2, 0, 1, 1, 0 ) 1.0, 0.0;
    ( 1, 0, 3, 2, 0, 1, 1, 1 ) 0.9310344827586207, 0.06896551724137931;
    ( 1, 0, 3, 2, 1, 0, 0, 0 ) 1.0, 0.0;
    ( 1, 0, 3, 2, 1, 0, 0, 1 ) 1.0, 0.0;
    ( 1, 0, 3, 2, 1, 0, 1, 0 ) 1.0, 0.0;
    ( 1, 0, 3, 2, 1, 0, 1, 1 ) 0.9545454545454546, 0.045454545454545456;
    ( 1, 0, 3, 2, 1, 1, 0, 0 ) 0.5, 0.5;
    ( 1, 0, 3, 2, 1, 1, 0, 1 ) 1.0, 0.0;
    ( 1, 0, 3, 2, 1, 1, 1, 0 ) 1.0, 0.0;
    ( 1, 0, 3, 2, 1, 1, 1, 1 ) 0.8333333333333334, 0.16666666666666666;
    ( 1, 0, 3, 3, 0, 0, 0, 0 ) 1.0, 0.0;
    ( 1, 0, 3, 3, 0, 0, 0, 1 ) 1.0, 0.0;
    ( 1, 0, 3, 3, 0, 0, 1, 0 ) 0.75, 0.25;
    ( 1, 0, 3, 3, 0, 0, 1, 1 ) 0.6666666666666666, 0.3333333333333333;
    ( 1, 0, 3, 3, 0, 1, 0, 0 ) 1.0, 0.0;
    ( 1, 0, 3, 3, 0, 1, 0, 1 ) 0.5, 0.5;
    ( 1, 0, 3, 3, 0, 1, 1, 0 ) 0.5, 0.5;
    ( 1, 0, 3, 3, 0, 1, 1, 1 ) 1.0, 0.0;
    ( 1, 0, 3, 3, 1, 0, 0, 0 ) 1.0, 0.0;
    ( 1, 0, 3, 3, 1, 0, 0, 1 ) 1.0, 0.0;
    ( 1, 0, 3, 3, 1, 0, 1, 0 ) 0.5, 0.5;
    ( 1, 0, 3, 3, 1, 0, 1, 1 ) 1.0, 0.0;
    ( 1, 0, 3, 3, 1, 1, 0, 0 ) 0.5, 0.5;
    ( 1, 0, 3, 3, 1, 1, 0, 1 ) 0.5, 0.5;
    ( 1, 0, 3, 3, 1, 1, 1, 0 ) 0.5, 0.5;
    ( 1, 0, 3, 3, 1, 1, 1, 1 ) 0.5, 0.5;
    ( 1, 1, 1, 1, 0, 0, 0, 0 ) 0.5, 0.5;
    ( 1, 1, 1, 1, 0, 0, 0, 1 ) 1.0, 0.0;
    ( 1, 1, 1, 1, 0, 0, 1, 0 ) 1.0, 0.0;
    ( 1, 1, 1, 1, 0, 0, 1, 1 ) 1.0, 0.0;
    ( 1, 1, 1, 1, 0, 1, 0, 0 ) 0.5, 0.5;
    ( 1, 1, 1, 1, 0, 1, 0, 1 ) 0.5, 0.5;
    ( 1, 1, 1, 1, 0, 1, 1, 0 ) 1.0, 0.0;
    ( 1, 1, 1, 1, 0, 1, 1, 1 ) 1.0, 0.0;
    ( 1, 1, 1, 1, 1, 0, 0, 0 ) 0.5, 0.5;
    ( 1, 1, 1, 1, 1, 0, 0, 1 ) 0.5, 0.5;
    ( 1, 1, 1, 1, 1, 0, 1, 0 ) 1.0, 0.0;
    ( 1, 1, 1, 1, 1, 0, 1, 1 ) 1.0, 0.0;
    ( 1, 1, 1, 1, 1, 1, 0, 0 ) 0.5, 0.5;
    ( 1, 1, 1, 1, 1, 1, 0, 1 ) 0.5, 0.5;
    ( 1, 1, 1, 1, 1, 1, 1, 0 ) 0.5, 0.5;
    ( 1, 1, 1, 1, 1, 1, 1, 1 ) 0.0, 1.0;
    ( 1, 1, 1, 2, 0, 0, 0, 0 ) 0.75, 0.25;
    ( 1, 1, 1, 2, 0, 0, 0, 1 ) 0.5, 0.5;
    ( 1, 1, 1, 2, 0, 0, 1, 0 ) 1.0, 0.0;
    ( 1, 1, 1, 2, 0, 0, 1, 1 ) 1.0, 0.0;
    ( 1, 1, 1, 2, 0, 1, 0, 0 ) 0.5, 0.5;
    ( 1, 1, 1, 2, 0, 1, 0, 1 ) 0.5, 0.5;
    ( 1, 1, 1, 2, 0, 1, 1, 0 ) 0.6, 0.4;
    ( 1, 1, 1, 2, 0, 1, 1, 1 ) 0.5, 0.5;
    ( 1, 1, 1, 2, 1, 0, 0, 0 ) 0.5, 0.5;
    ( 1, 1, 1, 2, 1, 0, 0, 1 ) 1.0, 0.0;
    ( 1, 1, 1, 2, 1, 0, 1, 0 ) 1.0, 0.0;
    ( 1, 1, 1, 2, 1, 0, 1, 1 ) 1.0, 0.0;
    ( 1, 1, 1, 2, 1, 1, 0, 0 ) 0.5, 0.5;
    ( 1, 1, 1, 2, 1, 1, 0, 1 ) 0.5, 0.5;
    ( 1, 1, 1, 2, 1, 1, 1, 0 ) 1.0, 0.0;
    ( 1, 1, 1, 2, 1, 1, 1, 1 ) 0.5, 0.5;
    ( 1, 1, 1, 3, 0, 0, 0, 0 ) 1.0, 0.0;
    ( 1, 1, 1, 3, 0, 0, 0, 1 ) 0.5, 0.5;
    ( 1, 1, 1, 3, 0, 0, 1, 0 ) 0.5, 0.5;
    ( 1, 1, 1, 3, 0, 0, 1, 1 ) 0.5, 0.5;
    ( 1, 1, 1, 3, 0, 1, 0, 0 ) 0.5, 0.5;
    ( 1, 1, 1, 3, 0, 1, 0, 1 ) 0.5, 0.5;
    ( 1, 1, 1, 3, 0, 1, 1, 0 ) 0.5, 0.5;
    ( 1, 1, 1, 3, 0, 1, 1, 1 ) 0.0, 1.0;
    ( 1, 1, 1, 3, 1, 0, 0, 0 ) 0.5, 0.5;
    ( 1, 1, 1, 3, 1, 0, 0, 1 ) 0.5, 0.5;
    ( 1, 1, 1, 3, 1, 0, 1, 0 ) 1.0, 0.0;
    ( 1, 1, 1, 3, 1, 0, 1, 1 ) 0.5, 0.5;
    ( 1, 1, 1, 3, 1, 1, 0, 0 ) 0.5, 0.5;
    ( 1, 1, 1, 3, 1, 1, 0, 1 ) 0.5, 0.5;
    ( 1, 1, 1, 3, 1, 1, 1, 0 ) 0.5, 0.5;
    ( 1, 1, 1, 3, 1, 1, 1, 1 ) 0.5, 0.5;
    ( 1, 1, 2, 1, 0, 0, 0, 0 ) 1.0, 0.0;
    ( 1, 1, 2, 1, 0, 0, 0, 1 ) 0.9850746268656716, 0.014925373134328358;
    ( 1, 1, 2, 1, 0, 0, 1, 0 ) 0.9921568627450981, 0.00784313725490196;
    ( 1, 1, 2, 1, 0, 0, 1, 1 ) 0.9881796690307328, 0.01182033096926714;
    ( 1, 1, 2, 1, 0, 1, 0, 0 ) 1.0, 0.0;
    ( 1, 1, 2, 1, 0, 1, 0, 1 ) 1.0, 0.0;
    ( 1, 1, 2, 1, 0, 1, 1, 0 ) 1.0, 0.0;
    ( 1, 1, 2, 1, 0, 1, 1, 1 ) 1.0, 0.0;
    ( 1, 1, 2, 1, 1, 0, 0, 0 ) 1.0, 0.0;
    ( 1, 1, 2, 1, 1, 0, 0, 1 ) 1.0, 0.0;
    ( 1, 1, 2, 1, 1, 0, 1, 0 ) 1.0, 0.0;
    ( 1, 1, 2, 1, 1, 0, 1, 1 ) 0.9782608695652174, 0.021739130434782608;
    ( 1, 1, 2, 1, 1, 1, 0, 0 ) 1.0, 0.0;
    ( 1, 1, 2, 1, 1, 1, 0, 1 ) 0.8, 0.2;
    ( 1, 1, 2, 1, 1, 1, 1, 0 ) 0.8333333333333334, 0.16666666666666666;
    ( 1, 1, 2, 1, 1, 1, 1, 1 ) 0.8947368421052632, 0.10526315789473684;
    ( 1, 1, 2, 2, 0, 0, 0, 0 ) 0.9625, 0.0375;
    ( 1, 1, 2, 2, 0, 0, 0, 1 ) 1.0, 0.0;
    ( 1, 1, 2, 2, 0, 0, 1, 0 ) 0.9344978165938864, 0.06550218340611354;
    ( 1, 1, 2, 2, 0, 0, 1, 1 ) 1.0, 0.0;
    ( 1, 1, 2, 2, 0, 1, 0, 0 ) 0.9090909090909091, 0.09090909090909091;
    ( 1, 1, 2, 2, 0, 1, 0, 1 ) 0.9166666666666666, 0.08333333333333333;
    ( 1, 1, 2, 2, 0, 1, 1, 0 ) 0.8846153846153846, 0.11538461538461539;
    ( 1, 1, 2, 2, 0, 1, 1, 1 ) 0.9655172413793104, 0.034482758620689655;
    ( 1, 1, 2, 2, 1, 0, 0, 0 ) 1.0, 0.0;
    ( 1, 1, 2, 2, 1, 0, 0, 1 ) 0.8571428571428571, 0.14285714285714285;
    ( 1, 1, 2, 2, 1, 0, 1, 0 ) 0.9666666666666667, 0.03333333333333333;
    ( 1, 1, 2, 2, 1, 0, 1, 1 ) 1.0, 0.0;
    ( 1, 1, 2, 2, 1, 1, 0, 0 ) 1.0, 0.0;
    ( 1, 1, 2, 2, 1, 1, 0, 1 ) 1.0, 0.0;
    ( 1, 1, 2, 2, 1, 1, 1, 0 ) 0.625, 0.375;
    ( 1, 1, 2, 2, 1, 1, 1, 1 ) 0.9473684210526315, 0.05263157894736842;
    ( 1, 1, 2, 3, 0, 0, 0, 0 ) 1.0, 0.0;
    ( 1, 1, 2, 3, 0, 0, 0, 1 ) 0.8333333333333334, 0.16666666666666666;
    ( 1, 1, 2, 3, 0, 0, 1, 0 ) 0.75, 0.25;
    ( 1, 1, 2, 3, 0, 0, 1, 1 ) 1.0, 0.0;
    ( 1, 1, 2, 3, 0, 1, 0, 0 ) 0.5, 0.5;
    ( 1, 1, 2, 3, 0, 1, 0, 1 ) 0.5, 0.5;
    ( 1, 1, 2, 3, 0, 1, 1, 0 ) 1.0, 0.0;
    ( 1, 1, 2, 3, 0, 1, 1, 1 ) 0.5, 0.5;
    ( 1, 1, 2, 3, 1, 0, 0, 0 ) 1.0, 0.0;
    ( 1, 1, 2, 3, 1, 0, 0, 1 ) 0.5, 0.5;
    ( 1, 1, 2, 3, 1, 0, 1, 0 ) 1.0, 0.0;
    ( 1, 1, 2, 3, 1, 0, 1, 1 ) 1.0, 0.0;
    ( 1, 1, 2, 3, 1, 1, 0, 0 ) 0.5, 0.5;
    ( 1, 1, 2, 3, 1, 1, 0, 1 ) 0.5, 0.5;
    ( 1, 1, 2, 3, 1, 1, 1, 0 ) 0.5, 0.5;
    ( 1, 1, 2, 3, 1, 1, 1, 1 ) 0.5, 0.5;
    ( 1, 1, 3, 1, 0, 0, 0, 0 ) 1.0, 0.0;
    ( 1, 1, 3, 1, 0, 0, 0, 1 ) 1.0, 0.0;
    ( 1, 1, 3, 1, 0, 0, 1, 0 ) 0.9927667269439421, 0.007233273056057866;
    ( 1, 1, 3, 1, 0, 0, 1, 1 ) 0.9939393939393939, 0.006060606060606061;
    ( 1, 1, 3, 1, 0, 1, 0, 0 ) 1.0, 0.0;
    ( 1, 1, 3, 1, 0, 1, 0, 1 ) 1.0, 0.0;
    ( 1, 1, 3, 1, 0, 1, 1, 0 ) 0.990990990990991, 0.009009009009009009;
    ( 1, 1, 3, 1, 0, 1, 1, 1 ) 0.9741379310344828, 0.02586206896551724;
    ( 1, 1, 3, 1, 1, 0, 0, 0 ) 1.0, 0.0;
    ( 1, 1, 3, 1, 1, 0, 0, 1 ) 1.0, 0.0;
    ( 1, 1, 3, 1, 1, 0, 1, 0 ) 1.0, 0.0;
    ( 1, 1, 3, 1, 1, 0, 1, 1 ) 0.9757575757575757, 0.024242424242424242;
    ( 1, 1, 3, 1, 1, 1, 0, 0 ) 0.5, 0.5;
    ( 1, 1, 3, 1, 1, 1, 0, 1 ) 1.0, 0.0;
    ( 1, 1, 3, 1, 1, 1, 1, 0 ) 1.0, 0.0;
    ( 1, 1, 3, 1, 1, 1, 1, 1 ) 0.9830508474576272, 0.01694915254237288;
    ( 1, 1, 3, 2, 0, 0, 0, 0 ) 0.9558823529411765, 0.04411764705882353;
    ( 1, 1, 3, 2, 0, 0, 0, 1 ) 0.987012987012987, 0.012987012987012988;
    ( 1, 1, 3, 2, 0, 0, 1, 0 ) 0.9779816513761468, 0.022018348623853212;
    ( 1, 1, 3, 2, 0, 0, 1, 1 ) 1.0, 0.0;
    ( 1, 1, 3, 2, 0, 1, 0, 0 ) 0.8461538461538461, 0.15384615384615385;
    ( 1, 1, 3, 2, 0, 1, 0, 1 ) 1.0, 0.0;
    ( 1, 1, 3, 2, 0, 1, 1, 0 ) 0.9545454545454546, 0.045454545454545456;
    ( 1, 1, 3, 2, 0, 1, 1, 1 ) 0.9315068493150684, 0.0684931506849315;
    ( 1, 1, 3, 2, 1, 0, 0, 0 ) 1.0, 0.0;
    ( 1, 1, 3, 2, 1, 0, 0, 1 ) 1.0, 0.0;
    ( 1, 1, 3, 2, 1, 0, 1, 0 ) 0.9152542372881356, 0.0847457627118644;
    ( 1, 1, 3, 2, 1, 0, 1, 1 ) 0.9758064516129032, 0.024193548387096774;
    ( 1, 1, 3, 2, 1, 1, 0, 0 ) 0.875, 0.125;
    ( 1, 1, 3, 2, 1, 1, 0, 1 ) 0.8, 0.2;
    ( 1, 1, 3, 2, 1, 1, 1, 0 ) 1.0, 0.0;
    ( 1, 1, 3, 2, 1, 1, 1, 1 ) 0.9487179487179487, 0.05128205128205128;
    ( 1, 1, 3, 3, 0, 0, 0, 0 ) 1.0, 0.0;
    ( 1, 1, 3, 3, 0, 0, 0, 1 ) 1.0, 0.0;
    ( 1, 1, 3, 3, 0, 0, 1, 0 ) 1.0, 0.0;
    ( 1, 1, 3, 3, 0, 0, 1, 1 ) 1.0, 0.0;
    ( 1, 1, 3, 3, 0, 1, 0, 0 ) 0.5, 0.5;
    ( 1, 1, 3, 3, 0, 1, 0, 1 ) 0.5, 0.5;
    ( 1, 1, 3, 3, 0, 1, 1, 0 ) 0.6666666666666666, 0.3333333333333333;
    ( 1, 1, 3, 3, 0, 1, 1, 1 ) 0.5, 0.5;
    ( 1, 1, 3, 3, 1, 0, 0, 0 ) 1.0, 0.0;
    ( 1, 1, 3, 3, 1, 0, 0, 1 ) 0.5, 0.5;
    ( 1, 1, 3, 3, 1, 0, 1, 0 ) 1.0, 0.0;
    ( 1, 1, 3, 3, 1, 0, 1, 1 ) 1.0, 0.0;
    ( 1, 1, 3, 3, 1, 1, 0, 0 ) 1.0, 0.0;
    ( 1, 1, 3, 3, 1, 1, 0, 1 ) 0.5, 0.5;
    ( 1, 1, 3, 3, 1, 1, 1, 0 ) 0.0, 1.0;
    ( 1, 1, 3, 3, 1, 1, 1, 1 ) 1.0, 0.0;
    ( 1, 2, 1, 1, 0, 0, 0, 0 ) 0.5, 0.5;
    ( 1, 2, 1, 1, 0, 0, 0, 1 ) 0.5, 0.5;
    ( 1, 2, 1, 1, 0, 0, 1, 0 ) 1.0, 0.0;
    ( 1, 2, 1, 1, 0, 0, 1, 1 ) 0.5, 0.5;
    ( 1, 2, 1, 1, 0, 1, 0, 0 ) 0.5, 0.5;
    ( 1, 2, 1, 1, 0, 1, 0, 1 ) 0.5, 0.5;
    ( 1, 2, 1, 1, 0, 1, 1, 0 ) 0.5, 0.5;
    ( 1, 2, 1, 1, 0, 1, 1, 1 ) 0.5, 0.5;
    ( 1, 2, 1, 1, 1, 0, 0, 0 ) 0.5, 0.5;
    ( 1, 2, 1, 1, 1, 0, 0, 1 ) 0.5, 0.5;
    ( 1, 2, 1, 1, 1, 0, 1, 0 ) 0.5, 0.5;
    ( 1, 2, 1, 1, 1, 0, 1, 1 ) 0.5, 0.5;
    ( 1, 2, 1, 1, 1, 1, 0, 0 ) 0.5, 0.5;
    ( 1, 2, 1, 1, 1, 1, 0, 1 ) 0.5, 0.5;
    ( 1, 2, 1, 1, 1, 1, 1, 0 ) 0.5, 0.5;
    ( 1, 2, 1, 1, 1, 1, 1, 1 ) 0.5, 0.5;
    ( 1, 2, 1, 2, 0, 0, 0, 0 ) 1.0, 0.0;
    ( 1, 2, 1, 2, 0, 0, 0, 1 ) 1.0, 0.0;
    ( 1, 2, 1, 2, 0, 0, 1, 0 ) 0.5, 0.5;
    ( 1, 2, 1, 2, 0, 0, 1, 1 ) 1.0, 0.0;
    ( 1, 2, 1, 2, 0, 1, 0, 0 ) 0.5, 0.5;
    ( 1, 2, 1, 2, 0, 1, 0, 1 ) 0.5, 0.5;
    ( 1, 2, 1, 2, 0, 1, 1, 0 ) 0.5, 0.5;
    ( 1, 2, 1, 2, 0, 1, 1, 1 ) 0.5, 0.5;
    ( 1, 2, 1, 2, 1, 0, 0, 0 ) 0.5, 0.5;
    ( 1, 2, 1, 2, 1, 0, 0, 1 ) 0.5, 0.5;
    ( 1, 2, 1, 2, 1, 0, 1, 0 ) 1.0, 0.0;
    ( 1, 2, 1, 2, 1, 0, 1, 1 ) 0.5, 0.5;
    ( 1, 2, 1, 2, 1, 1, 0, 0 ) 0.5, 0.5;
    ( 1, 2, 1, 2, 1, 1, 0, 1 ) 0.5, 0.5;
    ( 1, 2, 1, 2, 1, 1, 1, 0 ) 0.5, 0.5;
    ( 1, 2, 1, 2, 1, 1, 1, 1 ) 0.5, 0.5;
    ( 1, 2, 1, 3, 0, 0, 0, 0 ) 0.5, 0.5;
    ( 1, 2, 1, 3, 0, 0, 0, 1 ) 0.5, 0.5;
    ( 1, 2, 1, 3, 0, 0, 1, 0 ) 0.5, 0.5;
    ( 1, 2, 1, 3, 0, 0, 1, 1 ) 0.5, 0.5;
    ( 1, 2, 1, 3, 0, 1, 0, 0 ) 0.5, 0.5;
    ( 1, 2, 1, 3, 0, 1, 0, 1 ) 0.5, 0.5;
    ( 1, 2, 1, 3, 0, 1, 1, 0 ) 0.5, 0.5;
    ( 1, 2, 1, 3, 0, 1, 1, 1 ) 0.5, 0.5;
    ( 1, 2, 1, 3, 1, 0, 0, 0 ) 0.5, 0.5;
    ( 1, 2, 1, 3, 1, 0, 0, 1 ) 0.5, 0.5;
    ( 1, 2, 1, 3, 1, 0, 1, 0 ) 0.5, 0.5;
    ( 1, 2, 1, 3, 1, 0, 1, 1 ) 0.5, 0.5;
    ( 1, 2, 1, 3, 1, 1, 0, 0 ) 0.5, 0.5;
    ( 1, 2, 1, 3, 1, 1, 0, 1 ) 0.5, 0.5;
    ( 1, 2, 1, 3, 1, 1, 1, 0 ) 0.5, 0.5;
    ( 1, 2, 1, 3, 1, 1, 1, 1 ) 0.5, 0.5;
    ( 1, 2, 2, 1, 0, 0, 0, 0 ) 1.0, 0.0;
    ( 1, 2, 2, 1, 0, 0, 0, 1 ) 1.0, 0.0;
    ( 1, 2, 2, 1, 0, 0, 1, 0 ) 1.0, 0.0;
    ( 1, 2, 2, 1, 0, 0, 1, 1 ) 1.0, 0.0;
    ( 1, 2, 2, 1, 0, 1, 0, 0 ) 1.0, 0.0;
    ( 1, 2, 2, 1, 0, 1, 0, 1 ) 1.0, 0.0;
    ( 1, 2, 2, 1, 0, 1, 1, 0 ) 1.0, 0.0;
    ( 1, 2, 2, 1, 0, 1, 1, 1 ) 1.0, 0.0;
    ( 1, 2, 2, 1, 1, 0, 0, 0 ) 0.5, 0.5;
    ( 1, 2, 2, 1, 1, 0, 0, 1 ) 1.0, 0.0;
    ( 1, 2, 2, 1, 1, 0, 1, 0 ) 1.0, 0.0;
    ( 1, 2, 2, 1, 1, 0, 1, 1 ) 1.0, 0.0;
    ( 1, 2, 2, 1, 1, 1, 0, 0 ) 0.5, 0.5;
    ( 1, 2, 2, 1, 1, 1, 0, 1 ) 1.0, 0.0;
    ( 1, 2, 2, 1, 1, 1, 1, 0 ) 1.0, 0.0;
    ( 1, 2, 2, 1, 1, 1, 1, 1 ) 1.0, 0.0;
    ( 1, 2, 2, 2, 0, 0, 0, 0 ) 1.0, 0.0;
    ( 1, 2, 2, 2, 0, 0, 0, 1 ) 1.0, 0.0;
    ( 1, 2, 2, 2, 0, 0, 1, 0 ) 0.9375, 0.0625;
    ( 1, 2, 2, 2, 0, 0, 1, 1 ) 0.95, 0.05;
    ( 1, 2, 2, 2, 0, 1, 0, 0 ) 0.5, 0.5;
    ( 1, 2, 2, 2, 0, 1, 0, 1 ) 1.0, 0.0;
    ( 1, 2, 2, 2, 0, 1, 1, 0 ) 0.875, 0.125;
    ( 1, 2, 2, 2, 0, 1, 1, 1 ) 0.6666666666666666, 0.3333333333333333;
    ( 1, 2, 2, 2, 1, 0, 0, 0 ) 0.7142857142857143, 0.2857142857142857;
    ( 1, 2, 2, 2, 1, 0, 0, 1 ) 0.75, 0.25;
    ( 1, 2, 2, 2, 1, 0, 1, 0 ) 0.625, 0.375;
    ( 1, 2, 2, 2, 1, 0, 1, 1 ) 1.0, 0.0;
    ( 1, 2, 2, 2, 1, 1, 0, 0 ) 0.75, 0.25;
    ( 1, 2, 2, 2, 1, 1, 0, 1 ) 0.75, 0.25;
    ( 1, 2, 2, 2, 1, 1, 1, 0 ) 0.5, 0.5;
    ( 1, 2, 2, 2, 1, 1, 1, 1 ) 0.7777777777777778, 0.2222222222222222;
    ( 1, 2, 2, 3, 0, 0, 0, 0 ) 1.0, 0.0;
    ( 1, 2, 2, 3, 0, 0, 0, 1 ) 1.0, 0.0;
    ( 1, 2, 2, 3, 0, 0, 1, 0 ) 1.0, 0.0;
    ( 1, 2, 2, 3, 0, 0, 1, 1 ) 1.0, 0.0;
    ( 1, 2, 2, 3, 0, 1, 0, 0 ) 0.5, 0.5;
    ( 1, 2, 2, 3, 0, 1, 0, 1 ) 0.5, 0.5;
    ( 1, 2, 2, 3, 0, 1, 1, 0 ) 1.0, 0.0;
    ( 1, 2, 2, 3, 0, 1, 1, 1 ) 0.5, 0.5;
    ( 1, 2, 2, 3, 1, 0, 0, 0 ) 1.0, 0.0;
    ( 1, 2, 2, 3, 1, 0, 0, 1 ) 0.5, 0.5;
    ( 1, 2, 2, 3, 1, 0, 1, 0 ) 0.5, 0.5;
    ( 1, 2, 2, 3, 1, 0, 1, 1 ) 0.5, 0.5;
    ( 1, 2, 2, 3, 1, 1, 0, 0 ) 0.0, 1.0;
    ( 1, 2, 2, 3, 1, 1, 0, 1 ) 0.5, 0.5;
    ( 1, 2, 2, 3, 1, 1, 1, 0 ) 0.5, 0.5;
    ( 1, 2, 2, 3, 1, 1, 1, 1 ) 0.5, 0.5;
    ( 1, 2, 3, 1, 0, 0, 0, 0 ) 1.0, 0.0;
    ( 1, 2, 3, 1, 0, 0, 0, 1 ) 1.0, 0.0;
    ( 1, 2, 3, 1, 0, 0, 1, 0 ) 0.96875, 0.03125;
    ( 1, 2, 3, 1, 0, 0, 1, 1 ) 1.0, 0.0;
    ( 1, 2, 3, 1, 0, 1, 0, 0 ) 0.5, 0.5;
    ( 1, 2, 3, 1, 0, 1, 0, 1 ) 1.0, 0.0;
    ( 1, 2, 3, 1, 0, 1, 1, 0 ) 1.0, 0.0;
    ( 1, 2, 3, 1, 0, 1, 1, 1 ) 1.0, 0.0;
    ( 1, 2, 3, 1, 1, 0, 0, 0 ) 0.5, 0.5;
    ( 1, 2, 3, 1, 1, 0, 0, 1 ) 1.0, 0.0;
    ( 1, 2, 3, 1, 1, 0, 1, 0 ) 1.0, 0.0;
    ( 1, 2, 3, 1, 1, 0, 1, 1 ) 1.0, 0.0;
    ( 1, 2, 3, 1, 1, 1, 0, 0 ) 1.0, 0.0;
    ( 1, 2, 3, 1, 1, 1, 0, 1 ) 0.5, 0.5;
    ( 1, 2, 3, 1, 1, 1, 1, 0 ) 0.5, 0.5;
    ( 1, 2, 3, 1, 1, 1, 1, 1 ) 0.5, 0.5;
    ( 1, 2, 3, 2, 0, 0, 0, 0 ) 0.9285714285714286, 0.07142857142857142;
    ( 1, 2, 3, 2, 0, 0, 0, 1 ) 1.0, 0.0;
    ( 1, 2, 3, 2, 0, 0, 1, 0 ) 0.9459459459459459, 0.05405405405405406;
    ( 1, 2, 3, 2, 0, 0, 1, 1 ) 1.0, 0.0;
    ( 1, 2, 3, 2, 0, 1, 0, 0 ) 0.7142857142857143, 0.2857142857142857;
    ( 1, 2, 3, 2, 0, 1, 0, 1 ) 1.0, 0.0;
    ( 1, 2, 3, 2, 0, 1, 1, 0 ) 0.9565217391304348, 0.043478260869565216;
    ( 1, 2, 3, 2, 0, 1, 1, 1 ) 0.5, 0.5;
    ( 1, 2, 3, 2, 1, 0, 0, 0 ) 0.7272727272727273, 0.2727272727272727;
    ( 1, 2, 3, 2, 1, 0, 0, 1 ) 1.0, 0.0;
    ( 1, 2, 3, 2, 1, 0, 1, 0 ) 0.8461538461538461, 0.15384615384615385;
    ( 1, 2, 3, 2, 1, 0, 1, 1 ) 0.9473684210526315, 0.05263157894736842;
    ( 1, 2, 3, 2, 1, 1, 0, 0 ) 0.0, 1.0;
    ( 1, 2, 3, 2, 1, 1, 0, 1 ) 1.0, 0.0;
    ( 1, 2, 3, 2, 1, 1, 1, 0 ) 0.7857142857142857, 0.21428571428571427;
    ( 1, 2, 3, 2, 1, 1, 1, 1 ) 1.0, 0.0;
    ( 1, 2, 3, 3, 0, 0, 0, 0 ) 1.0, 0.0;
    ( 1, 2, 3, 3, 0, 0, 0, 1 ) 0.5, 0.5;
    ( 1, 2, 3, 3, 0, 0, 1, 0 ) 1.0, 0.0;
    ( 1, 2, 3, 3, 0, 0, 1, 1 ) 0.5, 0.5;
    ( 1, 2, 3, 3, 0, 1, 0, 0 ) 0.5, 0.5;
    ( 1, 2, 3, 3, 0, 1, 0, 1 ) 0.5, 0.5;
    ( 1, 2, 3, 3, 0, 1, 1, 0 ) 1.0, 0.0;
    ( 1, 2, 3, 3, 0, 1, 1, 1 ) 0.5, 0.5;
    ( 1, 2, 3, 3, 1, 0, 0, 0 ) 0.5, 0.5;
    ( 1, 2, 3, 3, 1, 0, 0, 1 ) 0.5, 0.5;
    ( 1, 2, 3, 3, 1, 0, 1, 0 ) 1.0, 0.0;
    ( 1, 2, 3, 3, 1, 0, 1, 1 ) 1.0, 0.0;
    ( 1, 2, 3, 3, 1, 1, 0, 0 ) 0.5, 0.5;
    ( 1, 2, 3, 3, 1, 1, 0, 1 ) 0.5, 0.5;
    ( 1, 2, 3, 3, 1, 1, 1, 0 ) 0.0, 1.0;
    ( 1, 2, 3, 3, 1, 1, 1, 1 ) 0.5, 0.5;
    ( 2, 0, 1, 1, 0, 0, 0, 0 ) 1.0, 0.0;
    ( 2, 0, 1, 1, 0, 0, 0, 1 ) 0.5, 0.5;
    ( 2, 0, 1, 1, 0, 0, 1, 0 ) 1.0, 0.0;
    ( 2, 0, 1, 1, 0, 0, 1, 1 ) 1.0, 0.0;
    ( 2, 0, 1, 1, 0, 1, 0, 0 ) 0.5, 0.5;
    ( 2, 0, 1, 1, 0, 1, 0, 1 ) 0.5, 0.5;
    ( 2, 0, 1, 1, 0, 1, 1, 0 ) 1.0, 0.0;
    ( 2, 0, 1, 1, 0, 1, 1, 1 ) 1.0, 0.0;
    ( 2, 0, 1, 1, 1, 0, 0, 0 ) 0.5, 0.5;
    ( 2, 0, 1, 1, 1, 0, 0, 1 ) 0.5, 0.5;
    ( 2, 0, 1, 1, 1, 0, 1, 0 ) 0.5, 0.5;
    ( 2, 0, 1, 1, 1, 0, 1, 1 ) 0.5, 0.5;
    ( 2, 0, 1, 1, 1, 1, 0, 0 ) 0.5, 0.5;
    ( 2, 0, 1, 1, 1, 1, 0, 1 ) 0.5, 0.5;
    ( 2, 0, 1, 1, 1, 1, 1, 0 ) 0.5, 0.5;
    ( 2, 0, 1, 1, 1, 1, 1, 1 ) 0.5, 0.5;
    ( 2, 0, 1, 2, 0, 0, 0, 0 ) 1.0, 0.0;
    ( 2, 0, 1, 2, 0, 0, 0, 1 ) 1.0, 0.0;
    ( 2, 0, 1, 2, 0, 0, 1, 0 ) 0.9166666666666666, 0.08333333333333333;
    ( 2, 0, 1, 2, 0, 0, 1, 1 ) 0.8888888888888888, 0.1111111111111111;
    ( 2, 0, 1, 2, 0, 1, 0, 0 ) 0.5, 0.5;
    ( 2, 0, 1, 2, 0, 1, 0, 1 ) 1.0, 0.0;
    ( 2, 0, 1, 2, 0, 1, 1, 0 ) 1.0, 0.0;
    ( 2, 0, 1, 2, 0, 1, 1, 1 ) 1.0, 0.0;
    ( 2, 0, 1, 2, 1, 0, 0, 0 ) 1.0, 0.0;
    ( 2, 0, 1, 2, 1, 0, 0, 1 ) 0.5, 0.5;
    ( 2, 0, 1, 2, 1, 0, 1, 0 ) 1.0, 0.0;
    ( 2, 0, 1, 2, 1, 0, 1, 1 ) 0.5, 0.5;
    ( 2, 0, 1, 2, 1, 1, 0, 0 ) 0.5, 0.5;
    ( 2, 0, 1, 2, 1, 1, 0, 1 ) 0.5, 0.5;
    ( 2, 0, 1, 2, 1, 1, 1, 0 ) 0.5, 0.5;
    ( 2, 0, 1, 2, 1, 1, 1, 1 ) 1.0, 0.0;
    ( 2, 0, 1, 3, 0, 0, 0, 0 ) 0.5, 0.5;
    ( 2, 0, 1, 3, 0, 0, 0, 1 ) 0.0, 1.0;
    ( 2, 0, 1, 3, 0, 0, 1, 0 ) 0.5, 0.5;
    ( 2, 0, 1, 3, 0, 0, 1, 1 ) 0.0, 1.0;
    ( 2, 0, 1, 3, 0, 1, 0, 0 ) 0.5, 0.5;
    ( 2, 0, 1, 3, 0, 1, 0, 1 ) 1.0, 0.0;
    ( 2, 0, 1, 3, 0, 1, 1, 0 ) 1.0, 0.0;
    ( 2, 0, 1, 3, 0, 1, 1, 1 ) 0.5, 0.5;
    ( 2, 0, 1, 3, 1, 0, 0, 0 ) 0.5, 0.5;
    ( 2, 0, 1, 3, 1, 0, 0, 1 ) 0.5, 0.5;
    ( 2, 0, 1, 3, 1, 0, 1, 0 ) 0.5, 0.5;
    ( 2, 0, 1, 3, 1, 0, 1, 1 ) 0.5, 0.5;
    ( 2, 0, 1, 3, 1, 1, 0, 0 ) 0.5, 0.5;
    ( 2, 0, 1, 3, 1, 1, 0, 1 ) 0.5, 0.5;
    ( 2, 0, 1, 3, 1, 1, 1, 0 ) 0.5, 0.5;
    ( 2, 0, 1, 3, 1, 1, 1, 1 ) 1.0, 0.0;
    ( 2, 0, 2, 1, 0, 0, 0, 0 ) 0.9705882352941176, 0.029411764705882353;
    ( 2, 0, 2, 1, 0, 0, 0, 1 ) 1.0, 0.0;
    ( 2, 0, 2, 1, 0, 0, 1, 0 ) 0.9958847736625515, 0.00411522633744856;
    ( 2, 0, 2, 1, 0, 0, 1, 1 ) 1.0, 0.0;
    ( 2, 0, 2, 1, 0, 1, 0, 0 ) 1.0, 0.0;
    ( 2, 0, 2, 1, 0, 1, 0, 1 ) 1.0, 0.0;
    ( 2, 0, 2, 1, 0, 1, 1, 0 ) 1.0, 0.0;
    ( 2, 0, 2, 1, 0, 1, 1, 1 ) 0.9444444444444444, 0.05555555555555555;
    ( 2, 0, 2, 1, 1, 0, 0, 0 ) 1.0, 0.0;
    ( 2, 0, 2, 1, 1, 0, 0, 1 ) 1.0, 0.0;
    ( 2, 0, 2, 1, 1, 0, 1, 0 ) 1.0, 0.0;
    ( 2, 0, 2, 1, 1, 0, 1, 1 ) 1.0, 0.0;
    ( 2, 0, 2, 1, 1, 1, 0, 0 ) 0.5, 0.5;
    ( 2, 0, 2, 1, 1, 1, 0, 1 ) 0.5, 0.5;
    ( 2, 0, 2, 1, 1, 1, 1, 0 ) 1.0, 0.0;
    ( 2, 0, 2, 1, 1, 1, 1, 1 ) 1.0, 0.0;
    ( 2, 0, 2, 2, 0, 0, 0, 0 ) 0.9342105263157895, 0.06578947368421052;
    ( 2, 0, 2, 2, 0, 0, 0, 1 ) 1.0, 0.0;
    ( 2, 0, 2, 2, 0, 0, 1, 0 ) 0.9857142857142858, 0.014285714285714285;
    ( 2, 0, 2, 2, 0, 0, 1, 1 ) 0.9464285714285714, 0.05357142857142857;
    ( 2, 0, 2, 2, 0, 1, 0, 0 ) 0.8333333333333334, 0.16666666666666666;
    ( 2, 0, 2, 2, 0, 1, 0, 1 ) 0.875, 0.125;
    ( 2, 0, 2, 2, 0, 1, 1, 0 ) 0.9090909090909091, 0.09090909090909091;
    ( 2, 0, 2, 2, 0, 1, 1, 1 ) 0.8333333333333334, 0.16666666666666666;
    ( 2, 0, 2, 2, 1, 0, 0, 0 ) 1.0, 0.0;
    ( 2, 0, 2, 2, 1, 0, 0, 1 ) 1.0, 0.0;
    ( 2, 0, 2, 2, 1, 0, 1, 0 ) 1.0, 0.0;
    ( 2, 0, 2, 2, 1, 0, 1, 1 ) 0.9444444444444444, 0.05555555555555555;
    ( 2, 0, 2, 2, 1, 1, 0, 0 ) 0.5555555555555556, 0.4444444444444444;
    ( 2, 0, 2, 2, 1, 1, 0, 1 ) 1.0, 0.0;
    ( 2, 0, 2, 2, 1, 1, 1, 0 ) 0.75, 0.25;
    ( 2, 0, 2, 2, 1, 1, 1, 1 ) 0.8823529411764706, 0.11764705882352941;
    ( 2, 0, 2, 3, 0, 0, 0, 0 ) 0.8571428571428571, 0.14285714285714285;
    ( 2, 0, 2, 3, 0, 0, 0, 1 ) 1.0, 0.0;
    ( 2, 0, 2, 3, 0, 0, 1, 0 ) 1.0, 0.0;
    ( 2, 0, 2, 3, 0, 0, 1, 1 ) 1.0, 0.0;
    ( 2, 0, 2, 3, 0, 1, 0, 0 ) 0.5, 0.5;
    ( 2, 0, 2, 3, 0, 1, 0, 1 ) 1.0, 0.0;
    ( 2, 0, 2, 3, 0, 1, 1, 0 ) 1.0, 0.0;
    ( 2, 0, 2, 3, 0, 1, 1, 1 ) 0.5, 0.5;
    ( 2, 0, 2, 3, 1, 0, 0, 0 ) 0.5, 0.5;
    ( 2, 0, 2, 3, 1, 0, 0, 1 ) 1.0, 0.0;
    ( 2, 0, 2, 3, 1, 0, 1, 0 ) 0.6666666666666666, 0.3333333333333333;
    ( 2, 0, 2, 3, 1, 0, 1, 1 ) 0.75, 0.25;
    ( 2, 0, 2, 3, 1, 1, 0, 0 ) 1.0, 0.0;
    ( 2, 0, 2, 3, 1, 1, 0, 1 ) 1.0, 0.0;
    ( 2, 0, 2, 3, 1, 1, 1, 0 ) 0.75, 0.25;
    ( 2, 0, 2, 3, 1, 1, 1, 1 ) 0.5, 0.5;
    ( 2, 0, 3, 1, 0, 0, 0, 0 ) 1.0, 0.0;
    ( 2, 0, 3, 1, 0, 0, 0, 1 ) 1.0, 0.0;
    ( 2, 0, 3, 1, 0, 0, 1, 0 ) 0.9953488372093023, 0.004651162790697674;
    ( 2, 0, 3, 1, 0, 0, 1, 1 ) 0.9925311203319502, 0.007468879668049793;
    ( 2, 0, 3, 1, 0, 1, 0, 0 ) 1.0, 0.0;
    ( 2, 0, 3, 1, 0, 1, 0, 1 ) 0.9444444444444444, 0.05555555555555555;
    ( 2, 0, 3, 1, 0, 1, 1, 0 ) 0.989247311827957, 0.010752688172043012;
    ( 2, 0, 3, 1, 0, 1, 1, 1 ) 0.9707602339181286, 0.029239766081871343;
    ( 2, 0, 3, 1, 1, 0, 0, 0 ) 1.0, 0.0;
    ( 2, 0, 3, 1, 1, 0, 0, 1 ) 1.0, 0.0;
    ( 2, 0, 3, 1, 1, 0, 1, 0 ) 0.978494623655914, 0.021505376344086023;
    ( 2, 0, 3, 1, 1, 0, 1, 1 ) 1.0, 0.0;
    ( 2, 0, 3, 1, 1, 1, 0, 0 ) 1.0, 0.0;
    ( 2, 0, 3, 1, 1, 1, 0, 1 ) 1.0, 0.0;
    ( 2, 0, 3, 1, 1, 1, 1, 0 ) 1.0, 0.0;
    ( 2, 0, 3, 1, 1, 1, 1, 1 ) 0.967741935483871, 0.03225806451612903;
    ( 2, 0, 3, 2, 0, 0, 0, 0 ) 0.9555555555555556, 0.044444444444444446;
    ( 2, 0, 3, 2, 0, 0, 0, 1 ) 0.9850746268656716, 0.014925373134328358;
    ( 2, 0, 3, 2, 0, 0, 1, 0 ) 0.9874213836477987, 0.012578616352201259;
    ( 2, 0, 3, 2, 0, 0, 1, 1 ) 0.9773755656108597, 0.02262443438914027;
    ( 2, 0, 3, 2, 0, 1, 0, 0 ) 0.9166666666666666, 0.08333333333333333;
    ( 2, 0, 3, 2, 0, 1, 0, 1 ) 1.0, 0.0;
    ( 2, 0, 3, 2, 0, 1, 1, 0 ) 0.9493670886075949, 0.05063291139240506;
    ( 2, 0, 3, 2, 0, 1, 1, 1 ) 0.9210526315789473, 0.07894736842105263;
    ( 2, 0, 3, 2, 1, 0, 0, 0 ) 0.8, 0.2;
    ( 2, 0, 3, 2, 1, 0, 0, 1 ) 1.0, 0.0;
    ( 2, 0, 3, 2, 1, 0, 1, 0 ) 0.95, 0.05;
    ( 2, 0, 3, 2, 1, 0, 1, 1 ) 0.9666666666666667, 0.03333333333333333;
    ( 2, 0, 3, 2, 1, 1, 0, 0 ) 1.0, 0.0;
    ( 2, 0, 3, 2, 1, 1, 0, 1 ) 0.9, 0.1;
    ( 2, 0, 3, 2, 1, 1, 1, 0 ) 0.6818181818181818, 0.3181818181818182;
    ( 2, 0, 3, 2, 1, 1, 1, 1 ) 1.0, 0.0;
    ( 2, 0, 3, 3, 0, 0, 0, 0 ) 1.0, 0.0;
    ( 2, 0, 3, 3, 0, 0, 0, 1 ) 1.0, 0.0;
    ( 2, 0, 3, 3, 0, 0, 1, 0 ) 1.0, 0.0;
    ( 2, 0, 3, 3, 0, 0, 1, 1 ) 0.875, 0.125;
    ( 2, 0, 3, 3, 0, 1, 0, 0 ) 1.0, 0.0;
    ( 2, 0, 3, 3, 0, 1, 0, 1 ) 0.5, 0.5;
    ( 2, 0, 3, 3, 0, 1, 1, 0 ) 0.8333333333333334, 0.16666666666666666;
    ( 2, 0, 3, 3, 0, 1, 1, 1 ) 1.0, 0.0;
    ( 2, 0, 3, 3, 1, 0, 0, 0 ) 0.5, 0.5;
    ( 2, 0, 3, 3, 1, 0, 0, 1 ) 1.0, 0.0;
    ( 2, 0, 3, 3, 1, 0, 1, 0 ) 1.0, 0.0;
    ( 2, 0, 3, 3, 1, 0, 1, 1 ) 1.0, 0.0;
    ( 2, 0, 3, 3, 1, 1, 0, 0 ) 1.0, 0.0;
    ( 2, 0, 3, 3, 1, 1, 0, 1 ) 1.0, 0.0;
    ( 2, 0, 3, 3, 1, 1, 1, 0 ) 1.0, 0.0;
    ( 2, 0, 3, 3, 1, 1, 1, 1 ) 0.75, 0.25;
    ( 2, 1, 1, 1, 0, 0, 0, 0 ) 1.0, 0.0;
    ( 2, 1, 1, 1, 0, 0, 0, 1 ) 1.0, 0.0;
    ( 2, 1, 1, 1, 0, 0, 1, 0 ) 1.0, 0.0;
    ( 2, 1, 1, 1, 0, 0, 1, 1 ) 1.0, 0.0;
    ( 2, 1, 1, 1, 0, 1, 0, 0 ) 0.5, 0.5;
    ( 2, 1, 1, 1, 0, 1, 0, 1 ) 1.0, 0.0;
    ( 2, 1, 1, 1, 0, 1, 1, 0 ) 1.0, 0.0;
    ( 2, 1, 1, 1, 0, 1, 1, 1 ) 1.0, 0.0;
    ( 2, 1, 1, 1, 1, 0, 0, 0 ) 1.0, 0.0;
    ( 2, 1, 1, 1, 1, 0, 0, 1 ) 1.0, 0.0;
    ( 2, 1, 1, 1, 1, 0, 1, 0 ) 0.5, 0.5;
    ( 2, 1, 1, 1, 1, 0, 1, 1 ) 1.0, 0.0;
    ( 2, 1, 1, 1, 1, 1, 0, 0 ) 0.5, 0.5;
    ( 2, 1, 1, 1, 1, 1, 0, 1 ) 1.0, 0.0;
    ( 2, 1, 1, 1, 1, 1, 1, 0 ) 1.0, 0.0;
    ( 2, 1, 1, 1, 1, 1, 1, 1 ) 0.5, 0.5;
    ( 2, 1, 1, 2, 0, 0, 0, 0 ) 0.9333333333333333, 0.06666666666666667;
    ( 2, 1, 1, 2, 0, 0, 0, 1 ) 1.0, 0.0;
    ( 2, 1, 1, 2, 0, 0, 1, 0 ) 0.9565217391304348, 0.043478260869565216;
    ( 2, 1, 1, 2, 0, 0, 1, 1 ) 0.9230769230769231, 0.07692307692307693;
    ( 2, 1, 1, 2, 0, 1, 0, 0 ) 0.8, 0.2;
    ( 2, 1, 1, 2, 0, 1, 0, 1 ) 1.0, 0.0;
    ( 2, 1, 1, 2, 0, 1, 1, 0 ) 0.8, 0.2;
    ( 2, 1, 1, 2, 0, 1, 1, 1 ) 0.8, 0.2;
    ( 2, 1, 1, 2, 1, 0, 0, 0 ) 1.0, 0.0;
    ( 2, 1, 1, 2, 1, 0, 0, 1 ) 1.0, 0.0;
    ( 2, 1, 1, 2, 1, 0, 1, 0 ) 0.8333333333333334, 0.16666666666666666;
    ( 2, 1, 1, 2, 1, 0, 1, 1 ) 1.0, 0.0;
    ( 2, 1, 1, 2, 1, 1, 0, 0 ) 1.0, 0.0;
    ( 2, 1, 1, 2, 1, 1, 0, 1 ) 0.7777777777777778, 0.2222222222222222;
    ( 2, 1, 1, 2, 1, 1, 1, 0 ) 1.0, 0.0;
    ( 2, 1, 1, 2, 1, 1, 1, 1 ) 0.6666666666666666, 0.3333333333333333;
    ( 2, 1, 1, 3, 0, 0, 0, 0 ) 1.0, 0.0;
    ( 2, 1, 1, 3, 0, 0, 0, 1 ) 1.0, 0.0;
    ( 2, 1, 1, 3, 0, 0, 1, 0 ) 1.0, 0.0;
    ( 2, 1, 1, 3, 0, 0, 1, 1 ) 0.5, 0.5;
    ( 2, 1, 1, 3, 0, 1, 0, 0 ) 0.5, 0.5;
    ( 2, 1, 1, 3, 0, 1, 0, 1 ) 0.5, 0.5;
    ( 2, 1, 1, 3, 0, 1, 1, 0 ) 0.5, 0.5;
    ( 2, 1, 1, 3, 0, 1, 1, 1 ) 0.5, 0.5;
    ( 2, 1, 1, 3, 1, 0, 0, 0 ) 0.5, 0.5;
    ( 2, 1, 1, 3, 1, 0, 0, 1 ) 1.0, 0.0;
    ( 2, 1, 1, 3, 1, 0, 1, 0 ) 0.5, 0.5;
    ( 2, 1, 1, 3, 1, 0, 1, 1 ) 1.0, 0.0;
    ( 2, 1, 1, 3, 1, 1, 0, 0 ) 1.0, 0.0;
    ( 2, 1, 1, 3, 1, 1, 0, 1 ) 0.0, 1.0;
    ( 2, 1, 1, 3, 1, 1, 1, 0 ) 1.0, 0.0;
    ( 2, 1, 1, 3, 1, 1, 1, 1 ) 0.5, 0.5;
    ( 2, 1, 2, 1, 0, 0, 0, 0 ) 0.9752066115702479, 0.024793388429752067;
    ( 2, 1, 2, 1, 0, 0, 0, 1 ) 0.9855072463768116, 0.014492753623188406;
    ( 2, 1, 2, 1, 0, 0, 1, 0 ) 0.9856801909307876, 0.014319809069212411;
    ( 2, 1, 2, 1, 0, 0, 1, 1 ) 0.990791896869245, 0.009208103130755065;
    ( 2, 1, 2, 1, 0, 1, 0, 0 ) 1.0, 0.0;
    ( 2, 1, 2, 1, 0, 1, 0, 1 ) 0.875, 0.125;
    ( 2, 1, 2, 1, 0, 1, 1, 0 ) 1.0, 0.0;
    ( 2, 1, 2, 1, 0, 1, 1, 1 ) 0.96, 0.04;
    ( 2, 1, 2, 1, 1, 0, 0, 0 ) 1.0, 0.0;
    ( 2, 1, 2, 1, 1, 0, 0, 1 ) 0.8695652173913043, 0.13043478260869565;
    ( 2, 1, 2, 1, 1, 0, 1, 0 ) 0.9705882352941176, 0.029411764705882353;
    ( 2, 1, 2, 1, 1, 0, 1, 1 ) 0.9789473684210527, 0.021052631578947368;
    ( 2, 1, 2, 1, 1, 1, 0, 0 ) 1.0, 0.0;
    ( 2, 1, 2, 1, 1, 1, 0, 1 ) 0.7272727272727273, 0.2727272727272727;
    ( 2, 1, 2, 1, 1, 1, 1, 0 ) 1.0, 0.0;
    ( 2, 1, 2, 1, 1, 1, 1, 1 ) 1.0, 0.0;
    ( 2, 1, 2, 2, 0, 0, 0, 0 ) 0.9503105590062112, 0.049689440993788817;
    ( 2, 1, 2, 2, 0, 0, 0, 1 ) 0.9703703703703703, 0.02962962962962963;
    ( 2, 1, 2, 2, 0, 0, 1, 0 ) 0.954177897574124, 0.04582210242587601;
    ( 2, 1, 2, 2, 0, 0, 1, 1 ) 0.9751381215469613, 0.024861878453038673;
    ( 2, 1, 2, 2, 0, 1, 0, 0 ) 0.8983050847457628, 0.1016949152542373;
    ( 2, 1, 2, 2, 0, 1, 0, 1 ) 0.9148936170212766, 0.0851063829787234;
    ( 2, 1, 2, 2, 0, 1, 1, 0 ) 0.8602150537634409, 0.13978494623655913;
    ( 2, 1, 2, 2, 0, 1, 1, 1 ) 0.9139784946236559, 0.08602150537634409;
    ( 2, 1, 2, 2, 1, 0, 0, 0 ) 0.9555555555555556, 0.044444444444444446;
    ( 2, 1, 2, 2, 1, 0, 0, 1 ) 0.84, 0.16;
    ( 2, 1, 2, 2, 1, 0, 1, 0 ) 0.9113924050632911, 0.08860759493670886;
    ( 2, 1, 2, 2, 1, 0, 1, 1 ) 0.9523809523809523, 0.047619047619047616;
    ( 2, 1, 2, 2, 1, 1, 0, 0 ) 0.6666666666666666, 0.3333333333333333;
    ( 2, 1, 2, 2, 1, 1, 0, 1 ) 0.8431372549019608, 0.1568627450980392;
    ( 2, 1, 2, 2, 1, 1, 1, 0 ) 0.6170212765957447, 0.3829787234042553;
    ( 2, 1, 2, 2, 1, 1, 1, 1 ) 0.8376068376068376, 0.1623931623931624;
    ( 2, 1, 2, 3, 0, 0, 0, 0 ) 0.9, 0.1;
    ( 2, 1, 2, 3, 0, 0, 0, 1 ) 0.8, 0.2;
    ( 2, 1, 2, 3, 0, 0, 1, 0 ) 0.75, 0.25;
    ( 2, 1, 2, 3, 0, 0, 1, 1 ) 0.8333333333333334, 0.16666666666666666;
    ( 2, 1, 2, 3, 0, 1, 0, 0 ) 0.6666666666666666, 0.3333333333333333;
    ( 2, 1, 2, 3, 0, 1, 0, 1 ) 1.0, 0.0;
    ( 2, 1, 2, 3, 0, 1, 1, 0 ) 0.8, 0.2;
    ( 2, 1, 2, 3, 0, 1, 1, 1 ) 1.0, 0.0;
    ( 2, 1, 2, 3, 1, 0, 0, 0 ) 1.0, 0.0;
    ( 2, 1, 2, 3, 1, 0, 0, 1 ) 1.0, 0.0;
    ( 2, 1, 2, 3, 1, 0, 1, 0 ) 0.6666666666666666, 0.3333333333333333;
    ( 2, 1, 2, 3, 1, 0, 1, 1 ) 1.0, 0.0;
    ( 2, 1, 2, 3, 1, 1, 0, 0 ) 0.25, 0.75;
    ( 2, 1, 2, 3, 1, 1, 0, 1 ) 1.0, 0.0;
    ( 2, 1, 2, 3, 1, 1, 1, 0 ) 0.3333333333333333, 0.6666666666666666;
    ( 2, 1, 2, 3, 1, 1, 1, 1 ) 0.46153846153846156, 0.5384615384615384;
    ( 2, 1, 3, 1, 0, 0, 0, 0 ) 0.9922680412371134, 0.007731958762886598;
    ( 2, 1, 3, 1, 0, 0, 0, 1 ) 0.9810606060606061, 0.01893939393939394;
    ( 2, 1, 3, 1, 0, 0, 1, 0 ) 0.9870497774180493, 0.012950222581950627;
    ( 2, 1, 3, 1, 0, 0, 1, 1 ) 0.9934533551554828, 0.006546644844517185;
    ( 2, 1, 3, 1, 0, 1, 0, 0 ) 0.9852941176470589, 0.014705882352941176;
    ( 2, 1, 3, 1, 0, 1, 0, 1 ) 1.0, 0.0;
    ( 2, 1, 3, 1, 0, 1, 1, 0 ) 0.9702233250620348, 0.02977667493796526;
    ( 2, 1, 3, 1, 0, 1, 1, 1 ) 0.9642857142857143, 0.03571428571428571;
    ( 2, 1, 3, 1, 1, 0, 0, 0 ) 1.0, 0.0;
    ( 2, 1, 3, 1, 1, 0, 0, 1 ) 1.0, 0.0;
    ( 2, 1, 3, 1, 1, 0, 1, 0 ) 0.9481132075471698, 0.05188679245283019;
    ( 2, 1, 3, 1, 1, 0, 1, 1 ) 0.9888268156424581, 0.0111731843575419;
    ( 2, 1, 3, 1, 1, 1, 0, 0 ) 0.8235294117647058, 0.17647058823529413;
    ( 2, 1, 3, 1, 1, 1, 0, 1 ) 0.90625, 0.09375;
    ( 2, 1, 3, 1, 1, 1, 1, 0 ) 0.9107142857142857, 0.08928571428571429;
    ( 2, 1, 3, 1, 1, 1, 1, 1 ) 0.9583333333333334, 0.041666666666666664;
    ( 2, 1, 3, 2, 0, 0, 0, 0 ) 0.9664634146341463, 0.03353658536585366;
    ( 2, 1, 3, 2, 0, 0, 0, 1 ) 0.9735449735449735, 0.026455026455026454;
    ( 2, 1, 3, 2, 0, 0, 1, 0 ) 0.9666993143976493, 0.03330068560235064;
    ( 2, 1, 3, 2, 0, 0, 1, 1 ) 0.9727979274611399, 0.027202072538860103;
    ( 2, 1, 3, 2, 0, 1, 0, 0 ) 0.9175257731958762, 0.08247422680412371;
    ( 2, 1, 3, 2, 0, 1, 0, 1 ) 0.9420289855072463, 0.057971014492753624;
    ( 2, 1, 3, 2, 0, 1, 1, 0 ) 0.9181034482758621, 0.08189655172413793;
    ( 2, 1, 3, 2, 0, 1, 1, 1 ) 0.944206008583691, 0.055793991416309016;
    ( 2, 1, 3, 2, 1, 0, 0, 0 ) 0.9010989010989011, 0.0989010989010989;
    ( 2, 1, 3, 2, 1, 0, 0, 1 ) 0.9193548387096774, 0.08064516129032258;
    ( 2, 1, 3, 2, 1, 0, 1, 0 ) 0.91324200913242, 0.0867579908675799;
    ( 2, 1, 3, 2, 1, 0, 1, 1 ) 0.948339483394834, 0.05166051660516605;
    ( 2, 1, 3, 2, 1, 1, 0, 0 ) 0.7708333333333334, 0.22916666666666666;
    ( 2, 1, 3, 2, 1, 1, 0, 1 ) 0.9466666666666667, 0.05333333333333334;
    ( 2, 1, 3, 2, 1, 1, 1, 0 ) 0.7777777777777778, 0.2222222222222222;
    ( 2, 1, 3, 2, 1, 1, 1, 1 ) 0.8269230769230769, 0.17307692307692307;
    ( 2, 1, 3, 3, 0, 0, 0, 0 ) 0.9, 0.1;
    ( 2, 1, 3, 3, 0, 0, 0, 1 ) 0.8181818181818182, 0.18181818181818182;
    ( 2, 1, 3, 3, 0, 0, 1, 0 ) 0.9642857142857143, 0.03571428571428571;
    ( 2, 1, 3, 3, 0, 0, 1, 1 ) 1.0, 0.0;
    ( 2, 1, 3, 3, 0, 1, 0, 0 ) 0.8888888888888888, 0.1111111111111111;
    ( 2, 1, 3, 3, 0, 1, 0, 1 ) 1.0, 0.0;
    ( 2, 1, 3, 3, 0, 1, 1, 0 ) 0.7, 0.3;
    ( 2, 1, 3, 3, 0, 1, 1, 1 ) 0.8571428571428571, 0.14285714285714285;
    ( 2, 1, 3, 3, 1, 0, 0, 0 ) 0.9166666666666666, 0.08333333333333333;
    ( 2, 1, 3, 3, 1, 0, 0, 1 ) 0.75, 0.25;
    ( 2, 1, 3, 3, 1, 0, 1, 0 ) 0.7777777777777778, 0.2222222222222222;
    ( 2, 1, 3, 3, 1, 0, 1, 1 ) 0.7142857142857143, 0.2857142857142857;
    ( 2, 1, 3, 3, 1, 1, 0, 0 ) 0.45454545454545453, 0.5454545454545454;
    ( 2, 1, 3, 3, 1, 1, 0, 1 ) 0.6666666666666666, 0.3333333333333333;
    ( 2, 1, 3, 3, 1, 1, 1, 0 ) 0.8, 0.2;
    ( 2, 1, 3, 3, 1, 1, 1, 1 ) 0.75, 0.25;
    ( 2, 2, 1, 1, 0, 0, 0, 0 ) 0.5, 0.5;
    ( 2, 2, 1, 1, 0, 0, 0, 1 ) 0.5, 0.5;
    ( 2, 2, 1, 1, 0, 0, 1, 0 ) 1.0, 0.0;
    ( 2, 2, 1, 1, 0, 0, 1, 1 ) 0.5, 0.5;
    ( 2, 2, 1, 1, 0, 1, 0, 0 ) 0.5, 0.5;
    ( 2, 2, 1, 1, 0, 1, 0, 1 ) 1.0, 0.0;
    ( 2, 2, 1, 1, 0, 1, 1, 0 ) 0.5, 0.5;
    ( 2, 2, 1, 1, 0, 1, 1, 1 ) 0.5, 0.5;
    ( 2, 2, 1, 1, 1, 0, 0, 0 ) 0.5, 0.5;
    ( 2, 2, 1, 1, 1, 0, 0, 1 ) 0.5, 0.5;
    ( 2, 2, 1, 1, 1, 0, 1, 0 ) 0.5, 0.5;
    ( 2, 2, 1, 1, 1, 0, 1, 1 ) 0.5, 0.5;
    ( 2, 2, 1, 1, 1, 1, 0, 0 ) 0.5, 0.5;
    ( 2, 2, 1, 1, 1, 1, 0, 1 ) 0.5, 0.5;
    ( 2, 2, 1, 1, 1, 1, 1, 0 ) 0.5, 0.5;
    ( 2, 2, 1, 1, 1, 1, 1, 1 ) 0.5, 0.5;
    ( 2, 2, 1, 2, 0, 0, 0, 0 ) 1.0, 0.0;
    ( 2, 2, 1, 2, 0, 0, 0, 1 ) 0.5, 0.5;
    ( 2, 2, 1, 2, 0, 0, 1, 0 ) 1.0, 0.0;
    ( 2, 2, 1, 2, 0, 0, 1, 1 ) 1.0, 0.0;
    ( 2, 2, 1, 2, 0, 1, 0, 0 ) 1.0, 0.0;
    ( 2, 2, 1, 2, 0, 1, 0, 1 ) 0.5, 0.5;
    ( 2, 2, 1, 2, 0, 1, 1, 0 ) 0.6666666666666666, 0.3333333333333333;
    ( 2, 2, 1, 2, 0, 1, 1, 1 ) 0.5, 0.5;
    ( 2, 2, 1, 2, 1, 0, 0, 0 ) 1.0, 0.0;
    ( 2, 2, 1, 2, 1, 0, 0, 1 ) 1.0, 0.0;
    ( 2, 2, 1, 2, 1, 0, 1, 0 ) 1.0, 0.0;
    ( 2, 2, 1, 2, 1, 0, 1, 1 ) 0.5, 0.5;
    ( 2, 2, 1, 2, 1, 1, 0, 0 ) 0.5, 0.5;
    ( 2, 2, 1, 2, 1, 1, 0, 1 ) 0.5, 0.5;
    ( 2, 2, 1, 2, 1, 1, 1, 0 ) 0.0, 1.0;
    ( 2, 2, 1, 2, 1, 1, 1, 1 ) 1.0, 0.0;
    ( 2, 2, 1, 3, 0, 0, 0, 0 ) 1.0, 0.0;
    ( 2, 2, 1, 3, 0, 0, 0, 1 ) 0.5, 0.5;
    ( 2, 2, 1, 3, 0, 0, 1, 0 ) 0.5, 0.5;
    ( 2, 2, 1, 3, 0, 0, 1, 1 ) 0.5, 0.5;
    ( 2, 2, 1, 3, 0, 1, 0, 0 ) 0.5, 0.5;
    ( 2, 2, 1, 3, 0, 1, 0, 1 ) 0.5, 0.5;
    ( 2, 2, 1, 3, 0, 1, 1, 0 ) 1.0, 0.0;
    ( 2, 2, 1, 3, 0, 1, 1, 1 ) 0.5, 0.5;
    ( 2, 2, 1, 3, 1, 0, 0, 0 ) 0.5, 0.5;
    ( 2, 2, 1, 3, 1, 0, 0, 1 ) 0.5, 0.5;
    ( 2, 2, 1, 3, 1, 0, 1, 0 ) 0.5, 0.5;
    ( 2, 2, 1, 3, 1, 0, 1, 1 ) 0.5, 0.5;
    ( 2, 2, 1, 3, 1, 1, 0, 0 ) 0.5, 0.5;
    ( 2, 2, 1, 3, 1, 1, 0, 1 ) 0.5, 0.5;
    ( 2, 2, 1, 3, 1, 1, 1, 0 ) 0.5, 0.5;
    ( 2, 2, 1, 3, 1, 1, 1, 1 ) 0.5, 0.5;
    ( 2, 2, 2, 1, 0, 0, 0, 0 ) 1.0, 0.0;
    ( 2, 2, 2, 1, 0, 0, 0, 1 ) 1.0, 0.0;
    ( 2, 2, 2, 1, 0, 0, 1, 0 ) 0.9777777777777777, 0.022222222222222223;
    ( 2, 2, 2, 1, 0, 0, 1, 1 ) 1.0, 0.0;
    ( 2, 2, 2, 1, 0, 1, 0, 0 ) 1.0, 0.0;
    ( 2, 2, 2, 1, 0, 1, 0, 1 ) 0.5, 0.5;
    ( 2, 2, 2, 1, 0, 1, 1, 0 ) 1.0, 0.0;
    ( 2, 2, 2, 1, 0, 1, 1, 1 ) 1.0, 0.0;
    ( 2, 2, 2, 1, 1, 0, 0, 0 ) 1.0, 0.0;
    ( 2, 2, 2, 1, 1, 0, 0, 1 ) 0.4, 0.6;
    ( 2, 2, 2, 1, 1, 0, 1, 0 ) 0.7, 0.3;
    ( 2, 2, 2, 1, 1, 0, 1, 1 ) 1.0, 0.0;
    ( 2, 2, 2, 1, 1, 1, 0, 0 ) 0.5, 0.5;
    ( 2, 2, 2, 1, 1, 1, 0, 1 ) 1.0, 0.0;
    ( 2, 2, 2, 1, 1, 1, 1, 0 ) 1.0, 0.0;
    ( 2, 2, 2, 1, 1, 1, 1, 1 ) 0.6666666666666666, 0.3333333333333333;
    ( 2, 2, 2, 2, 0, 0, 0, 0 ) 0.8888888888888888, 0.1111111111111111;
    ( 2, 2, 2, 2, 0, 0, 0, 1 ) 0.9411764705882353, 0.058823529411764705;
    ( 2, 2, 2, 2, 0, 0, 1, 0 ) 0.8970588235294118, 0.10294117647058823;
    ( 2, 2, 2, 2, 0, 0, 1, 1 ) 0.8888888888888888, 0.1111111111111111;
    ( 2, 2, 2, 2, 0, 1, 0, 0 ) 0.7777777777777778, 0.2222222222222222;
    ( 2, 2, 2, 2, 0, 1, 0, 1 ) 1.0, 0.0;
    ( 2, 2, 2, 2, 0, 1, 1, 0 ) 0.7647058823529411, 0.23529411764705882;
    ( 2, 2, 2, 2, 0, 1, 1, 1 ) 0.7142857142857143, 0.2857142857142857;
    ( 2, 2, 2, 2, 1, 0, 0, 0 ) 0.8, 0.2;
    ( 2, 2, 2, 2, 1, 0, 0, 1 ) 0.6666666666666666, 0.3333333333333333;
    ( 2, 2, 2, 2, 1, 0, 1, 0 ) 0.76, 0.24;
    ( 2, 2, 2, 2, 1, 0, 1, 1 ) 0.9047619047619048, 0.09523809523809523;
    ( 2, 2, 2, 2, 1, 1, 0, 0 ) 0.5714285714285714, 0.42857142857142855;
    ( 2, 2, 2, 2, 1, 1, 0, 1 ) 0.8333333333333334, 0.16666666666666666;
    ( 2, 2, 2, 2, 1, 1, 1, 0 ) 0.5357142857142857, 0.4642857142857143;
    ( 2, 2, 2, 2, 1, 1, 1, 1 ) 0.7, 0.3;
    ( 2, 2, 2, 3, 0, 0, 0, 0 ) 0.75, 0.25;
    ( 2, 2, 2, 3, 0, 0, 0, 1 ) 0.5, 0.5;
    ( 2, 2, 2, 3, 0, 0, 1, 0 ) 0.5, 0.5;
    ( 2, 2, 2, 3, 0, 0, 1, 1 ) 0.5, 0.5;
    ( 2, 2, 2, 3, 0, 1, 0, 0 ) 1.0, 0.0;
    ( 2, 2, 2, 3, 0, 1, 0, 1 ) 0.0, 1.0;
    ( 2, 2, 2, 3, 0, 1, 1, 0 ) 0.5, 0.5;
    ( 2, 2, 2, 3, 0, 1, 1, 1 ) 1.0, 0.0;
    ( 2, 2, 2, 3, 1, 0, 0, 0 ) 0.0, 1.0;
    ( 2, 2, 2, 3, 1, 0, 0, 1 ) 1.0, 0.0;
    ( 2, 2, 2, 3, 1, 0, 1, 0 ) 0.5, 0.5;
    ( 2, 2, 2, 3, 1, 0, 1, 1 ) 0.0, 1.0;
    ( 2, 2, 2, 3, 1, 1, 0, 0 ) 0.0, 1.0;
    ( 2, 2, 2, 3, 1, 1, 0, 1 ) 1.0, 0.0;
    ( 2, 2, 2, 3, 1, 1, 1, 0 ) 0.75, 0.25;
    ( 2, 2, 2, 3, 1, 1, 1, 1 ) 0.0, 1.0;
    ( 2, 2, 3, 1, 0, 0, 0, 0 ) 1.0, 0.0;
    ( 2, 2, 3, 1, 0, 0, 0, 1 ) 0.9230769230769231, 0.07692307692307693;
    ( 2, 2, 3, 1, 0, 0, 1, 0 ) 1.0, 0.0;
    ( 2, 2, 3, 1, 0, 0, 1, 1 ) 1.0, 0.0;
    ( 2, 2, 3, 1, 0, 1, 0, 0 ) 1.0, 0.0;
    ( 2, 2, 3, 1, 0, 1, 0, 1 ) 1.0, 0.0;
    ( 2, 2, 3, 1, 0, 1, 1, 0 ) 0.9545454545454546, 0.045454545454545456;
    ( 2, 2, 3, 1, 0, 1, 1, 1 ) 1.0, 0.0;
    ( 2, 2, 3, 1, 1, 0, 0, 0 ) 1.0, 0.0;
    ( 2, 2, 3, 1, 1, 0, 0, 1 ) 1.0, 0.0;
    ( 2, 2, 3, 1, 1, 0, 1, 0 ) 0.9642857142857143, 0.03571428571428571;
    ( 2, 2, 3, 1, 1, 0, 1, 1 ) 0.9166666666666666, 0.08333333333333333;
    ( 2, 2, 3, 1, 1, 1, 0, 0 ) 1.0, 0.0;
    ( 2, 2, 3, 1, 1, 1, 0, 1 ) 1.0, 0.0;
    ( 2, 2, 3, 1, 1, 1, 1, 0 ) 0.7, 0.3;
    ( 2, 2, 3, 1, 1, 1, 1, 1 ) 0.8, 0.2;
    ( 2, 2, 3, 2, 0, 0, 0, 0 ) 0.9180327868852459, 0.08196721311475409;
    ( 2, 2, 3, 2, 0, 0, 0, 1 ) 0.8571428571428571, 0.14285714285714285;
    ( 2, 2, 3, 2, 0, 0, 1, 0 ) 0.8994082840236687, 0.10059171597633136;
    ( 2, 2, 3, 2, 0, 0, 1, 1 ) 0.9666666666666667, 0.03333333333333333;
    ( 2, 2, 3, 2, 0, 1, 0, 0 ) 0.8333333333333334, 0.16666666666666666;
    ( 2, 2, 3, 2, 0, 1, 0, 1 ) 1.0, 0.0;
    ( 2, 2, 3, 2, 0, 1, 1, 0 ) 0.7333333333333333, 0.26666666666666666;
    ( 2, 2, 3, 2, 0, 1, 1, 1 ) 0.85, 0.15;
    ( 2, 2, 3, 2, 1, 0, 0, 0 ) 0.8648648648648649, 0.13513513513513514;
    ( 2, 2, 3, 2, 1, 0, 0, 1 ) 1.0, 0.0;
    ( 2, 2, 3, 2, 1, 0, 1, 0 ) 0.8928571428571429, 0.10714285714285714;
    ( 2, 2, 3, 2, 1, 0, 1, 1 ) 0.8793103448275862, 0.1206896551724138;
    ( 2, 2, 3, 2, 1, 1, 0, 0 ) 0.47368421052631576, 0.5263157894736842;
    ( 2, 2, 3, 2, 1, 1, 0, 1 ) 0.9411764705882353, 0.058823529411764705;
    ( 2, 2, 3, 2, 1, 1, 1, 0 ) 0.5641025641025641, 0.4358974358974359;
    ( 2, 2, 3, 2, 1, 1, 1, 1 ) 0.7, 0.3;
    ( 2, 2, 3, 3, 0, 0, 0, 0 ) 0.8571428571428571, 0.14285714285714285;
    ( 2, 2, 3, 3, 0, 0, 0, 1 ) 0.6666666666666666, 0.3333333333333333;
    ( 2, 2, 3, 3, 0, 0, 1, 0 ) 0.5, 0.5;
    ( 2, 2, 3, 3, 0, 0, 1, 1 ) 1.0, 0.0;
    ( 2, 2, 3, 3, 0, 1, 0, 0 ) 0.5, 0.5;
    ( 2, 2, 3, 3, 0, 1, 0, 1 ) 0.0, 1.0;
    ( 2, 2, 3, 3, 0, 1, 1, 0 ) 0.0, 1.0;
    ( 2, 2, 3, 3, 0, 1, 1, 1 ) 1.0, 0.0;
    ( 2, 2, 3, 3, 1, 0, 0, 0 ) 0.5, 0.5;
    ( 2, 2, 3, 3, 1, 0, 0, 1 ) 0.5, 0.5;
    ( 2, 2, 3, 3, 1, 0, 1, 0 ) 0.8333333333333334, 0.16666666666666666;
    ( 2, 2, 3, 3, 1, 0, 1, 1 ) 1.0, 0.0;
    ( 2, 2, 3, 3, 1, 1, 0, 0 ) 0.5, 0.5;
    ( 2, 2, 3, 3, 1, 1, 0, 1 ) 0.0, 1.0;
    ( 2, 2, 3, 3, 1, 1, 1, 0 ) 0.3333333333333333, 0.6666666666666666;
    ( 2, 2, 3, 3, 1, 1, 1, 1 ) 1.0, 0.0;
    ( 3, 0, 1, 1, 0, 0, 0, 0 ) 1.0, 0.0;
    ( 3, 0, 1, 1, 0, 0, 0, 1 ) 1.0, 0.0;
    ( 3, 0, 1, 1, 0, 0, 1, 0 ) 1.0, 0.0;
    ( 3, 0, 1, 1, 0, 0, 1, 1 ) 1.0, 0.0;
    ( 3, 0, 1, 1, 0, 1, 0, 0 ) 0.5, 0.5;
    ( 3, 0, 1, 1, 0, 1, 0, 1 ) 1.0, 0.0;
    ( 3, 0, 1, 1, 0, 1, 1, 0 ) 0.6666666666666666, 0.3333333333333333;
    ( 3, 0, 1, 1, 0, 1, 1, 1 ) 0.5, 0.5;
    ( 3, 0, 1, 1, 1, 0, 0, 0 ) 0.5, 0.5;
    ( 3, 0, 1, 1, 1, 0, 0, 1 ) 0.5, 0.5;
    ( 3, 0, 1, 1, 1, 0, 1, 0 ) 0.5, 0.5;
    ( 3, 0, 1, 1, 1, 0, 1, 1 ) 0.5, 0.5;
    ( 3, 0, 1, 1, 1, 1, 0, 0 ) 0.5, 0.5;
    ( 3, 0, 1, 1, 1, 1, 0, 1 ) 0.5, 0.5;
    ( 3, 0, 1, 1, 1, 1, 1, 0 ) 1.0, 0.0;
    ( 3, 0, 1, 1, 1, 1, 1, 1 ) 0.5, 0.5;
    ( 3, 0, 1, 2, 0, 0, 0, 0 ) 1.0, 0.0;
    ( 3, 0, 1, 2, 0, 0, 0, 1 ) 0.8, 0.2;
    ( 3, 0, 1, 2, 0, 0, 1, 0 ) 1.0, 0.0;
    ( 3, 0, 1, 2, 0, 0, 1, 1 ) 1.0, 0.0;
    ( 3, 0, 1, 2, 0, 1, 0, 0 ) 1.0, 0.0;
    ( 3, 0, 1, 2, 0, 1, 0, 1 ) 1.0, 0.0;
    ( 3, 0, 1, 2, 0, 1, 1, 0 ) 0.0, 1.0;
    ( 3, 0, 1, 2, 0, 1, 1, 1 ) 1.0, 0.0;
    ( 3, 0, 1, 2, 1, 0, 0, 0 ) 1.0, 0.0;
    ( 3, 0, 1, 2, 1, 0, 0, 1 ) 1.0, 0.0;
    ( 3, 0, 1, 2, 1, 0, 1, 0 ) 1.0, 0.0;
    ( 3, 0, 1, 2, 1, 0, 1, 1 ) 0.5, 0.5;
    ( 3, 0, 1, 2, 1, 1, 0, 0 ) 1.0, 0.0;
    ( 3, 0, 1, 2, 1, 1, 0, 1 ) 1.0, 0.0;
    ( 3, 0, 1, 2, 1, 1, 1, 0 ) 1.0, 0.0;
    ( 3, 0, 1, 2, 1, 1, 1, 1 ) 1.0, 0.0;
    ( 3, 0, 1, 3, 0, 0, 0, 0 ) 1.0, 0.0;
    ( 3, 0, 1, 3, 0, 0, 0, 1 ) 0.5, 0.5;
    ( 3, 0, 1, 3, 0, 0, 1, 0 ) 0.5, 0.5;
    ( 3, 0, 1, 3, 0, 0, 1, 1 ) 1.0, 0.0;
    ( 3, 0, 1, 3, 0, 1, 0, 0 ) 0.5, 0.5;
    ( 3, 0, 1, 3, 0, 1, 0, 1 ) 1.0, 0.0;
    ( 3, 0, 1, 3, 0, 1, 1, 0 ) 0.0, 1.0;
    ( 3, 0, 1, 3, 0, 1, 1, 1 ) 0.5, 0.5;
    ( 3, 0, 1, 3, 1, 0, 0, 0 ) 0.5, 0.5;
    ( 3, 0, 1, 3, 1, 0, 0, 1 ) 0.5, 0.5;
    ( 3, 0, 1, 3, 1, 0, 1, 0 ) 0.5, 0.5;
    ( 3, 0, 1, 3, 1, 0, 1, 1 ) 0.0, 1.0;
    ( 3, 0, 1, 3, 1, 1, 0, 0 ) 1.0, 0.0;
    ( 3, 0, 1, 3, 1, 1, 0, 1 ) 0.0, 1.0;
    ( 3, 0, 1, 3, 1, 1, 1, 0 ) 0.5, 0.5;
    ( 3, 0, 1, 3, 1, 1, 1, 1 ) 0.5, 0.5;
    ( 3, 0, 2, 1, 0, 0, 0, 0 ) 1.0, 0.0;
    ( 3, 0, 2, 1, 0, 0, 0, 1 ) 1.0, 0.0;
    ( 3, 0, 2, 1, 0, 0, 1, 0 ) 0.9971590909090909, 0.002840909090909091;
    ( 3, 0, 2, 1, 0, 0, 1, 1 ) 0.9883040935672515, 0.011695906432748537;
    ( 3, 0, 2, 1, 0, 1, 0, 0 ) 1.0, 0.0;
    ( 3, 0, 2, 1, 0, 1, 0, 1 ) 1.0, 0.0;
    ( 3, 0, 2, 1, 0, 1, 1, 0 ) 0.9807692307692307, 0.019230769230769232;
    ( 3, 0, 2, 1, 0, 1, 1, 1 ) 0.972972972972973, 0.02702702702702703;
    ( 3, 0, 2, 1, 1, 0, 0, 0 ) 1.0, 0.0;
    ( 3, 0, 2, 1, 1, 0, 0, 1 ) 1.0, 0.0;
    ( 3, 0, 2, 1, 1, 0, 1, 0 ) 0.9615384615384616, 0.038461538461538464;
    ( 3, 0, 2, 1, 1, 0, 1, 1 ) 0.8888888888888888, 0.1111111111111111;
    ( 3, 0, 2, 1, 1, 1, 0, 0 ) 0.8, 0.2;
    ( 3, 0, 2, 1, 1, 1, 0, 1 ) 0.8333333333333334, 0.16666666666666666;
    ( 3, 0, 2, 1, 1, 1, 1, 0 ) 0.75, 0.25;
    ( 3, 0, 2, 1, 1, 1, 1, 1 ) 0.8888888888888888, 0.1111111111111111;
    ( 3, 0, 2, 2, 0, 0, 0, 0 ) 0.9857142857142858, 0.014285714285714285;
    ( 3, 0, 2, 2, 0, 0, 0, 1 ) 0.95, 0.05;
    ( 3, 0, 2, 2, 0, 0, 1, 0 ) 0.9887640449438202, 0.011235955056179775;
    ( 3, 0, 2, 2, 0, 0, 1, 1 ) 0.9354838709677419, 0.06451612903225806;
    ( 3, 0, 2, 2, 0, 1, 0, 0 ) 0.9629629629629629, 0.037037037037037035;
    ( 3, 0, 2, 2, 0, 1, 0, 1 ) 0.84, 0.16;
    ( 3, 0, 2, 2, 0, 1, 1, 0 ) 1.0, 0.0;
    ( 3, 0, 2, 2, 0, 1, 1, 1 ) 0.8888888888888888, 0.1111111111111111;
    ( 3, 0, 2, 2, 1, 0, 0, 0 ) 0.9230769230769231, 0.07692307692307693;
    ( 3, 0, 2, 2, 1, 0, 0, 1 ) 0.8636363636363636, 0.13636363636363635;
    ( 3, 0, 2, 2, 1, 0, 1, 0 ) 1.0, 0.0;
    ( 3, 0, 2, 2, 1, 0, 1, 1 ) 1.0, 0.0;
    ( 3, 0, 2, 2, 1, 1, 0, 0 ) 0.8947368421052632, 0.10526315789473684;
    ( 3, 0, 2, 2, 1, 1, 0, 1 ) 1.0, 0.0;
    ( 3, 0, 2, 2, 1, 1, 1, 0 ) 0.8181818181818182, 0.18181818181818182;
    ( 3, 0, 2, 2, 1, 1, 1, 1 ) 0.918918918918919, 0.08108108108108109;
    ( 3, 0, 2, 3, 0, 0, 0, 0 ) 0.7894736842105263, 0.21052631578947367;
    ( 3, 0, 2, 3, 0, 0, 0, 1 ) 1.0, 0.0;
    ( 3, 0, 2, 3, 0, 0, 1, 0 ) 0.8181818181818182, 0.18181818181818182;
    ( 3, 0, 2, 3, 0, 0, 1, 1 ) 0.9, 0.1;
    ( 3, 0, 2, 3, 0, 1, 0, 0 ) 0.6, 0.4;
    ( 3, 0, 2, 3, 0, 1, 0, 1 ) 1.0, 0.0;
    ( 3, 0, 2, 3, 0, 1, 1, 0 ) 1.0, 0.0;
    ( 3, 0, 2, 3, 0, 1, 1, 1 ) 0.8, 0.2;
    ( 3, 0, 2, 3, 1, 0, 0, 0 ) 1.0, 0.0;
    ( 3, 0, 2, 3, 1, 0, 0, 1 ) 0.75, 0.25;
    ( 3, 0, 2, 3, 1, 0, 1, 0 ) 1.0, 0.0;
    ( 3, 0, 2, 3, 1, 0, 1, 1 ) 1.0, 0.0;
    ( 3, 0, 2, 3, 1, 1, 0, 0 ) 0.7142857142857143, 0.2857142857142857;
    ( 3, 0, 2, 3, 1, 1, 0, 1 ) 0.6666666666666666, 0.3333333333333333;
    ( 3, 0, 2, 3, 1, 1, 1, 0 ) 0.3333333333333333, 0.6666666666666666;
    ( 3, 0, 2, 3, 1, 1, 1, 1 ) 0.8, 0.2;
    ( 3, 0, 3, 1, 0, 0, 0, 0 ) 0.9966996699669967, 0.0033003300330033004;
    ( 3, 0, 3, 1, 0, 0, 0, 1 ) 0.9916666666666667, 0.008333333333333333;
    ( 3, 0, 3, 1, 0, 0, 1, 0 ) 0.9979751229389644, 0.00202487706103558;
    ( 3, 0, 3, 1, 0, 0, 1, 1 ) 0.9928057553956835, 0.007194244604316547;
    ( 3, 0, 3, 1, 0, 1, 0, 0 ) 1.0, 0.0;
    ( 3, 0, 3, 1, 0, 1, 0, 1 ) 1.0, 0.0;
    ( 3, 0, 3, 1, 0, 1, 1, 0 ) 0.9956709956709957, 0.004329004329004329;
    ( 3, 0, 3, 1, 0, 1, 1, 1 ) 0.9862068965517241, 0.013793103448275862;
    ( 3, 0, 3, 1, 1, 0, 0, 0 ) 0.9642857142857143, 0.03571428571428571;
    ( 3, 0, 3, 1, 1, 0, 0, 1 ) 1.0, 0.0;
    ( 3, 0, 3, 1, 1, 0, 1, 0 ) 0.9880952380952381, 0.011904761904761904;
    ( 3, 0, 3, 1, 1, 0, 1, 1 ) 0.9902912621359223, 0.009708737864077669;
    ( 3, 0, 3, 1, 1, 1, 0, 0 ) 0.9, 0.1;
    ( 3, 0, 3, 1, 1, 1, 0, 1 ) 0.8181818181818182, 0.18181818181818182;
    ( 3, 0, 3, 1, 1, 1, 1, 0 ) 1.0, 0.0;
    ( 3, 0, 3, 1, 1, 1, 1, 1 ) 0.9482758620689655, 0.05172413793103448;
    ( 3, 0, 3, 2, 0, 0, 0, 0 ) 0.968, 0.032;
    ( 3, 0, 3, 2, 0, 0, 0, 1 ) 0.9137931034482759, 0.08620689655172414;
    ( 3, 0, 3, 2, 0, 0, 1, 0 ) 0.9655765920826161, 0.03442340791738382;
    ( 3, 0, 3, 2, 0, 0, 1, 1 ) 0.9723502304147466, 0.027649769585253458;
    ( 3, 0, 3, 2, 0, 1, 0, 0 ) 0.9555555555555556, 0.044444444444444446;
    ( 3, 0, 3, 2, 0, 1, 0, 1 ) 0.896551724137931, 0.10344827586206896;
    ( 3, 0, 3, 2, 0, 1, 1, 0 ) 0.9558823529411765, 0.04411764705882353;
    ( 3, 0, 3, 2, 0, 1, 1, 1 ) 0.9324324324324325, 0.06756756756756757;
    ( 3, 0, 3, 2, 1, 0, 0, 0 ) 0.9210526315789473, 0.07894736842105263;
    ( 3, 0, 3, 2, 1, 0, 0, 1 ) 0.8461538461538461, 0.15384615384615385;
    ( 3, 0, 3, 2, 1, 0, 1, 0 ) 0.9743589743589743, 0.02564102564102564;
    ( 3, 0, 3, 2, 1, 0, 1, 1 ) 0.9591836734693877, 0.04081632653061224;
    ( 3, 0, 3, 2, 1, 1, 0, 0 ) 0.9411764705882353, 0.058823529411764705;
    ( 3, 0, 3, 2, 1, 1, 0, 1 ) 0.9375, 0.0625;
    ( 3, 0, 3, 2, 1, 1, 1, 0 ) 0.8918918918918919, 0.10810810810810811;
    ( 3, 0, 3, 2, 1, 1, 1, 1 ) 0.7407407407407407, 0.25925925925925924;
    ( 3, 0, 3, 3, 0, 0, 0, 0 ) 1.0, 0.0;
    ( 3, 0, 3, 3, 0, 0, 0, 1 ) 1.0, 0.0;
    ( 3, 0, 3, 3, 0, 0, 1, 0 ) 0.9310344827586207, 0.06896551724137931;
    ( 3, 0, 3, 3, 0, 0, 1, 1 ) 0.7777777777777778, 0.2222222222222222;
    ( 3, 0, 3, 3, 0, 1, 0, 0 ) 0.6, 0.4;
    ( 3, 0, 3, 3, 0, 1, 0, 1 ) 0.6666666666666666, 0.3333333333333333;
    ( 3, 0, 3, 3, 0, 1, 1, 0 ) 0.8571428571428571, 0.14285714285714285;
    ( 3, 0, 3, 3, 0, 1, 1, 1 ) 0.5, 0.5;
    ( 3, 0, 3, 3, 1, 0, 0, 0 ) 0.8, 0.2;
    ( 3, 0, 3, 3, 1, 0, 0, 1 ) 1.0, 0.0;
    ( 3, 0, 3, 3, 1, 0, 1, 0 ) 0.7142857142857143, 0.2857142857142857;
    ( 3, 0, 3, 3, 1, 0, 1, 1 ) 0.5, 0.5;
    ( 3, 0, 3, 3, 1, 1, 0, 0 ) 0.8181818181818182, 0.18181818181818182;
    ( 3, 0, 3, 3, 1, 1, 0, 1 ) 0.6, 0.4;
    ( 3, 0, 3, 3, 1, 1, 1, 0 ) 0.5, 0.5;
    ( 3, 0, 3, 3, 1, 1, 1, 1 ) 0.5, 0.5;
    ( 3, 1, 1, 1, 0, 0, 0, 0 ) 1.0, 0.0;
    ( 3, 1, 1, 1, 0, 0, 0, 1 ) 1.0, 0.0;
    ( 3, 1, 1, 1, 0, 0, 1, 0 ) 0.9166666666666666, 0.08333333333333333;
    ( 3, 1, 1, 1, 0, 0, 1, 1 ) 0.9230769230769231, 0.07692307692307693;
    ( 3, 1, 1, 1, 0, 1, 0, 0 ) 0.0, 1.0;
    ( 3, 1, 1, 1, 0, 1, 0, 1 ) 1.0, 0.0;
    ( 3, 1, 1, 1, 0, 1, 1, 0 ) 1.0, 0.0;
    ( 3, 1, 1, 1, 0, 1, 1, 1 ) 1.0, 0.0;
    ( 3, 1, 1, 1, 1, 0, 0, 0 ) 1.0, 0.0;
    ( 3, 1, 1, 1, 1, 0, 0, 1 ) 1.0, 0.0;
    ( 3, 1, 1, 1, 1, 0, 1, 0 ) 1.0, 0.0;
    ( 3, 1, 1, 1, 1, 0, 1, 1 ) 0.6666666666666666, 0.3333333333333333;
    ( 3, 1, 1, 1, 1, 1, 0, 0 ) 0.5, 0.5;
    ( 3, 1, 1, 1, 1, 1, 0, 1 ) 0.5, 0.5;
    ( 3, 1, 1, 1, 1, 1, 1, 0 ) 0.75, 0.25;
    ( 3, 1, 1, 1, 1, 1, 1, 1 ) 1.0, 0.0;
    ( 3, 1, 1, 2, 0, 0, 0, 0 ) 0.88, 0.12;
    ( 3, 1, 1, 2, 0, 0, 0, 1 ) 0.9047619047619048, 0.09523809523809523;
    ( 3, 1, 1, 2, 0, 0, 1, 0 ) 0.9333333333333333, 0.06666666666666667;
    ( 3, 1, 1, 2, 0, 0, 1, 1 ) 0.9393939393939394, 0.06060606060606061;
    ( 3, 1, 1, 2, 0, 1, 0, 0 ) 0.7083333333333334, 0.2916666666666667;
    ( 3, 1, 1, 2, 0, 1, 0, 1 ) 0.9090909090909091, 0.09090909090909091;
    ( 3, 1, 1, 2, 0, 1, 1, 0 ) 0.7777777777777778, 0.2222222222222222;
    ( 3, 1, 1, 2, 0, 1, 1, 1 ) 0.8461538461538461, 0.15384615384615385;
    ( 3, 1, 1, 2, 1, 0, 0, 0 ) 0.7142857142857143, 0.2857142857142857;
    ( 3, 1, 1, 2, 1, 0, 0, 1 ) 1.0, 0.0;
    ( 3, 1, 1, 2, 1, 0, 1, 0 ) 0.8, 0.2;
    ( 3, 1, 1, 2, 1, 0, 1, 1 ) 1.0, 0.0;
    ( 3, 1, 1, 2, 1, 1, 0, 0 ) 0.6666666666666666, 0.3333333333333333;
    ( 3, 1, 1, 2, 1, 1, 0, 1 ) 0.7333333333333333, 0.26666666666666666;
    ( 3, 1, 1, 2, 1, 1, 1, 0 ) 0.7857142857142857, 0.21428571428571427;
    ( 3, 1, 1, 2, 1, 1, 1, 1 ) 0.875, 0.125;
    ( 3, 1, 1, 3, 0, 0, 0, 0 ) 1.0, 0.0;
    ( 3, 1, 1, 3, 0, 0, 0, 1 ) 0.5, 0.5;
    ( 3, 1, 1, 3, 0, 0, 1, 0 ) 0.0, 1.0;
    ( 3, 1, 1, 3, 0, 0, 1, 1 ) 1.0, 0.0;
    ( 3, 1, 1, 3, 0, 1, 0, 0 ) 1.0, 0.0;
    ( 3, 1, 1, 3, 0, 1, 0, 1 ) 0.75, 0.25;
    ( 3, 1, 1, 3, 0, 1, 1, 0 ) 0.5, 0.5;
    ( 3, 1, 1, 3, 0, 1, 1, 1 ) 0.5, 0.5;
    ( 3, 1, 1, 3, 1, 0, 0, 0 ) 1.0, 0.0;
    ( 3, 1, 1, 3, 1, 0, 0, 1 ) 1.0, 0.0;
    ( 3, 1, 1, 3, 1, 0, 1, 0 ) 0.3333333333333333, 0.6666666666666666;
    ( 3, 1, 1, 3, 1, 0, 1, 1 ) 1.0, 0.0;
    ( 3, 1, 1, 3, 1, 1, 0, 0 ) 0.8333333333333334, 0.16666666666666666;
    ( 3, 1, 1, 3, 1, 1, 0, 1 ) 0.0, 1.0;
    ( 3, 1, 1, 3, 1, 1, 1, 0 ) 0.4, 0.6;
    ( 3, 1, 1, 3, 1, 1, 1, 1 ) 0.3333333333333333, 0.6666666666666666;
    ( 3, 1, 2, 1, 0, 0, 0, 0 ) 0.9714285714285714, 0.02857142857142857;
    ( 3, 1, 2, 1, 0, 0, 0, 1 ) 0.98, 0.02;
    ( 3, 1, 2, 1, 0, 0, 1, 0 ) 0.9723991507430998, 0.027600849256900213;
    ( 3, 1, 2, 1, 0, 0, 1, 1 ) 0.9948186528497409, 0.0051813471502590676;
    ( 3, 1, 2, 1, 0, 1, 0, 0 ) 0.9333333333333333, 0.06666666666666667;
    ( 3, 1, 2, 1, 0, 1, 0, 1 ) 0.9464285714285714, 0.05357142857142857;
    ( 3, 1, 2, 1, 0, 1, 1, 0 ) 0.9444444444444444, 0.05555555555555555;
    ( 3, 1, 2, 1, 0, 1, 1, 1 ) 0.967391304347826, 0.03260869565217391;
    ( 3, 1, 2, 1, 1, 0, 0, 0 ) 0.9473684210526315, 0.05263157894736842;
    ( 3, 1, 2, 1, 1, 0, 0, 1 ) 0.9615384615384616, 0.038461538461538464;
    ( 3, 1, 2, 1, 1, 0, 1, 0 ) 0.9876543209876543, 0.012345679012345678;
    ( 3, 1, 2, 1, 1, 0, 1, 1 ) 0.9698795180722891, 0.030120481927710843;
    ( 3, 1, 2, 1, 1, 1, 0, 0 ) 0.95, 0.05;
    ( 3, 1, 2, 1, 1, 1, 0, 1 ) 0.8545454545454545, 0.14545454545454545;
    ( 3, 1, 2, 1, 1, 1, 1, 0 ) 0.8723404255319149, 0.1276595744680851;
    ( 3, 1, 2, 1, 1, 1, 1, 1 ) 0.8859649122807017, 0.11403508771929824;
    ( 3, 1, 2, 2, 0, 0, 0, 0 ) 0.9358974358974359, 0.0641025641025641;
    ( 3, 1, 2, 2, 0, 0, 0, 1 ) 0.9441340782122905, 0.055865921787709494;
    ( 3, 1, 2, 2, 0, 0, 1, 0 ) 0.9186991869918699, 0.08130081300813008;
    ( 3, 1, 2, 2, 0, 0, 1, 1 ) 0.8905472636815921, 0.10945273631840796;
    ( 3, 1, 2, 2, 0, 1, 0, 0 ) 0.8130841121495327, 0.18691588785046728;
    ( 3, 1, 2, 2, 0, 1, 0, 1 ) 0.8849557522123894, 0.11504424778761062;
    ( 3, 1, 2, 2, 0, 1, 1, 0 ) 0.8417721518987342, 0.15822784810126583;
    ( 3, 1, 2, 2, 0, 1, 1, 1 ) 0.8225806451612904, 0.1774193548387097;
    ( 3, 1, 2, 2, 1, 0, 0, 0 ) 0.8181818181818182, 0.18181818181818182;
    ( 3, 1, 2, 2, 1, 0, 0, 1 ) 0.8161764705882353, 0.18382352941176472;
    ( 3, 1, 2, 2, 1, 0, 1, 0 ) 0.8509316770186336, 0.14906832298136646;
    ( 3, 1, 2, 2, 1, 0, 1, 1 ) 0.8564593301435407, 0.14354066985645933;
    ( 3, 1, 2, 2, 1, 1, 0, 0 ) 0.6861313868613139, 0.31386861313868614;
    ( 3, 1, 2, 2, 1, 1, 0, 1 ) 0.6882352941176471, 0.31176470588235294;
    ( 3, 1, 2, 2, 1, 1, 1, 0 ) 0.6379310344827587, 0.3620689655172414;
    ( 3, 1, 2, 2, 1, 1, 1, 1 ) 0.7322033898305085, 0.2677966101694915;
    ( 3, 1, 2, 3, 0, 0, 0, 0 ) 0.8095238095238095, 0.19047619047619047;
    ( 3, 1, 2, 3, 0, 0, 0, 1 ) 1.0, 0.0;
    ( 3, 1, 2, 3, 0, 0, 1, 0 ) 1.0, 0.0;
    ( 3, 1, 2, 3, 0, 0, 1, 1 ) 0.7777777777777778, 0.2222222222222222;
    ( 3, 1, 2, 3, 0, 1, 0, 0 ) 0.8333333333333334, 0.16666666666666666;
    ( 3, 1, 2, 3, 0, 1, 0, 1 ) 0.7, 0.3;
    ( 3, 1, 2, 3, 0, 1, 1, 0 ) 0.5454545454545454, 0.45454545454545453;
    ( 3, 1, 2, 3, 0, 1, 1, 1 ) 0.7272727272727273, 0.2727272727272727;
    ( 3, 1, 2, 3, 1, 0, 0, 0 ) 0.8, 0.2;
    ( 3, 1, 2, 3, 1, 0, 0, 1 ) 0.6666666666666666, 0.3333333333333333;
    ( 3, 1, 2, 3, 1, 0, 1, 0 ) 0.5882352941176471, 0.4117647058823529;
    ( 3, 1, 2, 3, 1, 0, 1, 1 ) 0.7058823529411765, 0.29411764705882354;
    ( 3, 1, 2, 3, 1, 1, 0, 0 ) 0.5277777777777778, 0.4722222222222222;
    ( 3, 1, 2, 3, 1, 1, 0, 1 ) 0.5588235294117647, 0.4411764705882353;
    ( 3, 1, 2, 3, 1, 1, 1, 0 ) 0.4117647058823529, 0.5882352941176471;
    ( 3, 1, 2, 3, 1, 1, 1, 1 ) 0.72, 0.28;
    ( 3, 1, 3, 1, 0, 0, 0, 0 ) 0.9958677685950413, 0.004132231404958678;
    ( 3, 1, 3, 1, 0, 0, 0, 1 ) 0.9854651162790697, 0.014534883720930232;
    ( 3, 1, 3, 1, 0, 0, 1, 0 ) 0.9876181166503747, 0.012381883349625285;
    ( 3, 1, 3, 1, 0, 0, 1, 1 ) 0.9835586408476434, 0.016441359152356595;
    ( 3, 1, 3, 1, 0, 1, 0, 0 ) 0.98125, 0.01875;
    ( 3, 1, 3, 1, 0, 1, 0, 1 ) 0.9666666666666667, 0.03333333333333333;
    ( 3, 1, 3, 1, 0, 1, 1, 0 ) 0.9753086419753086, 0.024691358024691357;
    ( 3, 1, 3, 1, 0, 1, 1, 1 ) 0.9753846153846154, 0.024615384615384615;
    ( 3, 1, 3, 1, 1, 0, 0, 0 ) 0.9805825242718447, 0.019417475728155338;
    ( 3, 1, 3, 1, 1, 0, 0, 1 ) 0.9382716049382716, 0.06172839506172839;
    ( 3, 1, 3, 1, 1, 0, 1, 0 ) 0.973568281938326, 0.02643171806167401;
    ( 3, 1, 3, 1, 1, 0, 1, 1 ) 0.9526315789473684, 0.04736842105263158;
    ( 3, 1, 3, 1, 1, 1, 0, 0 ) 0.8823529411764706, 0.11764705882352941;
    ( 3, 1, 3, 1, 1, 1, 0, 1 ) 0.8970588235294118, 0.10294117647058823;
    ( 3, 1, 3, 1, 1, 1, 1, 0 ) 0.8584070796460177, 0.1415929203539823;
    ( 3, 1, 3, 1, 1, 1, 1, 1 ) 0.9379157427937915, 0.06208425720620843;
    ( 3, 1, 3, 2, 0, 0, 0, 0 ) 0.9252577319587629, 0.07474226804123711;
    ( 3, 1, 3, 2, 0, 0, 0, 1 ) 0.9188034188034188, 0.0811965811965812;
    ( 3, 1, 3, 2, 0, 0, 1, 0 ) 0.9549867608120035, 0.04501323918799647;
    ( 3, 1, 3, 2, 0, 0, 1, 1 ) 0.9291338582677166, 0.07086614173228346;
    ( 3, 1, 3, 2, 0, 1, 0, 0 ) 0.8532608695652174, 0.14673913043478262;
    ( 3, 1, 3, 2, 0, 1, 0, 1 ) 0.8538461538461538, 0.14615384615384616;
    ( 3, 1, 3, 2, 0, 1, 1, 0 ) 0.8705636743215032, 0.12943632567849686;
    ( 3, 1, 3, 2, 0, 1, 1, 1 ) 0.8861940298507462, 0.11380597014925373;
    ( 3, 1, 3, 2, 1, 0, 0, 0 ) 0.8412698412698413, 0.15873015873015872;
    ( 3, 1, 3, 2, 1, 0, 0, 1 ) 0.8897058823529411, 0.11029411764705882;
    ( 3, 1, 3, 2, 1, 0, 1, 0 ) 0.8896103896103896, 0.11038961038961038;
    ( 3, 1, 3, 2, 1, 0, 1, 1 ) 0.8732057416267942, 0.12679425837320574;
    ( 3, 1, 3, 2, 1, 1, 0, 0 ) 0.7213114754098361, 0.2786885245901639;
    ( 3, 1, 3, 2, 1, 1, 0, 1 ) 0.7814207650273224, 0.2185792349726776;
    ( 3, 1, 3, 2, 1, 1, 1, 0 ) 0.7046632124352331, 0.29533678756476683;
    ( 3, 1, 3, 2, 1, 1, 1, 1 ) 0.7696629213483146, 0.2303370786516854;
    ( 3, 1, 3, 3, 0, 0, 0, 0 ) 0.9696969696969697, 0.030303030303030304;
    ( 3, 1, 3, 3, 0, 0, 0, 1 ) 0.9375, 0.0625;
    ( 3, 1, 3, 3, 0, 0, 1, 0 ) 0.8918918918918919, 0.10810810810810811;
    ( 3, 1, 3, 3, 0, 0, 1, 1 ) 0.75, 0.25;
    ( 3, 1, 3, 3, 0, 1, 0, 0 ) 0.6551724137931034, 0.3448275862068966;
    ( 3, 1, 3, 3, 0, 1, 0, 1 ) 0.7272727272727273, 0.2727272727272727;
    ( 3, 1, 3, 3, 0, 1, 1, 0 ) 0.85, 0.15;
    ( 3, 1, 3, 3, 0, 1, 1, 1 ) 0.5833333333333334, 0.4166666666666667;
    ( 3, 1, 3, 3, 1, 0, 0, 0 ) 0.84, 0.16;
    ( 3, 1, 3, 3, 1, 0, 0, 1 ) 0.8181818181818182, 0.18181818181818182;
    ( 3, 1, 3, 3, 1, 0, 1, 0 ) 0.56, 0.44;
    ( 3, 1, 3, 3, 1, 0, 1, 1 ) 0.8235294117647058, 0.17647058823529413;
    ( 3, 1, 3, 3, 1, 1, 0, 0 ) 0.6052631578947368, 0.39473684210526316;
    ( 3, 1, 3, 3, 1, 1, 0, 1 ) 0.6111111111111112, 0.3888888888888889;
    ( 3, 1, 3, 3, 1, 1, 1, 0 ) 0.4166666666666667, 0.5833333333333334;
    ( 3, 1, 3, 3, 1, 1, 1, 1 ) 0.45454545454545453, 0.5454545454545454;
    ( 3, 2, 1, 1, 0, 0, 0, 0 ) 0.5, 0.5;
    ( 3, 2, 1, 1, 0, 0, 0, 1 ) 0.5, 0.5;
    ( 3, 2, 1, 1, 0, 0, 1, 0 ) 1.0, 0.0;
    ( 3, 2, 1, 1, 0, 0, 1, 1 ) 0.5, 0.5;
    ( 3, 2, 1, 1, 0, 1, 0, 0 ) 0.5, 0.5;
    ( 3, 2, 1, 1, 0, 1, 0, 1 ) 0.5, 0.5;
    ( 3, 2, 1, 1, 0, 1, 1, 0 ) 0.5, 0.5;
    ( 3, 2, 1, 1, 0, 1, 1, 1 ) 0.5, 0.5;
    ( 3, 2, 1, 1, 1, 0, 0, 0 ) 0.5, 0.5;
    ( 3, 2, 1, 1, 1, 0, 0, 1 ) 0.5, 0.5;
    ( 3, 2, 1, 1, 1, 0, 1, 0 ) 0.5, 0.5;
    ( 3, 2, 1, 1, 1, 0, 1, 1 ) 0.5, 0.5;
    ( 3, 2, 1, 1, 1, 1, 0, 0 ) 0.0, 1.0;
    ( 3, 2, 1, 1, 1, 1, 0, 1 ) 0.5, 0.5;
    ( 3, 2, 1, 1, 1, 1, 1, 0 ) 0.5, 0.5;
    ( 3, 2, 1, 1, 1, 1, 1, 1 ) 0.5, 0.5;
    ( 3, 2, 1, 2, 0, 0, 0, 0 ) 1.0, 0.0;
    ( 3, 2, 1, 2, 0, 0, 0, 1 ) 0.5, 0.5;
    ( 3, 2, 1, 2, 0, 0, 1, 0 ) 0.5, 0.5;
    ( 3, 2, 1, 2, 0, 0, 1, 1 ) 0.5, 0.5;
    ( 3, 2, 1, 2, 0, 1, 0, 0 ) 0.5, 0.5;
    ( 3, 2, 1, 2, 0, 1, 0, 1 ) 0.5, 0.5;
    ( 3, 2, 1, 2, 0, 1, 1, 0 ) 1.0, 0.0;
    ( 3, 2, 1, 2, 0, 1, 1, 1 ) 0.5, 0.5;
    ( 3, 2, 1, 2, 1, 0, 0, 0 ) 0.5, 0.5;
    ( 3, 2, 1, 2, 1, 0, 0, 1 ) 1.0, 0.0;
    ( 3, 2, 1, 2, 1, 0, 1, 0 ) 1.0, 0.0;
    ( 3, 2, 1, 2, 1, 0, 1, 1 ) 0.5, 0.5;
    ( 3, 2, 1, 2, 1, 1, 0, 0 ) 0.5, 0.5;
    ( 3, 2, 1, 2, 1, 1, 0, 1 ) 1.0, 0.0;
    ( 3, 2, 1, 2, 1, 1, 1, 0 ) 0.0, 1.0;
    ( 3, 2, 1, 2, 1, 1, 1, 1 ) 1.0, 0.0;
    ( 3, 2, 1, 3, 0, 0, 0, 0 ) 0.0, 1.0;
    ( 3, 2, 1, 3, 0, 0, 0, 1 ) 0.5, 0.5;
    ( 3, 2, 1, 3, 0, 0, 1, 0 ) 0.5, 0.5;
    ( 3, 2, 1, 3, 0, 0, 1, 1 ) 0.5, 0.5;
    ( 3, 2, 1, 3, 0, 1, 0, 0 ) 0.5, 0.5;
    ( 3, 2, 1, 3, 0, 1, 0, 1 ) 0.5, 0.5;
    ( 3, 2, 1, 3, 0, 1, 1, 0 ) 0.5, 0.5;
    ( 3, 2, 1, 3, 0, 1, 1, 1 ) 0.5, 0.5;
    ( 3, 2, 1, 3, 1, 0, 0, 0 ) 0.5, 0.5;
    ( 3, 2, 1, 3, 1, 0, 0, 1 ) 0.5, 0.5;
    ( 3, 2, 1, 3, 1, 0, 1, 0 ) 0.5, 0.5;
    ( 3, 2, 1, 3, 1, 0, 1, 1 ) 0.5, 0.5;
    ( 3, 2, 1, 3, 1, 1, 0, 0 ) 0.2, 0.8;
    ( 3, 2, 1, 3, 1, 1, 0, 1 ) 0.0, 1.0;
    ( 3, 2, 1, 3, 1, 1, 1, 0 ) 0.5, 0.5;
    ( 3, 2, 1, 3, 1, 1, 1, 1 ) 0.0, 1.0;
    ( 3, 2, 2, 1, 0, 0, 0, 0 ) 0.8333333333333334, 0.16666666666666666;
    ( 3, 2, 2, 1, 0, 0, 0, 1 ) 0.9166666666666666, 0.08333333333333333;
    ( 3, 2, 2, 1, 0, 0, 1, 0 ) 0.8888888888888888, 0.1111111111111111;
    ( 3, 2, 2, 1, 0, 0, 1, 1 ) 1.0, 0.0;
    ( 3, 2, 2, 1, 0, 1, 0, 0 ) 1.0, 0.0;
    ( 3, 2, 2, 1, 0, 1, 0, 1 ) 1.0, 0.0;
    ( 3, 2, 2, 1, 0, 1, 1, 0 ) 0.9166666666666666, 0.08333333333333333;
    ( 3, 2, 2, 1, 0, 1, 1, 1 ) 0.8, 0.2;
    ( 3, 2, 2, 1, 1, 0, 0, 0 ) 0.875, 0.125;
    ( 3, 2, 2, 1, 1, 0, 0, 1 ) 1.0, 0.0;
    ( 3, 2, 2, 1, 1, 0, 1, 0 ) 0.9375, 0.0625;
    ( 3, 2, 2, 1, 1, 0, 1, 1 ) 0.9375, 0.0625;
    ( 3, 2, 2, 1, 1, 1, 0, 0 ) 0.5, 0.5;
    ( 3, 2, 2, 1, 1, 1, 0, 1 ) 0.4, 0.6;
    ( 3, 2, 2, 1, 1, 1, 1, 0 ) 0.4444444444444444, 0.5555555555555556;
    ( 3, 2, 2, 1, 1, 1, 1, 1 ) 0.631578947368421, 0.3684210526315789;
    ( 3, 2, 2, 2, 0, 0, 0, 0 ) 0.8627450980392157, 0.13725490196078433;
    ( 3, 2, 2, 2, 0, 0, 0, 1 ) 0.7857142857142857, 0.21428571428571427;
    ( 3, 2, 2, 2, 0, 0, 1, 0 ) 0.7962962962962963, 0.2037037037037037;
    ( 3, 2, 2, 2, 0, 0, 1, 1 ) 0.7567567567567568, 0.24324324324324326;
    ( 3, 2, 2, 2, 0, 1, 0, 0 ) 0.72, 0.28;
    ( 3, 2, 2, 2, 0, 1, 0, 1 ) 0.7142857142857143, 0.2857142857142857;
    ( 3, 2, 2, 2, 0, 1, 1, 0 ) 0.75, 0.25;
    ( 3, 2, 2, 2, 0, 1, 1, 1 ) 0.7692307692307693, 0.23076923076923078;
    ( 3, 2, 2, 2, 1, 0, 0, 0 ) 0.7142857142857143, 0.2857142857142857;
    ( 3, 2, 2, 2, 1, 0, 0, 1 ) 0.7857142857142857, 0.21428571428571427;
    ( 3, 2, 2, 2, 1, 0, 1, 0 ) 0.6792452830188679, 0.32075471698113206;
    ( 3, 2, 2, 2, 1, 0, 1, 1 ) 0.8484848484848485, 0.15151515151515152;
    ( 3, 2, 2, 2, 1, 1, 0, 0 ) 0.5373134328358209, 0.4626865671641791;
    ( 3, 2, 2, 2, 1, 1, 0, 1 ) 0.5882352941176471, 0.4117647058823529;
    ( 3, 2, 2, 2, 1, 1, 1, 0 ) 0.5636363636363636, 0.43636363636363634;
    ( 3, 2, 2, 2, 1, 1, 1, 1 ) 0.5869565217391305, 0.41304347826086957;
    ( 3, 2, 2, 3, 0, 0, 0, 0 ) 0.75, 0.25;
    ( 3, 2, 2, 3, 0, 0, 0, 1 ) 0.5, 0.5;
    ( 3, 2, 2, 3, 0, 0, 1, 0 ) 1.0, 0.0;
    ( 3, 2, 2, 3, 0, 0, 1, 1 ) 0.0, 1.0;
    ( 3, 2, 2, 3, 0, 1, 0, 0 ) 0.5, 0.5;
    ( 3, 2, 2, 3, 0, 1, 0, 1 ) 0.0, 1.0;
    ( 3, 2, 2, 3, 0, 1, 1, 0 ) 0.6666666666666666, 0.3333333333333333;
    ( 3, 2, 2, 3, 0, 1, 1, 1 ) 0.5, 0.5;
    ( 3, 2, 2, 3, 1, 0, 0, 0 ) 0.5714285714285714, 0.42857142857142855;
    ( 3, 2, 2, 3, 1, 0, 0, 1 ) 0.2, 0.8;
    ( 3, 2, 2, 3, 1, 0, 1, 0 ) 0.625, 0.375;
    ( 3, 2, 2, 3, 1, 0, 1, 1 ) 1.0, 0.0;
    ( 3, 2, 2, 3, 1, 1, 0, 0 ) 0.43478260869565216, 0.5652173913043478;
    ( 3, 2, 2, 3, 1, 1, 0, 1 ) 0.6, 0.4;
    ( 3, 2, 2, 3, 1, 1, 1, 0 ) 0.3333333333333333, 0.6666666666666666;
    ( 3, 2, 2, 3, 1, 1, 1, 1 ) 0.375, 0.625;
    ( 3, 2, 3, 1, 0, 0, 0, 0 ) 0.918918918918919, 0.08108108108108109;
    ( 3, 2, 3, 1, 0, 0, 0, 1 ) 0.9375, 0.0625;
    ( 3, 2, 3, 1, 0, 0, 1, 0 ) 0.9523809523809523, 0.047619047619047616;
    ( 3, 2, 3, 1, 0, 0, 1, 1 ) 0.9375, 0.0625;
    ( 3, 2, 3, 1, 0, 1, 0, 0 ) 1.0, 0.0;
    ( 3, 2, 3, 1, 0, 1, 0, 1 ) 1.0, 0.0;
    ( 3, 2, 3, 1, 0, 1, 1, 0 ) 1.0, 0.0;
    ( 3, 2, 3, 1, 0, 1, 1, 1 ) 0.9285714285714286, 0.07142857142857142;
    ( 3, 2, 3, 1, 1, 0, 0, 0 ) 0.8666666666666667, 0.13333333333333333;
    ( 3, 2, 3, 1, 1, 0, 0, 1 ) 0.7272727272727273, 0.2727272727272727;
    ( 3, 2, 3, 1, 1, 0, 1, 0 ) 0.9130434782608695, 0.08695652173913043;
    ( 3, 2, 3, 1, 1, 0, 1, 1 ) 0.9375, 0.0625;
    ( 3, 2, 3, 1, 1, 1, 0, 0 ) 0.7, 0.3;
    ( 3, 2, 3, 1, 1, 1, 0, 1 ) 0.75, 0.25;
    ( 3, 2, 3, 1, 1, 1, 1, 0 ) 0.7368421052631579, 0.2631578947368421;
    ( 3, 2, 3, 1, 1, 1, 1, 1 ) 0.7142857142857143, 0.2857142857142857;
    ( 3, 2, 3, 2, 0, 0, 0, 0 ) 0.875, 0.125;
    ( 3, 2, 3, 2, 0, 0, 0, 1 ) 0.8275862068965517, 0.1724137931034483;
    ( 3, 2, 3, 2, 0, 0, 1, 0 ) 0.8933333333333333, 0.10666666666666667;
    ( 3, 2, 3, 2, 0, 0, 1, 1 ) 0.9066666666666666, 0.09333333333333334;
    ( 3, 2, 3, 2, 0, 1, 0, 0 ) 0.7837837837837838, 0.21621621621621623;
    ( 3, 2, 3, 2, 0, 1, 0, 1 ) 0.7857142857142857, 0.21428571428571427;
    ( 3, 2, 3, 2, 0, 1, 1, 0 ) 0.6666666666666666, 0.3333333333333333;
    ( 3, 2, 3, 2, 0, 1, 1, 1 ) 0.8648648648648649, 0.13513513513513514;
    ( 3, 2, 3, 2, 1, 0, 0, 0 ) 0.7916666666666666, 0.20833333333333334;
    ( 3, 2, 3, 2, 1, 0, 0, 1 ) 0.8275862068965517, 0.1724137931034483;
    ( 3, 2, 3, 2, 1, 0, 1, 0 ) 0.8115942028985508, 0.18840579710144928;
    ( 3, 2, 3, 2, 1, 0, 1, 1 ) 0.7777777777777778, 0.2222222222222222;
    ( 3, 2, 3, 2, 1, 1, 0, 0 ) 0.5740740740740741, 0.42592592592592593;
    ( 3, 2, 3, 2, 1, 1, 0, 1 ) 0.6046511627906976, 0.3953488372093023;
    ( 3, 2, 3, 2, 1, 1, 1, 0 ) 0.5892857142857143, 0.4107142857142857;
    ( 3, 2, 3, 2, 1, 1, 1, 1 ) 0.6764705882352942, 0.3235294117647059;
    ( 3, 2, 3, 3, 0, 0, 0, 0 ) 1.0, 0.0;
    ( 3, 2, 3, 3, 0, 0, 0, 1 ) 0.5, 0.5;
    ( 3, 2, 3, 3, 0, 0, 1, 0 ) 0.8888888888888888, 0.1111111111111111;
    ( 3, 2, 3, 3, 0, 0, 1, 1 ) 1.0, 0.0;
    ( 3, 2, 3, 3, 0, 1, 0, 0 ) 0.2857142857142857, 0.7142857142857143;
    ( 3, 2, 3, 3, 0, 1, 0, 1 ) 0.3333333333333333, 0.6666666666666666;
    ( 3, 2, 3, 3, 0, 1, 1, 0 ) 0.5, 0.5;
    ( 3, 2, 3, 3, 0, 1, 1, 1 ) 1.0, 0.0;
    ( 3, 2, 3, 3, 1, 0, 0, 0 ) 0.5714285714285714, 0.42857142857142855;
    ( 3, 2, 3, 3, 1, 0, 0, 1 ) 0.625, 0.375;
    ( 3, 2, 3, 3, 1, 0, 1, 0 ) 0.5, 0.5;
    ( 3, 2, 3, 3, 1, 0, 1, 1 ) 0.3333333333333333, 0.6666666666666666;
    ( 3, 2, 3, 3, 1, 1, 0, 0 ) 0.4166666666666667, 0.5833333333333334;
    ( 3, 2, 3, 3, 1, 1, 0, 1 ) 0.23076923076923078, 0.7692307692307693;
    ( 3, 2, 3, 3, 1, 1, 1, 0 ) 0.2857142857142857, 0.7142857142857143;
    ( 3, 2, 3, 3, 1, 1, 1, 1 ) 0.2727272727272727, 0.7272727272727273;
    ( 4, 0, 1, 1, 0, 0, 0, 0 ) 0.5, 0.5;
    ( 4, 0, 1, 1, 0, 0, 0, 1 ) 1.0, 0.0;
    ( 4, 0, 1, 1, 0, 0, 1, 0 ) 0.75, 0.25;
    ( 4, 0, 1, 1, 0, 0, 1, 1 ) 1.0, 0.0;
    ( 4, 0, 1, 1, 0, 1, 0, 0 ) 0.5, 0.5;
    ( 4, 0, 1, 1, 0, 1, 0, 1 ) 0.5, 0.5;
    ( 4, 0, 1, 1, 0, 1, 1, 0 ) 1.0, 0.0;
    ( 4, 0, 1, 1, 0, 1, 1, 1 ) 1.0, 0.0;
    ( 4, 0, 1, 1, 1, 0, 0, 0 ) 1.0, 0.0;
    ( 4, 0, 1, 1, 1, 0, 0, 1 ) 1.0, 0.0;
    ( 4, 0, 1, 1, 1, 0, 1, 0 ) 1.0, 0.0;
    ( 4, 0, 1, 1, 1, 0, 1, 1 ) 0.5, 0.5;
    ( 4, 0, 1, 1, 1, 1, 0, 0 ) 0.5, 0.5;
    ( 4, 0, 1, 1, 1, 1, 0, 1 ) 1.0, 0.0;
    ( 4, 0, 1, 1, 1, 1, 1, 0 ) 0.5, 0.5;
    ( 4, 0, 1, 1, 1, 1, 1, 1 ) 0.5, 0.5;
    ( 4, 0, 1, 2, 0, 0, 0, 0 ) 0.7142857142857143, 0.2857142857142857;
    ( 4, 0, 1, 2, 0, 0, 0, 1 ) 1.0, 0.0;
    ( 4, 0, 1, 2, 0, 0, 1, 0 ) 0.9, 0.1;
    ( 4, 0, 1, 2, 0, 0, 1, 1 ) 1.0, 0.0;
    ( 4, 0, 1, 2, 0, 1, 0, 0 ) 1.0, 0.0;
    ( 4, 0, 1, 2, 0, 1, 0, 1 ) 0.75, 0.25;
    ( 4, 0, 1, 2, 0, 1, 1, 0 ) 0.9090909090909091, 0.09090909090909091;
    ( 4, 0, 1, 2, 0, 1, 1, 1 ) 1.0, 0.0;
    ( 4, 0, 1, 2, 1, 0, 0, 0 ) 1.0, 0.0;
    ( 4, 0, 1, 2, 1, 0, 0, 1 ) 1.0, 0.0;
    ( 4, 0, 1, 2, 1, 0, 1, 0 ) 0.7142857142857143, 0.2857142857142857;
    ( 4, 0, 1, 2, 1, 0, 1, 1 ) 1.0, 0.0;
    ( 4, 0, 1, 2, 1, 1, 0, 0 ) 0.5714285714285714, 0.42857142857142855;
    ( 4, 0, 1, 2, 1, 1, 0, 1 ) 1.0, 0.0;
    ( 4, 0, 1, 2, 1, 1, 1, 0 ) 0.8333333333333334, 0.16666666666666666;
    ( 4, 0, 1, 2, 1, 1, 1, 1 ) 0.5, 0.5;
    ( 4, 0, 1, 3, 0, 0, 0, 0 ) 0.6666666666666666, 0.3333333333333333;
    ( 4, 0, 1, 3, 0, 0, 0, 1 ) 1.0, 0.0;
    ( 4, 0, 1, 3, 0, 0, 1, 0 ) 1.0, 0.0;
    ( 4, 0, 1, 3, 0, 0, 1, 1 ) 1.0, 0.0;
    ( 4, 0, 1, 3, 0, 1, 0, 0 ) 1.0, 0.0;
    ( 4, 0, 1, 3, 0, 1, 0, 1 ) 1.0, 0.0;
    ( 4, 0, 1, 3, 0, 1, 1, 0 ) 1.0, 0.0;
    ( 4, 0, 1, 3, 0, 1, 1, 1 ) 1.0, 0.0;
    ( 4, 0, 1, 3, 1, 0, 0, 0 ) 1.0, 0.0;
    ( 4, 0, 1, 3, 1, 0, 0, 1 ) 0.5, 0.5;
    ( 4, 0, 1, 3, 1, 0, 1, 0 ) 0.5, 0.5;
    ( 4, 0, 1, 3, 1, 0, 1, 1 ) 0.5, 0.5;
    ( 4, 0, 1, 3, 1, 1, 0, 0 ) 0.5, 0.5;
    ( 4, 0, 1, 3, 1, 1, 0, 1 ) 0.5714285714285714, 0.42857142857142855;
    ( 4, 0, 1, 3, 1, 1, 1, 0 ) 0.4, 0.6;
    ( 4, 0, 1, 3, 1, 1, 1, 1 ) 1.0, 0.0;
    ( 4, 0, 2, 1, 0, 0, 0, 0 ) 1.0, 0.0;
    ( 4, 0, 2, 1, 0, 0, 0, 1 ) 0.9885057471264368, 0.011494252873563218;
    ( 4, 0, 2, 1, 0, 0, 1, 0 ) 0.9919224555735057, 0.008077544426494346;
    ( 4, 0, 2, 1, 0, 0, 1, 1 ) 1.0, 0.0;
    ( 4, 0, 2, 1, 0, 1, 0, 0 ) 1.0, 0.0;
    ( 4, 0, 2, 1, 0, 1, 0, 1 ) 1.0, 0.0;
    ( 4, 0, 2, 1, 0, 1, 1, 0 ) 0.9821428571428571, 0.017857142857142856;
    ( 4, 0, 2, 1, 0, 1, 1, 1 ) 0.9344262295081968, 0.06557377049180328;
    ( 4, 0, 2, 1, 1, 0, 0, 0 ) 1.0, 0.0;
    ( 4, 0, 2, 1, 1, 0, 0, 1 ) 0.9523809523809523, 0.047619047619047616;
    ( 4, 0, 2, 1, 1, 0, 1, 0 ) 0.9367088607594937, 0.06329113924050633;
    ( 4, 0, 2, 1, 1, 0, 1, 1 ) 0.9464285714285714, 0.05357142857142857;
    ( 4, 0, 2, 1, 1, 1, 0, 0 ) 0.8823529411764706, 0.11764705882352941;
    ( 4, 0, 2, 1, 1, 1, 0, 1 ) 0.7647058823529411, 0.23529411764705882;
    ( 4, 0, 2, 1, 1, 1, 1, 0 ) 0.9183673469387755, 0.08163265306122448;
    ( 4, 0, 2, 1, 1, 1, 1, 1 ) 0.9387755102040817, 0.061224489795918366;
    ( 4, 0, 2, 2, 0, 0, 0, 0 ) 0.9770992366412213, 0.022900763358778626;
    ( 4, 0, 2, 2, 0, 0, 0, 1 ) 0.941747572815534, 0.05825242718446602;
    ( 4, 0, 2, 2, 0, 0, 1, 0 ) 0.9506172839506173, 0.04938271604938271;
    ( 4, 0, 2, 2, 0, 0, 1, 1 ) 0.930379746835443, 0.06962025316455696;
    ( 4, 0, 2, 2, 0, 1, 0, 0 ) 0.925, 0.075;
    ( 4, 0, 2, 2, 0, 1, 0, 1 ) 0.925, 0.075;
    ( 4, 0, 2, 2, 0, 1, 1, 0 ) 0.9180327868852459, 0.08196721311475409;
    ( 4, 0, 2, 2, 0, 1, 1, 1 ) 0.8554216867469879, 0.14457831325301204;
    ( 4, 0, 2, 2, 1, 0, 0, 0 ) 0.9166666666666666, 0.08333333333333333;
    ( 4, 0, 2, 2, 1, 0, 0, 1 ) 0.9090909090909091, 0.09090909090909091;
    ( 4, 0, 2, 2, 1, 0, 1, 0 ) 0.8785046728971962, 0.12149532710280374;
    ( 4, 0, 2, 2, 1, 0, 1, 1 ) 0.859375, 0.140625;
    ( 4, 0, 2, 2, 1, 1, 0, 0 ) 0.8405797101449275, 0.15942028985507245;
    ( 4, 0, 2, 2, 1, 1, 0, 1 ) 0.7755102040816326, 0.22448979591836735;
    ( 4, 0, 2, 2, 1, 1, 1, 0 ) 0.794392523364486, 0.205607476635514;
    ( 4, 0, 2, 2, 1, 1, 1, 1 ) 0.8191489361702128, 0.18085106382978725;
    ( 4, 0, 2, 3, 0, 0, 0, 0 ) 0.9393939393939394, 0.06060606060606061;
    ( 4, 0, 2, 3, 0, 0, 0, 1 ) 0.8421052631578947, 0.15789473684210525;
    ( 4, 0, 2, 3, 0, 0, 1, 0 ) 1.0, 0.0;
    ( 4, 0, 2, 3, 0, 0, 1, 1 ) 0.7692307692307693, 0.23076923076923078;
    ( 4, 0, 2, 3, 0, 1, 0, 0 ) 0.7916666666666666, 0.20833333333333334;
    ( 4, 0, 2, 3, 0, 1, 0, 1 ) 0.8571428571428571, 0.14285714285714285;
    ( 4, 0, 2, 3, 0, 1, 1, 0 ) 0.9333333333333333, 0.06666666666666667;
    ( 4, 0, 2, 3, 0, 1, 1, 1 ) 0.6666666666666666, 0.3333333333333333;
    ( 4, 0, 2, 3, 1, 0, 0, 0 ) 0.8125, 0.1875;
    ( 4, 0, 2, 3, 1, 0, 0, 1 ) 0.9285714285714286, 0.07142857142857142;
    ( 4, 0, 2, 3, 1, 0, 1, 0 ) 0.7272727272727273, 0.2727272727272727;
    ( 4, 0, 2, 3, 1, 0, 1, 1 ) 0.75, 0.25;
    ( 4, 0, 2, 3, 1, 1, 0, 0 ) 0.7435897435897436, 0.2564102564102564;
    ( 4, 0, 2, 3, 1, 1, 0, 1 ) 0.7391304347826086, 0.2608695652173913;
    ( 4, 0, 2, 3, 1, 1, 1, 0 ) 0.5714285714285714, 0.42857142857142855;
    ( 4, 0, 2, 3, 1, 1, 1, 1 ) 0.5769230769230769, 0.4230769230769231;
    ( 4, 0, 3, 1, 0, 0, 0, 0 ) 0.9855072463768116, 0.014492753623188406;
    ( 4, 0, 3, 1, 0, 0, 0, 1 ) 0.9925925925925926, 0.007407407407407408;
    ( 4, 0, 3, 1, 0, 0, 1, 0 ) 0.9931398416886543, 0.006860158311345646;
    ( 4, 0, 3, 1, 0, 0, 1, 1 ) 0.9859851607584501, 0.014014839241549877;
    ( 4, 0, 3, 1, 0, 1, 0, 0 ) 0.9801980198019802, 0.019801980198019802;
    ( 4, 0, 3, 1, 0, 1, 0, 1 ) 0.9423076923076923, 0.057692307692307696;
    ( 4, 0, 3, 1, 0, 1, 1, 0 ) 0.9874476987447699, 0.012552301255230125;
    ( 4, 0, 3, 1, 0, 1, 1, 1 ) 0.9568345323741008, 0.04316546762589928;
    ( 4, 0, 3, 1, 1, 0, 0, 0 ) 1.0, 0.0;
    ( 4, 0, 3, 1, 1, 0, 0, 1 ) 0.9411764705882353, 0.058823529411764705;
    ( 4, 0, 3, 1, 1, 0, 1, 0 ) 0.9839816933638444, 0.016018306636155607;
    ( 4, 0, 3, 1, 1, 0, 1, 1 ) 0.9518716577540107, 0.0481283422459893;
    ( 4, 0, 3, 1, 1, 1, 0, 0 ) 0.9354838709677419, 0.06451612903225806;
    ( 4, 0, 3, 1, 1, 1, 0, 1 ) 0.9629629629629629, 0.037037037037037035;
    ( 4, 0, 3, 1, 1, 1, 1, 0 ) 0.958139534883721, 0.04186046511627907;
    ( 4, 0, 3, 1, 1, 1, 1, 1 ) 0.950920245398773, 0.049079754601226995;
    ( 4, 0, 3, 2, 0, 0, 0, 0 ) 0.968944099378882, 0.031055900621118012;
    ( 4, 0, 3, 2, 0, 0, 0, 1 ) 0.9333333333333333, 0.06666666666666667;
    ( 4, 0, 3, 2, 0, 0, 1, 0 ) 0.9684684684684685, 0.03153153153153153;
    ( 4, 0, 3, 2, 0, 0, 1, 1 ) 0.9404255319148936, 0.059574468085106386;
    ( 4, 0, 3, 2, 0, 1, 0, 0 ) 0.9139784946236559, 0.08602150537634409;
    ( 4, 0, 3, 2, 0, 1, 0, 1 ) 0.8867924528301887, 0.11320754716981132;
    ( 4, 0, 3, 2, 0, 1, 1, 0 ) 0.9384615384615385, 0.06153846153846154;
    ( 4, 0, 3, 2, 0, 1, 1, 1 ) 0.8538461538461538, 0.14615384615384616;
    ( 4, 0, 3, 2, 1, 0, 0, 0 ) 0.8833333333333333, 0.11666666666666667;
    ( 4, 0, 3, 2, 1, 0, 0, 1 ) 0.9166666666666666, 0.08333333333333333;
    ( 4, 0, 3, 2, 1, 0, 1, 0 ) 0.9367816091954023, 0.06321839080459771;
    ( 4, 0, 3, 2, 1, 0, 1, 1 ) 0.9354838709677419, 0.06451612903225806;
    ( 4, 0, 3, 2, 1, 1, 0, 0 ) 0.7142857142857143, 0.2857142857142857;
    ( 4, 0, 3, 2, 1, 1, 0, 1 ) 0.72, 0.28;
    ( 4, 0, 3, 2, 1, 1, 1, 0 ) 0.8488372093023255, 0.1511627906976744;
    ( 4, 0, 3, 2, 1, 1, 1, 1 ) 0.8410596026490066, 0.15894039735099338;
    ( 4, 0, 3, 3, 0, 0, 0, 0 ) 0.9512195121951219, 0.04878048780487805;
    ( 4, 0, 3, 3, 0, 0, 0, 1 ) 1.0, 0.0;
    ( 4, 0, 3, 3, 0, 0, 1, 0 ) 0.9622641509433962, 0.03773584905660377;
    ( 4, 0, 3, 3, 0, 0, 1, 1 ) 0.9411764705882353, 0.058823529411764705;
    ( 4, 0, 3, 3, 0, 1, 0, 0 ) 0.9259259259259259, 0.07407407407407407;
    ( 4, 0, 3, 3, 0, 1, 0, 1 ) 0.75, 0.25;
    ( 4, 0, 3, 3, 0, 1, 1, 0 ) 0.9230769230769231, 0.07692307692307693;
    ( 4, 0, 3, 3, 0, 1, 1, 1 ) 0.6666666666666666, 0.3333333333333333;
    ( 4, 0, 3, 3, 1, 0, 0, 0 ) 0.7894736842105263, 0.21052631578947367;
    ( 4, 0, 3, 3, 1, 0, 0, 1 ) 0.9, 0.1;
    ( 4, 0, 3, 3, 1, 0, 1, 0 ) 0.7058823529411765, 0.29411764705882354;
    ( 4, 0, 3, 3, 1, 0, 1, 1 ) 0.8, 0.2;
    ( 4, 0, 3, 3, 1, 1, 0, 0 ) 0.65, 0.35;
    ( 4, 0, 3, 3, 1, 1, 0, 1 ) 0.75, 0.25;
    ( 4, 0, 3, 3, 1, 1, 1, 0 ) 0.8518518518518519, 0.14814814814814814;
    ( 4, 0, 3, 3, 1, 1, 1, 1 ) 0.6666666666666666, 0.3333333333333333;
    ( 4, 1, 1, 1, 0, 0, 0, 0 ) 1.0, 0.0;
    ( 4, 1, 1, 1, 0, 0, 0, 1 ) 1.0, 0.0;
    ( 4, 1, 1, 1, 0, 0, 1, 0 ) 0.8666666666666667, 0.13333333333333333;
    ( 4, 1, 1, 1, 0, 0, 1, 1 ) 0.9230769230769231, 0.07692307692307693;
    ( 4, 1, 1, 1, 0, 1, 0, 0 ) 1.0, 0.0;
    ( 4, 1, 1, 1, 0, 1, 0, 1 ) 1.0, 0.0;
    ( 4, 1, 1, 1, 0, 1, 1, 0 ) 0.8333333333333334, 0.16666666666666666;
    ( 4, 1, 1, 1, 0, 1, 1, 1 ) 0.8, 0.2;
    ( 4, 1, 1, 1, 1, 0, 0, 0 ) 0.0, 1.0;
    ( 4, 1, 1, 1, 1, 0, 0, 1 ) 1.0, 0.0;
    ( 4, 1, 1, 1, 1, 0, 1, 0 ) 1.0, 0.0;
    ( 4, 1, 1, 1, 1, 0, 1, 1 ) 1.0, 0.0;
    ( 4, 1, 1, 1, 1, 1, 0, 0 ) 0.6666666666666666, 0.3333333333333333;
    ( 4, 1, 1, 1, 1, 1, 0, 1 ) 0.8571428571428571, 0.14285714285714285;
    ( 4, 1, 1, 1, 1, 1, 1, 0 ) 1.0, 0.0;
    ( 4, 1, 1, 1, 1, 1, 1, 1 ) 1.0, 0.0;
    ( 4, 1, 1, 2, 0, 0, 0, 0 ) 0.8666666666666667, 0.13333333333333333;
    ( 4, 1, 1, 2, 0, 0, 0, 1 ) 0.8947368421052632, 0.10526315789473684;
    ( 4, 1, 1, 2, 0, 0, 1, 0 ) 0.9117647058823529, 0.08823529411764706;
    ( 4, 1, 1, 2, 0, 0, 1, 1 ) 0.95, 0.05;
    ( 4, 1, 1, 2, 0, 1, 0, 0 ) 0.7, 0.3;
    ( 4, 1, 1, 2, 0, 1, 0, 1 ) 0.9285714285714286, 0.07142857142857142;
    ( 4, 1, 1, 2, 0, 1, 1, 0 ) 0.875, 0.125;
    ( 4, 1, 1, 2, 0, 1, 1, 1 ) 0.7916666666666666, 0.20833333333333334;
    ( 4, 1, 1, 2, 1, 0, 0, 0 ) 0.7333333333333333, 0.26666666666666666;
    ( 4, 1, 1, 2, 1, 0, 0, 1 ) 0.9523809523809523, 0.047619047619047616;
    ( 4, 1, 1, 2, 1, 0, 1, 0 ) 0.75, 0.25;
    ( 4, 1, 1, 2, 1, 0, 1, 1 ) 0.75, 0.25;
    ( 4, 1, 1, 2, 1, 1, 0, 0 ) 0.5277777777777778, 0.4722222222222222;
    ( 4, 1, 1, 2, 1, 1, 0, 1 ) 0.5833333333333334, 0.4166666666666667;
    ( 4, 1, 1, 2, 1, 1, 1, 0 ) 0.5641025641025641, 0.4358974358974359;
    ( 4, 1, 1, 2, 1, 1, 1, 1 ) 0.6285714285714286, 0.37142857142857144;
    ( 4, 1, 1, 3, 0, 0, 0, 0 ) 0.875, 0.125;
    ( 4, 1, 1, 3, 0, 0, 0, 1 ) 0.75, 0.25;
    ( 4, 1, 1, 3, 0, 0, 1, 0 ) 0.0, 1.0;
    ( 4, 1, 1, 3, 0, 0, 1, 1 ) 0.6666666666666666, 0.3333333333333333;
    ( 4, 1, 1, 3, 0, 1, 0, 0 ) 0.42857142857142855, 0.5714285714285714;
    ( 4, 1, 1, 3, 0, 1, 0, 1 ) 1.0, 0.0;
    ( 4, 1, 1, 3, 0, 1, 1, 0 ) 1.0, 0.0;
    ( 4, 1, 1, 3, 0, 1, 1, 1 ) 1.0, 0.0;
    ( 4, 1, 1, 3, 1, 0, 0, 0 ) 0.2857142857142857, 0.7142857142857143;
    ( 4, 1, 1, 3, 1, 0, 0, 1 ) 0.8333333333333334, 0.16666666666666666;
    ( 4, 1, 1, 3, 1, 0, 1, 0 ) 0.5, 0.5;
    ( 4, 1, 1, 3, 1, 0, 1, 1 ) 0.7777777777777778, 0.2222222222222222;
    ( 4, 1, 1, 3, 1, 1, 0, 0 ) 0.45454545454545453, 0.5454545454545454;
    ( 4, 1, 1, 3, 1, 1, 0, 1 ) 0.2857142857142857, 0.7142857142857143;
    ( 4, 1, 1, 3, 1, 1, 1, 0 ) 0.36363636363636365, 0.6363636363636364;
    ( 4, 1, 1, 3, 1, 1, 1, 1 ) 0.5, 0.5;
    ( 4, 1, 2, 1, 0, 0, 0, 0 ) 0.9703389830508474, 0.029661016949152543;
    ( 4, 1, 2, 1, 0, 0, 0, 1 ) 0.9659863945578231, 0.034013605442176874;
    ( 4, 1, 2, 1, 0, 0, 1, 0 ) 0.9811827956989247, 0.01881720430107527;
    ( 4, 1, 2, 1, 0, 0, 1, 1 ) 0.9637096774193549, 0.036290322580645164;
    ( 4, 1, 2, 1, 0, 1, 0, 0 ) 0.9272727272727272, 0.07272727272727272;
    ( 4, 1, 2, 1, 0, 1, 0, 1 ) 0.9078014184397163, 0.09219858156028368;
    ( 4, 1, 2, 1, 0, 1, 1, 0 ) 0.9375, 0.0625;
    ( 4, 1, 2, 1, 0, 1, 1, 1 ) 0.9389920424403183, 0.0610079575596817;
    ( 4, 1, 2, 1, 1, 0, 0, 0 ) 0.9393939393939394, 0.06060606060606061;
    ( 4, 1, 2, 1, 1, 0, 0, 1 ) 0.9469026548672567, 0.05309734513274336;
    ( 4, 1, 2, 1, 1, 0, 1, 0 ) 0.9203187250996016, 0.0796812749003984;
    ( 4, 1, 2, 1, 1, 0, 1, 1 ) 0.9329073482428115, 0.0670926517571885;
    ( 4, 1, 2, 1, 1, 1, 0, 0 ) 0.8383838383838383, 0.16161616161616163;
    ( 4, 1, 2, 1, 1, 1, 0, 1 ) 0.8571428571428571, 0.14285714285714285;
    ( 4, 1, 2, 1, 1, 1, 1, 0 ) 0.8509615384615384, 0.14903846153846154;
    ( 4, 1, 2, 1, 1, 1, 1, 1 ) 0.8101983002832861, 0.18980169971671387;
    ( 4, 1, 2, 2, 0, 0, 0, 0 ) 0.8666666666666667, 0.13333333333333333;
    ( 4, 1, 2, 2, 0, 0, 0, 1 ) 0.9125874125874126, 0.08741258741258741;
    ( 4, 1, 2, 2, 0, 0, 1, 0 ) 0.899803536345776, 0.10019646365422397;
    ( 4, 1, 2, 2, 0, 0, 1, 1 ) 0.8845360824742268, 0.1154639175257732;
    ( 4, 1, 2, 2, 0, 1, 0, 0 ) 0.7710280373831776, 0.22897196261682243;
    ( 4, 1, 2, 2, 0, 1, 0, 1 ) 0.8341968911917098, 0.16580310880829016;
    ( 4, 1, 2, 2, 0, 1, 1, 0 ) 0.8287153652392947, 0.1712846347607053;
    ( 4, 1, 2, 2, 0, 1, 1, 1 ) 0.8392857142857143, 0.16071428571428573;
    ( 4, 1, 2, 2, 1, 0, 0, 0 ) 0.7792792792792793, 0.22072072072072071;
    ( 4, 1, 2, 2, 1, 0, 0, 1 ) 0.7739463601532567, 0.2260536398467433;
    ( 4, 1, 2, 2, 1, 0, 1, 0 ) 0.8159806295399515, 0.18401937046004843;
    ( 4, 1, 2, 2, 1, 0, 1, 1 ) 0.7511627906976744, 0.24883720930232558;
    ( 4, 1, 2, 2, 1, 1, 0, 0 ) 0.64, 0.36;
    ( 4, 1, 2, 2, 1, 1, 0, 1 ) 0.7188208616780045, 0.2811791383219955;
    ( 4, 1, 2, 2, 1, 1, 1, 0 ) 0.6740157480314961, 0.32598425196850395;
    ( 4, 1, 2, 2, 1, 1, 1, 1 ) 0.69140625, 0.30859375;
    ( 4, 1, 2, 3, 0, 0, 0, 0 ) 0.9423076923076923, 0.057692307692307696;
    ( 4, 1, 2, 3, 0, 0, 0, 1 ) 0.9032258064516129, 0.0967741935483871;
    ( 4, 1, 2, 3, 0, 0, 1, 0 ) 0.8666666666666667, 0.13333333333333333;
    ( 4, 1, 2, 3, 0, 0, 1, 1 ) 0.7931034482758621, 0.20689655172413793;
    ( 4, 1, 2, 3, 0, 1, 0, 0 ) 0.660377358490566, 0.33962264150943394;
    ( 4, 1, 2, 3, 0, 1, 0, 1 ) 0.78125, 0.21875;
    ( 4, 1, 2, 3, 0, 1, 1, 0 ) 0.7368421052631579, 0.2631578947368421;
    ( 4, 1, 2, 3, 0, 1, 1, 1 ) 0.6666666666666666, 0.3333333333333333;
    ( 4, 1, 2, 3, 1, 0, 0, 0 ) 0.6774193548387096, 0.3225806451612903;
    ( 4, 1, 2, 3, 1, 0, 0, 1 ) 0.7111111111111111, 0.28888888888888886;
    ( 4, 1, 2, 3, 1, 0, 1, 0 ) 0.6857142857142857, 0.3142857142857143;
    ( 4, 1, 2, 3, 1, 0, 1, 1 ) 0.7142857142857143, 0.2857142857142857;
    ( 4, 1, 2, 3, 1, 1, 0, 0 ) 0.4647058823529412, 0.5352941176470588;
    ( 4, 1, 2, 3, 1, 1, 0, 1 ) 0.5178571428571429, 0.48214285714285715;
    ( 4, 1, 2, 3, 1, 1, 1, 0 ) 0.46956521739130436, 0.5304347826086957;
    ( 4, 1, 2, 3, 1, 1, 1, 1 ) 0.5504587155963303, 0.44954128440366975;
    ( 4, 1, 3, 1, 0, 0, 0, 0 ) 0.988, 0.012;
    ( 4, 1, 3, 1, 0, 0, 0, 1 ) 0.9618320610687023, 0.03816793893129771;
    ( 4, 1, 3, 1, 0, 0, 1, 0 ) 0.9869617950272893, 0.013038204972710734;
    ( 4, 1, 3, 1, 0, 0, 1, 1 ) 0.9722722362261433, 0.02772776377385668;
    ( 4, 1, 3, 1, 0, 1, 0, 0 ) 0.9201680672268907, 0.07983193277310924;
    ( 4, 1, 3, 1, 0, 1, 0, 1 ) 0.9321266968325792, 0.06787330316742081;
    ( 4, 1, 3, 1, 0, 1, 1, 0 ) 0.9628355127322781, 0.03716448726772195;
    ( 4, 1, 3, 1, 0, 1, 1, 1 ) 0.9534412955465587, 0.0465587044534413;
    ( 4, 1, 3, 1, 1, 0, 0, 0 ) 0.9120879120879121, 0.08791208791208792;
    ( 4, 1, 3, 1, 1, 0, 0, 1 ) 0.8920454545454546, 0.10795454545454546;
    ( 4, 1, 3, 1, 1, 0, 1, 0 ) 0.9431137724550899, 0.05688622754491018;
    ( 4, 1, 3, 1, 1, 0, 1, 1 ) 0.9246275197195443, 0.07537248028045573;
    ( 4, 1, 3, 1, 1, 1, 0, 0 ) 0.8031914893617021, 0.19680851063829788;
    ( 4, 1, 3, 1, 1, 1, 0, 1 ) 0.8317307692307693, 0.16826923076923078;
    ( 4, 1, 3, 1, 1, 1, 1, 0 ) 0.8961384820239681, 0.10386151797603196;
    ( 4, 1, 3, 1, 1, 1, 1, 1 ) 0.8896797153024911, 0.1103202846975089;
    ( 4, 1, 3, 2, 0, 0, 0, 0 ) 0.9168591224018475, 0.08314087759815242;
    ( 4, 1, 3, 2, 0, 0, 0, 1 ) 0.9186046511627907, 0.08139534883720931;
    ( 4, 1, 3, 2, 0, 0, 1, 0 ) 0.9316987740805605, 0.06830122591943957;
    ( 4, 1, 3, 2, 0, 0, 1, 1 ) 0.9106945975744212, 0.08930540242557883;
    ( 4, 1, 3, 2, 0, 1, 0, 0 ) 0.8123076923076923, 0.18769230769230769;
    ( 4, 1, 3, 2, 0, 1, 0, 1 ) 0.8301886792452831, 0.16981132075471697;
    ( 4, 1, 3, 2, 0, 1, 1, 0 ) 0.8391061452513966, 0.16089385474860335;
    ( 4, 1, 3, 2, 0, 1, 1, 1 ) 0.8412921348314607, 0.15870786516853932;
    ( 4, 1, 3, 2, 1, 0, 0, 0 ) 0.7784431137724551, 0.2215568862275449;
    ( 4, 1, 3, 2, 1, 0, 0, 1 ) 0.825, 0.175;
    ( 4, 1, 3, 2, 1, 0, 1, 0 ) 0.8555276381909548, 0.1444723618090452;
    ( 4, 1, 3, 2, 1, 0, 1, 1 ) 0.810958904109589, 0.18904109589041096;
    ( 4, 1, 3, 2, 1, 1, 0, 0 ) 0.6356435643564357, 0.36435643564356435;
    ( 4, 1, 3, 2, 1, 1, 0, 1 ) 0.667420814479638, 0.332579185520362;
    ( 4, 1, 3, 2, 1, 1, 1, 0 ) 0.6673058485139022, 0.3326941514860978;
    ( 4, 1, 3, 2, 1, 1, 1, 1 ) 0.6699346405228758, 0.3300653594771242;
    ( 4, 1, 3, 3, 0, 0, 0, 0 ) 0.85, 0.15;
    ( 4, 1, 3, 3, 0, 0, 0, 1 ) 0.92, 0.08;
    ( 4, 1, 3, 3, 0, 0, 1, 0 ) 0.84375, 0.15625;
    ( 4, 1, 3, 3, 0, 0, 1, 1 ) 0.8571428571428571, 0.14285714285714285;
    ( 4, 1, 3, 3, 0, 1, 0, 0 ) 0.625, 0.375;
    ( 4, 1, 3, 3, 0, 1, 0, 1 ) 0.5909090909090909, 0.4090909090909091;
    ( 4, 1, 3, 3, 0, 1, 1, 0 ) 0.7307692307692307, 0.2692307692307692;
    ( 4, 1, 3, 3, 0, 1, 1, 1 ) 0.6571428571428571, 0.34285714285714286;
    ( 4, 1, 3, 3, 1, 0, 0, 0 ) 0.6326530612244898, 0.3673469387755102;
    ( 4, 1, 3, 3, 1, 0, 0, 1 ) 0.625, 0.375;
    ( 4, 1, 3, 3, 1, 0, 1, 0 ) 0.673469387755102, 0.32653061224489793;
    ( 4, 1, 3, 3, 1, 0, 1, 1 ) 0.6888888888888889, 0.3111111111111111;
    ( 4, 1, 3, 3, 1, 1, 0, 0 ) 0.53125, 0.46875;
    ( 4, 1, 3, 3, 1, 1, 0, 1 ) 0.5319148936170213, 0.46808510638297873;
    ( 4, 1, 3, 3, 1, 1, 1, 0 ) 0.5625, 0.4375;
    ( 4, 1, 3, 3, 1, 1, 1, 1 ) 0.5504587155963303, 0.44954128440366975;
    ( 4, 2, 1, 1, 0, 0, 0, 0 ) 1.0, 0.0;
    ( 4, 2, 1, 1, 0, 0, 0, 1 ) 1.0, 0.0;
    ( 4, 2, 1, 1, 0, 0, 1, 0 ) 1.0, 0.0;
    ( 4, 2, 1, 1, 0, 0, 1, 1 ) 0.5, 0.5;
    ( 4, 2, 1, 1, 0, 1, 0, 0 ) 0.5, 0.5;
    ( 4, 2, 1, 1, 0, 1, 0, 1 ) 1.0, 0.0;
    ( 4, 2, 1, 1, 0, 1, 1, 0 ) 0.5, 0.5;
    ( 4, 2, 1, 1, 0, 1, 1, 1 ) 0.5, 0.5;
    ( 4, 2, 1, 1, 1, 0, 0, 0 ) 0.5, 0.5;
    ( 4, 2, 1, 1, 1, 0, 0, 1 ) 0.5, 0.5;
    ( 4, 2, 1, 1, 1, 0, 1, 0 ) 0.5, 0.5;
    ( 4, 2, 1, 1, 1, 0, 1, 1 ) 0.5, 0.5;
    ( 4, 2, 1, 1, 1, 1, 0, 0 ) 1.0, 0.0;
    ( 4, 2, 1, 1, 1, 1, 0, 1 ) 1.0, 0.0;
    ( 4, 2, 1, 1, 1, 1, 1, 0 ) 0.0, 1.0;
    ( 4, 2, 1, 1, 1, 1, 1, 1 ) 0.0, 1.0;
    ( 4, 2, 1, 2, 0, 0, 0, 0 ) 1.0, 0.0;
    ( 4, 2, 1, 2, 0, 0, 0, 1 ) 1.0, 0.0;
    ( 4, 2, 1, 2, 0, 0, 1, 0 ) 0.6666666666666666, 0.3333333333333333;
    ( 4, 2, 1, 2, 0, 0, 1, 1 ) 1.0, 0.0;
    ( 4, 2, 1, 2, 0, 1, 0, 0 ) 1.0, 0.0;
    ( 4, 2, 1, 2, 0, 1, 0, 1 ) 0.5, 0.5;
    ( 4, 2, 1, 2, 0, 1, 1, 0 ) 1.0, 0.0;
    ( 4, 2, 1, 2, 0, 1, 1, 1 ) 1.0, 0.0;
    ( 4, 2, 1, 2, 1, 0, 0, 0 ) 1.0, 0.0;
    ( 4, 2, 1, 2, 1, 0, 0, 1 ) 1.0, 0.0;
    ( 4, 2, 1, 2, 1, 0, 1, 0 ) 0.42857142857142855, 0.5714285714285714;
    ( 4, 2, 1, 2, 1, 0, 1, 1 ) 0.0, 1.0;
    ( 4, 2, 1, 2, 1, 1, 0, 0 ) 0.3, 0.7;
    ( 4, 2, 1, 2, 1, 1, 0, 1 ) 0.6666666666666666, 0.3333333333333333;
    ( 4, 2, 1, 2, 1, 1, 1, 0 ) 0.6, 0.4;
    ( 4, 2, 1, 2, 1, 1, 1, 1 ) 1.0, 0.0;
    ( 4, 2, 1, 3, 0, 0, 0, 0 ) 0.5, 0.5;
    ( 4, 2, 1, 3, 0, 0, 0, 1 ) 0.5, 0.5;
    ( 4, 2, 1, 3, 0, 0, 1, 0 ) 0.5, 0.5;
    ( 4, 2, 1, 3, 0, 0, 1, 1 ) 0.0, 1.0;
    ( 4, 2, 1, 3, 0, 1, 0, 0 ) 0.5, 0.5;
    ( 4, 2, 1, 3, 0, 1, 0, 1 ) 0.5, 0.5;
    ( 4, 2, 1, 3, 0, 1, 1, 0 ) 0.5, 0.5;
    ( 4, 2, 1, 3, 0, 1, 1, 1 ) 0.5, 0.5;
    ( 4, 2, 1, 3, 1, 0, 0, 0 ) 0.0, 1.0;
    ( 4, 2, 1, 3, 1, 0, 0, 1 ) 0.5, 0.5;
    ( 4, 2, 1, 3, 1, 0, 1, 0 ) 1.0, 0.0;
    ( 4, 2, 1, 3, 1, 0, 1, 1 ) 0.5, 0.5;
    ( 4, 2, 1, 3, 1, 1, 0, 0 ) 0.4444444444444444, 0.5555555555555556;
    ( 4, 2, 1, 3, 1, 1, 0, 1 ) 0.0, 1.0;
    ( 4, 2, 1, 3, 1, 1, 1, 0 ) 1.0, 0.0;
    ( 4, 2, 1, 3, 1, 1, 1, 1 ) 0.5, 0.5;
    ( 4, 2, 2, 1, 0, 0, 0, 0 ) 0.9375, 0.0625;
    ( 4, 2, 2, 1, 0, 0, 0, 1 ) 0.9090909090909091, 0.09090909090909091;
    ( 4, 2, 2, 1, 0, 0, 1, 0 ) 0.9583333333333334, 0.041666666666666664;
    ( 4, 2, 2, 1, 0, 0, 1, 1 ) 0.8666666666666667, 0.13333333333333333;
    ( 4, 2, 2, 1, 0, 1, 0, 0 ) 0.7777777777777778, 0.2222222222222222;
    ( 4, 2, 2, 1, 0, 1, 0, 1 ) 0.5, 0.5;
    ( 4, 2, 2, 1, 0, 1, 1, 0 ) 0.8333333333333334, 0.16666666666666666;
    ( 4, 2, 2, 1, 0, 1, 1, 1 ) 1.0, 0.0;
    ( 4, 2, 2, 1, 1, 0, 0, 0 ) 0.7692307692307693, 0.23076923076923078;
    ( 4, 2, 2, 1, 1, 0, 0, 1 ) 0.75, 0.25;
    ( 4, 2, 2, 1, 1, 0, 1, 0 ) 0.88, 0.12;
    ( 4, 2, 2, 1, 1, 0, 1, 1 ) 0.8333333333333334, 0.16666666666666666;
    ( 4, 2, 2, 1, 1, 1, 0, 0 ) 0.9285714285714286, 0.07142857142857142;
    ( 4, 2, 2, 1, 1, 1, 0, 1 ) 0.8571428571428571, 0.14285714285714285;
    ( 4, 2, 2, 1, 1, 1, 1, 0 ) 0.7, 0.3;
    ( 4, 2, 2, 1, 1, 1, 1, 1 ) 0.5833333333333334, 0.4166666666666667;
    ( 4, 2, 2, 2, 0, 0, 0, 0 ) 0.6666666666666666, 0.3333333333333333;
    ( 4, 2, 2, 2, 0, 0, 0, 1 ) 0.9047619047619048, 0.09523809523809523;
    ( 4, 2, 2, 2, 0, 0, 1, 0 ) 0.8235294117647058, 0.17647058823529413;
    ( 4, 2, 2, 2, 0, 0, 1, 1 ) 0.8, 0.2;
    ( 4, 2, 2, 2, 0, 1, 0, 0 ) 0.631578947368421, 0.3684210526315789;
    ( 4, 2, 2, 2, 0, 1, 0, 1 ) 0.7142857142857143, 0.2857142857142857;
    ( 4, 2, 2, 2, 0, 1, 1, 0 ) 0.6451612903225806, 0.3548387096774194;
    ( 4, 2, 2, 2, 0, 1, 1, 1 ) 0.625, 0.375;
    ( 4, 2, 2, 2, 1, 0, 0, 0 ) 0.5652173913043478, 0.43478260869565216;
    ( 4, 2, 2, 2, 1, 0, 0, 1 ) 0.6585365853658537, 0.34146341463414637;
    ( 4, 2, 2, 2, 1, 0, 1, 0 ) 0.7073170731707317, 0.2926829268292683;
    ( 4, 2, 2, 2, 1, 0, 1, 1 ) 0.746031746031746, 0.25396825396825395;
    ( 4, 2, 2, 2, 1, 1, 0, 0 ) 0.5208333333333334, 0.4791666666666667;
    ( 4, 2, 2, 2, 1, 1, 0, 1 ) 0.4578313253012048, 0.5421686746987951;
    ( 4, 2, 2, 2, 1, 1, 1, 0 ) 0.49107142857142855, 0.5089285714285714;
    ( 4, 2, 2, 2, 1, 1, 1, 1 ) 0.5308641975308642, 0.4691358024691358;
    ( 4, 2, 2, 3, 0, 0, 0, 0 ) 1.0, 0.0;
    ( 4, 2, 2, 3, 0, 0, 0, 1 ) 0.5, 0.5;
    ( 4, 2, 2, 3, 0, 0, 1, 0 ) 0.6, 0.4;
    ( 4, 2, 2, 3, 0, 0, 1, 1 ) 1.0, 0.0;
    ( 4, 2, 2, 3, 0, 1, 0, 0 ) 0.5384615384615384, 0.46153846153846156;
    ( 4, 2, 2, 3, 0, 1, 0, 1 ) 0.75, 0.25;
    ( 4, 2, 2, 3, 0, 1, 1, 0 ) 0.75, 0.25;
    ( 4, 2, 2, 3, 0, 1, 1, 1 ) 1.0, 0.0;
    ( 4, 2, 2, 3, 1, 0, 0, 0 ) 0.6538461538461539, 0.34615384615384615;
    ( 4, 2, 2, 3, 1, 0, 0, 1 ) 0.5, 0.5;
    ( 4, 2, 2, 3, 1, 0, 1, 0 ) 0.4666666666666667, 0.5333333333333333;
    ( 4, 2, 2, 3, 1, 0, 1, 1 ) 0.5833333333333334, 0.4166666666666667;
    ( 4, 2, 2, 3, 1, 1, 0, 0 ) 0.3582089552238806, 0.6417910447761194;
    ( 4, 2, 2, 3, 1, 1, 0, 1 ) 0.25, 0.75;
    ( 4, 2, 2, 3, 1, 1, 1, 0 ) 0.3076923076923077, 0.6923076923076923;
    ( 4, 2, 2, 3, 1, 1, 1, 1 ) 0.391304347826087, 0.6086956521739131;
    ( 4, 2, 3, 1, 0, 0, 0, 0 ) 0.9761904761904762, 0.023809523809523808;
    ( 4, 2, 3, 1, 0, 0, 0, 1 ) 0.8461538461538461, 0.15384615384615385;
    ( 4, 2, 3, 1, 0, 0, 1, 0 ) 0.9509803921568627, 0.049019607843137254;
    ( 4, 2, 3, 1, 0, 0, 1, 1 ) 0.8235294117647058, 0.17647058823529413;
    ( 4, 2, 3, 1, 0, 1, 0, 0 ) 1.0, 0.0;
    ( 4, 2, 3, 1, 0, 1, 0, 1 ) 0.8333333333333334, 0.16666666666666666;
    ( 4, 2, 3, 1, 0, 1, 1, 0 ) 0.9111111111111111, 0.08888888888888889;
    ( 4, 2, 3, 1, 0, 1, 1, 1 ) 1.0, 0.0;
    ( 4, 2, 3, 1, 1, 0, 0, 0 ) 0.8064516129032258, 0.1935483870967742;
    ( 4, 2, 3, 1, 1, 0, 0, 1 ) 0.9333333333333333, 0.06666666666666667;
    ( 4, 2, 3, 1, 1, 0, 1, 0 ) 0.8356164383561644, 0.1643835616438356;
    ( 4, 2, 3, 1, 1, 0, 1, 1 ) 0.8085106382978723, 0.19148936170212766;
    ( 4, 2, 3, 1, 1, 1, 0, 0 ) 0.7142857142857143, 0.2857142857142857;
    ( 4, 2, 3, 1, 1, 1, 0, 1 ) 0.5238095238095238, 0.47619047619047616;
    ( 4, 2, 3, 1, 1, 1, 1, 0 ) 0.6909090909090909, 0.3090909090909091;
    ( 4, 2, 3, 1, 1, 1, 1, 1 ) 0.8, 0.2;
    ( 4, 2, 3, 2, 0, 0, 0, 0 ) 0.8360655737704918, 0.16393442622950818;
    ( 4, 2, 3, 2, 0, 0, 0, 1 ) 0.8888888888888888, 0.1111111111111111;
    ( 4, 2, 3, 2, 0, 0, 1, 0 ) 0.875, 0.125;
    ( 4, 2, 3, 2, 0, 0, 1, 1 ) 0.75, 0.25;
    ( 4, 2, 3, 2, 0, 1, 0, 0 ) 0.6551724137931034, 0.3448275862068966;
    ( 4, 2, 3, 2, 0, 1, 0, 1 ) 0.7058823529411765, 0.29411764705882354;
    ( 4, 2, 3, 2, 0, 1, 1, 0 ) 0.7468354430379747, 0.25316455696202533;
    ( 4, 2, 3, 2, 0, 1, 1, 1 ) 0.6451612903225806, 0.3548387096774194;
    ( 4, 2, 3, 2, 1, 0, 0, 0 ) 0.6541353383458647, 0.3458646616541353;
    ( 4, 2, 3, 2, 1, 0, 0, 1 ) 0.6545454545454545, 0.34545454545454546;
    ( 4, 2, 3, 2, 1, 0, 1, 0 ) 0.6917293233082706, 0.3082706766917293;
    ( 4, 2, 3, 2, 1, 0, 1, 1 ) 0.7142857142857143, 0.2857142857142857;
    ( 4, 2, 3, 2, 1, 1, 0, 0 ) 0.48, 0.52;
    ( 4, 2, 3, 2, 1, 1, 0, 1 ) 0.5180722891566265, 0.4819277108433735;
    ( 4, 2, 3, 2, 1, 1, 1, 0 ) 0.4915254237288136, 0.5084745762711864;
    ( 4, 2, 3, 2, 1, 1, 1, 1 ) 0.4492753623188406, 0.5507246376811594;
    ( 4, 2, 3, 3, 0, 0, 0, 0 ) 0.7, 0.3;
    ( 4, 2, 3, 3, 0, 0, 0, 1 ) 0.4, 0.6;
    ( 4, 2, 3, 3, 0, 0, 1, 0 ) 0.0, 1.0;
    ( 4, 2, 3, 3, 0, 0, 1, 1 ) 0.5, 0.5;
    ( 4, 2, 3, 3, 0, 1, 0, 0 ) 0.4, 0.6;
    ( 4, 2, 3, 3, 0, 1, 0, 1 ) 0.5, 0.5;
    ( 4, 2, 3, 3, 0, 1, 1, 0 ) 0.5, 0.5;
    ( 4, 2, 3, 3, 0, 1, 1, 1 ) 0.3333333333333333, 0.6666666666666666;
    ( 4, 2, 3, 3, 1, 0, 0, 0 ) 0.48148148148148145, 0.5185185185185185;
    ( 4, 2, 3, 3, 1, 0, 0, 1 ) 0.5333333333333333, 0.4666666666666667;
    ( 4, 2, 3, 3, 1, 0, 1, 0 ) 0.6923076923076923, 0.3076923076923077;
    ( 4, 2, 3, 3, 1, 0, 1, 1 ) 0.6, 0.4;
    ( 4, 2, 3, 3, 1, 1, 0, 0 ) 0.34328358208955223, 0.6567164179104478;
    ( 4, 2, 3, 3, 1, 1, 0, 1 ) 0.2222222222222222, 0.7777777777777778;
    ( 4, 2, 3, 3, 1, 1, 1, 0 ) 0.30303030303030304, 0.696969696969697;
    ( 4, 2, 3, 3, 1, 1, 1, 1 ) 0.2222222222222222, 0.7777777777777778;
    ( 5, 0, 1, 1, 0, 0, 0, 0 ) 1.0, 0.0;
    ( 5, 0, 1, 1, 0, 0, 0, 1 ) 1.0, 0.0;
    ( 5, 0, 1, 1, 0, 0, 1, 0 ) 1.0, 0.0;
    ( 5, 0, 1, 1, 0, 0, 1, 1 ) 0.8, 0.2;
    ( 5, 0, 1, 1, 0, 1, 0, 0 ) 0.5, 0.5;
    ( 5, 0, 1, 1, 0, 1, 0, 1 ) 1.0, 0.0;
    ( 5, 0, 1, 1, 0, 1, 1, 0 ) 1.0, 0.0;
    ( 5, 0, 1, 1, 0, 1, 1, 1 ) 1.0, 0.0;
    ( 5, 0, 1, 1, 1, 0, 0, 0 ) 1.0, 0.0;
    ( 5, 0, 1, 1, 1, 0, 0, 1 ) 1.0, 0.0;
    ( 5, 0, 1, 1, 1, 0, 1, 0 ) 1.0, 0.0;
    ( 5, 0, 1, 1, 1, 0, 1, 1 ) 0.5, 0.5;
    ( 5, 0, 1, 1, 1, 1, 0, 0 ) 1.0, 0.0;
    ( 5, 0, 1, 1, 1, 1, 0, 1 ) 1.0, 0.0;
    ( 5, 0, 1, 1, 1, 1, 1, 0 ) 1.0, 0.0;
    ( 5, 0, 1, 1, 1, 1, 1, 1 ) 1.0, 0.0;
    ( 5, 0, 1, 2, 0, 0, 0, 0 ) 1.0, 0.0;
    ( 5, 0, 1, 2, 0, 0, 0, 1 ) 0.6, 0.4;
    ( 5, 0, 1, 2, 0, 0, 1, 0 ) 1.0, 0.0;
    ( 5, 0, 1, 2, 0, 0, 1, 1 ) 1.0, 0.0;
    ( 5, 0, 1, 2, 0, 1, 0, 0 ) 0.8571428571428571, 0.14285714285714285;
    ( 5, 0, 1, 2, 0, 1, 0, 1 ) 1.0, 0.0;
    ( 5, 0, 1, 2, 0, 1, 1, 0 ) 0.6666666666666666, 0.3333333333333333;
    ( 5, 0, 1, 2, 0, 1, 1, 1 ) 0.6666666666666666, 0.3333333333333333;
    ( 5, 0, 1, 2, 1, 0, 0, 0 ) 1.0, 0.0;
    ( 5, 0, 1, 2, 1, 0, 0, 1 ) 0.6666666666666666, 0.3333333333333333;
    ( 5, 0, 1, 2, 1, 0, 1, 0 ) 0.8888888888888888, 0.1111111111111111;
    ( 5, 0, 1, 2, 1, 0, 1, 1 ) 1.0, 0.0;
    ( 5, 0, 1, 2, 1, 1, 0, 0 ) 0.625, 0.375;
    ( 5, 0, 1, 2, 1, 1, 0, 1 ) 0.5714285714285714, 0.42857142857142855;
    ( 5, 0, 1, 2, 1, 1, 1, 0 ) 0.35714285714285715, 0.6428571428571429;
    ( 5, 0, 1, 2, 1, 1, 1, 1 ) 0.8333333333333334, 0.16666666666666666;
    ( 5, 0, 1, 3, 0, 0, 0, 0 ) 1.0, 0.0;
    ( 5, 0, 1, 3, 0, 0, 0, 1 ) 1.0, 0.0;
    ( 5, 0, 1, 3, 0, 0, 1, 0 ) 0.5, 0.5;
    ( 5, 0, 1, 3, 0, 0, 1, 1 ) 0.6666666666666666, 0.3333333333333333;
    ( 5, 0, 1, 3, 0, 1, 0, 0 ) 1.0, 0.0;
    ( 5, 0, 1, 3, 0, 1, 0, 1 ) 1.0, 0.0;
    ( 5, 0, 1, 3, 0, 1, 1, 0 ) 1.0, 0.0;
    ( 5, 0, 1, 3, 0, 1, 1, 1 ) 0.0, 1.0;
    ( 5, 0, 1, 3, 1, 0, 0, 0 ) 1.0, 0.0;
    ( 5, 0, 1, 3, 1, 0, 0, 1 ) 1.0, 0.0;
    ( 5, 0, 1, 3, 1, 0, 1, 0 ) 0.5, 0.5;
    ( 5, 0, 1, 3, 1, 0, 1, 1 ) 0.5, 0.5;
    ( 5, 0, 1, 3, 1, 1, 0, 0 ) 0.16666666666666666, 0.8333333333333334;
    ( 5, 0, 1, 3, 1, 1, 0, 1 ) 0.75, 0.25;
    ( 5, 0, 1, 3, 1, 1, 1, 0 ) 0.625, 0.375;
    ( 5, 0, 1, 3, 1, 1, 1, 1 ) 0.25, 0.75;
    ( 5, 0, 2, 1, 0, 0, 0, 0 ) 0.9879518072289156, 0.012048192771084338;
    ( 5, 0, 2, 1, 0, 0, 0, 1 ) 0.9672131147540983, 0.03278688524590164;
    ( 5, 0, 2, 1, 0, 0, 1, 0 ) 0.9915074309978769, 0.008492569002123142;
    ( 5, 0, 2, 1, 0, 0, 1, 1 ) 0.9666666666666667, 0.03333333333333333;
    ( 5, 0, 2, 1, 0, 1, 0, 0 ) 0.9782608695652174, 0.021739130434782608;
    ( 5, 0, 2, 1, 0, 1, 0, 1 ) 0.9565217391304348, 0.043478260869565216;
