network unknown {
}
variable Age {
    type discrete [ 6 ] { 1, 2, 3, 4, 5, 6 };
    property weight = None ;
}
variable AnyHealthcare {
    type discrete [ 2 ] { 0, 1 };
    property weight = None ;
}
variable BMI {
    type discrete [ 3 ] { 0, 1, 2 };
    property weight = None ;
}
variable CholCheck {
    type discrete [ 2 ] { 0, 1 };
    property weight = None ;
}
variable Diabetes_binary {
    type discrete [ 2 ] { 0, 1 };
    property weight = None ;
}
variable DiffWalk {
    type discrete [ 2 ] { 0, 1 };
    property weight = None ;
}
variable Education {
    type discrete [ 3 ] { 1, 2, 3 };
    property weight = None ;
}
variable Fruits {
    type discrete [ 2 ] { 0, 1 };
    property weight = None ;
}
variable GenHlth {
    type discrete [ 3 ] { 1, 2, 3 };
    property weight = None ;
}
variable HeartDiseaseorAttack {
    type discrete [ 2 ] { 0, 1 };
    property weight = None ;
}
variable HighBP {
    type discrete [ 2 ] { 0, 1 };
    property weight = None ;
}
variable HighChol {
    type discrete [ 2 ] { 0, 1 };
    property weight = None ;
}
variable HvyAlcoholConsump {
    type discrete [ 2 ] { 0, 1 };
    property weight = None ;
}
variable Income {
    type discrete [ 4 ] { 1, 2, 3, 4 };
    property weight = None ;
}
variable MentHlth {
    type discrete [ 3 ] { 0, 1, 2 };
    property weight = None ;
}
variable NoDocbcCost {
    type discrete [ 2 ] { 0, 1 };
    property weight = None ;
}
variable PhysActivity {
    type discrete [ 2 ] { 0, 1 };
    property weight = None ;
}
variable PhysHlth {
    type discrete [ 3 ] { 0, 1, 2 };
    property weight = None ;
}
variable Sex {
    type discrete [ 2 ] { 0, 1 };
    property weight = None ;
}
variable Smoker {
    type discrete [ 2 ] { 0, 1 };
    property weight = None ;
}
variable Stroke {
    type discrete [ 2 ] { 0, 1 };
    property weight = None ;
}
variable Veggies {
    type discrete [ 2 ] { 0, 1 };
    property weight = None ;
}
probability ( Age | AnyHealthcare, HighChol, NoDocbcCost ) {
    ( 0, 0, 0 ) 0.15848092021179477, 0.20339601971882418, 0.19116304546284463, 0.25415373379587364, 0.14843892641957276, 0.04436735439109001;
    ( 0, 0, 1 ) 0.15021306818181818, 0.23863636363636365, 0.2471590909090909, 0.2627840909090909, 0.09446022727272728, 0.006747159090909091;
    ( 0, 1, 0 ) 0.04193138500635324, 0.08301567132570944, 0.1639135959339263, 0.3206268530283778, 0.27784836933502755, 0.11266412537060568;
    ( 0, 1, 1 ) 0.03516732841747022, 0.12478729438457176, 0.24673851389676688, 0.3766307430516166, 0.20249574588769143, 0.014180374361883154;
    ( 1, 0, 0 ) 0.07370824209104039, 0.13013868828526612, 0.1672568295826927, 0.2208762366242681, 0.2186631256891705, 0.18935687772756216;
    ( 1, 0, 1 ) 0.1175426923929918, 0.18030605455755155, 0.20447992903082723, 0.2553781326236416, 0.162785540031049, 0.0795076513639388;
    ( 1, 1, 0 ) 0.011775154111378121, 0.03965102915055898, 0.09281161843067601, 0.2117856023404033, 0.32883711210949745, 0.31513948385748614;
    ( 1, 1, 1 ) 0.021528941601134458, 0.07270852133556788, 0.14760861157664046, 0.3320871470929483, 0.28954492716256286, 0.13652185123114607;

}
probability ( AnyHealthcare ) {
    table 0.04894749290444655, 0.9510525070955534 ;
}
probability ( BMI | Diabetes_binary, HighBP ) {
    ( 0, 0 ) 0.37068819842920014, 0.5992109265368197, 0.03010087503398012;
    ( 0, 1 ) 0.2131833384007297, 0.7256065673456977, 0.06121009425357252;
    ( 1, 0 ) 0.1702127659574468, 0.7398764584763212, 0.08991077556623199;
    ( 1, 1 ) 0.09806795970530748, 0.7583070215005262, 0.14362501879416628;

}
probability ( CholCheck ) {
    table 0.037330495111952064, 0.9626695048880479 ;
}
probability ( Diabetes_binary | GenHlth ) {
    ( 1 ) 0.9440330994247784, 0.055966900575221565;
    ( 2 ) 0.7831760185047008, 0.21682398149529922;
    ( 3 ) 0.6210578594487212, 0.3789421405512789;

}
probability ( DiffWalk | GenHlth, PhysHlth ) {
    ( 1, 0 ) 0.9620954168573401, 0.03790458314265991;
    ( 1, 1 ) 0.8277179576241751, 0.17228204237582495;
    ( 1, 2 ) 0.6951456310679611, 0.3048543689320388;
    ( 2, 0 ) 0.8245831428502682, 0.1754168571497317;
    ( 2, 1 ) 0.5545527476935419, 0.4454472523064581;
    ( 2, 2 ) 0.4035547372893358, 0.5964452627106642;
    ( 3, 0 ) 0.44004796163069543, 0.5599520383693045;
    ( 3, 1 ) 0.31760299625468164, 0.6823970037453183;
    ( 3, 2 ) 0.2051112579863406, 0.7948887420136594;

}
probability ( Education ) {
    table 0.016623304951119522, 0.284720908230842, 0.6986557868180385 ;
}
probability ( Fruits | PhysActivity, Veggies ) {
    ( 0, 0 ) 0.6747757168804007, 0.32522428311959933;
    ( 0, 1 ) 0.408662338556124, 0.591337661443876;
    ( 1, 0 ) 0.5862150320188743, 0.41378496798112574;
    ( 1, 1 ) 0.279291217257319, 0.720708782742681;

}
probability ( GenHlth | PhysHlth ) {
    ( 0 ) 0.6032640991208081, 0.38893126020615854, 0.007804640673033282;
    ( 1 ) 0.2029465670379247, 0.7029465670379247, 0.09410686592415057;
    ( 2 ) 0.09990300678952474, 0.5478952473326867, 0.3522017458777886;

}
probability ( HeartDiseaseorAttack | HighChol, Stroke ) {
    ( 0, 0 ) 0.957621110120531, 0.042378889879469014;
    ( 0, 1 ) 0.6966446644664467, 0.30335533553355337;
    ( 1, 0 ) 0.862099370882251, 0.13790062911774906;
    ( 1, 1 ) 0.57421875, 0.42578125;

}
probability ( HighBP | Diabetes_binary, HighChol ) {
    ( 0, 0 ) 0.7264131995328389, 0.2735868004671611;
    ( 0, 1 ) 0.4583517072880043, 0.5416482927119957;
    ( 1, 0 ) 0.3661234991423671, 0.6338765008576329;
    ( 1, 1 ) 0.18884573165583046, 0.8111542683441696;

}
probability ( HighChol ) {
    table 0.5758790602333649, 0.4241209397666351 ;
}
probability ( HvyAlcoholConsump ) {
    table 0.9438032166508987, 0.05619678334910123 ;
}
probability ( Income | AnyHealthcare, Education, GenHlth, MentHlth, NoDocbcCost ) {
    ( 0, 1, 1, 0, 0 ) 0.17857142857142858, 0.36904761904761907, 0.2976190476190476, 0.15476190476190477;
    ( 0, 1, 1, 0, 1 ) 0.35, 0.4, 0.25, 0.0;
    ( 0, 1, 1, 1, 0 ) 0.3333333333333333, 0.6666666666666666, 0.0, 0.0;
    ( 0, 1, 1, 1, 1 ) 0.25, 0.5, 0.25, 0.0;
    ( 0, 1, 1, 2, 0 ) 0.0, 0.3333333333333333, 0.6666666666666666, 0.0;
    ( 0, 1, 1, 2, 1 ) 0.6666666666666666, 0.3333333333333333, 0.0, 0.0;
    ( 0, 1, 2, 0, 0 ) 0.2754237288135593, 0.4152542372881356, 0.23728813559322035, 0.07203389830508475;
    ( 0, 1, 2, 0, 1 ) 0.3716216216216216, 0.43243243243243246, 0.18243243243243243, 0.013513513513513514;
    ( 0, 1, 2, 1, 0 ) 0.2, 0.7, 0.0, 0.1;
    ( 0, 1, 2, 1, 1 ) 0.13636363636363635, 0.6363636363636364, 0.22727272727272727, 0.0;
    ( 0, 1, 2, 2, 0 ) 0.3333333333333333, 0.4444444444444444, 0.2222222222222222, 0.0;
    ( 0, 1, 2, 2, 1 ) 0.47368421052631576, 0.3157894736842105, 0.15789473684210525, 0.05263157894736842;
    ( 0, 1, 3, 0, 0 ) 0.34782608695652173, 0.391304347826087, 0.21739130434782608, 0.043478260869565216;
    ( 0, 1, 3, 0, 1 ) 0.46875, 0.34375, 0.15625, 0.03125;
    ( 0, 1, 3, 1, 0 ) 0.5, 0.375, 0.125, 0.0;
    ( 0, 1, 3, 1, 1 ) 0.16666666666666666, 0.3333333333333333, 0.5, 0.0;
    ( 0, 1, 3, 2, 0 ) 0.38461538461538464, 0.5384615384615384, 0.07692307692307693, 0.0;
    ( 0, 1, 3, 2, 1 ) 0.5, 0.3, 0.2, 0.0;
    ( 0, 2, 1, 0, 0 ) 0.12462462462462462, 0.2672672672672673, 0.3490990990990991, 0.25900900900900903;
    ( 0, 2, 1, 0, 1 ) 0.17486338797814208, 0.3251366120218579, 0.34972677595628415, 0.15027322404371585;
    ( 0, 2, 1, 1, 0 ) 0.1111111111111111, 0.3333333333333333, 0.35185185185185186, 0.2037037037037037;
    ( 0, 2, 1, 1, 1 ) 0.2549019607843137, 0.3333333333333333, 0.29411764705882354, 0.11764705882352941;
    ( 0, 2, 1, 2, 0 ) 0.22033898305084745, 0.3050847457627119, 0.288135593220339, 0.1864406779661017;
    ( 0, 2, 1, 2, 1 ) 0.2830188679245283, 0.41509433962264153, 0.1509433962264151, 0.1509433962264151;
    ( 0, 2, 2, 0, 0 ) 0.18863049095607234, 0.35271317829457366, 0.3081395348837209, 0.15051679586563307;
    ( 0, 2, 2, 0, 1 ) 0.2608187134502924, 0.3953216374269006, 0.2654970760233918, 0.0783625730994152;
    ( 0, 2, 2, 1, 0 ) 0.2571428571428571, 0.3238095238095238, 0.2857142857142857, 0.13333333333333333;
    ( 0, 2, 2, 1, 1 ) 0.3391812865497076, 0.38011695906432746, 0.1871345029239766, 0.0935672514619883;
    ( 0, 2, 2, 2, 0 ) 0.291970802919708, 0.31386861313868614, 0.24817518248175183, 0.145985401459854;
    ( 0, 2, 2, 2, 1 ) 0.416988416988417, 0.305019305019305, 0.20077220077220076, 0.07722007722007722;
    ( 0, 2, 3, 0, 0 ) 0.44047619047619047, 0.30952380952380953, 0.16666666666666666, 0.08333333333333333;
    ( 0, 2, 3, 0, 1 ) 0.37623762376237624, 0.32673267326732675, 0.27722772277227725, 0.019801980198019802;
    ( 0, 2, 3, 1, 0 ) 0.5333333333333333, 0.26666666666666666, 0.13333333333333333, 0.06666666666666667;
    ( 0, 2, 3, 1, 1 ) 0.4634146341463415, 0.36585365853658536, 0.17073170731707318, 0.0;
    ( 0, 2, 3, 2, 0 ) 0.40476190476190477, 0.30952380952380953, 0.21428571428571427, 0.07142857142857142;
    ( 0, 2, 3, 2, 1 ) 0.5677966101694916, 0.2288135593220339, 0.16101694915254236, 0.0423728813559322;
    ( 0, 3, 1, 0, 0 ) 0.09548839246605344, 0.1686377573368375, 0.3053000438020149, 0.4305738063950942;
    ( 0, 3, 1, 0, 1 ) 0.15006821282401092, 0.2592087312414734, 0.32605729877216916, 0.2646657571623465;
    ( 0, 3, 1, 1, 0 ) 0.18085106382978725, 0.11702127659574468, 0.30851063829787234, 0.39361702127659576;
    ( 0, 3, 1, 1, 1 ) 0.1566265060240964, 0.3493975903614458, 0.20481927710843373, 0.2891566265060241;
    ( 0, 3, 1, 2, 0 ) 0.10843373493975904, 0.2289156626506024, 0.3253012048192771, 0.3373493975903614;
    ( 0, 3, 1, 2, 1 ) 0.2318840579710145, 0.30434782608695654, 0.2608695652173913, 0.2028985507246377;
    ( 0, 3, 2, 0, 0 ) 0.11942675159235669, 0.2531847133757962, 0.32643312101910826, 0.30095541401273884;
    ( 0, 3, 2, 0, 1 ) 0.20282413350449294, 0.3170731707317073, 0.3170731707317073, 0.16302952503209242;
    ( 0, 3, 2, 1, 0 ) 0.14705882352941177, 0.30392156862745096, 0.3333333333333333, 0.21568627450980393;
    ( 0, 3, 2, 1, 1 ) 0.25882352941176473, 0.3411764705882353, 0.31176470588235294, 0.08823529411764706;
    ( 0, 3, 2, 2, 0 ) 0.18012422360248448, 0.2795031055900621, 0.32298136645962733, 0.21739130434782608;
    ( 0, 3, 2, 2, 1 ) 0.2840466926070039, 0.311284046692607, 0.2607003891050584, 0.14396887159533073;
    ( 0, 3, 3, 0, 0 ) 0.22, 0.28, 0.2, 0.3;
    ( 0, 3, 3, 0, 1 ) 0.3939393939393939, 0.21212121212121213, 0.30303030303030304, 0.09090909090909091;
    ( 0, 3, 3, 1, 0 ) 0.375, 0.125, 0.25, 0.25;
    ( 0, 3, 3, 1, 1 ) 0.4074074074074074, 0.3333333333333333, 0.2222222222222222, 0.037037037037037035;
    ( 0, 3, 3, 2, 0 ) 0.4444444444444444, 0.2962962962962963, 0.2222222222222222, 0.037037037037037035;
    ( 0, 3, 3, 2, 1 ) 0.4339622641509434, 0.330188679245283, 0.1792452830188679, 0.05660377358490566;
    ( 1, 1, 1, 0, 0 ) 0.25504587155963304, 0.29908256880733947, 0.25504587155963304, 0.1908256880733945;
    ( 1, 1, 1, 0, 1 ) 0.325, 0.35, 0.25, 0.075;
    ( 1, 1, 1, 1, 0 ) 0.5, 0.25, 0.0, 0.25;
    ( 1, 1, 1, 1, 1 ) 0.5, 0.25, 0.0, 0.25;
    ( 1, 1, 1, 2, 0 ) 0.0, 0.4444444444444444, 0.2777777777777778, 0.2777777777777778;
    ( 1, 1, 1, 2, 1 ) 0.25, 0.5, 0.25, 0.0;
    ( 1, 1, 2, 0, 0 ) 0.39148681055155876, 0.3273381294964029, 0.21282973621103118, 0.0683453237410072;
    ( 1, 1, 2, 0, 1 ) 0.4587628865979381, 0.35051546391752575, 0.14948453608247422, 0.041237113402061855;
    ( 1, 1, 2, 1, 0 ) 0.42342342342342343, 0.35135135135135137, 0.1891891891891892, 0.036036036036036036;
    ( 1, 1, 2, 1, 1 ) 0.5172413793103449, 0.27586206896551724, 0.13793103448275862, 0.06896551724137931;
    ( 1, 1, 2, 2, 0 ) 0.5767195767195767, 0.24867724867724866, 0.13756613756613756, 0.037037037037037035;
    ( 1, 1, 2, 2, 1 ) 0.6181818181818182, 0.18181818181818182, 0.14545454545454545, 0.05454545454545454;
    ( 1, 1, 3, 0, 0 ) 0.4983277591973244, 0.35785953177257523, 0.11036789297658862, 0.033444816053511704;
    ( 1, 1, 3, 0, 1 ) 0.5142857142857142, 0.3, 0.14285714285714285, 0.04285714285714286;
    ( 1, 1, 3, 1, 0 ) 0.6101694915254238, 0.3220338983050847, 0.03389830508474576, 0.03389830508474576;
    ( 1, 1, 3, 1, 1 ) 0.6, 0.3, 0.1, 0.0;
    ( 1, 1, 3, 2, 0 ) 0.6488095238095238, 0.2261904761904762, 0.07738095238095238, 0.047619047619047616;
    ( 1, 1, 3, 2, 1 ) 0.71875, 0.1875, 0.09375, 0.0;
    ( 1, 2, 1, 0, 0 ) 0.07149600892627242, 0.17080078963179127, 0.32430692644408204, 0.43339627499785427;
    ( 1, 2, 1, 0, 1 ) 0.12934362934362933, 0.27123552123552125, 0.3088803088803089, 0.2905405405405405;
    ( 1, 2, 1, 1, 0 ) 0.09752925877763328, 0.19115734720416125, 0.3081924577373212, 0.40312093628088425;
    ( 1, 2, 1, 1, 1 ) 0.22727272727272727, 0.32727272727272727, 0.2, 0.24545454545454545;
    ( 1, 2, 1, 2, 0 ) 0.12083333333333333, 0.2111111111111111, 0.30416666666666664, 0.3638888888888889;
    ( 1, 2, 1, 2, 1 ) 0.192, 0.256, 0.4, 0.152;
    ( 1, 2, 2, 0, 0 ) 0.15211640211640212, 0.2570546737213404, 0.323559670781893, 0.2672692533803645;
    ( 1, 2, 2, 0, 1 ) 0.21590440873506386, 0.34281005356407085, 0.2834775442933663, 0.15780799340749896;
    ( 1, 2, 2, 1, 0 ) 0.2356294536817102, 0.27220902612826603, 0.27458432304038005, 0.21757719714964371;
    ( 1, 2, 2, 1, 1 ) 0.2727272727272727, 0.3354978354978355, 0.23593073593073594, 0.15584415584415584;
    ( 1, 2, 2, 2, 0 ) 0.2815063385533184, 0.2867263236390753, 0.2464578672632364, 0.1853094705443699;
    ( 1, 2, 2, 2, 1 ) 0.3009575923392613, 0.34746922024623805, 0.24350205198358413, 0.10807113543091655;
    ( 1, 2, 3, 0, 0 ) 0.29070723684210525, 0.33429276315789475, 0.25411184210526316, 0.12088815789473684;
    ( 1, 2, 3, 0, 1 ) 0.3901098901098901, 0.3708791208791209, 0.18406593406593408, 0.054945054945054944;
    ( 1, 2, 3, 1, 0 ) 0.3711967545638945, 0.33468559837728196, 0.1845841784989858, 0.10953346855983773;
    ( 1, 2, 3, 1, 1 ) 0.3821656050955414, 0.35668789808917195, 0.17834394904458598, 0.08280254777070063;
    ( 1, 2, 3, 2, 0 ) 0.40959119496855345, 0.32625786163522014, 0.1761006289308176, 0.0880503144654088;
    ( 1, 2, 3, 2, 1 ) 0.4400921658986175, 0.31797235023041476, 0.16359447004608296, 0.07834101382488479;
    ( 1, 3, 1, 0, 0 ) 0.017317130671467455, 0.052744379433764116, 0.18124048950899077, 0.7486980003857777;
    ( 1, 3, 1, 0, 1 ) 0.05652306752215093, 0.13351665139016194, 0.29361442102047053, 0.5163458600672166;
    ( 1, 3, 1, 1, 0 ) 0.03922894825836997, 0.07169428474805546, 0.19749746364558673, 0.6915793033479878;
    ( 1, 3, 1, 1, 1 ) 0.053003533568904596, 0.17314487632508835, 0.303886925795053, 0.46996466431095407;
    ( 1, 3, 1, 2, 0 ) 0.059092991296381125, 0.09482363719651855, 0.21209344938158498, 0.6339899221255153;
    ( 1, 3, 1, 2, 1 ) 0.15755627009646303, 0.1864951768488746, 0.29260450160771706, 0.3633440514469453;
    ( 1, 3, 2, 0, 0 ) 0.050125110985551696, 0.1130034708208895, 0.2670110581967875, 0.5698603599967713;
    ( 1, 3, 2, 0, 1 ) 0.1198798470780994, 0.21572910977607865, 0.3268705625341344, 0.3375204806116876;
    ( 1, 3, 2, 1, 0 ) 0.09418574059458037, 0.15548539857932123, 0.27440147329650094, 0.47592738752959746;
    ( 1, 3, 2, 1, 1 ) 0.1830601092896175, 0.28825136612021857, 0.296448087431694, 0.23224043715846995;
    ( 1, 3, 2, 2, 0 ) 0.14493774958891237, 0.18910030537937514, 0.23749119097956306, 0.4284707540521494;
    ( 1, 3, 2, 2, 1 ) 0.2311233885819521, 0.2716390423572744, 0.24953959484346225, 0.24769797421731124;
    ( 1, 3, 3, 0, 0 ) 0.16734033953112368, 0.21422797089733225, 0.28455941794664513, 0.33387227162489896;
    ( 1, 3, 3, 0, 1 ) 0.2511961722488038, 0.30861244019138756, 0.2727272727272727, 0.1674641148325359;
    ( 1, 3, 3, 1, 0 ) 0.24598930481283424, 0.21746880570409982, 0.2727272727272727, 0.2638146167557932;
    ( 1, 3, 3, 1, 1 ) 0.2827586206896552, 0.32413793103448274, 0.27586206896551724, 0.11724137931034483;
    ( 1, 3, 3, 2, 0 ) 0.27773584905660376, 0.2528301886792453, 0.2241509433962264, 0.24528301886792453;
    ( 1, 3, 3, 2, 1 ) 0.34137291280148424, 0.3358070500927644, 0.19480519480519481, 0.1280148423005566;

}
probability ( MentHlth ) {
    table 0.8762614317250079, 0.054320403658152, 0.06941816461684011 ;
}
probability ( NoDocbcCost | AnyHealthcare ) {
    ( 0 ) 0.6312313763388903, 0.3687686236611098;
    ( 1 ) 0.9304700679341631, 0.06952993206583687;

}
probability ( PhysActivity | Veggies ) {
    ( 0 ) 0.37979472815067206, 0.6202052718493279;
    ( 1 ) 0.2117702498530419, 0.7882297501469581;

}
probability ( PhysHlth | MentHlth ) {
    ( 0 ) 0.8855953934050115, 0.04565657474470287, 0.06874803185028566;
    ( 1 ) 0.6265602322206095, 0.1465166908563135, 0.22692307692307692;
    ( 2 ) 0.46712095400340714, 0.11459398069278819, 0.41828506530380466;

}
probability ( Sex ) {
    table 0.5596578366445916, 0.4403421633554084 ;
}
probability ( Smoker | Education, HvyAlcoholConsump ) {
    ( 1, 0 ) 0.5274056029232643, 0.4725943970767357;
    ( 1, 1 ) 0.23214285714285715, 0.7678571428571429;
    ( 2, 0 ) 0.46851065692152827, 0.5314893430784717;
    ( 2, 1 ) 0.24286878565607173, 0.7571312143439283;
    ( 3, 0 ) 0.6115415057683544, 0.3884584942316456;
    ( 3, 1 ) 0.3888941986046067, 0.6111058013953933;

}
probability ( Stroke ) {
    table 0.959429202144434, 0.04057079785556607 ;
}
probability ( Veggies ) {
    table 0.188580100914538, 0.811419899085462 ;
}
