network unknown {
}
variable Age {
    type discrete [ 6 ] { 1, 2, 3, 4, 5, 6 };
    property weight = None ;
}
variable AnyHealthcare {
    type discrete [ 2 ] { 0, 1 };
    property weight = None ;
}
variable BMI {
    type discrete [ 3 ] { 0, 1, 2 };
    property weight = None ;
}
variable CholCheck {
    type discrete [ 2 ] { 0, 1 };
    property weight = None ;
}
variable Diabetes_binary {
    type discrete [ 2 ] { 0, 1 };
    property weight = None ;
}
variable DiffWalk {
    type discrete [ 2 ] { 0, 1 };
    property weight = None ;
}
variable Education {
    type discrete [ 3 ] { 1, 2, 3 };
    property weight = None ;
}
variable Fruits {
    type discrete [ 2 ] { 0, 1 };
    property weight = None ;
}
variable GenHlth {
    type discrete [ 3 ] { 1, 2, 3 };
    property weight = None ;
}
variable HeartDiseaseorAttack {
    type discrete [ 2 ] { 0, 1 };
    property weight = None ;
}
variable HighBP {
    type discrete [ 2 ] { 0, 1 };
    property weight = None ;
}
variable HighChol {
    type discrete [ 2 ] { 0, 1 };
    property weight = None ;
}
variable HvyAlcoholConsump {
    type discrete [ 2 ] { 0, 1 };
    property weight = None ;
}
variable Income {
    type discrete [ 4 ] { 1, 2, 3, 4 };
    property weight = None ;
}
variable MentHlth {
    type discrete [ 3 ] { 0, 1, 2 };
    property weight = None ;
}
variable NoDocbcCost {
    type discrete [ 2 ] { 0, 1 };
    property weight = None ;
}
variable PhysActivity {
    type discrete [ 2 ] { 0, 1 };
    property weight = None ;
}
variable PhysHlth {
    type discrete [ 3 ] { 0, 1, 2 };
    property weight = None ;
}
variable Sex {
    type discrete [ 2 ] { 0, 1 };
    property weight = None ;
}
variable Smoker {
    type discrete [ 2 ] { 0, 1 };
    property weight = None ;
}
variable Stroke {
    type discrete [ 2 ] { 0, 1 };
    property weight = None ;
}
variable Veggies {
    type discrete [ 2 ] { 0, 1 };
    property weight = None ;
}
probability ( Age ) {
    table 0.05242037212235888, 0.09833648691264585, 0.14181646168401135, 0.22526805424156418, 0.25795490381583097, 0.22420372122358878 ;
}
probability ( AnyHealthcare | Diabetes_binary ) {
    ( 0 ) 0.05035862485916073, 0.9496413751408392;
    ( 1 ) 0.04023086063486674, 0.9597691393651333;

}
probability ( BMI | Fruits ) {
    ( 0 ) 0.24031600957082191, 0.6917936668750404, 0.06789032355413765;
    ( 1 ) 0.30940720207833533, 0.644364752824771, 0.04622804509689368;

}
probability ( CholCheck | BMI, HvyAlcoholConsump ) {
    ( 0, 0 ) 0.046856801552934146, 0.9531431984470659;
    ( 0, 1 ) 0.06634050880626223, 0.9336594911937378;
    ( 1, 0 ) 0.0326892261287586, 0.9673107738712414;
    ( 1, 1 ) 0.05029789184234647, 0.9497021081576535;
    ( 2, 0 ) 0.025152038441324423, 0.9748479615586756;
    ( 2, 1 ) 0.04066985645933014, 0.9593301435406698;

}
probability ( Diabetes_binary | HeartDiseaseorAttack ) {
    ( 0 ) 0.8804632115829006, 0.11953678841709932;
    ( 1 ) 0.6702799983258695, 0.3297200016741305;

}
probability ( DiffWalk | GenHlth ) {
    ( 1 ) 0.9541013372227142, 0.04589866277728582;
    ( 2 ) 0.7440120877480974, 0.2559879122519027;
    ( 3 ) 0.24997930634881219, 0.7500206936511878;

}
probability ( Education | Sex ) {
    ( 0 ) 0.016080409088988126, 0.2861932466507952, 0.6977263442602166;
    ( 1 ) 0.01731330456734643, 0.28284962311782713, 0.6998370723148264;

}
probability ( Fruits | HighBP ) {
    ( 0 ) 0.34881360846663123, 0.6511863915333688;
    ( 1 ) 0.3882788594951713, 0.6117211405048287;

}
probability ( GenHlth | Age, AnyHealthcare, BMI, HighChol, PhysHlth ) {
    ( 1, 0, 0, 0, 0 ) 0.6900584795321637, 0.30409356725146197, 0.005847953216374269;
    ( 1, 0, 0, 0, 1 ) 0.5555555555555556, 0.3333333333333333, 0.1111111111111111;
    ( 1, 0, 0, 0, 2 ) 0.23076923076923078, 0.46153846153846156, 0.3076923076923077;
    ( 1, 0, 0, 1, 0 ) 0.6944444444444444, 0.3055555555555556, 0.0;
    ( 1, 0, 0, 1, 1 ) 0.3333333333333333, 0.6666666666666666, 0.0;
    ( 1, 0, 0, 1, 2 ) 0.0, 1.0, 0.0;
    ( 1, 0, 1, 0, 0 ) 0.5358851674641149, 0.45614035087719296, 0.007974481658692184;
    ( 1, 0, 1, 0, 1 ) 0.21739130434782608, 0.7391304347826086, 0.043478260869565216;
    ( 1, 0, 1, 0, 2 ) 0.35, 0.35, 0.3;
    ( 1, 0, 1, 1, 0 ) 0.4444444444444444, 0.5353535353535354, 0.020202020202020204;
    ( 1, 0, 1, 1, 1 ) 0.2, 0.4, 0.4;
    ( 1, 0, 1, 1, 2 ) 0.0, 1.0, 0.0;
    ( 1, 0, 2, 0, 0 ) 0.3484848484848485, 0.6363636363636364, 0.015151515151515152;
    ( 1, 0, 2, 0, 1 ) 0.0, 1.0, 0.0;
    ( 1, 0, 2, 0, 2 ) 0.125, 0.5, 0.375;
    ( 1, 0, 2, 1, 0 ) 0.4166666666666667, 0.5833333333333334, 0.0;
    ( 1, 0, 2, 1, 1 ) 0.0, 1.0, 0.0;
    ( 1, 0, 2, 1, 2 ) 0.3333333333333333, 0.3333333333333333, 0.3333333333333333;
    ( 1, 1, 0, 0, 0 ) 0.7898259705488622, 0.20816599732262384, 0.002008032128514056;
    ( 1, 1, 0, 0, 1 ) 0.41044776119402987, 0.5671641791044776, 0.022388059701492536;
    ( 1, 1, 0, 0, 2 ) 0.3, 0.5583333333333333, 0.14166666666666666;
    ( 1, 1, 0, 1, 0 ) 0.7135549872122762, 0.2864450127877238, 0.0;
    ( 1, 1, 0, 1, 1 ) 0.2222222222222222, 0.6666666666666666, 0.1111111111111111;
    ( 1, 1, 0, 1, 2 ) 0.1875, 0.6875, 0.125;
    ( 1, 1, 1, 0, 0 ) 0.6720759944587373, 0.3259449831783099, 0.0019790223629527013;
    ( 1, 1, 1, 0, 1 ) 0.31351351351351353, 0.6594594594594595, 0.02702702702702703;
    ( 1, 1, 1, 0, 2 ) 0.2546583850931677, 0.5900621118012422, 0.15527950310559005;
    ( 1, 1, 1, 1, 0 ) 0.5497159090909091, 0.4446022727272727, 0.005681818181818182;
    ( 1, 1, 1, 1, 1 ) 0.27586206896551724, 0.6551724137931034, 0.06896551724137931;
    ( 1, 1, 1, 1, 2 ) 0.16, 0.52, 0.32;
    ( 1, 1, 2, 0, 0 ) 0.43977591036414565, 0.5574229691876751, 0.0028011204481792717;
    ( 1, 1, 2, 0, 1 ) 0.043478260869565216, 0.8695652173913043, 0.08695652173913043;
    ( 1, 1, 2, 0, 2 ) 0.10810810810810811, 0.6486486486486487, 0.24324324324324326;
    ( 1, 1, 2, 1, 0 ) 0.2127659574468085, 0.7872340425531915, 0.0;
    ( 1, 1, 2, 1, 1 ) 0.0, 0.875, 0.125;
    ( 1, 1, 2, 1, 2 ) 0.05555555555555555, 0.6111111111111112, 0.3333333333333333;
    ( 2, 0, 0, 0, 0 ) 0.6388888888888888, 0.3531746031746032, 0.007936507936507936;
    ( 2, 0, 0, 0, 1 ) 0.47619047619047616, 0.5238095238095238, 0.0;
    ( 2, 0, 0, 0, 2 ) 0.2, 0.43333333333333335, 0.36666666666666664;
    ( 2, 0, 0, 1, 0 ) 0.5223880597014925, 0.4626865671641791, 0.014925373134328358;
    ( 2, 0, 0, 1, 1 ) 0.25, 0.75, 0.0;
    ( 2, 0, 0, 1, 2 ) 0.0, 0.5, 0.5;
    ( 2, 0, 1, 0, 0 ) 0.551829268292683, 0.44410569105691056, 0.0040650406504065045;
    ( 2, 0, 1, 0, 1 ) 0.23076923076923078, 0.6923076923076923, 0.07692307692307693;
    ( 2, 0, 1, 0, 2 ) 0.1206896551724138, 0.603448275862069, 0.27586206896551724;
    ( 2, 0, 1, 1, 0 ) 0.3153526970954357, 0.6556016597510373, 0.029045643153526972;
    ( 2, 0, 1, 1, 1 ) 0.17647058823529413, 0.7647058823529411, 0.058823529411764705;
    ( 2, 0, 1, 1, 2 ) 0.0, 0.7241379310344828, 0.27586206896551724;
    ( 2, 0, 2, 0, 0 ) 0.3826086956521739, 0.6173913043478261, 0.0;
    ( 2, 0, 2, 0, 1 ) 0.0, 1.0, 0.0;
    ( 2, 0, 2, 0, 2 ) 0.0, 0.7333333333333333, 0.26666666666666666;
    ( 2, 0, 2, 1, 0 ) 0.2647058823529412, 0.7058823529411765, 0.029411764705882353;
    ( 2, 0, 2, 1, 1 ) 0.0, 1.0, 0.0;
    ( 2, 0, 2, 1, 2 ) 0.14285714285714285, 0.5714285714285714, 0.2857142857142857;
    ( 2, 1, 0, 0, 0 ) 0.8245192307692307, 0.17462225274725274, 0.0008585164835164835;
    ( 2, 1, 0, 0, 1 ) 0.38349514563106796, 0.587378640776699, 0.02912621359223301;
    ( 2, 1, 0, 0, 2 ) 0.22439024390243903, 0.5024390243902439, 0.2731707317073171;
    ( 2, 1, 0, 1, 0 ) 0.7346153846153847, 0.2602564102564103, 0.005128205128205128;
    ( 2, 1, 0, 1, 1 ) 0.23076923076923078, 0.6666666666666666, 0.10256410256410256;
    ( 2, 1, 0, 1, 2 ) 0.15714285714285714, 0.4857142857142857, 0.35714285714285715;
    ( 2, 1, 1, 0, 0 ) 0.6769907181240841, 0.3214460185637518, 0.0015632633121641427;
    ( 2, 1, 1, 0, 1 ) 0.2572178477690289, 0.7007874015748031, 0.04199475065616798;
    ( 2, 1, 1, 0, 2 ) 0.19724770642201836, 0.5894495412844036, 0.21330275229357798;
    ( 2, 1, 1, 1, 0 ) 0.5476190476190477, 0.447985347985348, 0.004395604395604396;
    ( 2, 1, 1, 1, 1 ) 0.16993464052287582, 0.6928104575163399, 0.13725490196078433;
    ( 2, 1, 1, 1, 2 ) 0.10194174757281553, 0.6067961165048543, 0.2912621359223301;
    ( 2, 1, 2, 0, 0 ) 0.41368078175895767, 0.5754614549402823, 0.010857763300760043;
    ( 2, 1, 2, 0, 1 ) 0.16666666666666666, 0.7051282051282052, 0.1282051282051282;
    ( 2, 1, 2, 0, 2 ) 0.13131313131313133, 0.6262626262626263, 0.24242424242424243;
    ( 2, 1, 2, 1, 0 ) 0.26714801444043323, 0.7256317689530686, 0.007220216606498195;
    ( 2, 1, 2, 1, 1 ) 0.024390243902439025, 0.9024390243902439, 0.07317073170731707;
    ( 2, 1, 2, 1, 2 ) 0.031746031746031744, 0.6666666666666666, 0.30158730158730157;
    ( 3, 0, 0, 0, 0 ) 0.6153846153846154, 0.37965260545905705, 0.004962779156327543;
    ( 3, 0, 0, 0, 1 ) 0.17647058823529413, 0.7058823529411765, 0.11764705882352941;
    ( 3, 0, 0, 0, 2 ) 0.16666666666666666, 0.6, 0.23333333333333334;
    ( 3, 0, 0, 1, 0 ) 0.49473684210526314, 0.49473684210526314, 0.010526315789473684;
    ( 3, 0, 0, 1, 1 ) 0.14285714285714285, 0.5714285714285714, 0.2857142857142857;
    ( 3, 0, 0, 1, 2 ) 0.0, 0.5454545454545454, 0.45454545454545453;
    ( 3, 0, 1, 0, 0 ) 0.5059642147117296, 0.4850894632206759, 0.008946322067594433;
    ( 3, 0, 1, 0, 1 ) 0.16981132075471697, 0.7735849056603774, 0.05660377358490566;
    ( 3, 0, 1, 0, 2 ) 0.1553398058252427, 0.5728155339805825, 0.27184466019417475;
    ( 3, 0, 1, 1, 0 ) 0.3660130718954248, 0.6056644880174292, 0.02832244008714597;
    ( 3, 0, 1, 1, 1 ) 0.08620689655172414, 0.7241379310344828, 0.1896551724137931;
    ( 3, 0, 1, 1, 2 ) 0.03488372093023256, 0.5581395348837209, 0.4069767441860465;
    ( 3, 0, 2, 0, 0 ) 0.26262626262626265, 0.7272727272727273, 0.010101010101010102;
    ( 3, 0, 2, 0, 1 ) 0.07692307692307693, 0.8461538461538461, 0.07692307692307693;
    ( 3, 0, 2, 0, 2 ) 0.05263157894736842, 0.7368421052631579, 0.21052631578947367;
    ( 3, 0, 2, 1, 0 ) 0.29508196721311475, 0.6885245901639344, 0.01639344262295082;
    ( 3, 0, 2, 1, 1 ) 0.14285714285714285, 0.7857142857142857, 0.07142857142857142;
    ( 3, 0, 2, 1, 2 ) 0.0, 0.65, 0.35;
    ( 3, 1, 0, 0, 0 ) 0.8213290303652633, 0.1774974328883673, 0.0011735367463693706;
    ( 3, 1, 0, 0, 1 ) 0.4186991869918699, 0.4959349593495935, 0.08536585365853659;
    ( 3, 1, 0, 0, 2 ) 0.1951219512195122, 0.49390243902439024, 0.31097560975609756;
    ( 3, 1, 0, 1, 0 ) 0.6918408631153068, 0.30209035738368173, 0.006068779501011463;
    ( 3, 1, 0, 1, 1 ) 0.25301204819277107, 0.6626506024096386, 0.08433734939759036;
    ( 3, 1, 0, 1, 2 ) 0.0896551724137931, 0.5103448275862069, 0.4;
    ( 3, 1, 1, 0, 0 ) 0.6691969029907393, 0.3287536055867618, 0.0020494914224988615;
    ( 3, 1, 1, 0, 1 ) 0.2837370242214533, 0.6557093425605537, 0.06055363321799308;
    ( 3, 1, 1, 0, 2 ) 0.16251482799525505, 0.6002372479240806, 0.2372479240806643;
    ( 3, 1, 1, 1, 0 ) 0.5159854976928148, 0.4772577455504285, 0.006756756756756757;
    ( 3, 1, 1, 1, 1 ) 0.15524193548387097, 0.7641129032258065, 0.08064516129032258;
    ( 3, 1, 1, 1, 2 ) 0.08972691807542263, 0.5578673602080624, 0.35240572171651496;
    ( 3, 1, 2, 0, 0 ) 0.37781785392245265, 0.6086564472497745, 0.013525698827772768;
    ( 3, 1, 2, 0, 1 ) 0.08490566037735849, 0.839622641509434, 0.07547169811320754;
    ( 3, 1, 2, 0, 2 ) 0.06593406593406594, 0.6043956043956044, 0.32967032967032966;
    ( 3, 1, 2, 1, 0 ) 0.25, 0.7225806451612903, 0.027419354838709678;
    ( 3, 1, 2, 1, 1 ) 0.07258064516129033, 0.7983870967741935, 0.12903225806451613;
    ( 3, 1, 2, 1, 2 ) 0.029166666666666667, 0.49166666666666664, 0.4791666666666667;
    ( 4, 0, 0, 0, 0 ) 0.6883365200764818, 0.2982791586998088, 0.01338432122370937;
    ( 4, 0, 0, 0, 1 ) 0.1388888888888889, 0.7222222222222222, 0.1388888888888889;
    ( 4, 0, 0, 0, 2 ) 0.12, 0.42, 0.46;
    ( 4, 0, 0, 1, 0 ) 0.39690721649484534, 0.5824742268041238, 0.020618556701030927;
    ( 4, 0, 0, 1, 1 ) 0.22727272727272727, 0.6363636363636364, 0.13636363636363635;
    ( 4, 0, 0, 1, 2 ) 0.07547169811320754, 0.3584905660377358, 0.5660377358490566;
    ( 4, 0, 1, 0, 0 ) 0.5292642140468228, 0.45735785953177255, 0.013377926421404682;
    ( 4, 0, 1, 0, 1 ) 0.14942528735632185, 0.7471264367816092, 0.10344827586206896;
    ( 4, 0, 1, 0, 2 ) 0.0859375, 0.4921875, 0.421875;
    ( 4, 0, 1, 1, 0 ) 0.34375, 0.6154891304347826, 0.04076086956521739;
    ( 4, 0, 1, 1, 1 ) 0.06896551724137931, 0.8045977011494253, 0.12643678160919541;
    ( 4, 0, 1, 1, 2 ) 0.031746031746031744, 0.5185185185185185, 0.4497354497354497;
    ( 4, 0, 2, 0, 0 ) 0.25, 0.725, 0.025;
    ( 4, 0, 2, 0, 1 ) 0.1, 0.9, 0.0;
    ( 4, 0, 2, 0, 2 ) 0.045454545454545456, 0.5909090909090909, 0.36363636363636365;
    ( 4, 0, 2, 1, 0 ) 0.21686746987951808, 0.7349397590361446, 0.04819277108433735;
    ( 4, 0, 2, 1, 1 ) 0.0, 0.7894736842105263, 0.21052631578947367;
    ( 4, 0, 2, 1, 2 ) 0.02631578947368421, 0.47368421052631576, 0.5;
    ( 4, 1, 0, 0, 0 ) 0.7982671818288256, 0.1985715958318698, 0.003161222339304531;
    ( 4, 1, 0, 0, 1 ) 0.2868632707774799, 0.6434316353887399, 0.06970509383378017;
    ( 4, 1, 0, 0, 2 ) 0.1575037147102526, 0.4769687964338782, 0.3655274888558692;
    ( 4, 1, 0, 1, 0 ) 0.6630695443645084, 0.3276378896882494, 0.009292565947242206;
    ( 4, 1, 0, 1, 1 ) 0.17582417582417584, 0.717948717948718, 0.10622710622710622;
    ( 4, 1, 0, 1, 2 ) 0.05850091407678245, 0.5191956124314442, 0.42230347349177333;
    ( 4, 1, 1, 0, 0 ) 0.6581692451945617, 0.33749413970932957, 0.004336615096108767;
    ( 4, 1, 1, 0, 1 ) 0.2505800464037123, 0.6786542923433875, 0.07076566125290024;
    ( 4, 1, 1, 0, 2 ) 0.13008130081300814, 0.5641025641025641, 0.3058161350844278;
    ( 4, 1, 1, 1, 0 ) 0.5188913092466011, 0.4713437992939232, 0.0097648914594757;
    ( 4, 1, 1, 1, 1 ) 0.14795008912655971, 0.7388591800356507, 0.11319073083778966;
    ( 4, 1, 1, 1, 2 ) 0.06760680215678141, 0.53836582330983, 0.39402737453338865;
    ( 4, 1, 2, 0, 0 ) 0.3617920540997464, 0.621301775147929, 0.0169061707523246;
    ( 4, 1, 2, 0, 1 ) 0.10077519379844961, 0.8062015503875969, 0.09302325581395349;
    ( 4, 1, 2, 0, 2 ) 0.05572755417956656, 0.56656346749226, 0.37770897832817335;
    ( 4, 1, 2, 1, 0 ) 0.24352828379674019, 0.7267497603068073, 0.029721955896452542;
    ( 4, 1, 2, 1, 1 ) 0.056074766355140186, 0.7663551401869159, 0.17757009345794392;
    ( 4, 1, 2, 1, 2 ) 0.02555366269165247, 0.48722316865417375, 0.48722316865417375;
    ( 5, 0, 0, 0, 0 ) 0.6538461538461539, 0.3356643356643357, 0.01048951048951049;
    ( 5, 0, 0, 0, 1 ) 0.25, 0.625, 0.125;
    ( 5, 0, 0, 0, 2 ) 0.08823529411764706, 0.5294117647058824, 0.38235294117647056;
    ( 5, 0, 0, 1, 0 ) 0.5126582278481012, 0.45569620253164556, 0.03164556962025317;
    ( 5, 0, 0, 1, 1 ) 0.0, 0.7647058823529411, 0.23529411764705882;
    ( 5, 0, 0, 1, 2 ) 0.05128205128205128, 0.6153846153846154, 0.3333333333333333;
    ( 5, 0, 1, 0, 0 ) 0.49914529914529915, 0.48717948717948717, 0.013675213675213675;
    ( 5, 0, 1, 0, 1 ) 0.23076923076923078, 0.7435897435897436, 0.02564102564102564;
    ( 5, 0, 1, 0, 2 ) 0.058823529411764705, 0.5411764705882353, 0.4;
    ( 5, 0, 1, 1, 0 ) 0.35687732342007433, 0.6171003717472119, 0.026022304832713755;
    ( 5, 0, 1, 1, 1 ) 0.1044776119402985, 0.7014925373134329, 0.19402985074626866;
    ( 5, 0, 1, 1, 2 ) 0.030303030303030304, 0.45454545454545453, 0.5151515151515151;
    ( 5, 0, 2, 0, 0 ) 0.3225806451612903, 0.6774193548387096, 0.0;
    ( 5, 0, 2, 0, 1 ) 0.0, 1.0, 0.0;
    ( 5, 0, 2, 0, 2 ) 0.0, 0.625, 0.375;
    ( 5, 0, 2, 1, 0 ) 0.08333333333333333, 0.8888888888888888, 0.027777777777777776;
    ( 5, 0, 2, 1, 1 ) 0.0, 0.9, 0.1;
    ( 5, 0, 2, 1, 2 ) 0.0, 0.5625, 0.4375;
    ( 5, 1, 0, 0, 0 ) 0.750462791558682, 0.24361347649018883, 0.005923731951129212;
    ( 5, 1, 0, 0, 1 ) 0.31607629427792916, 0.5722070844686649, 0.11171662125340599;
    ( 5, 1, 0, 0, 2 ) 0.15620641562064155, 0.4909344490934449, 0.3528591352859135;
    ( 5, 1, 0, 1, 0 ) 0.6679144385026738, 0.3254901960784314, 0.006595365418894831;
    ( 5, 1, 0, 1, 1 ) 0.24929178470254956, 0.6458923512747875, 0.1048158640226629;
    ( 5, 1, 0, 1, 2 ) 0.10632911392405063, 0.5177215189873418, 0.3759493670886076;
    ( 5, 1, 1, 0, 0 ) 0.6331885742247232, 0.36069484372132854, 0.006116582053948254;
    ( 5, 1, 1, 0, 1 ) 0.24372384937238495, 0.6903765690376569, 0.06589958158995816;
    ( 5, 1, 1, 0, 2 ) 0.11657559198542805, 0.5901639344262295, 0.29326047358834245;
    ( 5, 1, 1, 1, 0 ) 0.5121316724198309, 0.47691230176597127, 0.01095602581419781;
    ( 5, 1, 1, 1, 1 ) 0.1657848324514991, 0.7389770723104057, 0.09523809523809523;
    ( 5, 1, 1, 1, 2 ) 0.07791807822605482, 0.5583615645210964, 0.3637203572528488;
    ( 5, 1, 2, 0, 0 ) 0.33204633204633205, 0.6496138996138996, 0.01833976833976834;
    ( 5, 1, 2, 0, 1 ) 0.11678832116788321, 0.7299270072992701, 0.15328467153284672;
    ( 5, 1, 2, 0, 2 ) 0.05714285714285714, 0.580952380952381, 0.3619047619047619;
    ( 5, 1, 2, 1, 0 ) 0.23192019950124687, 0.7373233582709892, 0.030756442227763924;
    ( 5, 1, 2, 1, 1 ) 0.06, 0.812, 0.128;
    ( 5, 1, 2, 1, 2 ) 0.03298611111111111, 0.5416666666666666, 0.4253472222222222;
    ( 6, 0, 0, 0, 0 ) 0.5531914893617021, 0.425531914893617, 0.02127659574468085;
    ( 6, 0, 0, 0, 1 ) 0.5, 0.5, 0.0;
    ( 6, 0, 0, 0, 2 ) 0.16666666666666666, 0.6666666666666666, 0.16666666666666666;
    ( 6, 0, 0, 1, 0 ) 0.38181818181818183, 0.6, 0.01818181818181818;
    ( 6, 0, 0, 1, 1 ) 0.25, 0.5, 0.25;
    ( 6, 0, 0, 1, 2 ) 0.125, 0.5625, 0.3125;
    ( 6, 0, 1, 0, 0 ) 0.5118110236220472, 0.47244094488188976, 0.015748031496062992;
    ( 6, 0, 1, 0, 1 ) 0.2222222222222222, 0.7777777777777778, 0.0;
    ( 6, 0, 1, 0, 2 ) 0.19047619047619047, 0.42857142857142855, 0.38095238095238093;
    ( 6, 0, 1, 1, 0 ) 0.38461538461538464, 0.5944055944055944, 0.02097902097902098;
    ( 6, 0, 1, 1, 1 ) 0.25, 0.7, 0.05;
    ( 6, 0, 1, 1, 2 ) 0.05555555555555555, 0.4444444444444444, 0.5;
    ( 6, 0, 2, 0, 0 ) 0.0, 1.0, 0.0;
    ( 6, 0, 2, 0, 1 ) 0.3333333333333333, 0.3333333333333333, 0.3333333333333333;
    ( 6, 0, 2, 0, 2 ) 0.3333333333333333, 0.3333333333333333, 0.3333333333333333;
    ( 6, 0, 2, 1, 0 ) 0.2, 0.8, 0.0;
    ( 6, 0, 2, 1, 1 ) 0.0, 0.5, 0.5;
    ( 6, 0, 2, 1, 2 ) 0.0, 0.16666666666666666, 0.8333333333333334;
    ( 6, 1, 0, 0, 0 ) 0.6269779507133593, 0.36329442282749674, 0.009727626459143969;
    ( 6, 1, 0, 0, 1 ) 0.2564102564102564, 0.6517094017094017, 0.09188034188034189;
    ( 6, 1, 0, 0, 2 ) 0.11594202898550725, 0.5183946488294314, 0.3656633221850613;
    ( 6, 1, 0, 1, 0 ) 0.5357142857142857, 0.44970845481049565, 0.014577259475218658;
    ( 6, 1, 0, 1, 1 ) 0.19014084507042253, 0.6883802816901409, 0.12147887323943662;
    ( 6, 1, 0, 1, 2 ) 0.10142348754448399, 0.5169039145907474, 0.3816725978647687;
    ( 6, 1, 1, 0, 0 ) 0.5490977267400984, 0.44254355128505585, 0.008358721974845716;
    ( 6, 1, 1, 0, 1 ) 0.22199798183652875, 0.6881937436932392, 0.08980827447023208;
    ( 6, 1, 1, 0, 2 ) 0.1247750449910018, 0.5662867426514697, 0.3089382123575285;
    ( 6, 1, 1, 1, 0 ) 0.4600093001627528, 0.5260404557079749, 0.013950244129272262;
    ( 6, 1, 1, 1, 1 ) 0.15952080706179067, 0.7269861286254728, 0.11349306431273644;
    ( 6, 1, 1, 1, 2 ) 0.07816169070781617, 0.5598792351559879, 0.3619590741361959;
    ( 6, 1, 2, 0, 0 ) 0.3171355498721228, 0.6547314578005116, 0.028132992327365727;
    ( 6, 1, 2, 0, 1 ) 0.12280701754385964, 0.7894736842105263, 0.08771929824561403;
    ( 6, 1, 2, 0, 2 ) 0.09166666666666666, 0.5166666666666667, 0.39166666666666666;
    ( 6, 1, 2, 1, 0 ) 0.22982456140350876, 0.743859649122807, 0.02631578947368421;
    ( 6, 1, 2, 1, 1 ) 0.043010752688172046, 0.8172043010752689, 0.13978494623655913;
    ( 6, 1, 2, 1, 2 ) 0.05106382978723404, 0.5702127659574469, 0.37872340425531914;

}
probability ( HeartDiseaseorAttack | HighBP, HighChol ) {
    ( 0, 0 ) 0.9717817896389325, 0.028218210361067503;
    ( 0, 1 ) 0.9280473317649252, 0.07195266823507489;
    ( 1, 0 ) 0.9034617039099822, 0.09653829609001789;
    ( 1, 1 ) 0.7886792452830189, 0.21132075471698114;

}
probability ( HighBP ) {
    table 0.5709988962472407, 0.4290011037527594 ;
}
probability ( HighChol ) {
    table 0.5758790602333649, 0.4241209397666351 ;
}
probability ( HvyAlcoholConsump ) {
    table 0.9438032166508987, 0.05619678334910123 ;
}
probability ( Income | BMI, Sex ) {
    ( 0, 0 ) 0.08000759365507931, 0.13558893013837328, 0.22821042861964225, 0.5561930475869051;
    ( 0, 1 ) 0.07551070038910505, 0.12722924773022048, 0.23686770428015563, 0.5603923476005188;
    ( 1, 0 ) 0.10624182395813866, 0.17431321248364792, 0.26885161652027656, 0.45059334703793685;
    ( 1, 1 ) 0.05560081218767858, 0.10846596228433864, 0.23132758641652584, 0.6046056391114569;
    ( 2, 0 ) 0.19251396648044694, 0.2204469273743017, 0.2665921787709497, 0.3204469273743017;
    ( 2, 1 ) 0.11405890954668894, 0.15542093168999374, 0.2632128681846668, 0.4673072905786505;

}
probability ( MentHlth | CholCheck, Income ) {
    ( 0, 1 ) 0.7192008879023307, 0.09100998890122086, 0.1897891231964484;
    ( 0, 2 ) 0.7934111187371311, 0.07687028140013727, 0.12971859986273165;
    ( 0, 3 ) 0.8748461222814936, 0.05949938448912597, 0.06565449322938038;
    ( 0, 4 ) 0.9122994652406418, 0.04299465240641711, 0.04470588235294118;
    ( 1, 1 ) 0.707727250761127, 0.09892234088822308, 0.19335040835064998;
    ( 1, 2 ) 0.8080006922011999, 0.07640170742962621, 0.11559760036917398;
    ( 1, 3 ) 0.8796648641431337, 0.05554442886708058, 0.0647907069897857;
    ( 1, 4 ) 0.9208401523319036, 0.04045637521426521, 0.03870347245383118;

}
probability ( NoDocbcCost | Veggies ) {
    ( 0 ) 0.8972595581011309, 0.10274044189886912;
    ( 1 ) 0.9201373875952799, 0.07986261240472015;

}
probability ( PhysActivity | NoDocbcCost, Stroke ) {
    ( 0, 0 ) 0.2297792142678079, 0.7702207857321921;
    ( 0, 1 ) 0.376761350928204, 0.623238649071796;
    ( 1, 0 ) 0.3219356128774245, 0.6780643871225754;
    ( 1, 1 ) 0.46074074074074073, 0.5392592592592592;

}
probability ( PhysHlth | Fruits ) {
    ( 0 ) 0.8227457912095019, 0.06060442758293635, 0.11664978120756181;
    ( 1 ) 0.8538515084090542, 0.053220052455592984, 0.09292843913535283;

}
probability ( Sex | Diabetes_binary ) {
    ( 0 ) 0.5659356765322854, 0.4340643234677146;
    ( 1 ) 0.5208793074180954, 0.4791206925819046;

}
probability ( Smoker | NoDocbcCost, Stroke ) {
    ( 0, 0 ) 0.5702109372202128, 0.4297890627797873;
    ( 0, 1 ) 0.41411317378662493, 0.5858868262133751;
    ( 1, 0 ) 0.48345330933813235, 0.5165466906618676;
    ( 1, 1 ) 0.37555555555555553, 0.6244444444444445;

}
probability ( Stroke | AnyHealthcare, HvyAlcoholConsump, Income ) {
    ( 0, 0, 1 ) 0.9340463458110517, 0.0659536541889483;
    ( 0, 0, 2 ) 0.9672521583804704, 0.03274784161952962;
    ( 0, 0, 3 ) 0.972972972972973, 0.02702702702702703;
    ( 0, 0, 4 ) 0.9854502556036178, 0.014549744396382226;
    ( 0, 1, 1 ) 0.9635036496350365, 0.0364963503649635;
    ( 0, 1, 2 ) 0.9473684210526315, 0.05263157894736842;
    ( 0, 1, 3 ) 0.9917355371900827, 0.008264462809917356;
    ( 0, 1, 4 ) 0.987603305785124, 0.012396694214876033;
    ( 1, 0, 1 ) 0.8991772866591385, 0.10082271334086143;
    ( 1, 0, 2 ) 0.9227258218959464, 0.07727417810405363;
    ( 1, 0, 3 ) 0.952824610753767, 0.047175389246232956;
    ( 1, 0, 4 ) 0.9787709771738864, 0.021229022826113664;
    ( 1, 1, 1 ) 0.9253246753246753, 0.07467532467532467;
    ( 1, 1, 2 ) 0.9545085296506904, 0.045491470349309504;
    ( 1, 1, 3 ) 0.960098004900245, 0.039901995099754985;
    ( 1, 1, 4 ) 0.9832607200183444, 0.016739279981655582;

}
probability ( Veggies | Fruits, HighBP ) {
    ( 0, 0 ) 0.29846019870957524, 0.7015398012904247;
    ( 0, 1 ) 0.3448741007194245, 0.6551258992805755;
    ( 1, 0 ) 0.09782136231115823, 0.9021786376888418;
    ( 1, 1 ) 0.13457407657759152, 0.8654259234224085;

}
